<?xml version="1.0"?>
<opencv_storage>
<opencv_ml_boost>
  <format>3</format>
  <is_classifier>1</is_classifier>
  <var_all>1025</var_all>
  <var_count>1024</var_count>
  <ord_var_count>1024</ord_var_count>
  <cat_var_count>1</cat_var_count>
  <training_params>
    <boosting_type>RealAdaboost</boosting_type>
    <use_surrogates>0</use_surrogates>
    <max_categories>10</max_categories>
    <regression_accuracy>9.9999997764825821e-003</regression_accuracy>
    <max_depth>1</max_depth>
    <min_sample_count>10</min_sample_count>
    <cross_validation_folds>0</cross_validation_folds>
    <weight_trimming_rate>0.</weight_trimming_rate></training_params>
  <global_var_idx>1</global_var_idx>
  <var_idx>
    0 1 2 3 4 5 6 7 8 9 10 11 12 13 14 15 16 17 18 19 20 21 22 23 24 25
    26 27 28 29 30 31 32 33 34 35 36 37 38 39 40 41 42 43 44 45 46 47 48
    49 50 51 52 53 54 55 56 57 58 59 60 61 62 63 64 65 66 67 68 69 70 71
    72 73 74 75 76 77 78 79 80 81 82 83 84 85 86 87 88 89 90 91 92 93 94
    95 96 97 98 99 100 101 102 103 104 105 106 107 108 109 110 111 112
    113 114 115 116 117 118 119 120 121 122 123 124 125 126 127 128 129
    130 131 132 133 134 135 136 137 138 139 140 141 142 143 144 145 146
    147 148 149 150 151 152 153 154 155 156 157 158 159 160 161 162 163
    164 165 166 167 168 169 170 171 172 173 174 175 176 177 178 179 180
    181 182 183 184 185 186 187 188 189 190 191 192 193 194 195 196 197
    198 199 200 201 202 203 204 205 206 207 208 209 210 211 212 213 214
    215 216 217 218 219 220 221 222 223 224 225 226 227 228 229 230 231
    232 233 234 235 236 237 238 239 240 241 242 243 244 245 246 247 248
    249 250 251 252 253 254 255 256 257 258 259 260 261 262 263 264 265
    266 267 268 269 270 271 272 273 274 275 276 277 278 279 280 281 282
    283 284 285 286 287 288 289 290 291 292 293 294 295 296 297 298 299
    300 301 302 303 304 305 306 307 308 309 310 311 312 313 314 315 316
    317 318 319 320 321 322 323 324 325 326 327 328 329 330 331 332 333
    334 335 336 337 338 339 340 341 342 343 344 345 346 347 348 349 350
    351 352 353 354 355 356 357 358 359 360 361 362 363 364 365 366 367
    368 369 370 371 372 373 374 375 376 377 378 379 380 381 382 383 384
    385 386 387 388 389 390 391 392 393 394 395 396 397 398 399 400 401
    402 403 404 405 406 407 408 409 410 411 412 413 414 415 416 417 418
    419 420 421 422 423 424 425 426 427 428 429 430 431 432 433 434 435
    436 437 438 439 440 441 442 443 444 445 446 447 448 449 450 451 452
    453 454 455 456 457 458 459 460 461 462 463 464 465 466 467 468 469
    470 471 472 473 474 475 476 477 478 479 480 481 482 483 484 485 486
    487 488 489 490 491 492 493 494 495 496 497 498 499 500 501 502 503
    504 505 506 507 508 509 510 511 512 513 514 515 516 517 518 519 520
    521 522 523 524 525 526 527 528 529 530 531 532 533 534 535 536 537
    538 539 540 541 542 543 544 545 546 547 548 549 550 551 552 553 554
    555 556 557 558 559 560 561 562 563 564 565 566 567 568 569 570 571
    572 573 574 575 576 577 578 579 580 581 582 583 584 585 586 587 588
    589 590 591 592 593 594 595 596 597 598 599 600 601 602 603 604 605
    606 607 608 609 610 611 612 613 614 615 616 617 618 619 620 621 622
    623 624 625 626 627 628 629 630 631 632 633 634 635 636 637 638 639
    640 641 642 643 644 645 646 647 648 649 650 651 652 653 654 655 656
    657 658 659 660 661 662 663 664 665 666 667 668 669 670 671 672 673
    674 675 676 677 678 679 680 681 682 683 684 685 686 687 688 689 690
    691 692 693 694 695 696 697 698 699 700 701 702 703 704 705 706 707
    708 709 710 711 712 713 714 715 716 717 718 719 720 721 722 723 724
    725 726 727 728 729 730 731 732 733 734 735 736 737 738 739 740 741
    742 743 744 745 746 747 748 749 750 751 752 753 754 755 756 757 758
    759 760 761 762 763 764 765 766 767 768 769 770 771 772 773 774 775
    776 777 778 779 780 781 782 783 784 785 786 787 788 789 790 791 792
    793 794 795 796 797 798 799 800 801 802 803 804 805 806 807 808 809
    810 811 812 813 814 815 816 817 818 819 820 821 822 823 824 825 826
    827 828 829 830 831 832 833 834 835 836 837 838 839 840 841 842 843
    844 845 846 847 848 849 850 851 852 853 854 855 856 857 858 859 860
    861 862 863 864 865 866 867 868 869 870 871 872 873 874 875 876 877
    878 879 880 881 882 883 884 885 886 887 888 889 890 891 892 893 894
    895 896 897 898 899 900 901 902 903 904 905 906 907 908 909 910 911
    912 913 914 915 916 917 918 919 920 921 922 923 924 925 926 927 928
    929 930 931 932 933 934 935 936 937 938 939 940 941 942 943 944 945
    946 947 948 949 950 951 952 953 954 955 956 957 958 959 960 961 962
    963 964 965 966 967 968 969 970 971 972 973 974 975 976 977 978 979
    980 981 982 983 984 985 986 987 988 989 990 991 992 993 994 995 996
    997 998 999 1000 1001 1002 1003 1004 1005 1006 1007 1008 1009 1010
    1011 1012 1013 1014 1015 1016 1017 1018 1019 1020 1021 1022 1023</var_idx>
  <var_type>
    0 0 0 0 0 0 0 0 0 0 0 0 0 0 0 0 0 0 0 0 0 0 0 0 0 0 0 0 0 0 0 0 0 0
    0 0 0 0 0 0 0 0 0 0 0 0 0 0 0 0 0 0 0 0 0 0 0 0 0 0 0 0 0 0 0 0 0 0
    0 0 0 0 0 0 0 0 0 0 0 0 0 0 0 0 0 0 0 0 0 0 0 0 0 0 0 0 0 0 0 0 0 0
    0 0 0 0 0 0 0 0 0 0 0 0 0 0 0 0 0 0 0 0 0 0 0 0 0 0 0 0 0 0 0 0 0 0
    0 0 0 0 0 0 0 0 0 0 0 0 0 0 0 0 0 0 0 0 0 0 0 0 0 0 0 0 0 0 0 0 0 0
    0 0 0 0 0 0 0 0 0 0 0 0 0 0 0 0 0 0 0 0 0 0 0 0 0 0 0 0 0 0 0 0 0 0
    0 0 0 0 0 0 0 0 0 0 0 0 0 0 0 0 0 0 0 0 0 0 0 0 0 0 0 0 0 0 0 0 0 0
    0 0 0 0 0 0 0 0 0 0 0 0 0 0 0 0 0 0 0 0 0 0 0 0 0 0 0 0 0 0 0 0 0 0
    0 0 0 0 0 0 0 0 0 0 0 0 0 0 0 0 0 0 0 0 0 0 0 0 0 0 0 0 0 0 0 0 0 0
    0 0 0 0 0 0 0 0 0 0 0 0 0 0 0 0 0 0 0 0 0 0 0 0 0 0 0 0 0 0 0 0 0 0
    0 0 0 0 0 0 0 0 0 0 0 0 0 0 0 0 0 0 0 0 0 0 0 0 0 0 0 0 0 0 0 0 0 0
    0 0 0 0 0 0 0 0 0 0 0 0 0 0 0 0 0 0 0 0 0 0 0 0 0 0 0 0 0 0 0 0 0 0
    0 0 0 0 0 0 0 0 0 0 0 0 0 0 0 0 0 0 0 0 0 0 0 0 0 0 0 0 0 0 0 0 0 0
    0 0 0 0 0 0 0 0 0 0 0 0 0 0 0 0 0 0 0 0 0 0 0 0 0 0 0 0 0 0 0 0 0 0
    0 0 0 0 0 0 0 0 0 0 0 0 0 0 0 0 0 0 0 0 0 0 0 0 0 0 0 0 0 0 0 0 0 0
    0 0 0 0 0 0 0 0 0 0 0 0 0 0 0 0 0 0 0 0 0 0 0 0 0 0 0 0 0 0 0 0 0 0
    0 0 0 0 0 0 0 0 0 0 0 0 0 0 0 0 0 0 0 0 0 0 0 0 0 0 0 0 0 0 0 0 0 0
    0 0 0 0 0 0 0 0 0 0 0 0 0 0 0 0 0 0 0 0 0 0 0 0 0 0 0 0 0 0 0 0 0 0
    0 0 0 0 0 0 0 0 0 0 0 0 0 0 0 0 0 0 0 0 0 0 0 0 0 0 0 0 0 0 0 0 0 0
    0 0 0 0 0 0 0 0 0 0 0 0 0 0 0 0 0 0 0 0 0 0 0 0 0 0 0 0 0 0 0 0 0 0
    0 0 0 0 0 0 0 0 0 0 0 0 0 0 0 0 0 0 0 0 0 0 0 0 0 0 0 0 0 0 0 0 0 0
    0 0 0 0 0 0 0 0 0 0 0 0 0 0 0 0 0 0 0 0 0 0 0 0 0 0 0 0 0 0 0 0 0 0
    0 0 0 0 0 0 0 0 0 0 0 0 0 0 0 0 0 0 0 0 0 0 0 0 0 0 0 0 0 0 0 0 0 0
    0 0 0 0 0 0 0 0 0 0 0 0 0 0 0 0 0 0 0 0 0 0 0 0 0 0 0 0 0 0 0 0 0 0
    0 0 0 0 0 0 0 0 0 0 0 0 0 0 0 0 0 0 0 0 0 0 0 0 0 0 0 0 0 0 0 0 0 0
    0 0 0 0 0 0 0 0 0 0 0 0 0 0 0 0 0 0 0 0 0 0 0 0 0 0 0 0 0 0 0 0 0 0
    0 0 0 0 0 0 0 0 0 0 0 0 0 0 0 0 0 0 0 0 0 0 0 0 0 0 0 0 0 0 0 0 0 0
    0 0 0 0 0 0 0 0 0 0 0 0 0 0 0 0 0 0 0 0 0 0 0 0 0 0 0 0 0 0 0 0 0 0
    0 0 0 0 0 0 0 0 0 0 0 0 0 0 0 0 0 0 0 0 0 0 0 0 0 0 0 0 0 0 0 0 0 0
    0 0 0 0 0 0 0 0 0 0 0 0 0 0 0 0 0 0 0 0 0 0 0 0 0 0 0 0 0 0 0 0 0 0
    0 0 0 0 1</var_type>
  <cat_ofs>
    0 0 0 0 0 0 0 0 0 0 0 0 0 0 0 0 0 0 0 0 0 0 0 0 0 0 0 0 0 0 0 0 0 0
    0 0 0 0 0 0 0 0 0 0 0 0 0 0 0 0 0 0 0 0 0 0 0 0 0 0 0 0 0 0 0 0 0 0
    0 0 0 0 0 0 0 0 0 0 0 0 0 0 0 0 0 0 0 0 0 0 0 0 0 0 0 0 0 0 0 0 0 0
    0 0 0 0 0 0 0 0 0 0 0 0 0 0 0 0 0 0 0 0 0 0 0 0 0 0 0 0 0 0 0 0 0 0
    0 0 0 0 0 0 0 0 0 0 0 0 0 0 0 0 0 0 0 0 0 0 0 0 0 0 0 0 0 0 0 0 0 0
    0 0 0 0 0 0 0 0 0 0 0 0 0 0 0 0 0 0 0 0 0 0 0 0 0 0 0 0 0 0 0 0 0 0
    0 0 0 0 0 0 0 0 0 0 0 0 0 0 0 0 0 0 0 0 0 0 0 0 0 0 0 0 0 0 0 0 0 0
    0 0 0 0 0 0 0 0 0 0 0 0 0 0 0 0 0 0 0 0 0 0 0 0 0 0 0 0 0 0 0 0 0 0
    0 0 0 0 0 0 0 0 0 0 0 0 0 0 0 0 0 0 0 0 0 0 0 0 0 0 0 0 0 0 0 0 0 0
    0 0 0 0 0 0 0 0 0 0 0 0 0 0 0 0 0 0 0 0 0 0 0 0 0 0 0 0 0 0 0 0 0 0
    0 0 0 0 0 0 0 0 0 0 0 0 0 0 0 0 0 0 0 0 0 0 0 0 0 0 0 0 0 0 0 0 0 0
    0 0 0 0 0 0 0 0 0 0 0 0 0 0 0 0 0 0 0 0 0 0 0 0 0 0 0 0 0 0 0 0 0 0
    0 0 0 0 0 0 0 0 0 0 0 0 0 0 0 0 0 0 0 0 0 0 0 0 0 0 0 0 0 0 0 0 0 0
    0 0 0 0 0 0 0 0 0 0 0 0 0 0 0 0 0 0 0 0 0 0 0 0 0 0 0 0 0 0 0 0 0 0
    0 0 0 0 0 0 0 0 0 0 0 0 0 0 0 0 0 0 0 0 0 0 0 0 0 0 0 0 0 0 0 0 0 0
    0 0 0 0 0 0 0 0 0 0 0 0 0 0 0 0 0 0 0 0 0 0 0 0 0 0 0 0 0 0 0 0 0 0
    0 0 0 0 0 0 0 0 0 0 0 0 0 0 0 0 0 0 0 0 0 0 0 0 0 0 0 0 0 0 0 0 0 0
    0 0 0 0 0 0 0 0 0 0 0 0 0 0 0 0 0 0 0 0 0 0 0 0 0 0 0 0 0 0 0 0 0 0
    0 0 0 0 0 0 0 0 0 0 0 0 0 0 0 0 0 0 0 0 0 0 0 0 0 0 0 0 0 0 0 0 0 0
    0 0 0 0 0 0 0 0 0 0 0 0 0 0 0 0 0 0 0 0 0 0 0 0 0 0 0 0 0 0 0 0 0 0
    0 0 0 0 0 0 0 0 0 0 0 0 0 0 0 0 0 0 0 0 0 0 0 0 0 0 0 0 0 0 0 0 0 0
    0 0 0 0 0 0 0 0 0 0 0 0 0 0 0 0 0 0 0 0 0 0 0 0 0 0 0 0 0 0 0 0 0 0
    0 0 0 0 0 0 0 0 0 0 0 0 0 0 0 0 0 0 0 0 0 0 0 0 0 0 0 0 0 0 0 0 0 0
    0 0 0 0 0 0 0 0 0 0 0 0 0 0 0 0 0 0 0 0 0 0 0 0 0 0 0 0 0 0 0 0 0 0
    0 0 0 0 0 0 0 0 0 0 0 0 0 0 0 0 0 0 0 0 0 0 0 0 0 0 0 0 0 0 0 0 0 0
    0 0 0 0 0 0 0 0 0 0 0 0 0 0 0 0 0 0 0 0 0 0 0 0 0 0 0 0 0 0 0 0 0 0
    0 0 0 0 0 0 0 0 0 0 0 0 0 0 0 0 0 0 0 0 0 0 0 0 0 0 0 0 0 0 0 0 0 0
    0 0 0 0 0 0 0 0 0 0 0 0 0 0 0 0 0 0 0 0 0 0 0 0 0 0 0 0 0 0 0 0 0 0
    0 0 0 0 0 0 0 0 0 0 0 0 0 0 0 0 0 0 0 0 0 0 0 0 0 0 0 0 0 0 0 0 0 0
    0 0 0 0 0 0 0 0 0 0 0 0 0 0 0 0 0 0 0 0 0 0 0 0 0 0 0 0 0 0 0 0 0 0
    0 0 0 0 0 0 0 0 0 0 0 0 0 0 0 0 0 0 0 0 0 0 0 0 0 0 0 0 0 0 0 0 0 0
    0 0 0 0 0 0 0 0 0 0 0 0 0 0 0 0 0 0 0 0 0 0 0 0 0 0 0 0 0 0 0 0 0 0
    0 0 0 0 0 0 0 0 0 0 0 0 0 0 0 0 0 0 0 0 0 0 0 0 0 0 0 0 0 0 0 0 0 0
    0 0 0 0 0 0 0 0 0 0 0 0 0 0 0 0 0 0 0 0 0 0 0 0 0 0 0 0 0 0 0 0 0 0
    0 0 0 0 0 0 0 0 0 0 0 0 0 0 0 0 0 0 0 0 0 0 0 0 0 0 0 0 0 0 0 0 0 0
    0 0 0 0 0 0 0 0 0 0 0 0 0 0 0 0 0 0 0 0 0 0 0 0 0 0 0 0 0 0 0 0 0 0
    0 0 0 0 0 0 0 0 0 0 0 0 0 0 0 0 0 0 0 0 0 0 0 0 0 0 0 0 0 0 0 0 0 0
    0 0 0 0 0 0 0 0 0 0 0 0 0 0 0 0 0 0 0 0 0 0 0 0 0 0 0 0 0 0 0 0 0 0
    0 0 0 0 0 0 0 0 0 0 0 0 0 0 0 0 0 0 0 0 0 0 0 0 0 0 0 0 0 0 0 0 0 0
    0 0 0 0 0 0 0 0 0 0 0 0 0 0 0 0 0 0 0 0 0 0 0 0 0 0 0 0 0 0 0 0 0 0
    0 0 0 0 0 0 0 0 0 0 0 0 0 0 0 0 0 0 0 0 0 0 0 0 0 0 0 0 0 0 0 0 0 0
    0 0 0 0 0 0 0 0 0 0 0 0 0 0 0 0 0 0 0 0 0 0 0 0 0 0 0 0 0 0 0 0 0 0
    0 0 0 0 0 0 0 0 0 0 0 0 0 0 0 0 0 0 0 0 0 0 0 0 0 0 0 0 0 0 0 0 0 0
    0 0 0 0 0 0 0 0 0 0 0 0 0 0 0 0 0 0 0 0 0 0 0 0 0 0 0 0 0 0 0 0 0 0
    0 0 0 0 0 0 0 0 0 0 0 0 0 0 0 0 0 0 0 0 0 0 0 0 0 0 0 0 0 0 0 0 0 0
    0 0 0 0 0 0 0 0 0 0 0 0 0 0 0 0 0 0 0 0 0 0 0 0 0 0 0 0 0 0 0 0 0 0
    0 0 0 0 0 0 0 0 0 0 0 0 0 0 0 0 0 0 0 0 0 0 0 0 0 0 0 0 0 0 0 0 0 0
    0 0 0 0 0 0 0 0 0 0 0 0 0 0 0 0 0 0 0 0 0 0 0 0 0 0 0 0 0 0 0 0 0 0
    0 0 0 0 0 0 0 0 0 0 0 0 0 0 0 0 0 0 0 0 0 0 0 0 0 0 0 0 0 0 0 0 0 0
    0 0 0 0 0 0 0 0 0 0 0 0 0 0 0 0 0 0 0 0 0 0 0 0 0 0 0 0 0 0 0 0 0 0
    0 0 0 0 0 0 0 0 0 0 0 0 0 0 0 0 0 0 0 0 0 0 0 0 0 0 0 0 0 0 0 0 0 0
    0 0 0 0 0 0 0 0 0 0 0 0 0 0 0 0 0 0 0 0 0 0 0 0 0 0 0 0 0 0 0 0 0 0
    0 0 0 0 0 0 0 0 0 0 0 0 0 0 0 0 0 0 0 0 0 0 0 0 0 0 0 0 0 0 0 0 0 0
    0 0 0 0 0 0 0 0 0 0 0 0 0 0 0 0 0 0 0 0 0 0 0 0 0 0 0 0 0 0 0 0 0 0
    0 0 0 0 0 0 0 0 0 0 0 0 0 0 0 0 0 0 0 0 0 0 0 0 0 0 0 0 0 0 0 0 0 0
    0 0 0 0 0 0 0 0 0 0 0 0 0 0 0 0 0 0 0 0 0 0 0 0 0 0 0 0 0 0 0 0 0 0
    0 0 0 0 0 0 0 0 0 0 0 0 0 0 0 0 0 0 0 0 0 0 0 0 0 0 0 0 0 0 0 0 0 0
    0 0 0 0 0 0 0 0 0 0 0 0 0 0 0 0 0 0 0 0 0 0 0 0 0 0 0 0 0 0 0 0 0 0
    0 0 0 0 0 0 0 0 0 0 0 0 0 0 0 0 0 0 0 0 0 0 0 0 0 0 0 0 0 0 0 0 0 0
    0 0 0 0 0 0 0 0 0 0 0 0 0 0 0 0 0 0 0 0 0 0 0 0 0 0 0 0 0 0 0 0 0 0
    0 0 0 0 0 0 0 0</cat_ofs>
  <class_labels>
    -1 1</class_labels>
  <missing_subst>
    0. 0. 0. 0. 0. 0. 0. 0. 0. 0. 0. 0. 0. 0. 0. 0. 0. 0. 0. 0. 0. 0. 0.
    0. 0. 0. 0. 0. 0. 0. 0. 0. 0. 0. 0. 0. 0. 0. 0. 0. 0. 0. 0. 0. 0. 0.
    0. 0. 0. 0. 0. 0. 0. 0. 0. 0. 0. 0. 0. 0. 0. 0. 0. 0. 0. 0. 0. 0. 0.
    0. 0. 0. 0. 0. 0. 0. 0. 0. 0. 0. 0. 0. 0. 0. 0. 0. 0. 0. 0. 0. 0. 0.
    0. 0. 0. 0. 0. 0. 0. 0. 0. 0. 0. 0. 0. 0. 0. 0. 0. 0. 0. 0. 0. 0. 0.
    0. 0. 0. 0. 0. 0. 0. 0. 0. 0. 0. 0. 0. 0. 0. 0. 0. 0. 0. 0. 0. 0. 0.
    0. 0. 0. 0. 0. 0. 0. 0. 0. 0. 0. 0. 0. 0. 0. 0. 0. 0. 0. 0. 0. 0. 0.
    0. 0. 0. 0. 0. 0. 0. 0. 0. 0. 0. 0. 0. 0. 0. 0. 0. 0. 0. 0. 0. 0. 0.
    0. 0. 0. 0. 0. 0. 0. 0. 0. 0. 0. 0. 0. 0. 0. 0. 0. 0. 0. 0. 0. 0. 0.
    0. 0. 0. 0. 0. 0. 0. 0. 0. 0. 0. 0. 0. 0. 0. 0. 0. 0. 0. 0. 0. 0. 0.
    0. 0. 0. 0. 0. 0. 0. 0. 0. 0. 0. 0. 0. 0. 0. 0. 0. 0. 0. 0. 0. 0. 0.
    0. 0. 0. 0. 0. 0. 0. 0. 0. 0. 0. 0. 0. 0. 0. 0. 0. 0. 0. 0. 0. 0. 0.
    0. 0. 0. 0. 0. 0. 0. 0. 0. 0. 0. 0. 0. 0. 0. 0. 0. 0. 0. 0. 0. 0. 0.
    0. 0. 0. 0. 0. 0. 0. 0. 0. 0. 0. 0. 0. 0. 0. 0. 0. 0. 0. 0. 0. 0. 0.
    0. 0. 0. 0. 0. 0. 0. 0. 0. 0. 0. 0. 0. 0. 0. 0. 0. 0. 0. 0. 0. 0. 0.
    0. 0. 0. 0. 0. 0. 0. 0. 0. 0. 0. 0. 0. 0. 0. 0. 0. 0. 0. 0. 0. 0. 0.
    0. 0. 0. 0. 0. 0. 0. 0. 0. 0. 0. 0. 0. 0. 0. 0. 0. 0. 0. 0. 0. 0. 0.
    0. 0. 0. 0. 0. 0. 0. 0. 0. 0. 0. 0. 0. 0. 0. 0. 0. 0. 0. 0. 0. 0. 0.
    0. 0. 0. 0. 0. 0. 0. 0. 0. 0. 0. 0. 0. 0. 0. 0. 0. 0. 0. 0. 0. 0. 0.
    0. 0. 0. 0. 0. 0. 0. 0. 0. 0. 0. 0. 0. 0. 0. 0. 0. 0. 0. 0. 0. 0. 0.
    0. 0. 0. 0. 0. 0. 0. 0. 0. 0. 0. 0. 0. 0. 0. 0. 0. 0. 0. 0. 0. 0. 0.
    0. 0. 0. 0. 0. 0. 0. 0. 0. 0. 0. 0. 0. 0. 0. 0. 0. 0. 0. 0. 0. 0. 0.
    0. 0. 0. 0. 0. 0. 0. 0. 0. 0. 0. 0. 0. 0. 0. 0. 0. 0. 0. 0. 0. 0. 0.
    0. 0. 0. 0. 0. 0. 0. 0. 0. 0. 0. 0. 0. 0. 0. 0. 0. 0. 0. 0. 0. 0. 0.
    0. 0. 0. 0. 0. 0. 0. 0. 0. 0. 0. 0. 0. 0. 0. 0. 0. 0. 0. 0. 0. 0. 0.
    0. 0. 0. 0. 0. 0. 0. 0. 0. 0. 0. 0. 0. 0. 0. 0. 0. 0. 0. 0. 0. 0. 0.
    0. 0. 0. 0. 0. 0. 0. 0. 0. 0. 0. 0. 0. 0. 0. 0. 0. 0. 0. 0. 0. 0. 0.
    0. 0. 0. 0. 0. 0. 0. 0. 0. 0. 0. 0. 0. 0. 0. 0. 0. 0. 0. 0. 0. 0. 0.
    0. 0. 0. 0. 0. 0. 0. 0. 0. 0. 0. 0. 0. 0. 0. 0. 0. 0. 0. 0. 0. 0. 0.
    0. 0. 0. 0. 0. 0. 0. 0. 0. 0. 0. 0. 0. 0. 0. 0. 0. 0. 0. 0. 0. 0. 0.
    0. 0. 0. 0. 0. 0. 0. 0. 0. 0. 0. 0. 0. 0. 0. 0. 0. 0. 0. 0. 0. 0. 0.
    0. 0. 0. 0. 0. 0. 0. 0. 0. 0. 0. 0. 0. 0. 0. 0. 0. 0. 0. 0. 0. 0. 0.
    0. 0. 0. 0. 0. 0. 0. 0. 0. 0. 0. 0. 0. 0. 0. 0. 0. 0. 0. 0. 0. 0. 0.
    0. 0. 0. 0. 0. 0. 0. 0. 0. 0. 0. 0. 0. 0. 0. 0. 0. 0. 0. 0. 0. 0. 0.
    0. 0. 0. 0. 0. 0. 0. 0. 0. 0. 0. 0. 0. 0. 0. 0. 0. 0. 0. 0. 0. 0. 0.
    0. 0. 0. 0. 0. 0. 0. 0. 0. 0. 0. 0. 0. 0. 0. 0. 0. 0. 0. 0. 0. 0. 0.
    0. 0. 0. 0. 0. 0. 0. 0. 0. 0. 0. 0. 0. 0. 0. 0. 0. 0. 0. 0. 0. 0. 0.
    0. 0. 0. 0. 0. 0. 0. 0. 0. 0. 0. 0. 0. 0. 0. 0. 0. 0. 0. 0. 0. 0. 0.
    0. 0. 0. 0. 0. 0. 0. 0. 0. 0. 0. 0. 0. 0. 0. 0. 0. 0. 0. 0. 0. 0. 0.
    0. 0. 0. 0. 0. 0. 0. 0. 0. 0. 0. 0. 0. 0. 0. 0. 0. 0. 0. 0. 0. 0. 0.
    0. 0. 0. 0. 0. 0. 0. 0. 0. 0. 0. 0. 0. 0. 0. 0. 0. 0. 0. 0. 0. 0. 0.
    0. 0. 0. 0. 0. 0. 0. 0. 0. 0. 0. 0. 0. 0. 0. 0. 0. 0. 0. 0. 0. 0. 0.
    0. 0. 0. 0. 0. 0. 0. 0. 0. 0. 0. 0. 0. 0. 0. 0. 0. 0. 0. 0. 0. 0. 0.
    0. 0. 0. 0. 0. 0. 0. 0. 0. 0. 0. 0. 0. 0. 0. 0. 0. 0. 0. 0. 0. 0. 0.
    0. 0. 0. 0. 0. 0. 0. 0. 0. 0. 0. 0. 0.</missing_subst>
  <ntrees>100</ntrees>
  <trees>
    <_>
      <nodes>
        <_>
          <depth>0</depth>
          <value>-7.3850742534147017e-003</value>
          <splits>
            <_><var>504</var>
              <quality>1.2780140340328217e-001</quality>
              <le>3.5000000000000000e+000</le></_></splits></_>
        <_>
          <depth>1</depth>
          <value>-3.2718865822863236e-001</value></_>
        <_>
          <depth>1</depth>
          <value>4.3148449181184306e-001</value></_></nodes></_>
    <_>
      <nodes>
        <_>
          <depth>0</depth>
          <value>7.7144144920950719e-009</value>
          <splits>
            <_><var>574</var>
              <quality>9.8339468240737915e-002</quality>
              <le>4.5000000000000000e+000</le></_></splits></_>
        <_>
          <depth>1</depth>
          <value>-2.3091030566614448e-001</value></_>
        <_>
          <depth>1</depth>
          <value>4.6409980247481991e-001</value></_></nodes></_>
    <_>
      <nodes>
        <_>
          <depth>0</depth>
          <value>-4.4163162035779086e-010</value>
          <splits>
            <_><var>399</var>
              <quality>5.5927820503711700e-002</quality>
              <le>6.5000000000000000e+000</le></_></splits></_>
        <_>
          <depth>1</depth>
          <value>-1.5425778187429695e-001</value></_>
        <_>
          <depth>1</depth>
          <value>3.8314082235004115e-001</value></_></nodes></_>
    <_>
      <nodes>
        <_>
          <depth>0</depth>
          <value>2.5096102910539392e-009</value>
          <splits>
            <_><var>526</var>
              <quality>3.3822774887084961e-002</quality>
              <le>1.5000000000000000e+000</le></_></splits></_>
        <_>
          <depth>1</depth>
          <value>-1.7614813064838805e-001</value></_>
        <_>
          <depth>1</depth>
          <value>1.9648517088228432e-001</value></_></nodes></_>
    <_>
      <nodes>
        <_>
          <depth>0</depth>
          <value>-2.2960058351764996e-009</value>
          <splits>
            <_><var>739</var>
              <quality>3.4608963876962662e-002</quality>
              <le>5.5000000000000000e+000</le></_></splits></_>
        <_>
          <depth>1</depth>
          <value>-1.2623678118246212e-001</value></_>
        <_>
          <depth>1</depth>
          <value>2.8292910830080858e-001</value></_></nodes></_>
    <_>
      <nodes>
        <_>
          <depth>0</depth>
          <value>-4.1276386923371506e-009</value>
          <splits>
            <_><var>655</var>
              <quality>3.2820850610733032e-002</quality>
              <le>3.5000000000000000e+000</le></_></splits></_>
        <_>
          <depth>1</depth>
          <value>-1.4241703133325440e-001</value></_>
        <_>
          <depth>1</depth>
          <value>2.3631481236684548e-001</value></_></nodes></_>
    <_>
      <nodes>
        <_>
          <depth>0</depth>
          <value>-3.9518113937501987e-009</value>
          <splits>
            <_><var>753</var>
              <quality>2.9956532642245293e-002</quality>
              <le>2.5000000000000000e+000</le></_></splits></_>
        <_>
          <depth>1</depth>
          <value>-1.3203701502845763e-001</value></_>
        <_>
          <depth>1</depth>
          <value>2.3228631791403082e-001</value></_></nodes></_>
    <_>
      <nodes>
        <_>
          <depth>0</depth>
          <value>-1.2460522074136941e-009</value>
          <splits>
            <_><var>24</var>
              <quality>2.5303216651082039e-002</quality>
              <le>1.5000000000000000e+000</le></_></splits></_>
        <_>
          <depth>1</depth>
          <value>-8.1831808309185156e-002</value></_>
        <_>
          <depth>1</depth>
          <value>3.2043472330030315e-001</value></_></nodes></_>
    <_>
      <nodes>
        <_>
          <depth>0</depth>
          <value>-1.5198141102074228e-009</value>
          <splits>
            <_><var>705</var>
              <quality>2.4972058832645416e-002</quality>
              <le>1.2500000000000000e+001</le></_></splits></_>
        <_>
          <depth>1</depth>
          <value>-5.7301269268694832e-002</value></_>
        <_>
          <depth>1</depth>
          <value>4.6762674850685765e-001</value></_></nodes></_>
    <_>
      <nodes>
        <_>
          <depth>0</depth>
          <value>-1.3585945720235084e-009</value>
          <splits>
            <_><var>256</var>
              <quality>1.9513666629791260e-002</quality>
              <le>3.2500000000000000e+001</le></_></splits></_>
        <_>
          <depth>1</depth>
          <value>3.3038795744890229e-002</value></_>
        <_>
          <depth>1</depth>
          <value>-6.7896131795107961e-001</value></_></nodes></_>
    <_>
      <nodes>
        <_>
          <depth>0</depth>
          <value>1.5238248417631554e-009</value>
          <splits>
            <_><var>270</var>
              <quality>2.1141542121767998e-002</quality>
              <le>5.5000000000000000e+000</le></_></splits></_>
        <_>
          <depth>1</depth>
          <value>3.5310883814253215e-002</value></_>
        <_>
          <depth>1</depth>
          <value>-6.9154684542357159e-001</value></_></nodes></_>
    <_>
      <nodes>
        <_>
          <depth>0</depth>
          <value>1.2440009007420610e-009</value>
          <splits>
            <_><var>909</var>
              <quality>2.0838713273406029e-002</quality>
              <le>5.0000000000000000e-001</le></_></splits></_>
        <_>
          <depth>1</depth>
          <value>8.1274650408380805e-002</value></_>
        <_>
          <depth>1</depth>
          <value>-2.6285395111774629e-001</value></_></nodes></_>
    <_>
      <nodes>
        <_>
          <depth>0</depth>
          <value>-6.4657174101040491e-010</value>
          <splits>
            <_><var>504</var>
              <quality>1.9004710018634796e-002</quality>
              <le>3.5000000000000000e+000</le></_></splits></_>
        <_>
          <depth>1</depth>
          <value>1.1892579630518563e-001</value></_>
        <_>
          <depth>1</depth>
          <value>-1.6195712388790076e-001</value></_></nodes></_>
    <_>
      <nodes>
        <_>
          <depth>0</depth>
          <value>3.2923552664560524e-009</value>
          <splits>
            <_><var>112</var>
              <quality>2.3590328171849251e-002</quality>
              <le>9.5000000000000000e+000</le></_></splits></_>
        <_>
          <depth>1</depth>
          <value>-5.5934329918339645e-002</value></_>
        <_>
          <depth>1</depth>
          <value>4.5035426317991828e-001</value></_></nodes></_>
    <_>
      <nodes>
        <_>
          <depth>0</depth>
          <value>4.0821634944554873e-010</value>
          <splits>
            <_><var>824</var>
              <quality>1.8573854118585587e-002</quality>
              <le>5.5000000000000000e+000</le></_></splits></_>
        <_>
          <depth>1</depth>
          <value>3.5280276964560993e-002</value></_>
        <_>
          <depth>1</depth>
          <value>-5.8554516173033377e-001</value></_></nodes></_>
    <_>
      <nodes>
        <_>
          <depth>0</depth>
          <value>1.9320534024178274e-009</value>
          <splits>
            <_><var>994</var>
              <quality>1.9933434203267097e-002</quality>
              <le>5.0000000000000000e-001</le></_></splits></_>
        <_>
          <depth>1</depth>
          <value>8.8680987336011860e-002</value></_>
        <_>
          <depth>1</depth>
          <value>-2.2930187355835549e-001</value></_></nodes></_>
    <_>
      <nodes>
        <_>
          <depth>0</depth>
          <value>-2.9774707232923314e-009</value>
          <splits>
            <_><var>897</var>
              <quality>1.6080284491181374e-002</quality>
              <le>2.5000000000000000e+000</le></_></splits></_>
        <_>
          <depth>1</depth>
          <value>-3.9105895910713215e-002</value></_>
        <_>
          <depth>1</depth>
          <value>4.3730502005680072e-001</value></_></nodes></_>
    <_>
      <nodes>
        <_>
          <depth>0</depth>
          <value>-1.0524071070134888e-009</value>
          <splits>
            <_><var>199</var>
              <quality>1.6238549724221230e-002</quality>
              <le>1.5000000000000000e+000</le></_></splits></_>
        <_>
          <depth>1</depth>
          <value>-1.4090910622561834e-001</value></_>
        <_>
          <depth>1</depth>
          <value>1.1652759723727096e-001</value></_></nodes></_>
    <_>
      <nodes>
        <_>
          <depth>0</depth>
          <value>1.1195127035080964e-009</value>
          <splits>
            <_><var>131</var>
              <quality>1.5095624141395092e-002</quality>
              <le>4.5000000000000000e+000</le></_></splits></_>
        <_>
          <depth>1</depth>
          <value>3.9740878411950467e-002</value></_>
        <_>
          <depth>1</depth>
          <value>-4.0011954306041714e-001</value></_></nodes></_>
    <_>
      <nodes>
        <_>
          <depth>0</depth>
          <value>-6.1566302094352401e-010</value>
          <splits>
            <_><var>221</var>
              <quality>1.4773364178836346e-002</quality>
              <le>5.0000000000000000e-001</le></_></splits></_>
        <_>
          <depth>1</depth>
          <value>3.9117184997154185e-002</value></_>
        <_>
          <depth>1</depth>
          <value>-3.9756319927305200e-001</value></_></nodes></_>
    <_>
      <nodes>
        <_>
          <depth>0</depth>
          <value>4.5778492087227151e-010</value>
          <splits>
            <_><var>518</var>
              <quality>1.3051914982497692e-002</quality>
              <le>1.5000000000000000e+000</le></_></splits></_>
        <_>
          <depth>1</depth>
          <value>-5.7054736533521680e-002</value></_>
        <_>
          <depth>1</depth>
          <value>2.3314385112405944e-001</value></_></nodes></_>
    <_>
      <nodes>
        <_>
          <depth>0</depth>
          <value>-6.6175642787152347e-010</value>
          <splits>
            <_><var>807</var>
              <quality>1.2636313214898109e-002</quality>
              <le>5.0000000000000000e-001</le></_></splits></_>
        <_>
          <depth>1</depth>
          <value>5.8014711390465594e-002</value></_>
        <_>
          <depth>1</depth>
          <value>-2.2161470659028501e-001</value></_></nodes></_>
    <_>
      <nodes>
        <_>
          <depth>0</depth>
          <value>-2.0882593475855903e-009</value>
          <splits>
            <_><var>1016</var>
              <quality>1.1515138670802116e-002</quality>
              <le>1.4500000000000000e+001</le></_></splits></_>
        <_>
          <depth>1</depth>
          <value>-2.7206968371283540e-002</value></_>
        <_>
          <depth>1</depth>
          <value>4.5176251010171009e-001</value></_></nodes></_>
    <_>
      <nodes>
        <_>
          <depth>0</depth>
          <value>8.3441209427812480e-010</value>
          <splits>
            <_><var>540</var>
              <quality>1.2265113182365894e-002</quality>
              <le>7.5000000000000000e+000</le></_></splits></_>
        <_>
          <depth>1</depth>
          <value>-5.2966262815501639e-002</value></_>
        <_>
          <depth>1</depth>
          <value>2.3607090097468808e-001</value></_></nodes></_>
    <_>
      <nodes>
        <_>
          <depth>0</depth>
          <value>2.3682433786196545e-010</value>
          <splits>
            <_><var>376</var>
              <quality>1.2632818892598152e-002</quality>
              <le>6.5000000000000000e+000</le></_></splits></_>
        <_>
          <depth>1</depth>
          <value>3.9113486674778014e-002</value></_>
        <_>
          <depth>1</depth>
          <value>-3.3515293865549134e-001</value></_></nodes></_>
    <_>
      <nodes>
        <_>
          <depth>0</depth>
          <value>-2.7326315174280006e-009</value>
          <splits>
            <_><var>558</var>
              <quality>1.3180973939597607e-002</quality>
              <le>5.0000000000000000e-001</le></_></splits></_>
        <_>
          <depth>1</depth>
          <value>7.4051684642466961e-002</value></_>
        <_>
          <depth>1</depth>
          <value>-1.8024922417686454e-001</value></_></nodes></_>
    <_>
      <nodes>
        <_>
          <depth>0</depth>
          <value>7.1956307527280364e-010</value>
          <splits>
            <_><var>479</var>
              <quality>1.1759549379348755e-002</quality>
              <le>5.0000000000000000e-001</le></_></splits></_>
        <_>
          <depth>1</depth>
          <value>2.6943592073225421e-002</value></_>
        <_>
          <depth>1</depth>
          <value>-4.6796834416912420e-001</value></_></nodes></_>
    <_>
      <nodes>
        <_>
          <depth>0</depth>
          <value>-2.3931395759689312e-010</value>
          <splits>
            <_><var>487</var>
              <quality>1.1675611138343811e-002</quality>
              <le>2.5000000000000000e+000</le></_></splits></_>
        <_>
          <depth>1</depth>
          <value>-2.5184329766992603e-002</value></_>
        <_>
          <depth>1</depth>
          <value>5.0201988907678607e-001</value></_></nodes></_>
    <_>
      <nodes>
        <_>
          <depth>0</depth>
          <value>1.5551315788255492e-010</value>
          <splits>
            <_><var>780</var>
              <quality>1.0595205239951611e-002</quality>
              <le>2.5000000000000000e+000</le></_></splits></_>
        <_>
          <depth>1</depth>
          <value>-2.4213860787742392e-002</value></_>
        <_>
          <depth>1</depth>
          <value>4.6932441434424443e-001</value></_></nodes></_>
    <_>
      <nodes>
        <_>
          <depth>0</depth>
          <value>1.0520242443891311e-009</value>
          <splits>
            <_><var>892</var>
              <quality>1.0703726671636105e-002</quality>
              <le>1.5000000000000000e+000</le></_></splits></_>
        <_>
          <depth>1</depth>
          <value>-1.0433821772354403e-001</value></_>
        <_>
          <depth>1</depth>
          <value>1.0332496389679785e-001</value></_></nodes></_>
    <_>
      <nodes>
        <_>
          <depth>0</depth>
          <value>1.3808765223305310e-009</value>
          <splits>
            <_><var>15</var>
              <quality>9.9981110543012619e-003</quality>
              <le>3.5000000000000000e+000</le></_></splits></_>
        <_>
          <depth>1</depth>
          <value>5.6175644350520665e-002</value></_>
        <_>
          <depth>1</depth>
          <value>-1.8008858347505050e-001</value></_></nodes></_>
    <_>
      <nodes>
        <_>
          <depth>0</depth>
          <value>-1.7369994917056070e-009</value>
          <splits>
            <_><var>92</var>
              <quality>1.0755268856883049e-002</quality>
              <le>5.0000000000000000e-001</le></_></splits></_>
        <_>
          <depth>1</depth>
          <value>5.8247468074863598e-002</value></_>
        <_>
          <depth>1</depth>
          <value>-1.8700650191355064e-001</value></_></nodes></_>
    <_>
      <nodes>
        <_>
          <depth>0</depth>
          <value>-6.4714283973501097e-010</value>
          <splits>
            <_><var>143</var>
              <quality>9.5191439613699913e-003</quality>
              <le>1.4500000000000000e+001</le></_></splits></_>
        <_>
          <depth>1</depth>
          <value>-2.2531379360746041e-002</value></_>
        <_>
          <depth>1</depth>
          <value>4.5079875766684430e-001</value></_></nodes></_>
    <_>
      <nodes>
        <_>
          <depth>0</depth>
          <value>2.6464830326499320e-011</value>
          <splits>
            <_><var>391</var>
              <quality>8.6532272398471832e-003</quality>
              <le>9.5000000000000000e+000</le></_></splits></_>
        <_>
          <depth>1</depth>
          <value>2.3292191854804353e-002</value></_>
        <_>
          <depth>1</depth>
          <value>-3.9024892813262169e-001</value></_></nodes></_>
    <_>
      <nodes>
        <_>
          <depth>0</depth>
          <value>2.9900215627817591e-010</value>
          <splits>
            <_><var>477</var>
              <quality>9.5385489985346794e-003</quality>
              <le>5.0000000000000000e-001</le></_></splits></_>
        <_>
          <depth>1</depth>
          <value>3.0259736909841475e-002</value></_>
        <_>
          <depth>1</depth>
          <value>-3.2644037190468073e-001</value></_></nodes></_>
    <_>
      <nodes>
        <_>
          <depth>0</depth>
          <value>-1.4150440839117498e-009</value>
          <splits>
            <_><var>736</var>
              <quality>8.4180422127246857e-003</quality>
              <le>7.5000000000000000e+000</le></_></splits></_>
        <_>
          <depth>1</depth>
          <value>1.6494794383973634e-002</value></_>
        <_>
          <depth>1</depth>
          <value>-5.6325919735229613e-001</value></_></nodes></_>
    <_>
      <nodes>
        <_>
          <depth>0</depth>
          <value>1.9993606766188136e-010</value>
          <splits>
            <_><var>826</var>
              <quality>8.2908496260643005e-003</quality>
              <le>5.0000000000000000e-001</le></_></splits></_>
        <_>
          <depth>1</depth>
          <value>5.1622132449695574e-002</value></_>
        <_>
          <depth>1</depth>
          <value>-1.6215560094893433e-001</value></_></nodes></_>
    <_>
      <nodes>
        <_>
          <depth>0</depth>
          <value>-1.5640141983778026e-009</value>
          <splits>
            <_><var>765</var>
              <quality>8.0969193950295448e-003</quality>
              <le>5.0000000000000000e-001</le></_></splits></_>
        <_>
          <depth>1</depth>
          <value>2.0895618073842714e-002</value></_>
        <_>
          <depth>1</depth>
          <value>-4.0891378935120676e-001</value></_></nodes></_>
    <_>
      <nodes>
        <_>
          <depth>0</depth>
          <value>-7.4366685087549562e-010</value>
          <splits>
            <_><var>1011</var>
              <quality>7.9930201172828674e-003</quality>
              <le>3.5000000000000000e+000</le></_></splits></_>
        <_>
          <depth>1</depth>
          <value>-1.4331642124413235e-002</value></_>
        <_>
          <depth>1</depth>
          <value>6.2957077428882002e-001</value></_></nodes></_>
    <_>
      <nodes>
        <_>
          <depth>0</depth>
          <value>2.4037216655776462e-010</value>
          <splits>
            <_><var>830</var>
              <quality>7.8525673598051071e-003</quality>
              <le>1.5500000000000000e+001</le></_></splits></_>
        <_>
          <depth>1</depth>
          <value>-1.9252881135963480e-002</value></_>
        <_>
          <depth>1</depth>
          <value>4.3310741335342429e-001</value></_></nodes></_>
    <_>
      <nodes>
        <_>
          <depth>0</depth>
          <value>5.6844218189073092e-010</value>
          <splits>
            <_><var>285</var>
              <quality>7.3873195797204971e-003</quality>
              <le>5.0000000000000000e-001</le></_></splits></_>
        <_>
          <depth>1</depth>
          <value>5.5701170776784430e-002</value></_>
        <_>
          <depth>1</depth>
          <value>-1.3354961701680074e-001</value></_></nodes></_>
    <_>
      <nodes>
        <_>
          <depth>0</depth>
          <value>9.1250562653244495e-011</value>
          <splits>
            <_><var>382</var>
              <quality>7.1388543583452702e-003</quality>
              <le>3.5000000000000000e+000</le></_></splits></_>
        <_>
          <depth>1</depth>
          <value>-1.3047772128011207e-002</value></_>
        <_>
          <depth>1</depth>
          <value>6.1432310112007504e-001</value></_></nodes></_>
    <_>
      <nodes>
        <_>
          <depth>0</depth>
          <value>7.4660699788999682e-010</value>
          <splits>
            <_><var>899</var>
              <quality>6.4917709678411484e-003</quality>
              <le>1.5000000000000000e+000</le></_></splits></_>
        <_>
          <depth>1</depth>
          <value>-7.4830314631494477e-002</value></_>
        <_>
          <depth>1</depth>
          <value>8.7134945627378987e-002</value></_></nodes></_>
    <_>
      <nodes>
        <_>
          <depth>0</depth>
          <value>2.2252981630051830e-009</value>
          <splits>
            <_><var>240</var>
              <quality>6.1794677749276161e-003</quality>
              <le>6.5000000000000000e+000</le></_></splits></_>
        <_>
          <depth>1</depth>
          <value>2.5519619720622791e-002</value></_>
        <_>
          <depth>1</depth>
          <value>-2.4710813827965192e-001</value></_></nodes></_>
    <_>
      <nodes>
        <_>
          <depth>0</depth>
          <value>-1.4376633237907790e-009</value>
          <splits>
            <_><var>901</var>
              <quality>6.3277645967900753e-003</quality>
              <le>5.0000000000000000e-001</le></_></splits></_>
        <_>
          <depth>1</depth>
          <value>3.8838222352516473e-002</value></_>
        <_>
          <depth>1</depth>
          <value>-1.6447538597150277e-001</value></_></nodes></_>
    <_>
      <nodes>
        <_>
          <depth>0</depth>
          <value>-1.0940430240392583e-009</value>
          <splits>
            <_><var>438</var>
              <quality>5.9689269401133060e-003</quality>
              <le>5.0000000000000000e-001</le></_></splits></_>
        <_>
          <depth>1</depth>
          <value>-2.2313244236404475e-002</value></_>
        <_>
          <depth>1</depth>
          <value>2.7422349257022377e-001</value></_></nodes></_>
    <_>
      <nodes>
        <_>
          <depth>0</depth>
          <value>-6.5818101012715001e-010</value>
          <splits>
            <_><var>728</var>
              <quality>5.9627601876854897e-003</quality>
              <le>5.0000000000000000e-001</le></_></splits></_>
        <_>
          <depth>1</depth>
          <value>3.9691616080380271e-002</value></_>
        <_>
          <depth>1</depth>
          <value>-1.5145357130090281e-001</value></_></nodes></_>
    <_>
      <nodes>
        <_>
          <depth>0</depth>
          <value>-1.8351009604159762e-010</value>
          <splits>
            <_><var>624</var>
              <quality>6.0234018601477146e-003</quality>
              <le>2.5000000000000000e+000</le></_></splits></_>
        <_>
          <depth>1</depth>
          <value>-8.3910976376943919e-002</value></_>
        <_>
          <depth>1</depth>
          <value>7.2076191268412804e-002</value></_></nodes></_>
    <_>
      <nodes>
        <_>
          <depth>0</depth>
          <value>-9.8813457426233068e-011</value>
          <splits>
            <_><var>632</var>
              <quality>7.4527133256196976e-003</quality>
              <le>2.5000000000000000e+000</le></_></splits></_>
        <_>
          <depth>1</depth>
          <value>6.0556727814687634e-002</value></_>
        <_>
          <depth>1</depth>
          <value>-1.2384971880033703e-001</value></_></nodes></_>
    <_>
      <nodes>
        <_>
          <depth>0</depth>
          <value>-7.2889638774482000e-011</value>
          <splits>
            <_><var>1009</var>
              <quality>6.1822729185223579e-003</quality>
              <le>5.5000000000000000e+000</le></_></splits></_>
        <_>
          <depth>1</depth>
          <value>-1.7428399932093941e-002</value></_>
        <_>
          <depth>1</depth>
          <value>3.7087862310241376e-001</value></_></nodes></_>
    <_>
      <nodes>
        <_>
          <depth>0</depth>
          <value>-5.4306603687952587e-010</value>
          <splits>
            <_><var>961</var>
              <quality>6.0410411097109318e-003</quality>
              <le>6.5000000000000000e+000</le></_></splits></_>
        <_>
          <depth>1</depth>
          <value>-3.7484778149327276e-002</value></_>
        <_>
          <depth>1</depth>
          <value>1.6265473932458199e-001</value></_></nodes></_>
    <_>
      <nodes>
        <_>
          <depth>0</depth>
          <value>8.5666784703672931e-010</value>
          <splits>
            <_><var>574</var>
              <quality>5.8231377042829990e-003</quality>
              <le>4.5000000000000000e+000</le></_></splits></_>
        <_>
          <depth>1</depth>
          <value>5.4464525669045326e-002</value></_>
        <_>
          <depth>1</depth>
          <value>-1.0743327992997700e-001</value></_></nodes></_>
    <_>
      <nodes>
        <_>
          <depth>0</depth>
          <value>1.0684741978929884e-010</value>
          <splits>
            <_><var>540</var>
              <quality>6.7985630594193935e-003</quality>
              <le>2.5000000000000000e+000</le></_></splits></_>
        <_>
          <depth>1</depth>
          <value>-7.7526945044642151e-002</value></_>
        <_>
          <depth>1</depth>
          <value>8.8095721340402319e-002</value></_></nodes></_>
    <_>
      <nodes>
        <_>
          <depth>0</depth>
          <value>-3.1927356416234159e-009</value>
          <splits>
            <_><var>753</var>
              <quality>5.7655060663819313e-003</quality>
              <le>5.0000000000000000e-001</le></_></splits></_>
        <_>
          <depth>1</depth>
          <value>-1.2940793879430124e-001</value></_>
        <_>
          <depth>1</depth>
          <value>4.4831387081296518e-002</value></_></nodes></_>
    <_>
      <nodes>
        <_>
          <depth>0</depth>
          <value>4.4030135074078122e-010</value>
          <splits>
            <_><var>911</var>
              <quality>5.8370055630803108e-003</quality>
              <le>4.5000000000000000e+000</le></_></splits></_>
        <_>
          <depth>1</depth>
          <value>-5.3963848692308108e-002</value></_>
        <_>
          <depth>1</depth>
          <value>1.0869614979631755e-001</value></_></nodes></_>
    <_>
      <nodes>
        <_>
          <depth>0</depth>
          <value>-1.6317147635722851e-010</value>
          <splits>
            <_><var>918</var>
              <quality>6.2382561154663563e-003</quality>
              <le>5.0000000000000000e-001</le></_></splits></_>
        <_>
          <depth>1</depth>
          <value>-2.6881426120445653e-002</value></_>
        <_>
          <depth>1</depth>
          <value>2.3643069409289383e-001</value></_></nodes></_>
    <_>
      <nodes>
        <_>
          <depth>0</depth>
          <value>8.5209528249532158e-010</value>
          <splits>
            <_><var>768</var>
              <quality>6.0509000904858112e-003</quality>
              <le>4.8500000000000000e+001</le></_></splits></_>
        <_>
          <depth>1</depth>
          <value>-1.4348606179542289e-002</value></_>
        <_>
          <depth>1</depth>
          <value>4.4980096174186773e-001</value></_></nodes></_>
    <_>
      <nodes>
        <_>
          <depth>0</depth>
          <value>1.9513590739450845e-010</value>
          <splits>
            <_><var>223</var>
              <quality>6.8515264429152012e-003</quality>
              <le>5.0000000000000000e-001</le></_></splits></_>
        <_>
          <depth>1</depth>
          <value>2.2229479066105229e-002</value></_>
        <_>
          <depth>1</depth>
          <value>-3.1863129379566346e-001</value></_></nodes></_>
    <_>
      <nodes>
        <_>
          <depth>0</depth>
          <value>-6.7826105888886871e-010</value>
          <splits>
            <_><var>504</var>
              <quality>5.4107573814690113e-003</quality>
              <le>3.5000000000000000e+000</le></_></splits></_>
        <_>
          <depth>1</depth>
          <value>6.3655091653500445e-002</value></_>
        <_>
          <depth>1</depth>
          <value>-8.5322391636746320e-002</value></_></nodes></_>
    <_>
      <nodes>
        <_>
          <depth>0</depth>
          <value>4.7231951660793550e-010</value>
          <splits>
            <_><var>248</var>
              <quality>5.6705055758357048e-003</quality>
              <le>1.5000000000000000e+000</le></_></splits></_>
        <_>
          <depth>1</depth>
          <value>-9.0266735518314475e-002</value></_>
        <_>
          <depth>1</depth>
          <value>6.3073470808765075e-002</value></_></nodes></_>
    <_>
      <nodes>
        <_>
          <depth>0</depth>
          <value>-6.9920563832187773e-010</value>
          <splits>
            <_><var>743</var>
              <quality>5.5003501474857330e-003</quality>
              <le>3.5000000000000000e+000</le></_></splits></_>
        <_>
          <depth>1</depth>
          <value>-1.2397888381376362e-002</value></_>
        <_>
          <depth>1</depth>
          <value>4.7679720209389698e-001</value></_></nodes></_>
    <_>
      <nodes>
        <_>
          <depth>0</depth>
          <value>-4.3245906857430389e-011</value>
          <splits>
            <_><var>935</var>
              <quality>5.3030839189887047e-003</quality>
              <le>1.5000000000000000e+000</le></_></splits></_>
        <_>
          <depth>1</depth>
          <value>1.1774189777719057e-002</value></_>
        <_>
          <depth>1</depth>
          <value>-4.8522690029497201e-001</value></_></nodes></_>
    <_>
      <nodes>
        <_>
          <depth>0</depth>
          <value>-1.3416601163565172e-011</value>
          <splits>
            <_><var>24</var>
              <quality>5.0315377302467823e-003</quality>
              <le>1.5000000000000000e+000</le></_></splits></_>
        <_>
          <depth>1</depth>
          <value>3.5578814720942396e-002</value></_>
        <_>
          <depth>1</depth>
          <value>-1.4243461997985804e-001</value></_></nodes></_>
    <_>
      <nodes>
        <_>
          <depth>0</depth>
          <value>2.4177131349556333e-009</value>
          <splits>
            <_><var>771</var>
              <quality>5.3574885241687298e-003</quality>
              <le>5.0000000000000000e-001</le></_></splits></_>
        <_>
          <depth>1</depth>
          <value>-6.1348413706017541e-002</value></_>
        <_>
          <depth>1</depth>
          <value>8.7662274789966452e-002</value></_></nodes></_>
    <_>
      <nodes>
        <_>
          <depth>0</depth>
          <value>1.8978041357038303e-010</value>
          <splits>
            <_><var>830</var>
              <quality>5.1281456835567951e-003</quality>
              <le>4.5000000000000000e+000</le></_></splits></_>
        <_>
          <depth>1</depth>
          <value>-4.8052849503748572e-002</value></_>
        <_>
          <depth>1</depth>
          <value>1.0720987401766409e-001</value></_></nodes></_>
    <_>
      <nodes>
        <_>
          <depth>0</depth>
          <value>4.4170866944555478e-010</value>
          <splits>
            <_><var>284</var>
              <quality>5.5985753424465656e-003</quality>
              <le>3.5000000000000000e+000</le></_></splits></_>
        <_>
          <depth>1</depth>
          <value>5.9130021518949590e-002</value></_>
        <_>
          <depth>1</depth>
          <value>-9.5078235391490712e-002</value></_></nodes></_>
    <_>
      <nodes>
        <_>
          <depth>0</depth>
          <value>1.4180665510607270e-009</value>
          <splits>
            <_><var>447</var>
              <quality>5.6501398794353008e-003</quality>
              <le>4.5000000000000000e+000</le></_></splits></_>
        <_>
          <depth>1</depth>
          <value>1.2243147136091639e-002</value></_>
        <_>
          <depth>1</depth>
          <value>-4.9923740528578225e-001</value></_></nodes></_>
    <_>
      <nodes>
        <_>
          <depth>0</depth>
          <value>4.2139003380021695e-010</value>
          <splits>
            <_><var>260</var>
              <quality>5.5375555530190468e-003</quality>
              <le>5.0000000000000000e-001</le></_></splits></_>
        <_>
          <depth>1</depth>
          <value>-3.2955156944466900e-002</value></_>
        <_>
          <depth>1</depth>
          <value>1.6970446062902272e-001</value></_></nodes></_>
    <_>
      <nodes>
        <_>
          <depth>0</depth>
          <value>2.6368929255379383e-010</value>
          <splits>
            <_><var>516</var>
              <quality>4.5020892284810543e-003</quality>
              <le>5.5000000000000000e+000</le></_></splits></_>
        <_>
          <depth>1</depth>
          <value>6.3024828759643192e-003</value></_>
        <_>
          <depth>1</depth>
          <value>-8.9600135431062988e-001</value></_></nodes></_>
    <_>
      <nodes>
        <_>
          <depth>0</depth>
          <value>-1.3218842688871188e-010</value>
          <splits>
            <_><var>192</var>
              <quality>4.4554853811860085e-003</quality>
              <le>4.5000000000000000e+000</le></_></splits></_>
        <_>
          <depth>1</depth>
          <value>-7.7651998428527125e-003</value></_>
        <_>
          <depth>1</depth>
          <value>6.5315124494182319e-001</value></_></nodes></_>
    <_>
      <nodes>
        <_>
          <depth>0</depth>
          <value>-1.7093521045987491e-010</value>
          <splits>
            <_><var>480</var>
              <quality>4.4029629789292812e-003</quality>
              <le>1.5000000000000000e+000</le></_></splits></_>
        <_>
          <depth>1</depth>
          <value>-6.3165208453813529e-002</value></_>
        <_>
          <depth>1</depth>
          <value>6.9911868933220156e-002</value></_></nodes></_>
    <_>
      <nodes>
        <_>
          <depth>0</depth>
          <value>1.6479344528463067e-009</value>
          <splits>
            <_><var>406</var>
              <quality>4.6115238219499588e-003</quality>
              <le>5.0000000000000000e-001</le></_></splits></_>
        <_>
          <depth>1</depth>
          <value>-2.2920942310622656e-002</value></_>
        <_>
          <depth>1</depth>
          <value>2.0401185023020624e-001</value></_></nodes></_>
    <_>
      <nodes>
        <_>
          <depth>0</depth>
          <value>-1.0695587205127131e-009</value>
          <splits>
            <_><var>419</var>
              <quality>4.7933980822563171e-003</quality>
              <le>5.0000000000000000e-001</le></_></splits></_>
        <_>
          <depth>1</depth>
          <value>4.2987309836752689e-002</value></_>
        <_>
          <depth>1</depth>
          <value>-1.1204245746964607e-001</value></_></nodes></_>
    <_>
      <nodes>
        <_>
          <depth>0</depth>
          <value>1.5114154370213148e-010</value>
          <splits>
            <_><var>647</var>
              <quality>4.0728729218244553e-003</quality>
              <le>1.5000000000000000e+000</le></_></splits></_>
        <_>
          <depth>1</depth>
          <value>5.8640362606259669e-002</value></_>
        <_>
          <depth>1</depth>
          <value>-6.9647101802707917e-002</value></_></nodes></_>
    <_>
      <nodes>
        <_>
          <depth>0</depth>
          <value>1.7609269567031463e-009</value>
          <splits>
            <_><var>757</var>
              <quality>4.0295105427503586e-003</quality>
              <le>5.0000000000000000e-001</le></_></splits></_>
        <_>
          <depth>1</depth>
          <value>1.5939955108617825e-002</value></_>
        <_>
          <depth>1</depth>
          <value>-2.5841724392777704e-001</value></_></nodes></_>
    <_>
      <nodes>
        <_>
          <depth>0</depth>
          <value>6.9089423023755428e-010</value>
          <splits>
            <_><var>888</var>
              <quality>4.1280053555965424e-003</quality>
              <le>3.0500000000000000e+001</le></_></splits></_>
        <_>
          <depth>1</depth>
          <value>5.5604034043882887e-003</value></_>
        <_>
          <depth>1</depth>
          <value>-9.5580738036420787e-001</value></_></nodes></_>
    <_>
      <nodes>
        <_>
          <depth>0</depth>
          <value>2.1667556633099576e-010</value>
          <splits>
            <_><var>287</var>
              <quality>4.0751476772129536e-003</quality>
              <le>1.5000000000000000e+000</le></_></splits></_>
        <_>
          <depth>1</depth>
          <value>-6.4961956902580262e-002</value></_>
        <_>
          <depth>1</depth>
          <value>6.2902342184515861e-002</value></_></nodes></_>
    <_>
      <nodes>
        <_>
          <depth>0</depth>
          <value>7.5821149301512620e-010</value>
          <splits>
            <_><var>270</var>
              <quality>4.8146657645702362e-003</quality>
              <le>2.5000000000000000e+000</le></_></splits></_>
        <_>
          <depth>1</depth>
          <value>3.5916717153607433e-002</value></_>
        <_>
          <depth>1</depth>
          <value>-1.3492124644570092e-001</value></_></nodes></_>
    <_>
      <nodes>
        <_>
          <depth>0</depth>
          <value>2.3397037585906793e-009</value>
          <splits>
            <_><var>709</var>
              <quality>4.0744631551206112e-003</quality>
              <le>5.0000000000000000e-001</le></_></splits></_>
        <_>
          <depth>1</depth>
          <value>4.2127220852866624e-002</value></_>
        <_>
          <depth>1</depth>
          <value>-9.7079095176257693e-002</value></_></nodes></_>
    <_>
      <nodes>
        <_>
          <depth>0</depth>
          <value>2.4507329493095524e-010</value>
          <splits>
            <_><var>909</var>
              <quality>4.2373351752758026e-003</quality>
              <le>5.0000000000000000e-001</le></_></splits></_>
        <_>
          <depth>1</depth>
          <value>-3.6237064522459270e-002</value></_>
        <_>
          <depth>1</depth>
          <value>1.1752300274870801e-001</value></_></nodes></_>
    <_>
      <nodes>
        <_>
          <depth>0</depth>
          <value>9.0369844858929435e-010</value>
          <splits>
            <_><var>984</var>
              <quality>4.1980044916272163e-003</quality>
              <le>5.0000000000000000e-001</le></_></splits></_>
        <_>
          <depth>1</depth>
          <value>3.3288890590984548e-002</value></_>
        <_>
          <depth>1</depth>
          <value>-1.2683057473872741e-001</value></_></nodes></_>
    <_>
      <nodes>
        <_>
          <depth>0</depth>
          <value>-7.5517858690163454e-010</value>
          <splits>
            <_><var>967</var>
              <quality>3.9365179836750031e-003</quality>
              <le>3.5000000000000000e+000</le></_></splits></_>
        <_>
          <depth>1</depth>
          <value>1.9616419560841029e-002</value></_>
        <_>
          <depth>1</depth>
          <value>-2.0346220933937456e-001</value></_></nodes></_>
    <_>
      <nodes>
        <_>
          <depth>0</depth>
          <value>4.4583292593377188e-010</value>
          <splits>
            <_><var>631</var>
              <quality>4.1370550170540810e-003</quality>
              <le>2.5000000000000000e+000</le></_></splits></_>
        <_>
          <depth>1</depth>
          <value>1.2402778423090434e-002</value></_>
        <_>
          <depth>1</depth>
          <value>-3.4684645405954112e-001</value></_></nodes></_>
    <_>
      <nodes>
        <_>
          <depth>0</depth>
          <value>1.7909607127454158e-010</value>
          <splits>
            <_><var>131</var>
              <quality>3.7950265686959028e-003</quality>
              <le>1.1500000000000000e+001</le></_></splits></_>
        <_>
          <depth>1</depth>
          <value>5.6300127538325808e-003</value></_>
        <_>
          <depth>1</depth>
          <value>-8.1817956351230103e-001</value></_></nodes></_>
    <_>
      <nodes>
        <_>
          <depth>0</depth>
          <value>5.4860116446608003e-011</value>
          <splits>
            <_><var>931</var>
              <quality>3.9250412955880165e-003</quality>
              <le>1.5000000000000000e+000</le></_></splits></_>
        <_>
          <depth>1</depth>
          <value>1.6933565660552579e-002</value></_>
        <_>
          <depth>1</depth>
          <value>-2.3610432341602108e-001</value></_></nodes></_>
    <_>
      <nodes>
        <_>
          <depth>0</depth>
          <value>-2.0968732310456102e-010</value>
          <splits>
            <_><var>1008</var>
              <quality>4.2405286803841591e-003</quality>
              <le>2.5000000000000000e+000</le></_></splits></_>
        <_>
          <depth>1</depth>
          <value>4.8249540704301229e-002</value></_>
        <_>
          <depth>1</depth>
          <value>-8.8183504316157318e-002</value></_></nodes></_>
    <_>
      <nodes>
        <_>
          <depth>0</depth>
          <value>2.1726089768896396e-009</value>
          <splits>
            <_><var>175</var>
              <quality>4.0035019628703594e-003</quality>
              <le>5.0000000000000000e-001</le></_></splits></_>
        <_>
          <depth>1</depth>
          <value>2.5385125048290803e-002</value></_>
        <_>
          <depth>1</depth>
          <value>-1.5907272388709137e-001</value></_></nodes></_>
    <_>
      <nodes>
        <_>
          <depth>0</depth>
          <value>8.0123463355370303e-010</value>
          <splits>
            <_><var>705</var>
              <quality>4.1811987757682800e-003</quality>
              <le>1.0500000000000000e+001</le></_></splits></_>
        <_>
          <depth>1</depth>
          <value>2.9113667112547533e-002</value></_>
        <_>
          <depth>1</depth>
          <value>-1.4465757914255672e-001</value></_></nodes></_>
    <_>
      <nodes>
        <_>
          <depth>0</depth>
          <value>5.0716164575561959e-010</value>
          <splits>
            <_><var>320</var>
              <quality>3.9734202437102795e-003</quality>
              <le>4.5000000000000000e+000</le></_></splits></_>
        <_>
          <depth>1</depth>
          <value>7.7500498236868663e-003</value></_>
        <_>
          <depth>1</depth>
          <value>-5.6639437769110601e-001</value></_></nodes></_>
    <_>
      <nodes>
        <_>
          <depth>0</depth>
          <value>2.6372570786898230e-010</value>
          <splits>
            <_><var>703</var>
              <quality>3.8031444419175386e-003</quality>
              <le>1.5000000000000000e+000</le></_></splits></_>
        <_>
          <depth>1</depth>
          <value>-1.4597060135594595e-002</value></_>
        <_>
          <depth>1</depth>
          <value>2.6670943746150477e-001</value></_></nodes></_>
    <_>
      <nodes>
        <_>
          <depth>0</depth>
          <value>-4.6261888785622394e-010</value>
          <splits>
            <_><var>512</var>
              <quality>4.2913393117487431e-003</quality>
              <le>3.2500000000000000e+001</le></_></splits></_>
        <_>
          <depth>1</depth>
          <value>1.3629910643530040e-002</value></_>
        <_>
          <depth>1</depth>
          <value>-3.2593857890917566e-001</value></_></nodes></_>
    <_>
      <nodes>
        <_>
          <depth>0</depth>
          <value>2.4174884310763610e-010</value>
          <splits>
            <_><var>29</var>
              <quality>3.9758165366947651e-003</quality>
              <le>5.0000000000000000e-001</le></_></splits></_>
        <_>
          <depth>1</depth>
          <value>3.8951672600495410e-002</value></_>
        <_>
          <depth>1</depth>
          <value>-1.0247936348759651e-001</value></_></nodes></_>
    <_>
      <nodes>
        <_>
          <depth>0</depth>
          <value>-6.9451683341544337e-010</value>
          <splits>
            <_><var>828</var>
              <quality>4.1938084177672863e-003</quality>
              <le>2.1500000000000000e+001</le></_></splits></_>
        <_>
          <depth>1</depth>
          <value>9.8935386866723443e-003</value></_>
        <_>
          <depth>1</depth>
          <value>-4.5244590015608632e-001</value></_></nodes></_>
    <_>
      <nodes>
        <_>
          <depth>0</depth>
          <value>1.3352052794950687e-010</value>
          <splits>
            <_><var>551</var>
              <quality>3.8766248617321253e-003</quality>
              <le>5.0000000000000000e-001</le></_></splits></_>
        <_>
          <depth>1</depth>
          <value>3.1869908306833096e-002</value></_>
        <_>
          <depth>1</depth>
          <value>-1.2228614386056373e-001</value></_></nodes></_>
    <_>
      <nodes>
        <_>
          <depth>0</depth>
          <value>4.8396153727762679e-010</value>
          <splits>
            <_><var>783</var>
              <quality>3.7951685953885317e-003</quality>
              <le>8.5000000000000000e+000</le></_></splits></_>
        <_>
          <depth>1</depth>
          <value>1.5668853509965129e-002</value></_>
        <_>
          <depth>1</depth>
          <value>-2.4714263414973145e-001</value></_></nodes></_>
    <_>
      <nodes>
        <_>
          <depth>0</depth>
          <value>-9.4445584775497617e-010</value>
          <splits>
            <_><var>799</var>
              <quality>3.9048735052347183e-003</quality>
              <le>2.5000000000000000e+000</le></_></splits></_>
        <_>
          <depth>1</depth>
          <value>-2.8918703400353095e-002</value></_>
        <_>
          <depth>1</depth>
          <value>1.3589744143495536e-001</value></_></nodes></_>
    <_>
      <nodes>
        <_>
          <depth>0</depth>
          <value>2.8837399126968202e-010</value>
          <splits>
            <_><var>762</var>
              <quality>3.6126275081187487e-003</quality>
              <le>5.0000000000000000e-001</le></_></splits></_>
        <_>
          <depth>1</depth>
          <value>2.0993110928471993e-002</value></_>
        <_>
          <depth>1</depth>
          <value>-1.7384193127619643e-001</value></_></nodes></_>
    <_>
      <nodes>
        <_>
          <depth>0</depth>
          <value>1.1296275025219492e-010</value>
          <splits>
            <_><var>783</var>
              <quality>3.8306761998683214e-003</quality>
              <le>5.0000000000000000e-001</le></_></splits></_>
        <_>
          <depth>1</depth>
          <value>8.9889288427357855e-002</value></_>
        <_>
          <depth>1</depth>
          <value>-4.2756242341387488e-002</value></_></nodes></_>
    <_>
      <nodes>
        <_>
          <depth>0</depth>
          <value>-8.8057006208777269e-010</value>
          <splits>
            <_><var>24</var>
              <quality>3.6747003905475140e-003</quality>
              <le>5.5000000000000000e+000</le></_></splits></_>
        <_>
          <depth>1</depth>
          <value>-7.2047301791691191e-003</value></_>
        <_>
          <depth>1</depth>
          <value>5.6279581146800139e-001</value></_></nodes></_>
    <_>
      <nodes>
        <_>
          <depth>0</depth>
          <value>-1.9074214433786373e-010</value>
          <splits>
            <_><var>143</var>
              <quality>4.0069809183478355e-003</quality>
              <le>3.5000000000000000e+000</le></_></splits></_>
        <_>
          <depth>1</depth>
          <value>-5.1242931611471469e-002</value></_>
        <_>
          <depth>1</depth>
          <value>7.8424596893232140e-002</value></_></nodes></_></trees></opencv_ml_boost>
</opencv_storage>
