svm_type c_svc
kernel_type rbf
gamma 0.00012207
nr_class 65
total_sv 1441
rho 0.0586284 0.0849052 -0.205383 -0.0498326 0.0929336 0.235171 0.166294 0.0143417 0.0200883 0.308543 -0.0507155 -0.306102 0.681695 0.438626 0.0912023 -0.314598 0.327879 -0.0881012 -0.0299842 0.466848 -0.145112 0.319855 0.279258 -0.266622 -0.160366 0.152814 0.326302 0.178596 0.190331 0.359944 0.416481 0.394284 0.135684 0.173098 0.00583683 0.954534 0.410831 -0.212649 0.427197 0.0820721 0.0400344 0.797387 0.462378 -0.0230966 -0.192687 0.143983 0.0464856 0.149285 0.777141 1.10981 0.358871 0.664156 -0.0025137 -0.0673189 0.0982488 0.424067 0.281003 0.376103 0.0985577 0.270037 0.0117595 0.101478 -0.123408 -0.156853 -0.48465 -0.532033 0.274463 0.144008 0.041488 -0.223164 -0.0840271 0.0698611 0.276517 -0.309707 -0.0284009 0.0809397 -0.36554 -0.58536 -0.0771661 0.191645 -0.070214 -1.28214 -0.081459 -0.405644 0.0983464 0.32322 0.0807602 -0.433442 -0.353333 0.101062 0.323646 -0.675469 0.178777 0.313855 0.115165 0.0439749 -0.0400855 -0.562378 0.194744 0.102034 0.108156 0.287589 0.117367 0.209847 0.278434 0.453403 0.269596 -0.999023 -0.0140166 -1.79647 -0.162796 0.143899 -0.167942 0.0686105 0.343771 -0.506201 0.160177 0.0770465 -0.220355 0.104508 0.230981 -0.0509071 0.336538 -0.448177 -0.0171512 -0.27986 -0.153825 -0.0528011 0.162252 0.113444 0.0257273 0.155642 0.0471353 0.212883 0.553146 0.10211 -0.00919207 0.474404 0.534336 0.200875 -0.0660527 0.21498 0.195457 0.24092 0.358881 -0.160024 0.255722 0.291427 -0.0276713 -0.356183 -0.0965087 0.362159 0.306219 0.153159 0.0577643 0.287475 0.27795 0.205801 0.312637 0.0724237 0.415541 0.176272 -0.0456473 0.237167 0.0832384 0.0783248 0.530696 0.317617 0.0949276 0.0714589 0.0637134 0.282568 0.0263467 0.353815 0.10347 0.428885 0.243888 0.216993 0.148862 0.101926 -0.142352 0.199809 0.273733 0.160681 0.466352 -0.159091 0.144558 -0.0797444 -0.0630308 0.2544 0.36686 0.543401 0.199956 0.261646 0.372426 0.626853 -0.104549 0.119193 0.752506 0.625993 0.152472 0.155775 0.487586 0.140946 0.237461 0.483916 -0.15522 0.299925 0.34752 0.413339 -0.245676 0.213199 0.497317 1.0317 0.220887 0.351201 0.430897 0.249257 0.137603 0.421662 0.176088 1.10824 0.335108 0.157647 0.499074 0.455942 0.169956 0.896055 0.268847 0.201938 -0.179993 0.213848 0.137178 0.0739385 0.587694 0.682414 0.47274 0.370286 0.153545 0.231118 0.367961 0.154768 0.287237 0.378706 0.138511 0.413057 0.0279651 0.414123 0.147952 -0.0161629 0.147956 0.254683 -0.06879 -0.0151638 0.0828556 0.5033 -0.0314103 -0.00630022 0.300982 0.120497 0.0271026 0.0580808 0.265968 -0.441204 -0.221231 0.383245 -0.108538 0.1083 0.434048 0.114551 -0.037568 -0.0283127 0.271881 0.144241 -0.155069 0.173566 0.389761 0.182599 -0.0391733 -0.0881484 -0.228951 0.163247 0.17973 0.182231 0.293672 0.0644981 0.0381882 0.255265 0.263313 -0.33548 -0.293596 -0.00236922 -0.542507 0.00139057 0.373192 0.161346 0.257919 0.35402 -0.0526766 0.139055 -0.00336742 -0.154572 0.178298 0.279521 -0.00872953 -0.0310377 -0.241665 0.0928147 -0.234108 -0.327637 0.243734 -0.0847352 -0.247561 -0.00986803 0.127091 -0.297187 -0.130028 0.443202 0.659244 -0.0566666 -0.245802 0.488296 -0.328838 -0.369185 0.33941 -0.364227 0.129212 0.222917 -0.142929 -0.31906 -0.0965396 0.147435 1.03599 -0.0895735 0.0115575 0.299064 0.0649551 -0.0670118 0.0165296 -0.159789 0.250879 0.17493 -0.0748478 0.30034 0.0334799 -0.125538 0.602934 -0.0704809 -0.359422 -0.345723 0.0101132 -0.372607 -0.114369 0.180059 0.0139136 0.0321879 0.185962 -0.628429 -0.305063 -0.260572 -0.199124 0.119653 0.243869 -0.104273 0.0105167 -0.271947 -0.0192115 -0.296531 -0.301416 0.00367351 -0.748267 -0.120167 0.18952 -0.326525 -0.407141 0.419077 0.325473 -0.0280629 -0.160992 0.44055 -0.291038 -0.213048 0.448263 -0.218396 0.187032 0.201391 0.165226 -0.313737 -0.255436 0.338542 0.265881 -0.0649508 0.214905 0.274293 0.171423 0.0186891 0.140488 -0.0818581 0.60163 0.164953 -0.155949 0.260124 0.113078 -0.0301155 0.551383 0.218702 -0.186115 -0.307123 0.0775944 -0.210861 0.024464 0.402436 0.25858 0.0976399 0.291619 -0.28596 -0.0936625 0.0866922 0.0997481 0.152884 0.261334 0.0160342 0.14528 -0.102198 -0.0669446 -0.482031 -0.225829 -0.0781423 -0.00303208 0.272267 -0.118298 -0.0955409 0.128851 0.185619 -0.292754 -0.122206 0.121349 0.549281 0.230266 0.362731 -0.288878 0.154114 0.253158 -0.0465536 -0.322931 -0.150175 0.128815 0.129986 -0.036488 0.142133 0.180787 0.388858 0.143825 0.402996 -0.257732 0.0350845 0.0857629 -0.136551 0.0801371 -0.0658149 0.00663218 0.215461 0.149756 0.380172 0.0393187 0.0104341 0.647129 -0.00427506 0.0372314 -0.0229591 0.103998 0.195183 -0.0563395 -0.00323525 -0.0531241 -0.0880627 -0.124016 0.382185 0.0445551 0.451822 -0.476075 0.0903729 -0.0262401 -0.14826 0.083447 0.341413 -0.101524 -0.0354639 0.647567 0.351098 0.0795627 -0.122357 0.409057 -0.136157 -0.0521533 0.465017 -0.158914 0.287969 0.351056 0.0243373 -0.270055 -0.179125 0.439066 0.839451 0.0362165 0.127963 0.375551 0.27002 0.0305731 0.261502 0.00362316 0.617383 0.350826 -0.378863 0.402972 0.0854482 0.0033875 0.652979 0.212592 -0.0477466 -0.251105 0.138943 -0.0457257 0.138552 0.394574 0.123444 0.30179 0.281065 0.13471 0.357084 0.0132024 0.0377427 0.188763 0.37152 -0.0648555 0.266893 -0.0382792 0.0757895 -0.135036 -0.141017 0.258931 -0.218964 0.00111871 0.507101 0.359411 0.0151196 -0.00738855 0.0880205 -0.268775 -0.149406 0.340675 -0.402925 0.134178 0.249441 0.168117 -0.307775 -0.192772 0.180341 0.178705 0.0155439 0.167641 0.31618 0.168844 0.0207187 0.129592 -0.0912231 0.635174 0.254301 -0.127843 0.258 0.0337287 -0.138216 0.467971 0.234545 -0.18477 -0.277577 0.00110809 -0.18262 0.0125024 0.423776 0.457927 0.279233 0.0116653 -0.0367682 -0.0204594 -0.048273 -0.0400405 0.124009 0.24834 -0.0192189 0.22898 -0.111766 0.0340499 -0.188833 -0.327997 -0.453834 -0.277914 -0.0751859 -0.176703 -0.359872 -0.318713 -0.264705 -0.215964 -0.564295 -0.2908 -0.44298 -0.100557 0.0177825 -0.29329 -0.506804 -0.514797 -0.23508 0.0325255 -0.404923 -0.152515 0.0881812 -0.317546 -0.35355 -0.231481 -0.448357 -0.25516 -0.213335 -0.281817 -0.225691 -0.429142 -0.365124 -0.0417992 -0.387953 -0.379707 -0.406751 -0.349262 -0.925164 -0.498256 -0.624263 -0.341279 -0.298108 -0.0421024 -0.580932 -0.19993 -0.414158 -0.585198 -0.0874226 -0.134643 -0.383303 -0.126209 -0.531728 -0.378962 -0.483536 -0.336526 0.0133232 0.702441 0.701052 0.191101 0.010323 1.0009 -0.0321988 0.225696 0.691221 -0.0547791 0.332779 0.40339 0.224462 -0.552909 0.0887658 0.620748 0.775678 0.234803 0.423009 0.365114 0.347048 0.165279 0.381534 -0.034739 0.713131 0.42629 -0.0629551 0.420571 0.196399 -0.0249806 0.552569 0.567164 0.0994517 -0.0499996 0.140882 0.0257694 0.205842 0.890603 0.464034 0.362724 0.452283 -0.0615568 0.238666 0.0390492 0.195051 0.282983 0.405189 0.0922 0.391977 -0.177053 0.086103 -0.0453331 -0.0438232 0.632122 0.670257 0.105192 -0.0305345 0.449452 -0.197534 0.0576229 0.425531 -0.158332 0.339083 0.239034 0.34668 -0.322783 0.522191 0.352029 0.275087 0.0438635 0.450188 0.340213 0.334051 0.0817249 0.192917 0.101611 0.718622 0.302559 -0.940248 0.647805 0.240548 -0.0521984 0.753693 0.295942 -0.140914 -0.240821 0.0611683 -0.247524 0.153032 0.748576 -0.125449 0.446342 0.453737 -0.0129338 -0.12351 -0.199162 0.226582 0.189626 0.32793 0.0680744 0.188495 0.0150109 0.0745317 -0.185141 -0.143975 0.016967 -0.323379 -0.709843 0.0770181 -0.245919 -0.716973 0.0065932 -0.657792 0.0821385 -0.0836365 -0.536905 -0.869807 -0.379268 -0.0661512 0.20333 -0.3123 -0.198947 0.181272 -0.0398596 -0.162243 -9.60936e-06 -0.384401 0.0368254 -0.332412 -0.604874 -0.0913178 -0.670075 -0.386292 0.155715 -0.150489 -0.290763 -0.660643 -0.208703 -0.865761 -0.34945 0.237154 -0.295409 -0.2571 0.0625779 -0.923279 -0.516313 -0.507042 -0.281182 -0.015259 -0.0648468 -0.20869 0.0536657 -0.488853 -0.224039 -0.514391 -0.361586 -0.969795 -0.537102 0.540905 0.26757 -0.3692 0.114388 -0.568465 -0.0159657 0.0189668 -0.361297 -1.04929 -0.521613 -0.0303356 0.264679 -0.0618531 -0.197731 0.179814 0.0773816 -0.0788334 0.0974586 -0.346899 -0.148935 -0.127545 -0.432992 -0.350276 -0.488226 0.270349 0.113772 -0.00706298 0.37933 -0.024292 -0.0817527 -0.301882 -0.491476 -0.00947668 -0.452303 -0.189485 0.00323848 -0.863509 -0.267784 0.0357338 -0.434096 0.0678509 0.0463146 -0.214133 0.426309 -0.728402 -0.229265 -0.243765 0.00434547 -0.151568 0.660693 0.0596396 0.0461169 0.795794 0.0220314 0.218871 0.33021 -0.00387716 -0.711527 -0.124351 0.0712374 0.35547 0.16384 0.268954 0.47987 0.273328 0.116059 0.524705 -0.21756 0.108329 0.233411 -0.0739586 0.106115 -0.0802151 0.338721 0.540681 0.413559 0.268566 0.187566 0.122078 0.0777449 -0.120644 0.277362 0.0493057 0.253584 0.245674 -0.423128 0.00945217 0.0149885 -0.0472306 0.535941 0.350796 0.00913355 0.628221 -0.444466 0.0225139 -0.253921 -0.00986572 0.652967 -0.107866 0.0531564 0.466228 -0.0693445 0.328213 0.297766 0.192295 -0.140015 0.346354 0.394811 0.399526 0.109944 0.49692 0.325298 0.329881 0.122877 0.227741 0.157401 1.038 0.378083 -0.272544 0.61132 0.226854 -0.00370662 0.879736 0.363207 -0.0366863 -0.193147 0.0957736 -0.127262 0.294918 0.703747 0.117812 0.387472 0.586531 -0.0181765 -0.0453619 -0.0933575 0.36015 0.206007 0.33247 0.0979931 0.242536 0.0590272 0.145929 -0.0519645 -0.140284 -0.301196 -0.0946156 0.165139 -0.42878 0.271806 -0.0346343 -0.385388 -0.601114 -0.344912 -0.415054 -0.0647311 -0.251758 -0.272402 0.260967 0.066048 -0.148877 0.0153832 -0.279278 -0.0778939 -0.151276 -0.339095 0.258855 -0.370553 -0.157557 0.160645 -0.0133848 -0.350822 -0.314779 -0.220722 -0.459614 -0.227553 0.171702 -0.0889912 0.0665739 0.356085 -0.393465 -0.385668 -0.352623 0.0562196 0.153584 0.195452 -0.205541 0.00317149 -0.279628 -0.138957 -0.20706 -0.240103 -1.0713 -0.0153149 0.364923 0.170287 0.413153 0.283637 0.0789319 0.0272502 0.217278 0.484489 0.408128 0.250397 0.37332 0.276268 0.0868323 -0.0869066 -0.40849 0.208435 0.336129 0.234102 0.26206 0.303897 0.614749 0.209981 0.438224 0.432204 -0.202932 0.300573 0.295313 0.105506 0.0021324 0.0465711 0.320012 0.373912 0.204294 0.364068 0.44291 -0.124425 0.157768 0.271204 0.0585379 0.0558233 -0.279569 0.149057 0.384417 0.277738 0.382238 -0.265273 0.165276 0.380699 0.0539787 -0.335463 -0.0768585 0.2586 0.989167 0.585017 0.350627 0.440279 0.13644 0.191183 0.383378 -0.190811 0.496056 0.121065 -0.0669408 0.789557 0.0822045 0.486248 0.670088 0.160575 1.45484 -0.735158 0.174626 0.224363 0.0618961 0.276844 0.333992 0.32102 0.350886 -0.130812 0.173617 0.398452 0.0866927 0.278494 0.193107 0.00990021 0.763448 -0.390233 0.0297571 0.0929791 -0.0473232 -0.790883 -0.0212337 -0.0248603 -0.358846 -0.709355 -0.539712 -0.50829 0.196572 -0.16375 -0.291803 0.0884069 0.025492 -0.518124 -0.0603851 -0.522106 -0.0677412 -0.42704 -0.486952 -0.217176 -0.381096 -0.357995 0.156723 -0.220202 -0.152585 -0.2827 -0.860909 -0.876415 -0.517532 -0.113975 -0.142436 -0.616287 -0.0878668 -1.42832 -0.292432 -0.466815 -0.60266 -0.159697 -0.110189 -0.529892 0.103867 -0.68356 -0.435812 -0.720504 -0.161849 0.283137 0.283279 0.194791 -0.206724 0.10954 0.333996 0.994212 0.470736 0.531905 0.514548 0.248951 0.183344 0.626784 -0.0296017 0.518441 0.570294 0.321294 0.144794 0.338537 0.137023 0.77682 0.337863 0.144805 0.303402 0.0977615 -0.22949 0.0165596 0.802202 0.64017 0.228923 0.453142 -0.0955358 0.620032 0.145106 0.223744 0.569367 0.21843 0.111324 0.852999 -0.15469 0.076002 -0.0447085 0.110245 -0.0425904 -0.326775 -0.288723 -0.365427 -0.0137064 0.0377737 -0.237864 -0.191908 0.471452 0.104013 -0.264956 -0.00449038 -0.274991 -0.0459115 -0.120377 -0.308376 -0.16163 -0.249231 -0.201653 0.0980587 0.0380853 -0.256723 -0.132218 -0.199722 -0.233217 -0.567115 0.0679193 -0.0819111 -0.0351363 0.0106352 -0.35947 -0.130238 -0.289979 -0.390882 0.51085 0.0551313 -0.185085 0.099447 -0.335779 -0.105718 -0.218409 -0.174293 -0.269115 -0.387259 -0.26124 0.0065303 -0.202629 -0.41439 -0.171995 -0.0309156 -0.0507435 -0.4432 -0.292688 -0.293379 -0.0893972 -0.0463071 -0.235597 -0.301883 -0.292204 -0.329005 -0.034928 0.0632707 -0.472229 -0.419367 -0.151933 -0.561113 -0.414769 0.346807 -0.0530327 -0.0562368 0.0253144 -0.44227 -0.175727 -0.434917 -0.108173 -0.196541 -0.159011 -0.453055 -0.20912 -0.386528 -0.184036 -0.384185 -0.425418 -0.251661 0.373795 0.249965 0.452513 -0.0592189 0.272283 0.269644 0.312389 0.0551173 0.093016 0.0901954 0.778112 0.265603 -0.555958 0.387431 -0.114525 -0.17977 0.687574 0.292947 -0.218969 -0.404478 0.0698264 -0.323217 0.257451 0.899786 -0.0239642 0.301704 0.376875 0.00605417 -0.0263239 -0.274781 0.467427 0.133919 0.290783 0.0404061 0.113795 -0.0432239 0.0376497 -0.127226 -0.241587 0.157497 1.13548 0.522084 0.231762 0.526746 0.703304 0.305332 0.202218 0.576369 0.0408109 0.408732 0.392529 0.205558 0.357324 0.190879 -0.0299036 0.847902 0.589493 0.146372 0.158088 0.370155 0.0940818 0.0522336 0.489659 0.456759 1.7006 0.380978 0.377644 0.287155 0.031003 0.137511 0.518782 0.414704 0.168597 0.540357 -0.0950972 0.229825 -0.105368 0.0385948 0.186998 0.248075 0.172586 0.242052 0.429689 0.316341 0.160734 0.334434 0.0246112 0.619637 0.415338 -0.242576 0.526909 -0.530955 0.0602264 0.697075 0.574124 0.0835093 -0.0922469 0.212162 0.0546835 0.180487 0.865358 -0.179829 0.450869 1.20309 0.120736 -0.113625 0.0874531 0.131592 0.321349 0.346724 0.113734 0.308354 -0.00949256 0.0634516 0.0468127 -0.00975689 -0.0284856 -0.110349 -0.0644314 0.100113 0.108596 -0.169954 -0.00338496 -0.284965 -0.16619 -0.0923956 -0.34007 -0.0276638 -0.405846 -0.170757 0.178655 0.0404382 -0.327425 -0.281234 0.0160813 -0.304764 -0.506268 0.113932 -0.109485 0.180367 0.0472854 -0.470025 -0.145317 -0.347162 -0.140622 -0.067162 0.0251301 -0.164076 0.0609135 -0.469129 -0.225672 -0.282415 -0.381363 -0.936874 -0.267085 0.096954 -0.0694589 -0.169354 -0.26344 -0.372579 0.105199 -0.14975 -0.320528 0.0116425 -0.103904 -0.29378 0.170115 -0.165811 -0.688309 -0.592315 -0.206796 -0.915028 -0.318079 -0.305267 -0.798673 -0.0792202 0.0205533 -0.730348 -0.670807 -0.297023 -0.505389 -0.0576568 0.0891598 -0.308307 -0.00719352 -0.477521 -0.270324 -0.471543 -0.110417 0.230346 0.691214 0.259731 0.0687458 0.26651 -0.214561 0.241593 -0.0652583 -0.063191 0.212773 0.0670376 0.0257544 0.398964 0.0780055 0.320849 0.154391 0.059788 -1.05425 0.00883674 0.137635 0.0120626 0.0393986 0.386212 -0.355729 0.252589 -0.172623 -0.141502 0.417404 0.268085 0.0337698 0.598777 -0.289099 0.054917 -0.386801 -0.108255 0.332376 0.337265 -0.0678618 -0.00489287 -0.113846 0.37094 0.252954 -0.25555 0.494452 -0.242687 -0.137708 0.397649 0.175613 -0.27701 -0.485317 -0.192233 -0.415233 0.0187008 0.429366 0.302962 0.0879809 0.236355 -0.410409 -0.0224928 -0.305705 -0.134672 0.194401 0.269883 -0.0568199 0.00994823 -0.187977 0.0615966 -0.289556 -0.328507 0.149682 -0.362499 -1.03073 -0.463728 -0.223417 -0.36261 -0.362271 -0.157762 -0.290953 -0.379209 -0.0264717 -0.106393 -0.382706 -0.437257 -0.591784 -0.452077 -0.488794 -0.170998 -0.219137 -0.334888 -0.0906182 -0.767834 -0.220857 -0.415896 -0.615499 -2.65431 -0.237097 -0.325212 -0.285428 -0.436286 -0.227278 -0.417902 -0.430483 -0.311333 -0.287186 -0.437462 -0.0685007 -0.163915 -0.307565 0.147642 -0.205975 -0.287791 0.112399 0.0648687 -0.315084 -0.244564 -0.248643 -0.370619 -0.425472 0.0130426 -0.127018 -0.177949 -0.0623793 -0.295309 -0.0723864 -0.338874 -0.329956 -0.259525 -2.67565 -0.308025 -0.18358 -0.443051 -0.244044 -0.382488 -0.260935 -0.00972912 -0.0582383 0.0579829 -0.0039632 -0.11995 0.103475 -0.0740156 -0.117926 0.105357 0.141118 -0.144141 -0.115059 -0.0891866 -0.327059 -0.0398239 0.229175 0.000115465 0.0344315 0.140202 -0.180079 0.087467 -0.141635 -0.0953519 0.157008 0.29359 -0.210054 0.10937 -0.254245 0.0622269 -0.200583 -0.221833 -0.363493 0.023538 -0.0622906 -0.218386 0.100255 -0.144278 -0.252754 0.133284 -0.0732939 -0.0594914 -0.336168 -0.270301 -0.547292 -0.17321 -0.0121068 -0.122982 -0.104416 0.192486 -0.568004 -0.121009 -0.423919 -0.333869 0.232016 0.214249 -0.124424 0.578248 -0.506246 -0.032978 -0.226418 -0.0810848 0.123096 0.185199 -0.125175 0.20165 -0.123231 0.274489 0.42097 0.124056 0.503701 0.290273 0.175402 0.662379 0.00654931 0.255321 -0.00167423 0.234037 0.173667 -0.0281084 0.142042 0.481733 -0.102729 0.249551 0.383978 -0.000292546 0.497937 -1.89027 0.167629 0.141856 0.0534994 -0.104907 -0.817155 0.200943 -0.906674 -0.0902387 0.0378727 -0.0807201 -0.267112 -0.437701 -0.17787 -0.682785 -0.378405 -0.366857 -1.31302 0.0639614 -0.0197296 -0.302697 -0.639137 -0.305919 -0.747032 0.0299648 0.0345156 -0.0378816 0.0794688 -0.0817031 -0.0838049 -0.474888 -0.371682 -0.188378 0.0737575 -0.324671 -0.211459 0.257222 0.331081 -0.268737 -0.366717 0.0938194 -0.484728 -0.177819 0.42826 0.272425 0.00620203 0.125134 -0.407856 -0.201677 -0.353077 -0.0589945 0.229303 0.296736 -0.0414828 0.132522 -0.229331 -0.0936131 -0.414072 -0.273861 0.374694 0.0373703 -0.0294321 0.791056 0.227532 -0.140407 -0.261749 0.0720752 -0.313145 0.0707628 0.384888 -0.126022 0.454269 0.561764 0.327308 -0.0164813 -0.35182 -0.109089 0.253752 0.31451 0.140825 0.194388 0.149075 0.0704675 -0.284417 -0.213623 -0.425737 -0.0953117 0.164968 -0.107892 -0.325107 -0.628561 -0.103441 -0.375639 -0.215975 0.247316 0.134868 0.0133399 0.0722442 -0.19506 -0.305505 -0.427487 -0.592056 0.10811 -0.025879 -0.131282 -0.0249347 -0.347199 -0.125974 -0.281529 -0.373116 -0.125661 0.452042 0.230511 -0.216199 -0.335881 0.0385157 -0.257341 0.0936921 0.673513 -0.0184468 0.524961 0.420732 0.177328 -0.140323 -0.278288 -0.0128838 0.0773174 0.281895 0.0434392 0.145737 0.130197 0.10801 -0.195512 -0.210706 0.23358 0.147192 0.643741 -0.0360647 0.203992 -0.00800143 -0.0398697 0.206167 0.0890357 0.291987 0.176285 -0.270761 0.179392 -0.00753148 -0.102697 0.299205 0.238143 0.0109872 0.404074 -0.195579 0.111695 -0.0125063 -0.316384 -0.194664 -0.42857 -0.782125 -0.282388 -0.691298 -0.455064 -0.0928564 -0.672322 -0.19131 0.0458821 -0.800452 -0.607576 -0.395912 -0.539655 -0.168839 -0.0721295 -0.236245 0.0450687 -0.509262 -0.2669 -0.467825 -0.446322 -0.410216 -0.36723 -0.243857 -0.556497 -0.330502 0.514039 0.0902928 -0.290108 0.0185723 -0.684657 -0.040667 -0.39921 -0.0635737 0.0380892 -0.0857955 -0.175475 0.0104434 -0.160507 -0.0068753 -0.437163 -0.464826 -0.350484 0.236257 -3.24414 0.0716857 0.166362 0.0308222 0.250364 0.390774 -0.29551 0.372868 -0.377338 -0.131344 0.176192 0.331739 0.118241 0.258882 -0.294301 0.236132 -0.414025 -0.262358 0.0964496 0.448171 0.101692 0.345867 0.569409 0.274804 0.548549 -0.152928 0.51381 0.180055 0.0893308 0.301495 0.353275 0.0926783 0.634748 -0.186661 0.18915 -0.139763 -0.1366 -0.182059 -0.0494127 0.30242 0.10396 -0.0443584 0.208378 -0.353086 0.0681443 -0.234383 0.0302515 0.313738 0.187528 0.0788771 0.324846 -0.183779 0.17115 -0.202316 -0.250822 0.26418 0.697902 0.605043 0.315362 0.438073 -0.120749 0.40336 0.21757 0.101921 0.32307 0.424381 0.214785 0.839315 -0.303691 0.235356 -0.0953444 0.0706412 1.02329 0.2442 0.472831 0.331867 0.347027 -0.0507629 -0.0528619 -0.148858 0.199835 0.372204 0.0356929 0.234458 -0.029025 0.044834 -0.148745 -0.162356 -0.291948 -0.655776 -0.367746 -0.470525 -0.230997 -0.520854 -0.914035 0.0153745 -0.184931 -0.198119 0.0813761 -0.354473 -0.304823 -0.532627 -0.168452 -0.181448 0.0629591 -0.353646 -0.155158 -0.388936 -0.456728 0.0864378 0.101975 -0.0113112 0.198096 -0.0312423 -0.0649255 -0.302175 -0.088847 0.0419622 -0.221928 -0.137593 -0.338419 -0.146291 0.0778748 0.230517 -0.0239323 0.104748 -0.301363 0.0922443 -0.232633 -0.307313 -0.416271 -0.144309 -0.342624 -0.0423198 -0.0190331 -0.0147933 -0.181084 -0.143993 -0.202366 -0.141118 -0.353745 -0.454591 0.175716 0.00171701 -0.0145627 0.534866 0.335105 0.196097 0.606898 -0.136648 0.195728 -0.087435 -0.0607207 -0.203704 -0.156826 0.0780687 0.199708 -0.214045 0.126777 -0.18635 0.018174 -0.333744 -0.385073 0.1039 0.320081 0.439622 0.116886 0.515352 -0.247041 0.120209 -0.731758 -0.384924 0.436347 0.432994 0.22462 0.271043 0.139255 0.244706 -0.121306 -0.0418122 0.0739098 -0.169817 -0.292215 -0.352032 -0.0375759 -0.379837 -0.318072 -0.242053 -0.143281 -0.410748 -0.193861 -0.413108 -0.334692 0.320314 -0.325506 0.0527178 -0.103755 -0.182292 -0.471352 -0.0275312 -0.442999 -0.388808 0.168852 0.0732336 -0.00460227 -0.253071 -0.277146 -0.143252
label 0 1 2 3 4 5 6 7 8 9 10 11 12 13 14 15 16 17 18 19 20 21 22 23 24 25 26 27 28 29 30 31 32 33 34 35 36 37 38 39 40 41 42 43 44 45 46 47 48 49 50 51 52 53 54 55 56 57 58 59 60 61 62 63 64
probA -3.02448 -3.02004 -2.91595 -2.93337 -3.18653 -3.17395 -2.93992 -2.9279 -2.93716 -3.02631 -3.05667 -2.88003 -3.27567 -2.96256 -3.06896 -3.11908 -3.0682 -2.79765 -3.00624 -2.91679 -2.97872 -3.07779 -3.05009 -2.11363 -2.95543 -2.81067 -3.02209 -3.0217 -3.01247 -3.25152 -2.98196 -3.03994 -2.98671 -2.92984 -3.08512 -2.93818 -3.20297 -3.04326 -2.97967 -3.04332 -2.99298 -3.26322 -3.0955 -2.80812 -2.81208 -3.07951 -2.85376 -3.17591 -3.07289 -2.32646 -2.96036 -3.09519 -2.85578 -3.10185 -2.79504 -3.21094 -2.98104 -3.03612 -2.97743 -2.93216 -3.08971 -2.95941 -2.86089 -2.75109 -3.14971 -3.14897 -3.28771 -3.12122 -3.11521 -2.88079 -3.09954 -3.00392 -2.50885 -3.11945 -3.15683 -2.49452 -2.54077 -3.0987 -3.18844 -2.85034 -2.00931 -3.04619 -2.52016 -2.76954 -3.13764 -3.0711 -3.05272 -3.05649 -3.04905 -3.19517 -2.36482 -2.51609 -2.96756 -3.15533 -3.26933 -3.23015 -2.74255 -3.17781 -2.55813 -2.85847 -3.27029 -3.12724 -3.10687 -2.9221 -2.52108 -2.76659 -2.07144 -2.65912 -3.04197 -2.70795 -3.23851 -2.39053 -2.80362 -2.97088 -3.14273 -2.8925 -3.08121 -2.9717 -2.997 -3.20995 -3.23363 -3.19231 -2.57033 -3.12856 -3.1473 -2.97281 -2.75187 -3.04432 -3.05311 -3.17386 -3.02097 -3.10479 -3.10825 -3.01181 -3.11616 -3.12393 -3.14187 -3.03107 -3.18915 -3.12192 -3.10907 -3.09287 -2.91396 -3.12839 -3.07444 -3.10691 -3.11779 -3.09822 -3.06695 -3.12108 -2.97393 -3.13199 -3.21005 -3.09115 -3.05131 -3.16946 -3.17023 -3.14785 -3.06112 -3.06556 -3.09661 -3.15648 -3.12226 -3.17348 -3.0744 -3.12415 -3.24812 -3.04933 -2.96975 -2.93104 -3.10385 -2.951 -3.11303 -2.99983 -3.0655 -3.2117 -3.23569 -3.12445 -3.16379 -3.05797 -3.09842 -3.19699 -3.23014 -3.13596 -3.1638 -3.06735 -2.98751 -3.079 -2.9862 -3.16927 -3.38891 -3.11826 -3.06655 -3.35595 -3.08517 -3.14478 -3.46602 -3.01994 -3.16458 -3.26152 -3.15493 -3.19141 -3.19475 -2.77896 -3.09072 -3.09873 -3.09646 -3.2272 -3.15823 -3.11825 -3.09302 -3.02339 -3.03228 -3.39156 -3.08531 -3.10414 -3.20288 -3.22751 -3.02858 -3.03611 -3.20337 -3.20951 -3.24872 -2.98964 -3.16112 -3.15129 -3.01934 -3.315 -3.18792 -2.86913 -2.84858 -3.13698 -3.00926 -3.08145 -3.11447 -3.00636 -3.07231 -3.16736 -3.04657 -3.28145 -3.02627 -3.04968 -3.1683 -3.21243 -2.98342 -3.20408 -3.14739 -3.07084 -3.04113 -2.88209 -3.13356 -3.00073 -3.03062 -2.94785 -3.03427 -3.11388 -3.03632 -2.94527 -3.0538 -3.02882 -3.19669 -3.13938 -2.85265 -2.91889 -3.24193 -2.8801 -3.09517 -3.1155 -3.09885 -3.03869 -3.1043 -3.0218 -3.12964 -3.29296 -3.18329 -2.99814 -3.12606 -3.18781 -3.12882 -3.10377 -3.18626 -3.00216 -3.0981 -3.00765 -3.04443 -2.99296 -3.11383 -3.15172 -3.03328 -3.16456 -3.22277 -3.09181 -3.17399 -3.09302 -2.86034 -3.03653 -3.17175 -3.05852 -3.08958 -3.19815 -3.09349 -2.97449 -3.1065 -3.22948 -3.12449 -3.20906 -3.07488 -3.10884 -3.08693 -3.18554 -3.29062 -3.1021 -3.23823 -3.16176 -3.00341 -3.22923 -3.21343 -3.44578 -2.92408 -3.21158 -3.24346 -3.17956 -2.79693 -3.27763 -2.87561 -3.21379 -3.21447 -3.02894 -3.26585 -3.10842 -3.15079 -3.06761 -3.42516 -3.05343 -3.23203 -3.12648 -3.21171 -2.99248 -2.80637 -3.28424 -3.27271 -3.27925 -3.24512 -3.22065 -3.22686 -3.08006 -3.23243 -3.25988 -2.96228 -3.00583 -3.2141 -3.0833 -3.15991 -3.00072 -3.0956 -3.19714 -3.09504 -3.1905 -3.251 -3.02411 -3.12745 -3.11013 -3.23051 -3.04046 -2.79108 -3.26442 -3.20901 -3.06995 -2.89848 -2.99686 -3.11865 -3.01745 -3.11536 -3.21345 -3.14383 -3.26522 -2.94934 -3.18367 -3.24669 -3.19681 -2.73707 -3.03707 -2.91138 -2.97955 -3.17518 -3.20609 -3.03999 -3.13363 -2.90413 -3.19085 -3.23378 -3.00648 -3.23867 -3.13322 -3.19394 -3.04986 -3.08139 -3.13549 -3.24402 -3.33987 -3.11444 -3.19133 -3.37025 -3.02576 -3.22465 -3.19959 -2.94503 -2.97918 -3.1043 -3.03699 -3.20796 -3.22588 -3.19152 -3.09807 -3.12238 -3.17134 -3.15618 -2.84428 -3.11593 -2.95945 -3.17327 -3.0306 -2.99884 -3.12182 -2.94421 -2.95224 -2.80918 -3.01645 -3.04206 -2.89137 -3.2303 -3.12226 -2.9343 -3.09096 -3.13475 -3.09428 -2.96309 -2.77406 -2.84169 -2.82444 -3.12091 -3.05533 -3.05926 -3.04815 -3.05682 -3.06598 -3.12056 -3.08253 -3.14627 -2.93101 -3.16221 -3.11013 -3.12971 -2.99931 -3.18724 -3.05476 -3.11782 -3.11944 -3.0103 -3.08471 -3.10406 -3.05601 -2.90276 -2.96737 -2.9088 -3.03041 -2.59317 -3.05131 -2.8805 -2.90661 -3.08376 -3.04722 -3.0047 -3.10265 -2.98242 -2.99868 -3.18847 -3.15449 -3.01825 -3.13468 -3.02231 -3.10117 -3.13993 -3.04411 -3.09088 -3.11841 -3.29769 -2.97708 -3.21152 -3.21539 -3.14037 -3.17104 -3.02371 -2.84737 -3.05622 -3.04984 -3.06128 -3.16306 -3.10255 -3.03436 -3.0758 -2.92852 -3.10177 -3.27773 -3.08257 -3.07346 -3.1049 -3.2482 -2.90399 -2.98696 -3.10604 -3.2984 -3.14652 -3.11135 -3.09057 -3.04315 -2.96433 -3.31059 -2.98827 -2.83645 -2.92388 -3.05956 -2.95849 -3.14448 -3.18059 -2.97595 -3.1371 -3.1527 -2.98873 -3.30212 -2.93101 -3.11373 -3.05274 -3.2062 -2.94644 -3.01881 -3.10512 -2.95232 -2.93598 -2.97816 -2.83809 -3.13394 -3.03618 -3.15758 -3.13193 -3.26916 -3.1693 -3.14349 -2.86213 -3.34121 -2.96532 -3.02114 -3.28131 -3.08002 -2.90043 -3.16487 -3.2346 -3.11032 -3.0903 -3.04519 -3.07338 -3.12931 -3.24317 -3.05896 -2.96057 -3.18128 -2.95619 -3.12218 -3.20273 -3.03992 -3.11192 -2.98749 -3.07874 -3.10803 -2.81632 -2.89247 -3.13282 -3.06755 -3.08343 -2.94465 -3.14096 -3.2807 -2.95963 -3.06406 -3.12109 -2.90652 -3.20244 -3.20516 -3.21996 -3.05688 -3.03696 -3.14356 -3.11331 -2.93931 -2.7813 -3.19006 -3.00069 -2.4643 -2.48026 -3.21336 -3.08416 -3.09579 -2.58504 -2.84154 -2.43523 -3.23274 -3.24867 -3.18446 -2.9779 -3.23797 -2.86462 -3.19121 -2.7771 -2.46049 -2.96059 -3.17036 -3.19564 -3.09392 -2.47815 -3.19693 -2.41767 -3.1501 -3.07575 -2.96209 -2.9929 -3.08009 -2.49976 -3.12975 -2.45985 -2.73358 -3.19662 -2.80623 -3.1131 -2.46111 -2.43541 -3.12582 -3.02915 -3.14744 -3.14593 -2.91002 -2.99048 -3.0986 -3.1872 -3.14019 -3.21329 -3.24826 -3.05948 -3.21625 -2.81837 -3.04924 -3.35934 -3.36501 -3.28639 -3.25252 -3.11872 -3.00743 -3.06368 -3.06907 -3.16554 -3.26152 -3.03862 -3.14107 -3.11833 -3.1187 -3.12369 -3.15852 -3.15761 -3.15346 -3.19163 -3.22205 -3.17872 -3.04383 -3.25441 -3.23723 -3.05601 -3.1883 -3.17517 -3.10751 -3.03578 -3.36183 -3.14413 -2.9684 -2.99141 -3.15494 -3.04975 -3.06997 -3.19892 -3.15806 -3.10815 -3.20714 -3.09285 -3.18877 -3.12762 -3.09175 -3.1635 -3.19928 -3.17742 -3.16764 -3.25368 -3.11857 -3.06088 -2.90215 -3.19406 -3.38565 -3.26543 -3.56782 -3.15118 -2.85159 -3.05357 -3.18391 -3.16789 -3.15178 -3.16482 -3.30797 -3.22416 -3.14296 -3.19364 -3.11133 -3.20262 -3.18358 -3.12736 -3.19926 -3.10017 -3.12118 -3.14996 -3.12296 -3.14905 -0.505017 -3.05609 -3.16358 -3.10279 -3.40786 -3.15723 -2.92611 -2.89469 -3.22843 -3.01137 -3.26722 -3.18346 -3.2356 -3.28701 -3.15558 -3.26566 -3.11012 -2.94454 -3.214 -3.17738 -3.14779 -3.05213 -3.10433 -3.2071 -3.01945 -2.90655 -2.96122 -2.4794 -3.2233 -3.21914 -3.19476 -2.60332 -2.72421 -2.45937 -3.01192 -3.31032 -3.26094 -3.32962 -3.2455 -3.04402 -3.10692 -2.88161 -2.45697 -3.33839 -3.08957 -3.38341 -3.09306 -2.48022 -3.25691 -2.43046 -2.98663 -3.27133 -2.96879 -3.19119 -2.93913 -2.5352 -2.97231 -2.36903 -2.70316 -3.27144 -2.8342 -3.1519 -3.0418 -3.24036 -2.80073 -3.06608 -3.05494 -3.22841 -2.98773 -3.20803 -3.0655 -3.00271 -3.07379 -2.46724 -3.20752 -3.14584 -3.10807 -2.57318 -3.6241 -3.2072 -3.11077 -1.98793 -2.6724 -2.57929 -3.24972 -3.18306 -3.09416 -3.10651 -3.20217 -3.23815 -3.33805 -2.77246 -2.46286 -2.94333 -3.07834 -3.30228 -3.08211 -2.41129 -3.31227 -2.51178 -3.01745 -3.29802 -3.01827 -3.22682 -2.79108 -2.56464 -3.15639 -2.68615 -2.69716 -3.20782 -2.67995 -2.97596 -2.45633 -3.03324 -3.17568 -2.92929 -3.07102 -3.21445 -3.01857 -3.08224 -3.03242 -3.16339 -3.11705 -3.16477 -3.33336 -3.07318 -2.95295 -2.78988 -3.15617 -3.01665 -3.22506 -3.14841 -3.04451 -3.12691 -3.13966 -3.02814 -3.16859 -3.14064 -3.20576 -3.39304 -3.22783 -3.10979 -3.07888 -3.14897 -3.27292 -3.18162 -3.00692 -3.16719 -3.22655 -3.04136 -3.23538 -3.1424 -3.25393 -2.91853 -3.22112 -3.13186 -3.09937 -2.98536 -3.2479 -3.07655 -3.07485 -3.12631 -3.02053 -3.14138 -3.1247 -3.31961 -3.21405 -3.10646 -3.1668 -3.0604 -3.20709 -3.1433 -3.1096 -3.11848 -3.07349 -3.16133 -3.08025 -3.0585 -2.89627 -3.1335 -3.12656 -3.16328 -3.2239 -3.13309 -3.35632 -3.18247 -3.02495 -3.20449 -3.33335 -3.13363 -3.14808 -3.09183 -3.21138 -3.12256 -3.10429 -3.17423 -3.45824 -3.21547 -3.65495 -3.03332 -3.33364 -3.08953 -3.42613 -3.19449 -2.95776 -3.02381 -3.18013 -3.01511 -3.2185 -3.28157 -3.27427 -3.15091 -3.06361 -3.17302 -3.31036 -2.99537 -3.01599 -3.09572 -3.18035 -3.12177 -3.13307 -3.21491 -3.01809 -3.02484 -3.08512 -2.77399 -2.84827 -2.898 -2.96408 -3.13555 -3.02463 -3.01364 -3.16569 -3.1832 -3.12652 -3.03265 -2.91171 -3.14633 -2.99076 -3.11059 -2.92216 -2.86802 -3.11053 -3.24363 -3.18188 -3.16063 -3.1861 -3.17905 -2.89289 -3.19315 -2.92875 -2.79088 -2.81251 -3.08558 -2.82653 -3.07339 -3.34312 -3.0248 -3.2619 -3.04269 -2.98066 -3.1121 -2.79062 -3.25524 -2.96899 -2.92793 -2.94848 -2.9803 -2.9901 -2.94997 -2.98034 -2.90682 -3.08485 -2.55246 -2.68009 -3.0184 -2.81468 -2.79116 -2.8236 -2.83977 -3.01443 -1.83581 -2.01024 -2.70624 -2.9633 -3.05014 -2.96374 -2.63812 -2.79039 -2.59152 -2.75909 -2.88325 -2.79455 -2.89841 -2.96519 -2.02585 -2.68465 -1.52384 -2.29123 -2.85728 -3.138 -2.76386 -2.56118 -2.50937 -2.78523 -2.90201 -2.68075 -2.87505 -2.95386 -2.7987 -2.83709 -3.01424 -2.97078 -1.88687 -2.93262 -2.86289 -2.93152 -2.40904 -2.71688 -2.82494 -3.08319 -3.12713 -3.11316 -3.01936 -3.10996 -3.08454 -3.52148 -2.57522 -3.11911 -3.16762 -3.15244 -3.16704 -2.76011 -2.91616 -2.98357 -3.08724 -3.07297 -3.3235 -3.21386 -2.93098 -2.87422 -2.98941 -2.64522 -1.01836 -3.02043 -3.3332 -3.14579 -2.81654 -2.81625 -2.98018 -3.19813 -2.88505 -3.14654 -2.89808 -3.11339 -3.0377 -3.16315 -3.07079 -2.78808 -2.9648 -3.13902 -2.87714 -3.13209 -3.08563 -3.26312 -3.02243 -3.07241 -3.13204 -2.98172 -2.77473 -2.82868 -2.38006 -2.89164 -2.96917 -3.23713 -2.81058 -2.47134 -3.14248 -2.47551 -2.93884 -3.02232 -2.80031 -3.03185 -2.79078 -2.47422 -2.87686 -2.4141 -2.71583 -3.11668 -2.72514 -2.95904 -2.4746 -2.47974 -2.74229 -2.94304 -2.6657 -2.96466 -2.70548 -2.87991 -3.03308 -2.96132 -3.08171 -2.45138 -3.0253 -3.08947 -2.71175 -2.77579 -3.21783 -3.09422 -3.05572 -3.13136 -3.06443 -3.24651 -3.23298 -3.13075 -2.88492 -3.10908 -3.15917 -3.19776 -2.99638 -3.32511 -3.14599 -2.97555 -3.16888 -3.23513 -3.0886 -3.04065 -3.23498 -3.09138 -2.6376 -2.83728 -3.28294 -2.64472 -3.06885 -3.22152 -2.92961 -3.10141 -3.08266 -2.99129 -3.06906 -2.99158 -3.02049 -3.06439 -3.24454 -3.13436 -3.21734 -3.22232 -3.17094 -3.05677 -2.94778 -3.36729 -3.23594 -3.14206 -3.2579 -3.32511 -3.15883 -3.11782 -3.25575 -3.43938 -3.30794 -3.14442 -3.15356 -3.121 -3.23397 -3.21128 -3.29 -3.26454 -3.15047 -3.13605 -3.28843 -3.28037 -2.99626 -2.91876 -3.13713 -3.10081 -3.22077 -3.40829 -3.22842 -3.28005 -3.24775 -3.14703 -3.23695 -3.12049 -3.21087 -3.13018 -3.14058 -3.15978 -3.1948 -3.14631 -3.08525 -3.1081 -3.08446 -3.17003 -3.10307 -3.29861 -3.04808 -3.02763 -3.02795 -3.25102 -3.0911 -3.21992 -2.97262 -3.05705 -3.12137 -3.07683 -3.05647 -3.15663 -3.12577 -3.07503 -3.11222 -3.14841 -3.26882 -2.97871 -2.94388 -3.05661 -3.00365 -3.14039 -3.29512 -3.14296 -3.1952 -3.27889 -3.08613 -3.06583 -3.04955 -3.23019 -3.08608 -3.14821 -3.1695 -2.9868 -3.09449 -3.01 -3.08681 -3.02725 -3.14551 -2.61939 -3.14728 -3.13166 -3.0874 -3.09806 -3.16851 -3.22048 -3.06536 -3.11346 -3.11996 -3.06976 -3.19828 -3.57937 -3.03953 -3.24303 -3.06226 -3.30976 -3.13007 -2.91236 -2.8792 -3.20801 -2.88961 -3.06143 -3.2296 -0.973715 -3.10177 -3.11293 -3.03808 -3.11954 -2.94913 -3.11841 -3.08978 -3.15035 -3.0362 -3.01831 -3.13523 -3.06391 -3.03589 -3.02299 -3.27986 -3.25907 -3.1525 -3.10108 -3.12745 -3.20413 -3.27567 -3.11532 -2.90916 -3.08735 -3.29003 -3.09518 -3.16734 -3.1736 -3.1538 -3.0118 -3.27604 -3.17157 -2.93755 -2.85344 -3.17669 -2.90742 -3.07406 -3.14928 -3.0714 -2.84879 -3.18095 -3.22641 -3.17768 -2.99332 -3.17752 -3.06898 -3.2055 -3.12514 -3.10372 -3.01371 -3.05676 -3.09189 -2.9108 -3.21562 -3.18208 -3.15908 -3.09436 -3.21999 -3.2513 -3.15121 -3.10841 -3.20118 -3.05383 -3.13056 -3.10329 -3.10411 -3.13142 -3.07989 -2.93821 -3.12041 -2.85035 -2.93941 -3.25047 -2.92841 -3.12416 -3.01374 -2.72002 -3.16922 -3.11271 -3.11981 -3.10569 -2.84632 -3.07339 -3.17205 -3.20203 -3.1126 -3.08479 -3.13615 -2.97909 -3.01401 -2.9274 -3.163 -3.22503 -3.22831 -3.15937 -3.33393 -3.11658 -3.06388 -3.15068 -3.31696 -3.12245 -3.31915 -3.22493 -3.19996 -2.99573 -3.32604 -2.92097 -3.10885 -2.99055 -3.19733 -3.08577 -3.12936 -2.82301 -3.19283 -2.94231 -3.20977 -3.09923 -3.26041 -3.07844 -3.1897 -3.1592 -3.23524 -3.20193 -3.1595 -3.15402 -3.0795 -3.16157 -3.12364 -2.46193 -3.10576 -3.23258 -3.27912 -3.13087 -2.77178 -3.2767 -2.79358 -3.21711 -3.18622 -3.1558 -3.13464 -3.0599 -2.73731 -3.14475 -2.29882 -3.21514 -3.2258 -3.0595 -3.08614 -2.73109 -2.67313 -3.07872 -3.20212 -3.08317 -0.303663 -3.03845 -3.07523 -3.1977 -3.18432 -3.07454 -2.61024 -3.21103 -3.19486 -3.10482 -2.58697 -2.89097 -3.12008 -3.20477 -3.1776 -2.43692 -3.06252 -2.41809 -3.00972 -3.10549 -3.10007 -3.17835 -3.18616 -2.54631 -3.09617 -2.80448 -2.77175 -3.20709 -2.86788 -3.06312 -2.36286 -2.35759 -2.94852 -3.03769 -3.054 -3.09059 -3.04906 -2.99673 -3.01046 -3.19014 -3.11211 -2.43739 -3.17191 -3.1442 -3.17859 -2.72244 -2.94615 -3.16911 -2.93578 -2.67158 -3.09606 -3.06294 -3.05586 -3.2043 -3.13843 -3.21544 -3.01967 -3.33477 -3.08542 -2.81473 -2.85574 -3.16516 -2.84563 -3.18318 -3.05963 -3.07272 -3.13134 -3.13021 -2.97123 -3.14722 -2.91326 -3.05243 -3.06378 -3.07429 -2.96895 -2.90737 -3.08196 -3.02347 -3.011 -3.03168 -3.03235 -3.09518 -2.91557 -3.2401 -3.05719 -3.05838 -3.06432 -3.1335 -3.07468 -3.1119 -3.13301 -2.96574 -3.12534 -3.02347 -3.12662 -3.08804 -3.06983 -2.98807 -2.97162 -3.07448 -3.08505 -3.02047 -3.19773 -3.13307 -3.15317 0.647567 -2.89645 -3.20352 -2.65244 -3.12861 -3.09051 -3.23508 -3.17155 -3.13446 -3.21264 -3.2257 -3.2599 -3.08978 -3.209 -3.18374 -3.11938 -3.14928 -3.32503 -3.20765 -3.14183 -3.11503 -3.21333 -3.21751 -3.27261 -3.29747 -3.26077 -3.32449 -3.28983 -3.17895 -3.21833 -3.14751 -3.23198 -3.20075 0.553428 -3.19444 -3.36405 -3.17245 -3.12804 -3.15538 -3.21896 -3.22298 -3.12433 -3.03253 -3.10887 -3.06714 -3.05968 -3.0242 -3.12489 -3.03974 -3.03291 -3.09021 -3.03869 -2.915 -3.12041 -3.12066 -3.05498 -2.97059 -3.03468 -3.15087 -3.11887 -3.03159 -3.02921 -3.03103 -3.11245 -3.19235 -0.471455 -3.2392 -3.07053 -3.04066 -3.15574 -3.09147 -3.17892 -3.14591 -2.90781 -3.08228 -3.00534 -3.05818 -2.98775 -2.51419 -2.7511 -2.42168 -2.7054 -2.96731 -2.84168 -3.00451 -2.43823 -2.41189 -2.7413 -3.03488 -2.81596 -3.09697 -2.87748 -2.98715 -2.68305 -2.93776 -3.25033 -2.18469 -3.20563 -3.08601 -3.15856 -2.76215 -3.21277 -3.18417 -3.23412 -3.2098 -3.11637 -2.92461 -3.29741 -3.08271 -2.97692 -2.89809 -3.08827 -2.94604 -3.18899 -3.21058 -3.04936 -3.13158 -3.17861 -2.99576 -3.21097 -3.02536 -3.07777 -3.11349 -3.2464 -3.11943 -3.10156 -0.505949 -3.12531 -3.13131 -3.1012 -3.19226 -3.05025 -2.8527 -3.15302 -3.15319 -2.55046 -3.06323 -2.33496 -2.83706 -3.17503 -2.91239 -3.10379 -2.42642 -2.71256 -3.24649 -2.91276 -3.11636 -3.34924 -2.89118 -3.16276 -3.08561 -3.1258 -3.01785 -2.50488 -3.24017 -3.28562 -3.08382 -2.71328 -3.17002 -3.20695 -3.20389 -3.07361 -3.22643 -3.02216 -2.76047 -2.85701 -3.18371 -2.84624 -3.12445 -3.06577 -3.04402 -2.98223 -3.1022 -3.06748 -3.24349 -2.97262 -3.08523 -3.01637 -3.07147 -3.1573 -3.06949 -3.16905 -3.08331 -2.98981 -2.99914 -3.1047 -3.16283 -3.14864 -3.4141 -3.17342 -3.0168 -2.93027 -3.17509 -3.00952 -3.3161 -3.28152 -3.65815 -3.17197 -3.09681 -3.12282 -3.09295 -2.90131 -3.20983 -3.04942 -3.18161 -3.07807 -3.16809 -3.1273 -3.05105 -2.88646 -3.00209 -3.17988 -3.05674 -3.09882 -3.16834 -2.99118 -3.06965 -3.22531 -3.00571 -3.18631 -3.01528 -2.92703 -3.15587 -3.06426 -3.13267 -3.17565 -3.07995 -3.20924 -3.26428 -3.0718 -3.07388 -3.00846 -3.13661 -3.05097 -3.08936 -2.98291 -3.05341 -3.38718 -3.05662 -2.94223 -2.96119 -3.09157 -3.05218 -3.22555 -3.18512 -3.31785 -3.2353 -3.09366 -3.13214 -3.16876 -2.9867 -3.10689 -3.05761 -3.15804 -2.98708 -3.17506 -3.04643 -3.0508 -3.00092 -3.10254 -3.13247 -2.94899 -2.59518 -2.95078 -3.06037 -2.87213 -3.00669 -3.01997 -3.06703 -2.82443 -3.03337 -3.17672 -3.01492 -3.25176 -2.98823 -3.09703 -3.16272 -3.0661 -3.15272 -2.99588 -3.10634 -3.10065 -2.99491 -3.09092 -2.83139 -2.7494 -3.2315 -2.9904 -3.33518 -2.53856 -3.07702 -3.28724 -2.92403 -3.19279 -3.29802 -3.00801 -3.25632 -3.21208 -3.12471 -3.03698 -2.4061 -3.21447 -3.23562 -3.19577 -2.81287 -2.87672 -2.81315 -3.04674 -2.933 -3.12662 -2.85622 -3.00336 -3.13694 -3.07199 -3.17747 -3.16845 -3.0253 -3.08258 -3.1273 -3.09633 -3.04661 -3.03692 -3.08649 -3.03267 -3.04328 -3.0414 -2.56227 -2.98425 -0.829355 -2.93063 -2.31279 -2.2342 -2.78693 -2.94 -2.61656 -3.05915 -2.92651 -2.76595 -3.0318 -3.14086 -2.98549 -2.34765 -3.00524 -3.06101 -2.97337 -2.70459 -2.79265 -2.54569 -3.04709 -2.74331 -2.61188 -2.75747 -3.0095 -2.78221 -2.88292 -2.81056 -2.85364 -2.95804 -3.13711 -3.0652 -2.77428 -2.91157 -3.06384 -2.77494 -2.99261 -2.92622 -3.15415 -3.25669 -3.13558 -3.16686 -3.08839 -3.15095 -3.1982 -3.03654 -3.0718 -3.08545 -3.26585 -3.24848 -3.15943 -3.16936 -3.06542 -2.99588 -3.08357 -3.0253 -2.76181 -2.71761 -2.89826 -2.97684 -3.03282 -3.08428 -2.80355 -2.90281 -2.99746 -3.24174 -3.13614 -2.86534 -3.12091 -3.02897 -2.95573 -3.09003 -2.79477 -3.19198 -3.15175 -3.17525 -3.08171 -3.18026 -2.9808 -3.12812 -3.04724 -3.10769 -3.1577 -3.09226 -3.08821 -3.04726 -3.06796 -3.04047 -2.48069 -2.84938 -2.96912 -3.06188 -3.1901 -2.87621 -2.9573 -3.0779 -3.17925 -2.94985 -2.9974 -3.12407 -2.96451 -3.05703 -2.71831 -2.96732 -2.8581 -2.95197 -3.07246 -2.85594 -3.05275 -3.01977 -3.04975 -2.91131 -3.05738 -3.06501 -3.04423 -3.03679 -2.62508 -3.155 -3.13733 -3.22279 -2.99963 -3.15106 -3.02043 -3.23415 -3.04127 -3.03425 -3.11082 -3.01216 -2.9153 -2.92692 -3.08075 -3.19703 -2.91261 -2.99082 -3.18422 -3.24483 -3.09209 -3.10839 -3.1959 -3.00228 -3.08924 -3.03637 -3.14934 -3.17974 -3.05439 -3.07437 -3.18307 -3.10209 -3.17909 -3.07465 -3.06304 -2.99867 -2.98993 -3.0284 -3.1708 -3.12117 -3.1909 -3.12446 -3.13869 -3.19627 -3.21409 -3.07706 -2.97105 -2.92076 -3.12249 -3.10948 -3.04555 -2.94162 -3.04504 -2.9585 -2.85518 -2.84449 -3.1088 -3.15511 -2.96823 -3.09192 -3.04924 -2.97 -3.00387 -2.96956 -3.14431 -3.11339 -3.20933 -3.03035 -3.0462 -3.11665 -3.13151 -3.20405 -3.20794 -3.20984 -3.13141 -3.18188 -3.17536 -3.23937 -3.10552 -3.16292 -3.13087 -3.10545 -3.04345 -3.18918 -3.18795 -2.76534 -3.06994 -3.05814 -3.02986 -3.03181 -3.04753 -3.00787
probB 0.134152 0.104233 -0.000776246 0.0664877 0.116103 0.0699675 0.0962433 0.129287 0.00335919 0.269107 0.0891387 0.13826 0.350731 0.229544 0.107636 0.070829 0.243798 0.105042 0.0362385 0.35218 0.0772273 0.20811 0.075616 0.108041 0.154036 0.210312 0.203281 0.0406853 0.287576 0.266365 0.235797 0.122574 0.164191 0.33291 0.142661 0.221328 0.0855798 0.110336 0.0891977 0.193928 0.115746 0.113373 0.16363 0.11193 -0.010998 0.165276 0.0575987 0.216707 0.322091 0.471849 0.175508 0.283896 0.113174 -0.0044123 0.0887604 0.102589 0.110041 0.186651 0.118533 0.310783 0.085534 0.000859433 0.0918421 0.12534 -0.10364 -0.196184 0.121618 0.0262945 -0.0845544 -0.344992 -0.137024 -0.138737 -0.0387829 0.0579426 -0.0110396 0.0306625 0.016368 -0.17092 -0.0571149 -0.201654 -0.0700604 -0.472901 -0.101785 0.0622415 0.00907185 -0.0264375 0.0153163 -0.22466 -0.00127957 0.041825 0.112459 -0.105053 -0.0201158 0.118819 0.0344802 0.00663337 0.252909 0.0293162 0.0293455 0.0598746 -0.0329362 -0.00562907 -0.0255015 -0.0574912 0.0104567 0.0147168 0.100571 -0.343291 -0.00919195 -0.269496 0.110271 -0.0973677 0.173247 -0.0384936 0.0747631 0.0434518 -0.0436395 -0.215613 -0.107281 0.138846 0.119871 0.0352195 0.0560389 -0.159416 -0.150416 0.0224809 -0.273206 0.0430403 0.0860504 0.00327046 0.0114361 0.0440112 0.062849 -0.0406778 0.265167 0.000850859 0.056505 0.236019 0.289008 0.0469396 -0.0193903 0.138455 0.0226669 0.117939 0.250953 -0.0128515 0.0128005 0.00102596 -0.00731039 -0.0796081 -0.103536 0.100187 0.0348978 0.235117 0.0290691 0.108083 0.0827432 0.0175483 0.22731 0.123592 0.172708 0.0965772 -0.0175962 0.054023 0.0504836 0.0185836 0.170325 0.0653919 -0.0558041 -0.0947135 -0.0343888 0.0134969 0.0940751 0.159978 0.104044 0.0892303 0.0568846 0.00617476 0.0570986 0.0283292 0.0149531 0.0293503 0.154527 -0.000975111 0.314459 -0.0777582 -0.0158386 0.0168681 -0.00431609 0.139284 0.219913 0.20684 0.012908 -0.0279086 0.105399 0.245661 -0.0873255 0.0372995 0.238837 0.298561 0.0348297 0.0786608 0.0250107 -0.117321 0.0483554 0.390304 -0.0680214 -0.0020036 -0.0108867 0.152861 0.0362286 0.136532 0.0513306 -0.00106282 0.12457 0.088678 0.186519 0.0151958 -0.0240611 0.277768 -0.0317923 0.273352 0.0520779 0.0246134 0.119862 0.197396 0.0405339 0.22636 0.0492694 0.0414573 -0.111289 0.0197212 0.163904 -0.0157401 0.240769 0.23039 0.281071 0.0936505 0.0138289 0.0690216 0.071744 0.00966292 -0.0220889 0.136206 0.0147598 0.213766 -0.0330826 -0.0158061 0.0259204 -0.0192469 0.0136821 -0.122785 -0.0703923 -0.0349533 0.00520193 0.188958 -0.0295602 -0.00705127 0.267005 -0.00326325 -0.123074 -0.0233928 -0.0446365 -0.288441 0.00312154 0.162241 -0.119957 0.0707362 0.00689166 -0.0207912 -0.0293478 0.00590439 0.0838484 -0.116584 0.0738744 -2.03465e-05 0.144738 0.00675927 -0.138222 0.204616 0.00368415 0.0814659 0.0684969 -0.0382702 -0.0403747 0.0321048 -0.113798 0.167538 -0.0337606 0.00495753 -0.0115392 -0.0660547 -0.160556 0.140077 0.2116 0.311126 0.0968188 0.113077 -0.0449761 -0.138932 -0.0218674 0.00599891 -0.00596223 0.0461009 0.0668956 0.163361 -0.0623717 -0.0617781 -0.145225 -0.0671048 0.134962 -0.129049 -0.0128563 -0.105204 0.179923 -0.14047 -0.0711365 0.309739 0.184405 -0.091707 -0.00644823 0.152584 -0.298024 -0.160992 0.161753 -0.0461449 0.11291 0.0475791 0.00279978 -0.0405576 -0.0147836 0.164003 0.262486 0.109416 0.108181 0.197832 0.0943782 0.0986947 0.202009 -0.00629221 0.161056 0.129904 -0.0227398 -0.0118096 -0.0126529 -0.0644282 0.193452 0.0774461 0.0389218 -0.140096 -0.0101236 0.0359895 -0.0201877 0.187174 0.160549 -0.0147367 0.111786 -0.181997 0.144487 -0.0251732 -0.0608855 -0.0193198 0.108075 0.00920493 0.160325 0.0352972 -0.0509776 -0.00570666 -0.0434249 0.0376142 -0.166711 -0.00404538 0.074581 -0.105115 0.0548736 0.366161 0.176518 0.0814545 -0.0220524 -0.0019422 -0.168642 -0.00164791 0.3128 0.101096 0.0790474 0.0160597 0.219136 -0.00635301 0.236511 -0.00268291 -0.0461958 0.184623 0.069184 0.194228 -0.00823125 0.0886673 0.138363 0.120041 0.00816984 0.139771 -0.0461188 -0.0244436 0.267202 0.103528 0.132013 0.0984057 -0.029281 -0.154372 0.0867773 -0.101204 0.0658983 0.310968 0.286949 0.0643648 0.237024 -0.0625282 -0.0476711 -0.0191657 -0.0279339 -0.00560305 0.186371 -0.0217744 0.255063 0.0690114 -0.00142367 -0.0177272 0.0469128 -0.0649066 -0.0106741 0.354557 0.00566637 0.0523255 0.279435 0.391571 -0.0610339 0.045354 0.10295 -0.160987 -0.0341722 0.271565 0.0479681 -0.0238768 0.0246863 0.0520137 0.00201856 0.0193815 0.0667126 0.00014004 0.200939 0.125213 0.244651 0.102855 0.0765507 0.364309 0.135011 0.203987 0.0798445 0.0928633 0.0542225 0.0371815 0.112539 0.394067 -0.0481039 0.203125 -0.0245211 0.0653883 0.34101 -0.0557634 0.0856347 0.157022 0.228263 0.0802873 -0.00427172 0.0457685 -0.0114453 -0.0135961 0.119399 0.0290358 0.135603 0.243307 -0.0360017 -0.0514676 0.0801599 0.132311 -0.0820457 0.258305 -0.108849 0.0339287 0.24494 0.148602 0.0373399 -0.0762724 -0.00249356 0.0495433 0.0319738 0.307456 -0.00330746 0.0600752 -0.0183409 -0.259889 -0.0706125 0.0104604 0.17293 0.0840644 0.129538 -0.0382551 0.160535 0.103663 0.110728 0.26632 0.0952636 -0.0521987 0.175142 -0.218433 0.0977458 0.0825854 0.0598209 0.0866558 0.0338894 0.000120041 -0.18163 0.0763275 0.126516 0.0185192 0.229191 0.24497 0.0927643 0.111692 -0.000187703 0.0243482 0.0398518 0.0115102 -0.00835598 0.100086 0.0124431 0.185199 -0.0429934 0.0201155 0.0354959 -0.0144023 0.161363 -0.0866027 0.174186 0.329748 0.346051 -0.178133 -0.102385 0.0180609 0.115072 -0.120676 0.380181 0.0128195 -0.0617188 0.0813921 0.210758 -0.153991 0.211905 0.295522 -0.0687993 0.253227 0.0432163 0.167878 -0.0584127 0.0424655 0.266076 0.0098271 0.385911 0.164661 -0.200553 0.156539 0.197154 0.0631601 0.348499 0.132484 0.095549 -0.0940962 0.0165668 -0.0673328 0.0908513 0.30125 0.27326 -0.20022 0.158055 -0.0405271 -0.115458 0.0617199 -0.0147263 0.0927055 0.147511 0.0447273 0.209543 0.0312944 -0.0593522 0.105512 0.094273 -0.132237 -0.0907726 0.0262118 0.0221227 -0.24709 -0.0898026 -0.301278 -0.323475 -0.249065 -0.0724887 -0.290771 -0.120319 -0.214332 -0.0921402 -0.280126 -0.107664 -0.139486 -0.0950133 -0.00782493 -0.178802 -0.0117333 -0.183778 -0.245591 -0.000754503 -0.11364 -0.0339625 -0.0739949 -0.168253 -0.191355 -0.134884 -0.211873 0.0341101 -0.214723 0.0664456 -0.299772 -0.219936 -0.315072 -0.133495 -0.0763164 -0.0144697 -0.249106 -0.105751 -0.299854 -0.088288 -0.35238 -0.227626 -0.11954 0.00650844 -0.134483 -0.0118012 -0.149622 -0.22953 -0.13918 -0.270341 0.101356 0.284811 0.0726934 -0.0421573 -0.00510562 0.220205 0.0508975 -0.0588356 0.277833 -0.0255418 0.0995804 -0.0259462 0.0518837 -0.106542 0.0522293 0.156044 0.406061 0.11612 0.0706636 0.214281 0.114945 -0.0495984 0.249239 -0.0321084 0.15676 0.0121534 -0.0222946 0.0707302 0.0141094 0.0399189 0.0368061 0.270684 0.0799792 -0.104405 0.0485515 -0.0289469 -0.0345228 0.292165 0.285648 0.160876 0.156037 -0.125924 0.104604 0.0163882 0.0410312 -0.0704767 0.165324 -0.0108093 0.0881548 -0.0962405 -0.0627483 0.0419261 0.0339867 0.149036 0.0663231 -0.0363504 0.196273 -0.100351 -0.175418 0.0555909 0.161001 -0.0213319 -0.00161671 0.00298569 -0.314393 -0.163594 0.117549 0.083825 -0.0177311 -0.0425609 0.0154583 0.104102 0.0484394 0.0759835 0.256636 0.0312921 0.398715 0.0842685 -0.030753 0.101221 0.164079 -0.0321579 0.136978 0.0201363 -0.103082 -0.0508759 0.0418089 -0.071119 0.000554707 0.255637 -0.0555684 -0.0608921 -0.106797 -0.0812964 -0.128178 -0.0484549 0.111991 -0.0358219 0.110397 -0.00500318 0.172733 0.00523525 -0.0158707 -0.0957527 0.0501838 -0.00549261 -0.30424 -0.203745 0.0126695 -0.447431 -0.28799 -0.00704971 -0.242904 -0.11484 -0.244904 -0.0541101 -0.427909 -0.168674 0.024672 -0.143938 -0.00686128 -0.189595 0.0807098 -0.185278 -0.167781 -0.0128482 -0.131337 0.0142246 -0.187229 -0.13072 -0.151346 -0.192327 -0.158035 0.0538409 -0.191407 -0.0644319 -0.437719 -0.0968543 -0.335516 -0.289391 0.09201 0.0213562 -0.145176 -0.0980266 -0.309551 -0.180058 -0.26922 -0.0828963 -0.213357 -0.123936 -0.169401 0.11469 -0.187683 -0.277375 -0.170646 -0.333151 -0.707048 -0.258824 -0.0329564 0.0287921 -0.282192 0.0441766 -0.317044 -0.0508504 -0.113846 -0.0781792 -0.351086 -0.248264 0.0318344 -0.0715968 0.0152154 -0.0366828 0.0738336 0.00309073 -0.0677445 0.0368891 -0.0661252 -0.0427677 -0.0105885 -0.0181256 -0.1343 0.0204896 0.0492656 -0.0246319 -0.196645 -0.261265 -0.31345 -0.0469703 -0.411254 -0.324338 -0.0482733 -0.0328785 -0.0593383 -0.0450209 -0.319557 -0.0727748 -0.402154 -0.244555 -0.13247 -0.0370315 -0.161911 0.146089 -0.0678495 -0.245064 0.02023 -0.379522 0.107167 0.060386 0.391201 0.0924629 0.325141 0.034141 0.0685276 0.0721064 0.138857 0.044209 -0.0505241 0.254587 0.152566 0.305879 0.162006 0.271521 0.272095 -0.0277359 0.401307 0.0376992 0.263911 0.0684245 0.100973 0.0538357 0.0384871 0.133106 0.283039 0.0635157 0.0922312 0.137479 0.0867611 0.068715 -0.051707 0.298385 0.188107 0.120048 0.16606 0.00723803 -0.0160643 0.131118 0.0926632 0.128805 0.171229 -0.0715888 0.40744 -0.0200459 -0.0550437 -0.0744398 0.0207844 -0.0366592 -0.226801 -0.0397779 0.232756 0.0168728 0.114546 0.0075226 -0.0601687 -0.0676244 0.284202 0.0959123 -0.0462526 0.0512936 0.0902666 0.152204 0.0942265 -0.0132627 0.213895 0.0901679 0.26906 0.0689478 0.0468318 0.0948024 0.117675 0.000192452 0.209059 0.132532 -0.0588798 -0.178138 0.0509661 -0.0731798 0.00232111 0.30512 0.0746966 0.117826 0.275253 -0.124762 0.00313354 0.0331593 0.0518547 -0.0397741 0.142617 0.0102069 0.1775 -0.00378402 -0.0838591 -0.0316411 0.00301065 -0.111547 0.018329 0.313197 0.0551184 0.164293 -0.0157753 0.0757068 -0.183687 0.140254 -0.0563447 0.0237609 0.164208 0.0770953 0.280051 -0.07205 0.0138177 0.288504 -0.0869352 -0.203164 -0.0211715 0.16928 0.168372 0.0932075 0.136969 0.106191 0.0738655 0.0594001 -0.174587 0.0709516 0.165743 0.0885471 0.24071 0.0669192 -0.0757332 0.145579 -0.027562 0.147174 0.106899 0.188069 0.133586 0.236366 -0.0977815 0.393076 0.0733325 -0.072606 0.0849679 0.0575531 -0.0343428 0.375706 0.228518 -0.0208593 0.203472 0.220602 -0.0528371 0.191955 0.0298098 0.362154 -0.240788 0.146991 0.291177 0.186416 0.1854 0.379141 0.258298 0.356744 0.196398 0.303648 0.236987 0.196097 0.028058 0.0672572 0.0818778 0.0137109 -0.188305 0.0566139 -0.536209 0.113495 0.443222 0.457338 -0.0314899 0.00756903 0.0197012 0.115297 -0.266413 0.0774155 0.328104 0.345707 0.22675 0.14065 0.220974 0.155428 0.178201 -0.216072 0.261243 0.0707129 0.0476382 0.0158069 0.134813 -0.034714 0.0676262 0.00715656 0.482479 0.251915 0.0694516 0.198133 -0.0407424 -0.00799131 0.393802 0.0058493 0.480013 0.302833 -0.0820511 0.273039 0.0301615 0.12109 0.350903 -0.00278698 0.0168055 0.0279643 -0.0328139 -0.415253 0.027234 0.263988 0.4726 0.0329869 0.257735 -0.0482864 0.122658 0.0902449 0.0874145 0.0867099 0.160594 0.0683328 0.337591 -0.00480704 0.0556695 0.170167 0.143603 -0.349722 -0.138567 -0.256045 -0.258874 -0.333459 -0.300927 -0.086963 -0.198141 0.109275 -0.299958 -0.0626567 0.00893323 -0.238071 0.0655293 -0.187061 0.0161473 -0.187266 -0.188215 -0.290873 -0.282767 -0.154407 -0.0229332 -0.235709 0.0477558 -0.36279 -0.129002 -0.367024 -0.281225 -0.0300149 -0.0665934 -0.0875797 -0.291125 -0.300857 -0.30873 -0.237063 -0.404126 -0.149031 -0.12762 -0.205471 0.0257605 -0.186028 -0.338804 -0.0981398 -0.294942 0.00142269 0.0519398 0.152859 0.00570441 0.00689319 0.168759 0.109734 0.114905 0.0815557 0.353211 0.11937 0.0371351 0.319738 0.128157 0.139363 0.103699 0.0724955 0.0479973 0.125963 -0.00700306 0.310201 0.0476015 0.162873 0.0352673 -0.0288327 -0.187092 -0.0151222 0.333081 0.211524 0.045719 0.0915521 -0.141098 0.00999641 0.0145016 -0.0305075 0.163818 0.123222 -0.00601424 0.146716 0.0207722 -0.0458103 -0.131686 0.0986734 -0.0277702 -0.0497117 -0.0353889 -0.0827604 0.0486445 0.00800732 0.128702 0.023557 0.00154172 0.0674356 0.019809 0.00874463 0.0249604 0.0536606 -0.177878 -0.00802823 -0.0731805 -0.061108 -0.0616187 0.0191477 -0.214964 0.0333198 -0.0919071 0.0411662 -0.0136191 -0.0852563 -0.00272651 0.10255 0.0674228 0.076043 -0.146072 -0.0666696 -0.0928073 -0.087864 0.0553883 -0.0260475 0.0961657 0.103983 0.00460305 -0.0914413 0.107737 0.0214461 0.0517384 -0.0309541 0.15677 0.144643 0.0149071 0.106919 0.151138 0.163664 0.246334 0.0953961 0.121631 0.0931713 0.0649048 -0.0750737 0.0310782 0.0161352 -0.00333813 -0.175039 0.156905 0.105596 -0.00324107 -0.0381829 0.0541136 0.0740386 -0.111513 0.283133 0.126438 0.0503949 0.0559106 -0.0233706 0.0215911 -0.118671 -0.0786866 -0.00799903 0.10622 0.0998538 0.129477 0.0783915 0.04565 -0.00884072 0.102424 -0.0614212 0.315256 0.10465 -0.187347 0.0506634 0.101064 0.165923 -0.0541923 -0.00952759 0.123388 0.0921474 0.42631 0.00235892 -0.133869 -0.0158181 0.0475329 -0.057756 0.102341 -0.0849526 -0.0228479 -0.220658 -0.0474361 -0.0956975 -0.172477 0.129466 -0.00639957 0.216444 0.0494901 -0.220535 -0.107638 -0.096615 -0.013126 -0.026157 -0.0293325 -0.022395 0.0693714 0.0350993 -0.100003 -0.00493247 -0.0944737 0.0948406 0.33746 0.0242457 0.145848 0.0664689 0.32142 0.159858 0.0119608 0.300611 0.0950064 0.228769 0.0766163 0.0144401 0.172025 0.248026 -0.0382785 0.287427 0.136013 0.138953 0.0140653 0.110633 0.118854 -0.028993 0.260828 0.313802 0.22636 0.0978975 -0.0888516 0.172128 0.126414 0.0159841 0.0904734 0.154843 0.0329585 0.209244 0.072632 0.00468546 -0.0224233 -0.010245 0.236011 0.397722 0.124033 0.0135655 0.176896 0.0656938 0.0293272 0.224236 0.054528 0.102836 -0.0451347 -0.124177 0.0281571 -0.13676 0.00862553 0.189441 0.0360061 -0.0362859 -0.0371238 -0.122609 -0.0585052 -0.0383591 0.242166 -0.135004 0.191425 0.130166 -0.115416 -0.0344997 -0.101931 -0.0454215 0.00650255 0.0700954 0.00640797 0.199784 0.0619233 0.0119548 0.00258366 0.122888 -0.135053 -0.0448599 0.0426657 0.172826 0.0128858 0.0588827 0.157277 0.0329371 0.0551016 -0.141673 -0.187075 -0.190832 -0.117097 -0.102587 0.0995842 0.0243407 -0.00498819 -0.123919 -0.0457342 -0.138581 -0.174279 -0.0199834 0.0577548 -0.11011 0.0105677 -0.221997 -0.0138602 -0.140902 -0.109226 -2.97094e-06 0.158244 0.0860003 0.100333 -0.0848728 -0.00951757 -0.0236785 0.0513652 -0.177371 -0.0159649 0.204912 -0.0606591 -0.0627928 -0.0634163 0.0393664 0.199515 0.130892 0.0173718 0.123179 0.151778 0.0309662 -0.0212743 0.0619177 -0.136432 -0.344398 -0.0294898 -0.112186 -0.0178971 0.131569 -0.000310033 0.199274 0.143305 0.0184445 -0.0787703 -0.00774795 -0.0836354 -0.000992422 0.13072 0.0822639 0.00936304 0.0122172 -0.0410879 -0.0291774 -0.425258 0.0286367 0.147767 0.159332 0.0179943 0.0930097 0.04704 0.0143659 -0.0713767 -0.0630742 0.0157296 -0.0412298 -0.038068 0.0695044 -0.146624 -0.159009 -0.166016 -0.0524201 -0.40212 -0.087761 -0.0457732 -0.0787372 0.0484393 0.0187883 -0.267682 -0.00275152 -0.13245 -0.176587 0.0796912 0.0248581 -6.48331e-06 0.0685236 -0.0920763 -0.186816 0.0774808 -0.18911 0.267791 0.000474335 0.134207 0.16341 0.0852467 0.146846 0.090017 -0.158579 0.0857923 -0.0546197 0.0299464 0.0962251 0.0120639 0.0689087 -0.181892 0.0313902 -0.0430416 -0.0432581 0.323794 0.134275 0.0558069 0.0144059 -0.258051 0.0762201 -0.00975778 0.178781 0.20387 0.0277911 0.0892715 0.154485 -0.0204386 -0.0374444 -0.0292366 0.0189842 -0.114436 -0.0199411 -0.0443067 -0.185403 -0.0869821 -0.115855 -0.142278 -0.0890587 -0.151073 -0.0754642 -0.0311984 -0.268651 -0.125303 -0.194009 -0.324365 -0.165317 -0.143266 -0.00101954 0.0439331 -0.172646 -0.159105 -0.239925 -0.132621 -0.158125 -0.305374 0.022242 -0.00234207 -0.105218 0.0928001 -0.158235 -0.19605 -0.116832 -0.0316042 -0.094555 0.0515226 -0.116607 0.0617913 0.0300708 -0.114438 0.0215087 -0.115548 -0.161453 0.094345 0.0289047 -0.034899 -0.0782389 -0.102211 -0.0533983 -0.154774 0.226986 0.12664 -0.17289 0.00739682 -0.143913 0.0855597 -0.103922 -0.012904 -0.10741 0.0705847 -0.0685693 -0.0685344 -0.121338 -0.0186522 -0.0478595 -0.0479238 0.118049 0.0139325 0.0819855 0.0205403 0.0581293 0.0495027 -0.045048 -0.138057 0.100643 -0.0213255 -0.196559 -0.0894972 -0.045769 -0.148427 -0.00967696 0.21605 0.155431 -0.0906092 0.0115017 -0.0823125 -0.0804725 -0.0686616 -0.0837849 -0.171859 0.0773691 -0.0473355 0.115487 -0.00314448 -0.0524222 -0.0528764 -0.0394345 -0.230871 -0.180965 -0.197424 -0.207032 -0.215205 -0.157157 -0.231646 0.0522466 -0.261608 -0.0220627 -0.338127 -0.26006 -0.351244 -0.268737 -0.0272939 -0.0863977 -0.0531605 -0.100909 -0.306199 -0.231363 -0.357735 -0.275779 -0.276075 -0.041795 -0.100894 0.0646649 -0.263268 -0.319349 -0.242197 -0.275115 0.0272683 -0.0397262 0.0198738 0.062004 -0.0652158 -0.038514 0.0265605 -0.0596168 -0.205067 -0.0105099 -0.0909998 -0.0920703 -0.0500515 0.0808527 0.025095 0.0434131 -0.0237983 -0.13124 0.0067957 -0.0396119 -0.124845 -0.0598147 0.0211896 -0.0208824 0.00646653 -0.0571109 -0.090524 -0.0871589 -0.0558672 0.0705396 -0.607334 -0.0261726 -0.256531 -0.151773 -0.048795 -0.0408556 -0.0418296 -0.439826 -0.0803388 -0.338127 -0.0701217 -0.0297564 -0.29731 -0.00462795 -0.150228 -0.199376 -0.167756 -0.180007 -0.199127 -0.0884791 0.160839 -0.0689968 0.0144515 -0.058868 0.127487 -0.24654 -0.322827 0.013306 -0.0427236 -0.0955722 -0.109401 0.140378 -0.0374761 0.0476114 -0.116643 -0.118201 -0.0615058 -0.0995081 0.238669 0.184379 -0.00915552 -0.0299201 -0.205099 -0.139918 -0.070644 -0.089967 0.0190053 0.0480062 -0.0211093 0.178627 0.0204629 -0.157879 0.013055 -0.0731515 0.0560245 0.332193 -0.0375752 -0.048965 0.0789653 -0.101285 -0.126749 0.00411617 -0.0628893 -0.141835 0.237517 0.279438 0.186986 0.211137 -0.0273652 -0.0833321 0.0350333 -0.00916588 -0.0403411 0.153742 0.0238433 0.179771 0.0265165 0.0782218 -0.0523405 -0.0249491 -0.00690501 0.0412334 0.100386 0.0020628 -0.0997625 -0.156369 -0.0350701 -0.0175035 0.0216363 0.0205729 0.0384382 -0.0441563 0.111666 -0.111307 0.0247086 0.00919966 -0.326447 -0.011922 0.0229571 0.0940987 0.20163 -0.0918567 -0.0214744 -0.0222213 -0.0485095 -0.0329138 -0.0838518 0.0573457 -0.0294462 -0.152308 0.0499492 -0.0229761 0.0234046 0.108495 -0.102108 0.0974608 0.0712874 -0.0524382 -0.115569 -0.0321265 -0.0342466 -0.0925413 0.181652 -0.00124963 0.276189 0.0846111 0.016894 -0.0674943 -0.151431 0.194597 -0.0672529 -0.129878 0.0164065 -0.0645218 -0.328358 -0.0465035 0.202654 0.14995 -0.130423 -0.0243237 -0.108153 -0.0134262 -0.0639935 -0.0788831 0.0842375 0.0974167 0.0321167 0.231023 0.0202415 -0.0405403 0.133004 -0.147137 -0.102319 -0.385028 -0.393407 -0.0767215 -0.418991 -0.0476028 0.0314134 0.132228 -0.102591 -0.0182273 -0.360072 -0.15926 -0.367455 -0.0940558 -0.23856 0.104589 -0.0889509 0.0606542 -0.14946 -0.136142 -0.30183 -0.497129 0.0861319 0.0530695 -0.0927477 -0.170052 -0.0628345 0.136216 0.223825 -0.0337897 0.0504695 -0.034155 -0.00679725 0.0754898 -0.0269724 0.146883 -0.0166231 0.119222 0.0510701 0.104054 -0.0476679 0.0744405 0.108893 -0.00432556 -0.0957566 0.0269579 -0.0201453 -0.0233965 0.0848987 -0.12081 0.0759398 0.0666846 0.0430978 -0.154972 -0.0497735 -0.080439 0.171 0.101679 0.0974337 0.0114776 -0.0164149 0.0797709 -0.242073 0.0149756 -0.0492932 0.0498411 0.401847 0.45208 -0.069472 0.0951045 -0.0416135 0.10906 -0.0440031 0.0751474 0.149798 0.170863 0.104057 0.449188 0.0567819 0.0704067 0.11203 -0.0487063 -0.0154503 -0.031008 0.199051 0.182464 0.0285705 0.0192479 -0.0516562 0.00734848 0.0435659 -0.103822 0.0807834 0.108537 0.0127753 0.13893 -0.0243202 0.0116259 0.10337 0.0424562 0.0182377 0.313293 0.341164 -0.179793 0.113611 0.0923873 0.0745983 0.200155 -0.088557 0.133568 0.185917 0.0971334 0.529141 0.0911504 -0.00550234 0.114535 0.378112 0.174484 0.229692 0.0498711 0.0849085 0.166891 0.0473111 -0.0915849 -0.0454371 0.0495548 0.14177 0.0288459 0.306827 0.0223987 -0.157469 0.109464 0.0356081 -0.0612461 -0.0830441 -0.0675574 -0.25994 -0.17302 -0.282873 -0.375899 -0.174395 -0.152393 -0.133609 -0.198522 -0.15064 -0.366951 -0.214357 -0.309736 -0.195742 0.029031 -0.2736 -0.14611 -0.252311 -0.110384 -0.21348 -0.109808 -0.134537 -0.0917272 -0.0764463 -0.251019 -0.240315 -0.351165 0.0556742 -0.27403 -0.000163555 -0.101084 -0.0980287 0.262251 0.0958943 0.11848 0.23398 0.00982759 -0.00390514 0.0992869 -0.160787 -0.0980189 -0.0345327 -0.137727 -0.0535485 0.00261683 0.037529 -0.0337313 0.121385 -0.019154 -0.166991 -0.166393 -0.0855827 0.0881549 0.23442 0.119678 0.141453 0.115498 0.0886686 0.271762 0.0402563 0.00328174 0.0173034 0.177438 -0.0838809 0.0182725 -0.00981632 0.107703 -0.176612 0.200695 -0.0415291 -0.0118741 -0.0540702 0.0337861 -0.010697 0.140354 0.212073 0.0351881 0.382746 -0.00637044 -0.0235925 -0.00592826 0.0341405 0.150355 0.306678 0.039576 0.342877 0.0959402 0.00258805 0.0853665 0.0990353 0.190632 0.0490521 0.131495 0.0105455 -0.109435 -0.032107 -0.143865 0.0160028 0.0384608 -0.158153 -0.236349 -0.139854 -0.190532 -0.0553469 0.0246317 -0.0335146 0.00112598 -0.0898497 -0.0857601 -0.198721 -0.0995451 -0.30247 -0.0169786 0.0587374 0.00971135 0.0206741 -0.0200387 0.0702013
nr_sv 22 26 19 23 15 24 21 18 20 21 19 24 24 23 24 22 24 16 17 26 24 21 17 19 25 25 18 21 28 21 23 26 26 25 21 24 26 23 26 19 22 20 25 24 21 21 22 26 18 26 25 23 23 22 24 17 22 26 25 25 23 25 15 19 16
SV
376.627375967319 150.4593458509506 219.9849469649712 0 0 79.40391916671038 0 13.73241350272282 0 159.5938273352638 0 0 0 0 0 0 0 133.1038479244605 216.7622520596091 0 0 0 0 0 0 0 0 342.9099521611709 9.424910421560693 0 0 0 0 160.8449981446565 55.43784849595334 0 0 0 0 0 91.86269926101713 390.4965671381379 0 154.2807474614573 398.8095539684039 0 98.11899144556892 56.23061660895434 323.2112542357539 0 0 0 0 53.86028833696534 10.10866629989285 0 0 0 0 84.05627989515223 22.20302695069588 39.29697086992235 340.6039811631327 308.3807379617595 1:0.188235 2:0.54902 3:0.262745 22:0.584314 27:0.215686 28:0.858824 33:0.105882 34:0.105882 41:0.356863 46:0.25098 47:0.356863 53:0.0392157 56:0.666667 58:0.215686 59:0.137255 61:1 63:0.137255 64:0.333333 66:0.72549 68:0.156863 69:0.215686 71:0.0980392 73:0.0784314 76:0.196078 77:0.109804 81:0.360784 93:0.109804 94:0.027451 98:0.917647 102:0.282353 121:0.168627 122:0.415686 123:0.0431373 127:0.529412 128:0.0941176 132:0.0313725 133:0.12549 140:0.0627451 141:0.0313725 145:0.0313725 146:0.811765 151:0.0784314 153:0.0196078 155:0.215686 156:0.156863 158:0.72549 160:0.333333 161:0.137255 163:0.882353 165:0.27451 166:0.137255 168:0.784314 170:0.0196078 171:0.0392157 172:0.0196078 173:0.0392157 176:0.929412 177:0.25098 180:0.0352941 181:0.141176 193:0.141176 197:0.180392 198:0.286275 
0 0 0 0 0 0 0 0 0 0 0 0 484.0708897550959 0 0 0 0 0 0 0 0 0 0 0 0 0 0 0 0 697.4827910955511 0 0 0 0 0 0 0 0 0 0 0 0 0 0 0 0 0 0 0 0 0 0 0 0 0 291.8188799456877 0 0 0 0 0 0 0 0 0:0.0431373 1:0.337255 2:0.427451 3:0.34902 4:0.0352941 17:0.0117647 21:0.0352941 22:0.211765 23:0.0352941 28:0.407843 29:0.27451 34:0.27451 41:0.545098 46:0.317647 47:0.407843 53:0.0196078 54:0.117647 56:0.764706 59:0.745098 61:0.862745 64:0.882353 66:0.705882 69:0.803922 71:0.0392157 73:0.0392157 74:0.196078 76:0.133333 81:0.333333 94:0.0666667 98:0.466667 99:0.133333 101:0.0784314 102:0.337255 103:0.0117647 107:0.0235294 120:0.0666667 121:0.380392 122:0.427451 123:0.290196 124:0.0117647 127:0.0431373 128:0.172549 133:0.262745 140:0.305882 145:0.435294 146:0.172549 150:0.313725 153:0.0196078 155:0.862745 158:0.823529 160:1 163:1 165:0.843137 168:0.764706 170:0.196078 175:0.25098 176:0.356863 180:0.180392 193:0.356863 197:0.215686 198:0.141176 
61.90748997851288 554.2750096911036 623.3854271117333 302.822232457579 292.4079503863322 494.0492382508757 240.0238785201826 978.3261553641421 85.83317010733425 54.20447757788618 189.0507953303143 1652.527327448738 350.513537275008 101.1809236382253 22.58447470852077 627.4623140197776 0 89.82132562089548 272.9840130911984 0 0 0 0 305.0942923908261 322.2229340285907 333.5705762624887 111.5143304590709 656.9623232155844 7.440052626192918 372.0997314036155 242.5452605576234 358.1082738858223 0 16.18207800044815 195.458794731371 468.2048229899512 0 1344.41865333116 0 0 240.0053306227319 0 0 88.16388715075594 163.8906988510491 0 220.0933303086104 288.6053556956722 0 1393.712320380328 0 0 317.8582105924726 477.0146116148923 689.7831167741185 73.04873771987522 265.6219559947354 238.0306040288419 96.6969398509645 89.25418367173549 339.4192483109377 193.9286355001599 459.535095604338 0 1:0.0666667 2:0.380392 3:0.392157 4:0.0352941 16:0.0352941 17:0.0666667 21:0.0784314 22:0.168627 28:0.164706 29:0.623529 41:0.0431373 46:0.12549 54:0.203922 56:0.345098 57:0.0627451 59:0.835294 61:0.67451 63:0.0627451 64:0.368627 66:0.733333 68:0.286275 69:0.0823529 71:0.0392157 73:0.0196078 76:0.0352941 77:0.0705882 81:0.27451 82:0.0705882 84:0.0705882 86:0.415686 88:0.0705882 89:0.137255 91:0.27451 93:0.27451 94:0.0352941 97:0.309804 98:0.756863 102:0.360784 103:0.0862745 107:0.027451 108:0.0156863 120:0.027451 121:0.462745 122:0.521569 123:0.0862745 128:0.270588 133:0.0784314 145:0.537255 146:0.423529 151:0.121569 153:0.0392157 155:0.164706 156:0.164706 158:0.733333 160:0.427451 161:0.0627451 163:0.592157 165:0.878431 167:0.0823529 168:0.243137 170:0.101961 176:0.756863 177:0.121569 180:0.0588235 181:0.243137 183:0.27451 185:0.152941 186:0.0313725 188:0.423529 190:0.0313725 192:0.0588235 193:0.180392 197:0.0313725 
0 0 0 0 0 0 0 0 0 0 0 0 0 0 0 0 0 0 0 0 0 0 0 147.0012435054582 0 0 0 0 0 0 0 0 0 0 0 0 0 0 0 0 0 0 0 0 0 0 0 0 0 0 0 0 0 0 0 0 0 0 0 0 0 0 0 0 1:0.258824 2:0.427451 3:0.313725 21:0.12549 22:0.560784 23:0.12549 28:0.443137 29:0.184314 34:0.223529 46:0.701961 53:0.117647 54:0.0196078 55:0.0392157 56:0.54902 58:0.0196078 59:0.529412 60:0.0392157 61:0.607843 64:0.862745 65:0.0392157 66:0.607843 68:0.0392157 69:0.54902 71:0.0588235 73:0.0196078 74:0.117647 76:0.482353 81:0.129412 94:0.129412 98:0.54902 99:0.129412 101:0.145098 102:0.541176 103:0.0784314 120:0.0117647 121:0.360784 122:0.427451 123:0.258824 127:0.0784314 128:0.6 140:0.0392157 145:0.4 146:0.278431 150:0.0980392 153:0.0980392 155:0.862745 158:0.862745 160:0.882353 163:0.882353 165:0.843137 168:0.843137 170:0.0980392 171:0.0196078 173:0.0392157 175:0.223529 176:0.470588 193:0.054902 198:0.388235 
0 0 0 0 0 0 0 0 0 0 0 0 0 0 0 0 0 0 0 0 0 0 0 2048 0 0 0 0 0 0 0 0 0 0 0 0 0 0 0 1706.8238195052 0 0 0 0 0 0 0 0 0 2048 0 0 0 0 0 0 0 0 0 0 0 0 0 0 0:0.0117647 1:0.203922 2:0.427451 3:0.270588 4:0.0352941 18:0.0117647 21:0.0235294 22:0.337255 23:0.0431373 28:0.560784 29:0.219608 34:0.407843 41:0.407843 46:0.345098 47:0.313725 54:0.0392157 56:0.431373 59:0.666667 60:0.0392157 61:0.607843 64:1 65:0.0196078 66:0.470588 69:0.666667 74:0.0392157 76:0.137255 77:0.25098 81:0.501961 94:0.278431 98:0.721569 99:0.137255 101:0.054902 102:0.34902 103:0.054902 106:0.0117647 121:0.258824 122:0.427451 123:0.168627 127:0.203922 128:0.294118 133:0.352941 140:0.439216 145:0.176471 146:0.529412 150:0.0784314 151:0.0588235 153:0.0784314 155:0.607843 158:0.490196 159:0.0196078 160:1 163:0.607843 164:0.0392157 165:0.588235 168:0.431373 170:0.0196078 175:0.0313725 176:0.741176 180:0.419608 193:0.580392 197:0.192157 198:0.192157 
0 0 0 0 0 0 0 0 0 0 100.8738698406881 0 0 0 0 0 0 0 0 0 0 0 0 2048 0 589.8046826997524 0 0 0 0 0 0 0 0 0 0 0 0 0 0 0 0 0 0 0 0 0 0 0 1707.417363447257 0 0 0 101.9287899667849 0 0 0 0 0 0 0 0 0 0 1:0.270588 2:0.427451 3:0.270588 21:0.0352941 22:0.482353 23:0.0352941 28:0.72549 29:0.137255 34:0.345098 39:0.207843 41:0.345098 46:0.552941 47:0.137255 51:0.0784314 54:0.0196078 55:0.0196078 56:0.490196 59:0.607843 60:0.0392157 61:0.607843 64:0.784314 65:0.0196078 66:0.529412 69:0.607843 71:0.0392157 74:0.0196078 76:0.529412 77:0.0941176 81:0.282353 89:0.0941176 93:0.0313725 94:0.219608 97:0.156863 98:0.780392 99:0.0627451 101:0.133333 102:0.411765 120:0.054902 121:0.411765 122:0.439216 123:0.266667 127:0.407843 128:0.345098 133:0.313725 135:0.0941176 140:0.407843 145:0.156863 146:0.501961 147:0.0313725 150:0.0862745 153:0.0352941 155:0.619608 158:0.619608 160:0.741176 163:0.776471 165:0.603922 168:0.517647 170:0.0352941 173:0.0156863 175:0.243137 176:0.690196 180:0.415686 193:0.584314 197:0.101961 198:0.27451 
0 0 0 0 0 0 0 0 1145.093813256275 0 0 1489.068510068351 0 0 0 461.6116357747655 0 0 0 0 0 0 0 0 0 157.6446058860726 0 0 0 0 0 0 0 0 0 0 0 662.3136634829083 0 0 0 0 0 0 0 0 0 0 0 0 0 0 0 0 0 0 0 0 0 0 0 0 0 0 1:0.180392 2:0.427451 3:0.180392 17:0.0470588 22:0.105882 27:0.0313725 28:0.839216 29:0.0313725 33:0.0627451 34:0.290196 41:0.0980392 42:0.0980392 47:0.0980392 53:0.0196078 56:0.470588 57:0.0392157 58:0.0980392 59:0.235294 61:0.607843 62:0.0392157 63:0.0392157 64:0.607843 66:0.470588 67:0.0392157 68:0.0980392 69:0.235294 73:0.0784314 76:0.0352941 77:0.0705882 81:0.172549 82:0.0705882 93:0.172549 94:0.137255 97:0.101961 98:1 102:0.117647 107:0.0235294 121:0.25098 122:0.415686 123:0.105882 127:0.309804 132:0.137255 133:0.101961 135:0.101961 140:0.27451 141:0.0352941 145:0.0705882 146:0.756863 150:0.0196078 151:0.0392157 155:0.509804 156:0.0196078 157:0.0823529 158:0.305882 160:0.835294 162:0.0392157 163:0.572549 165:0.407843 166:0.0392157 167:0.0823529 168:0.203922 170:0.0196078 171:0.0196078 175:0.0313725 176:0.933333 177:0.0313725 180:0.164706 181:0.0313725 188:0.0666667 192:0.164706 193:0.164706 197:0.0313725 
1103.227852257425 720.3389198337146 1809.738773655693 978.3846158421532 1358.786125298748 2048 731.882853681934 1810.02673860858 1780.03444506872 1064.166865992199 2048 2048 2048 1481.85478156688 1162.647644199445 2048 637.7713384191627 1056.18016279791 1206.273453818427 1175.732922070287 1423.197772439842 571.7059358580472 908.1818884060463 2048 1334.439417862901 2048 1429.824107897972 1115.622519839916 1261.84663254403 2048 1027.491440996017 870.1675999396548 694.9329880229845 933.2063938276699 605.9089069800754 1764.30016303752 1050.555085140629 2048 1493.035426774603 2048 770.245981793297 1995.772404198804 1392.294142490163 1079.876764609826 1562.585780570566 919.257340012382 1302.108049215247 1023.394293897939 958.720073649821 1448.984378577553 1706.450965137156 1729.027091312856 1257.704533264979 1406.210645798644 1292.363465567751 997.6245459519996 898.4395002750612 970.7347035063553 638.3544344611213 1051.736465094118 648.8344295852844 979.0395650282377 669.858054559503 1186.403949553121 1:0.32549 2:0.427451 3:0.258824 17:0.0117647 22:0.133333 28:0.678431 29:0.141176 47:0.141176 52:0.0196078 53:0.0196078 54:0.0392157 56:0.137255 57:0.313725 58:0.137255 59:0.333333 61:0.137255 62:0.333333 63:0.137255 64:0.333333 66:0.137255 67:0.333333 68:0.137255 69:0.333333 71:0.0196078 72:0.0392157 73:0.0392157 74:0.0784314 76:0.0313725 77:0.156863 82:0.0313725 98:0.74902 99:0.0627451 120:0.0431373 121:0.337255 122:0.427451 123:0.203922 127:0.65098 132:0.129412 140:0.262745 145:0.215686 146:0.521569 150:0.235294 151:0.0196078 152:0.0588235 155:0.803922 157:0.568627 158:0.0392157 160:0.882353 162:0.607843 163:0.0392157 165:0.745098 167:0.529412 168:0.0392157 170:0.117647 171:0.0196078 172:0.0196078 175:0.192157 176:0.462745 180:0.0784314 192:0.192157 197:0.113725 
0 0 0 0 0 0 0 0 0 0 0 0 0 0 0 206.1762935860574 0 0 0 0 0 0 0 0 0 0 0 0 0 0 0 0 0 0 0 0 0 180.6516434382369 0 0 0 0 0 0 0 0 0 0 0 2048 0 0 0 0 0 0 0 0 0 0 0 0 0 0 1:0.235294 2:0.427451 3:0.258824 22:0.113725 28:0.545098 29:0.180392 34:0.333333 39:0.0901961 41:0.0313725 42:0.0313725 46:0.0588235 47:0.513725 54:0.0196078 56:0.490196 57:0.0392157 58:0.0196078 59:0.54902 61:0.607843 62:0.0392157 64:0.901961 66:0.54902 67:0.0392157 69:0.588235 71:0.0196078 73:0.0588235 74:0.0392157 76:0.0941176 77:0.25098 81:0.12549 82:0.0313725 89:0.0313725 93:0.0313725 94:0.282353 98:0.780392 99:0.0627451 102:0.101961 121:0.32549 122:0.427451 123:0.192157 127:0.576471 132:0.0901961 133:0.0313725 135:0.0313725 140:0.423529 145:0.333333 146:0.333333 150:0.0862745 151:0.0156863 152:0.0666667 155:0.541176 157:0.117647 158:0.239216 160:0.760784 162:0.117647 163:0.286275 165:0.592157 167:0.117647 168:0.188235 170:0.0352941 172:0.0156863 175:0.156863 176:0.623529 180:0.470588 192:0.0627451 193:0.0941176 197:0.407843 198:0.0313725 
92.82107344835683 67.47482626454988 728.7687316985749 273.7320626182857 49.30125470324964 535.9290572808131 0 753.0158386737876 843.9412031344593 0 0 149.9093156409209 0 0 0 90.99486102189198 0 0 271.8777248911711 0 0 0 0 1441.005488099931 0 0 0 342.4166934683278 0 0 0 0 0 0 0 1810.770693028232 0 1102.608164010564 389.0480383143647 1621.767993165711 41.20775573750932 0 0 0 29.60834603456934 0 0 0 0 2048 0 0 0 279.3910196144434 172.9991391651347 0 0 0 0 0 0 105.0833637591826 45.36889506316439 0 1:0.0666667 2:0.380392 3:0.403922 4:0.0117647 21:0.0117647 22:0.0352941 28:0.0666667 29:0.768627 46:0.298039 47:0.0666667 54:0.0980392 56:0.0784314 57:0.254902 59:0.980392 61:0.333333 62:0.0588235 64:0.72549 66:0.843137 68:0.0784314 69:0.254902 71:0.196078 73:0.196078 77:0.517647 81:0.137255 82:0.27451 86:0.309804 89:0.345098 91:0.0352941 93:0.207843 94:0.172549 97:0.207843 98:0.72549 102:0.0901961 118:0.0235294 120:0.0431373 121:0.415686 122:0.372549 123:0.0901961 127:0.180392 128:0.215686 133:0.0352941 140:0.0352941 145:0.964706 153:0.0823529 155:0.211765 156:0.0313725 157:0.0156863 158:0.443137 160:0.556863 162:0.0980392 163:0.196078 165:0.737255 167:0.247059 168:0.0313725 170:0.129412 176:0.909804 177:0.121569 180:0.301961 181:0.152941 183:0.243137 185:0.423529 187:0.0588235 188:0.243137 192:0.392157 193:0.0588235 197:0.454902 
0 0 0 0 0 0 0 0 0 0 0 0 0 0 0 0 0 0 0 0 0 0 0 0 0 0 0 0 0 0 0 0 0 0 0 0 0 0 0 0 0 0 0 0 0 0 0 0 0 200.0145355762531 0 0 0 0 0 0 0 0 0 0 0 0 0 0 1:0.0666667 2:0.380392 3:0.337255 4:0.054902 21:0.0235294 22:0.427451 23:0.0235294 28:0.333333 29:0.2 34:0.4 41:0.235294 46:0.6 47:0.0666667 54:0.121569 56:0.341176 59:0.741176 61:0.819608 64:0.858824 66:0.698039 68:0.0392157 69:0.321569 71:0.0392157 76:0.0901961 77:0.243137 81:0.788235 86:0.0588235 89:0.180392 91:0.0313725 93:0.152941 94:0.243137 97:0.180392 98:0.878431 102:0.443137 103:0.12549 120:0.0666667 121:0.329412 122:0.376471 123:0.0784314 128:0.501961 133:0.333333 140:0.501961 145:0.25098 146:0.541176 153:0.239216 155:0.321569 156:0.0392157 158:0.619608 160:0.858824 163:0.878431 165:0.741176 168:0.458824 170:0.121569 173:0.0196078 176:0.909804 177:0.121569 180:0.243137 181:0.152941 183:0.121569 185:0.180392 188:0.0313725 193:0.666667 197:0.243137 198:0.121569 
0 0 0 0 205.93058849578 569.9771216913274 0 0 0 0 0 763.8202054753147 0 96.13247195631264 0 520.2222909173718 0 0 0 52.09117642935206 64.44463306905827 0 0 0 0 0 0 0 0 0 0 0 0 0 3.861250042803927 0 74.03660154777216 704.3917623252912 0 0 0 115.7432954880874 0 0 0 0 0 0 0 1128.892622191824 0 0 0 0 0 0 0 0 0 0 0 0 0 0 1:0.423529 2:1 3:0.25098 21:0.0235294 22:0.85098 23:0.0235294 27:0.156863 28:0.345098 33:0.376471 34:0.12549 41:0.156863 46:0.345098 47:0.25098 56:0.352941 58:0.235294 59:0.0392157 61:0.882353 63:0.137255 64:0.333333 66:0.784314 68:0.176471 69:0.156863 73:0.137255 76:0.0627451 77:0.0313725 81:0.811765 82:0.0313725 93:0.219608 94:0.0627451 97:0.156863 98:0.74902 101:0.0117647 102:0.188235 107:0.0392157 120:0.0117647 121:0.298039 122:0.411765 123:0.12549 127:0.270588 132:0.0784314 133:0.384314 138:0.113725 140:0.729412 145:0.0784314 146:0.807843 153:0.0196078 155:0.278431 156:0.0392157 157:0.0392157 158:0.360784 160:0.980392 163:0.921569 165:0.478431 168:0.560784 170:0.0196078 171:0.0392157 173:0.0196078 176:0.619608 177:0.101961 180:0.415686 181:0.172549 185:0.0352941 188:0.0352941 193:0.447059 197:0.207843 198:0.101961 
0 0 334.860633243203 0 0 0 0 542.3445010105337 104.4158926653478 0 236.0846381964528 1077.356228665805 525.1225572420879 0 0 1652.394690540815 242.9895113654703 0 0 0 0 0 0 2048 0 757.9855284019171 112.7407941213125 0 0 481.8594037222591 0 0 0 0 0 0 0 499.1197808044409 0 125.1428620307378 0 0 0 0 0 0 0 0 54.275266186411 632.1584378958428 2.536570424227227 0 0 0 0 0 0 0 0 0 0 0 0 0 0:0.0117647 1:0.403922 2:0.427451 3:0.415686 4:0.0431373 21:0.12549 22:0.572549 23:0.223529 29:0.921569 41:0.0392157 46:0.807843 51:0.0196078 54:0.215686 55:0.0392157 56:0.588235 59:1 60:0.0392157 61:0.607843 64:1 65:0.0392157 66:0.588235 69:1 71:0.137255 74:0.392157 76:0.501961 77:0.176471 81:0.0313725 98:0.0313725 99:0.501961 101:0.223529 102:0.403922 103:0.12549 120:0.0431373 121:0.415686 122:0.427451 123:0.403922 124:0.0117647 127:0.231373 128:0.921569 145:0.768627 150:0.333333 153:0.0588235 155:1 158:0.607843 159:0.0392157 160:1 163:0.607843 164:0.0392157 165:0.980392 168:0.588235 169:0.0392157 170:0.215686 173:0.0196078 175:0.654902 176:0.0392157 193:0.0392157 198:0.615686 
219.5871546790774 303.3175035528116 84.91322322086977 97.08762699314597 699.4487870946109 617.83121396439 92.60904097502213 636.8658425099137 254.523671387501 180.9318819230419 674.2369247165803 908.4051124031157 2030.746598985383 667.979917848692 537.4558250155762 1300.832978838303 652.3295383926941 91.29428965605194 600.2451148319226 317.9607035972002 768.0925417471235 580.0043952255153 634.2990506110438 2048 696.1223350492195 1271.881434896719 727.4915903043411 683.3327296700669 95.71700143162063 1372.097648415602 274.712354654892 136.2286955547693 114.2098790361259 108.3133203563583 169.4738582570906 1775.193225044861 788.3205041005688 2048 791.599232967458 1813.624736009407 25.18769500550111 1195.174489944403 721.549887018881 142.3579015763833 0 246.1319961880748 73.96616845894421 1355.950309453791 2048 2048 1195.393266054155 753.938559466746 806.3956961578292 611.1372659490438 0 2048 188.5447766745161 383.6668697536347 172.3598491486875 8.771563917275166 169.2060319649597 282.8827268449284 0 0 0:0.0117647 1:0.403922 2:0.427451 3:0.415686 4:0.0431373 17:0.0235294 18:0.0235294 22:0.0352941 23:0.0117647 29:0.92549 34:0.109804 41:0.184314 42:0.109804 46:0.0352941 47:0.258824 54:0.160784 56:0.564706 59:0.709804 61:0.72549 64:0.756863 66:0.564706 69:0.72549 74:0.27451 76:0.0313725 81:0.203922 94:0.0313725 98:0.0313725 99:0.588235 101:0.0117647 102:0.168627 103:0.0117647 106:0.0235294 107:0.0784314 108:0.0117647 120:0.0431373 121:0.415686 122:0.427451 123:0.403922 124:0.0117647 127:0.0392157 128:0.0392157 132:0.0392157 133:0.0784314 140:0.231373 145:0.921569 150:0.305882 155:0.709804 158:0.647059 160:0.756863 163:0.72549 165:0.662745 168:0.564706 170:0.176471 175:0.556863 176:0.0313725 180:0.0862745 192:0.14902 193:0.203922 197:0.0588235 198:0.0313725 
0 0 0 0 0 0 0 0 0 0 0 0 0 0 0 0 0 0 0 0 0 0 0 0 0 0 0 0 0 0 0 0 0 0 0 0 0 0 0 0 0 0 0 0 0 0 0 0 0 2048 0 0 0 0 0 0 0 0 0 0 0 0 0 0 1:0.258824 2:0.427451 3:0.290196 4:0.0117647 17:0.0235294 22:0.203922 28:0.576471 29:0.113725 34:0.384314 41:0.192157 42:0.0392157 46:0.0392157 47:0.192157 53:0.0588235 54:0.0588235 56:0.45098 57:0.0196078 59:0.607843 61:0.803922 64:0.882353 66:0.490196 67:0.0196078 69:0.72549 73:0.0784314 74:0.0784314 76:0.0313725 77:0.0313725 81:0.2 82:0.0313725 86:0.101961 94:0.133333 98:0.635294 99:0.101961 102:0.192157 107:0.0235294 121:0.313725 122:0.427451 123:0.235294 127:0.243137 132:0.0705882 133:0.137255 140:0.552941 145:0.27451 146:0.447059 150:0.0980392 151:0.0196078 153:0.0196078 155:0.666667 157:0.0588235 158:0.352941 160:1 162:0.0392157 163:0.607843 165:0.607843 167:0.0588235 168:0.333333 170:0.0588235 175:0.160784 176:0.54902 180:0.352941 192:0.0627451 193:0.227451 197:0.0627451 198:0.0313725 
0 0 0 0 0 41.89621346044153 0 0 357.5581849080432 0 0 0 0 0 0 0 0 0 0 0 0 0 0 975.4653976700573 0 0 0 0 0 27.99811805002475 0 0 0 0 0 0 0 0 0 0 0 0 0 0 0 0 0 0 0 0 0 0 0 0 0 0 0 0 0 0 0 0 0 0 1:0.0431373 2:0.415686 3:0.403922 4:0.101961 21:0.223529 22:0.313725 28:0.0941176 29:0.427451 41:0.0470588 46:0.905882 53:0.0196078 54:0.254902 56:0.470588 59:0.882353 60:0.0392157 61:0.490196 64:0.843137 65:0.117647 66:0.313725 68:0.0980392 69:0.176471 71:0.0784314 73:0.117647 76:0.117647 77:0.501961 81:0.619608 85:0.0313725 86:0.176471 89:0.0313725 93:0.203922 94:0.14902 97:0.0862745 98:0.823529 102:0.313725 103:0.0901961 120:0.0117647 121:0.403922 122:0.392157 123:0.0352941 127:0.0313725 128:0.866667 145:0.768627 146:0.0666667 151:0.0784314 153:0.0588235 155:0.294118 156:0.0392157 158:0.588235 159:0.0392157 160:0.960784 163:0.72549 165:0.980392 168:0.372549 170:0.0980392 176:0.917647 180:0.278431 181:0.0823529 183:0.027451 185:0.027451 188:0.164706 192:0.027451 193:0.529412 197:0.388235 198:0.027451 
0 0 0 0 0 0 0 0 0 0 0 0 0 0 0 0 0 0 0 0 0 0 0 0 0 605.795881545216 0 0 0 0 0 0 0 0 0 942.0764365615453 0 0 0 0 0 0 0 0 0 0 0 0 0 0 0 0 0 0 0 0 0 0 0 0 0 0 0 0 1:0.0784314 2:0.376471 3:0.329412 4:0.0666667 17:0.0117647 21:0.113725 22:0.227451 28:0.501961 29:0.231373 34:0.113725 41:0.0784314 46:0.654902 54:0.121569 56:0.439216 59:0.819608 60:0.0196078 61:0.580392 64:0.658824 65:0.0392157 66:0.6 68:0.141176 69:0.101961 71:0.0196078 73:0.160784 76:0.0313725 77:0.439216 81:0.560784 82:0.0313725 86:0.219608 89:0.188235 93:0.439216 94:0.12549 97:0.501961 98:0.376471 102:0.360784 103:0.0941176 106:0.105882 120:0.0941176 121:0.360784 122:0.372549 123:0.105882 127:0.0392157 128:0.721569 133:0.239216 140:0.239216 145:0.321569 146:0.678431 151:0.101961 153:0.0784314 155:0.219608 156:0.0588235 158:0.521569 159:0.0196078 160:0.8 163:0.741176 165:0.858824 167:0.0196078 168:0.2 170:0.0784314 176:0.831373 177:0.2 180:0.266667 181:0.235294 183:0.164706 185:0.266667 188:0.333333 192:0.133333 193:0.666667 197:0.333333 
0 0 0 0 0 864.435886541813 0 0 421.9653535842702 0 0 498.8371419694363 343.6991820704403 0 0 276.8501774528966 383.0039302275018 0 0 0 0 107.1439573033764 0 1507.483083970289 0 389.5948247923805 0 0 0 397.837759617738 0 0 0 0 0 0 753.8236272415011 0 0 500.5508657999235 0 450.8182102914 84.68022485821533 0 0 0 0 302.3964429366354 86.40372795351644 279.2070835633869 0 47.03780529812865 0 0 28.57904191838464 237.4315454223909 0 0 0 0 0 0 0 0 1:0.290196 2:0.301961 3:0.290196 22:0.176471 28:0.529412 29:0.117647 34:0.384314 46:0.0588235 47:0.470588 51:0.137255 52:0.0588235 53:0.0196078 54:0.0392157 56:0.333333 57:0.137255 58:0.0196078 59:0.490196 61:0.333333 62:0.137255 64:0.882353 66:0.333333 67:0.137255 69:0.607843 71:0.137255 72:0.0588235 73:0.137255 74:0.0392157 76:0.160784 77:0.129412 93:0.0313725 94:0.227451 98:0.741176 99:0.0627451 102:0.054902 121:0.258824 122:0.427451 123:0.168627 127:0.470588 128:0.0588235 140:0.384314 141:0.0313725 145:0.0862745 146:0.501961 150:0.0784314 151:0.137255 152:0.0588235 153:0.137255 155:0.607843 157:0.137255 158:0.333333 160:0.882353 162:0.137255 163:0.333333 165:0.470588 166:0.0196078 167:0.137255 168:0.333333 170:0.0196078 171:0.117647 172:0.0784314 173:0.0588235 175:0.0823529 176:0.709804 180:0.290196 181:0.0431373 197:0.415686 198:0.164706 
410.8780961793031 263.9801452942605 0 300.1984518307892 297.5635278393478 126.382720991551 290.4608762012516 9.8188041753967 196.2374668876852 461.6093687860459 489.6675373615778 0 1509.954661153487 575.7462069359594 569.0601356928232 0 626.5659997827103 334.5367040458659 585.2886074603665 545.8776596432647 403.4410613203798 432.6265926565214 458.0301440889323 0 685.8084412992083 52.77404099140904 483.5800908680959 165.9967303958531 458.9358656908979 559.5197560432516 377.7248675916483 478.8508406100449 295.9917983695159 409.1494694114179 207.947766984495 42.89568775851389 344.4229394449799 0 1149.600266047231 0 244.4612798597171 924.4784056097118 444.9287314670668 388.2498035836971 277.4149408854686 344.5791026929349 156.9630501791792 296.6354122758198 1455.618202321528 0 989.6403279456555 661.2955721645916 440.7146783474331 0 0 959.5561562298639 282.7907234222981 469.4347909546577 181.4657609522038 436.8812679283337 150.5127456641935 354.1768431230103 50.282513285728 429.9975631150239 1:0.054902 2:0.32549 3:0.34902 4:0.0352941 21:0.168627 22:0.133333 28:0.290196 29:0.129412 34:0.192157 46:0.678431 51:0.0235294 52:0.196078 53:0.0431373 54:0.129412 56:0.34902 57:0.0431373 59:0.803922 61:0.67451 63:0.0431373 64:0.435294 65:0.0431373 66:0.501961 68:0.32549 69:0.0431373 70:0.0431373 71:0.215686 73:0.0431373 76:0.0313725 77:0.576471 81:0.392157 82:0.0313725 86:0.486275 88:0.0588235 89:0.211765 90:0.0313725 91:0.180392 93:0.513725 94:0.0313725 97:0.423529 98:0.545098 102:0.258824 103:0.0431373 120:0.0666667 121:0.380392 122:0.290196 123:0.0117647 128:0.862745 140:0.196078 145:0.223529 146:0.109804 151:0.141176 153:0.164706 155:0.117647 156:0.184314 158:0.721569 160:0.698039 163:0.698039 165:0.952941 167:0.117647 168:0.278431 170:0.231373 171:0.0235294 172:0.0470588 176:0.415686 177:0.25098 180:0.0823529 181:0.360784 183:0.223529 185:0.25098 186:0.027451 188:0.470588 190:0.027451 192:0.054902 193:0.196078 197:0.776471 198:0.027451 
0 0 0 0 0 0 0 0 0 0 0 0 0 0 0 0 0 0 0 0 0 0 0 0 0 0 0 0 0 0 0 0 0 0 0 0 0 0 0 0 0 0 0 0 0 0 0 45.14094729803908 259.9047806309434 0 0 0 0 0 0 0 0 0 0 0 0 0 0 0 1:0.203922 2:0.427451 3:0.258824 22:0.0784314 23:0.0117647 28:0.54902 29:0.0980392 33:0.0313725 34:0.388235 41:0.321569 46:0.419608 47:0.129412 51:0.0784314 53:0.117647 54:0.0196078 56:0.647059 59:0.54902 61:0.882353 64:0.882353 66:0.72549 69:0.686275 71:0.254902 73:0.137255 74:0.0784314 76:0.517647 77:0.160784 81:0.45098 93:0.0313725 94:0.160784 98:0.678431 99:0.0313725 102:0.423529 121:0.309804 122:0.168627 123:0.239216 124:0.0156863 127:0.12549 128:0.345098 133:0.376471 140:0.313725 145:0.156863 146:0.560784 150:0.0392157 151:0.137255 152:0.0196078 153:0.235294 155:0.686275 158:0.686275 160:0.882353 163:0.882353 165:0.607843 168:0.647059 170:0.0196078 173:0.196078 175:0.0705882 176:0.792157 180:0.172549 181:0.0352941 193:0.482353 197:0.0705882 198:0.517647 
0 0 0 0 0 0 0 0 0 0 0 0 0 0 0 0 0 0 0 0 0 0 0 0 0 1734.540391654176 0 0 0 0 0 0 0 0 0 0 0 0 0 0 0 0 0 0 0 0 0 0 0 2048 0 484.6241768874189 0 0 0 0 0 0 0 0 0 0 0 0 1:0.258824 2:0.427451 3:0.337255 4:0.0431373 17:0.0666667 18:0.0117647 22:0.0352941 28:0.415686 29:0.207843 34:0.415686 41:0.27451 42:0.243137 47:0.137255 53:0.0196078 54:0.0980392 56:0.333333 57:0.0196078 59:0.72549 61:0.843137 64:1 66:0.313725 67:0.0196078 69:0.764706 73:0.0196078 74:0.0980392 77:0.0352941 81:0.392157 82:0.0705882 86:0.0352941 94:0.321569 98:0.643137 99:0.180392 102:0.12549 107:0.054902 120:0.0235294 121:0.352941 122:0.419608 123:0.305882 127:0.105882 132:0.105882 133:0.321569 140:0.607843 145:0.141176 146:0.572549 150:0.0980392 155:0.843137 158:0.45098 160:1 163:0.843137 165:0.588235 167:0.0196078 168:0.333333 170:0.0392157 171:0.0588235 175:0.219608 176:0.560784 180:0.188235 188:0.0313725 192:0.12549 193:0.313725 197:0.0313725 
0 0 0 0 0 0 0 0 0 0 0 0 524.1535118343199 0 0 0 0 0 0 0 0 0 0 2048 0 0 0 0 0 0 0 0 0 0 0 0 0 0 0 0 0 0 0 0 0 0 0 0 0 2048 0 0 0 0 0 0 0 0 0 0 0 0 0 0 1:0.313725 2:0.427451 3:0.313725 21:0.0352941 22:0.482353 23:0.0352941 28:0.415686 29:0.172549 34:0.309804 41:0.345098 46:0.552941 47:0.137255 53:0.117647 54:0.0196078 55:0.0196078 56:0.509804 59:0.647059 60:0.0392157 61:0.607843 64:0.882353 65:0.0196078 66:0.529412 69:0.745098 71:0.0392157 73:0.0784314 74:0.0784314 76:0.447059 77:0.0352941 81:0.380392 94:0.137255 98:0.584314 99:0.137255 101:0.0784314 102:0.458824 103:0.0117647 120:0.0117647 121:0.360784 122:0.427451 123:0.258824 127:0.27451 128:0.345098 133:0.345098 140:0.345098 145:0.345098 146:0.243137 150:0.0980392 151:0.0588235 153:0.0392157 155:0.843137 158:0.705882 160:1 163:0.882353 165:0.764706 168:0.647059 170:0.0980392 171:0.0196078 175:0.27451 176:0.380392 180:0.207843 193:0.482353 197:0.101961 198:0.309804 
-85.01495309599804 0 0 0 0 0 0 0 0 0 0 0 0 0 0 0 0 0 0 0 0 0 0 0 0 400.0687737458196 0 0 0 0 0 0 0 0 0 0 0 0 0 0 0 0 0 0 0 0 0 0 0 0 0 0 0 0 0 0 0 0 0 0 0 0 0 0 0:0.0392157 1:0.227451 2:0.431373 3:0.0117647 5:0.0117647 20:0.0117647 21:0.392157 22:0.0117647 23:0.188235 24:0.101961 47:0.054902 48:0.694118 52:0.254902 53:0.0980392 57:0.333333 58:0.137255 62:0.333333 63:0.137255 67:0.333333 68:0.137255 72:0.0784314 73:0.0392157 76:0.211765 80:0.211765 81:0.211765 100:0.0117647 101:0.145098 105:0.0235294 106:0.0352941 120:0.0431373 121:0.415686 122:0.427451 123:0.415686 124:0.0431373 125:0.054902 126:0.164706 127:0.109804 130:0.164706 132:0.054902 150:0.0588235 152:0.0196078 155:0.0196078 156:0.0392157 157:0.588235 161:0.0392157 162:0.607843 166:0.0392157 167:0.607843 171:0.0196078 172:0.117647 175:0.0627451 176:0.772549 177:0.0980392 196:0.227451 197:0.227451 
-0 0 0 0 0 0 0 0 0 0 0 0 0 0 0 0 0 0 0 0 0 0 0 0 0 0 0 0 215.7712316763365 0 0 0 0 0 0 0 0 0 0 0 0 0 0 0 0 0 0 0 0 0 0 0 0 0 0 0 0 0 0 0 0 0 0 0 1:0.360784 2:0.741176 3:0.901961 6:0.0196078 53:0.235294 54:0.0196078 58:0.607843 59:0.0392157 63:0.607843 64:0.0392157 68:0.607843 69:0.0392157 73:0.568627 74:0.0392157 106:0.380392 107:0.054902 122:0.32549 123:0.32549 131:0.4 132:0.501961 151:0.0588235 152:0.176471 156:0.0588235 157:0.529412 162:0.882353 167:0.882353 172:0.686275 176:0.501961 177:0.8 
-0 190.6558650042767 0 53.17069827340715 0 0 2048 3.695419165161475 0 168.739294182462 36.40455992588941 0 0 0 266.2316459161622 0 0 2048 1360.408357601167 241.8515495025616 121.0957037979536 0 0 0 210.3458446004574 0 217.4187651616156 0 0 0 15.57817511802971 68.55749171781861 418.496668005961 737.1435388596564 1424.067055513038 0 0 0 0 0 1756.220440507905 0 12.27552103036477 2048 1237.444784090754 207.9095954827795 2048 10.96442208628752 0 0 126.4713237129232 0 864.7561804943608 0 1546.669227787657 0 299.0725672944608 98.06479424520921 143.4658968600617 280.6907633564903 824.1268434809758 239.0860951458845 572.4155551411769 0 1:0.12549 2:0.329412 3:0.407843 4:0.0117647 53:0.372549 54:0.0862745 58:0.941176 62:0.0588235 63:0.541176 67:0.341176 68:0.141176 72:0.941176 78:0.368627 83:0.788235 87:0.105882 88:0.52549 92:0.52549 93:0.0509804 97:0.580392 101:0.0431373 102:0.0117647 106:0.113725 107:0.0235294 120:0.0117647 121:0.403922 122:0.168627 127:0.101961 132:0.2 151:0.45098 156:0.12549 157:0.223529 161:0.4 162:0.0745098 166:0.94902 170:0.0745098 171:0.27451 176:0.333333 177:0.556863 181:0.0352941 182:0.517647 186:0.258824 187:0.0745098 191:0.407843 196:0.333333 
-0 0 0 0 0 0 0 0 0 0 0 0 0 0 0 0 0 0 627.1804992391276 0 0 0 0 0 0 0 0 0 119.8802133744277 0 0 0 0 0 0 0 0 0 0 0 0 0 0 0 2048 0 1748.32679815357 0 0 0 0 0 0 0 0 0 0 0 0 0 0 0 0 0 1:0.337255 2:0.32549 3:0.337255 53:0.686275 58:0.882353 63:0.882353 68:0.882353 73:0.823529 101:0.168627 102:0.0235294 106:0.0666667 107:0.0117647 122:0.329412 123:0.262745 127:0.2 132:0.101961 150:0.0196078 151:0.176471 152:0.0392157 157:0.843137 162:0.882353 167:0.882353 172:0.686275 176:0.25098 177:0.498039 
-0 0 0 0 0 0 0 0 0 0 0 0 0 0 0 0 0 0 0 0 0 0 0 0 0 0 0 0 0 0 0 0 0 0 0 0 0 0 0 0 0 0 0 0 0 0 186.6995332232297 0 0 0 0 0 0 0 0 0 0 0 0 0 0 0 0 0 1:0.254902 2:0.407843 3:0.0470588 20:0.0235294 21:0.423529 22:0.0235294 23:0.360784 47:0.0588235 48:0.588235 49:0.0588235 52:0.0980392 53:0.254902 57:0.137255 58:0.333333 62:0.137255 63:0.294118 67:0.313725 68:0.137255 72:0.0196078 73:0.156863 74:0.0392157 81:0.784314 82:0.0705882 87:0.0705882 101:0.0117647 105:0.0235294 106:0.258824 120:0.0431373 121:0.415686 122:0.427451 123:0.380392 130:0.101961 131:0.298039 132:0.101961 150:0.0392157 151:0.0196078 155:0.0392157 156:0.0588235 157:0.372549 161:0.137255 162:0.333333 166:0.137255 167:0.333333 170:0.117647 171:0.0588235 172:0.0392157 175:0.0313725 176:0.588235 177:0.117647 182:0.14902 196:0.266667 197:0.0588235 
-0 492.0204845393083 59.54943648524952 288.0164983052625 0 51.57927931457084 747.7963689095407 316.1568652685319 193.4792256241917 0 171.9359254815049 427.8023865216161 344.271551920516 273.6404926720782 0 547.3465199958887 135.4080687746687 2048 2048 0 873.3696302110926 0 0 573.7339919602382 0 317.3850341863416 31.83002113789775 754.6884171139413 1331.411539300065 426.2686276527394 0 71.86657669910731 0 0 261.6044736189895 234.3304901572772 0 500.4529654851148 0 382.5734388323081 0 0 209.5643118462138 632.9153921928253 0 140.48637637929 2048 0 0 536.4451687639583 0 0 0 241.3428966658614 0 153.4489590735935 0 0 0 0 504.0135823604697 261.4730709382759 0 198.9273718827476 0:0.054902 1:0.372549 2:0.403922 3:0.0117647 20:0.0431373 21:0.427451 22:0.0235294 23:0.427451 24:0.0352941 47:0.054902 48:0.333333 49:0.054902 52:0.254902 53:0.0980392 57:0.333333 58:0.137255 62:0.333333 63:0.137255 67:0.333333 68:0.137255 72:0.196078 73:0.0784314 100:0.113725 101:0.45098 120:0.0901961 121:0.427451 122:0.427451 123:0.403922 124:0.0117647 126:0.298039 127:0.101961 150:0.235294 151:0.0392157 152:0.0784314 156:0.137255 157:0.333333 161:0.137255 162:0.333333 166:0.137255 167:0.333333 171:0.0588235 172:0.137255 176:0.443137 196:0.388235 197:0.164706 
-75.75780430919183 79.92887162979019 760.7784282061581 40.81012123930619 300.5724825515688 770.3546824946186 0 79.36852959203586 272.8477591469173 0 0 0 0 0 0 0 0 684.5835880756157 0 0 358.4606103509142 0 0 0 0 196.4337258456895 0 0 0 0 180.3765227786309 0 0 6.377243568765007 84.1673109549899 0 5.483341222866757 519.2834473919158 0 212.5451497721794 2048 368.5232896289614 0 2048 1593.73460951737 50.69810620531309 807.145216734586 0 0 22.23719146525534 0 43.35737573353212 0 80.55886031826677 2048 0 247.536058202024 0 0 0 0 0 1535.183476176081 0 0:0.0235294 1:0.278431 2:0.419608 3:0.0470588 16:0.0117647 18:0.0117647 21:0.243137 23:0.266667 24:0.0117647 48:0.4 52:0.0980392 53:0.254902 57:0.137255 58:0.333333 62:0.137255 63:0.333333 67:0.137255 68:0.333333 72:0.0196078 73:0.215686 74:0.0784314 81:0.443137 98:0.278431 105:0.054902 106:0.180392 120:0.0117647 121:0.403922 122:0.427451 123:0.32549 131:0.501961 150:0.137255 151:0.0588235 155:0.0784314 156:0.490196 157:0.0392157 161:0.607843 162:0.0392157 166:0.588235 167:0.0392157 170:0.0980392 171:0.254902 176:0.807843 177:0.0392157 191:0.0392157 196:0.0784314 
-0 0 0 0 0 0 0 0 0 0 0 0 0 0 0 0 0 882.5088586369468 0 0 0 0 0 0 0 0 0 0 0 0 0 0 0 391.9556324825301 0 0 0 0 0 0 0 0 0 2048 0 0 1904.091469183994 0 0 0 0 0 780.7718166931454 0 400.8047515052065 0 0 0 0 228.3602244443179 0 0 0 0 0:0.27451 1:0.576471 2:0.454902 3:0.0588235 20:0.152941 21:0.423529 23:0.407843 24:0.0745098 48:0.890196 49:0.278431 52:0.0980392 53:0.254902 57:0.137255 58:0.333333 62:0.137255 63:0.333333 67:0.137255 68:0.333333 72:0.0588235 73:0.137255 100:0.0431373 101:0.0431373 105:0.113725 106:0.113725 120:0.258824 121:0.427451 122:0.427451 123:0.415686 124:0.0431373 126:0.101961 131:0.298039 150:0.352941 155:0.0392157 156:0.54902 157:0.0392157 161:0.607843 162:0.0392157 166:0.607843 167:0.0392157 171:0.137255 176:0.290196 177:0.458824 195:0.333333 196:0.584314 
-0 0 190.9486199740986 0 124.4245365165665 0 0 237.0832687231527 0 0 77.02995334136004 0 0 0 0 0 145.2279670063581 0 0 0 0 58.22548051556753 155.6955549106093 0 0 0 0 0 179.7782807774788 67.99583204381204 0 0 292.6028384348288 34.12131148007477 9.511242205520356 0 0 0 0 0 135.9643358629803 0 0 0 0 0 0 36.53071659288332 0 0 0 0 0 0 436.3840820353038 0 0 0 524.0377373882925 0 0 0 0 0 0:0.0117647 1:0.215686 2:0.305882 3:0.419608 4:0.0470588 6:0.0235294 53:0.0980392 54:0.254902 58:0.137255 59:0.333333 63:0.137255 64:0.333333 68:0.137255 69:0.333333 73:0.117647 74:0.313725 105:0.054902 106:0.403922 107:0.0235294 122:0.32549 123:0.403922 124:0.0117647 131:0.560784 132:0.313725 137:0.0627451 150:0.0392157 151:0.0196078 155:0.0784314 156:0.0392157 157:0.215686 162:0.843137 167:0.882353 172:0.686275 176:0.368627 177:0.635294 
-0 60.45164635801506 0 116.7478042563118 7.79105249272361 0 136.4371752678462 0 0.356326769512718 326.9328925053688 476.980576385205 0 332.2014492013532 578.247329235542 763.8999578917947 0 370.6159565998254 2048 412.1594839125588 332.2399555384026 953.4167144230292 294.4106345631406 189.0735681226054 0 472.7307766237685 0 433.1663101980574 221.3253075309122 1381.73762600628 0 225.6425069887794 124.5269881846083 297.0653350674365 416.8783411303561 192.5845538420595 0 214.7216804293096 0 0 19.34636411992825 288.3215425810603 0 815.9524028600766 2048 355.7328820445874 932.9049614492653 2048 244.6199293077169 385.9206380616925 2.978437213455084 508.6122898317512 0 278.8550005521238 118.2886976968525 228.8611041111938 152.3611770759433 362.4949954098437 128.587567358106 341.2903738737984 495.616259772218 120.3587759001512 0 977.7682957278126 117.3061899673786 0:0.160784 1:0.454902 2:0.419608 3:0.0470588 20:0.14902 21:0.227451 23:0.329412 24:0.0784314 48:0.890196 49:0.164706 52:0.0980392 53:0.254902 57:0.137255 58:0.333333 62:0.137255 63:0.333333 67:0.137255 68:0.333333 72:0.0392157 73:0.0784314 98:0.054902 99:0.164706 100:0.113725 101:0.0784314 105:0.0431373 106:0.0352941 120:0.337255 121:0.427451 122:0.427451 123:0.403922 124:0.0117647 126:0.298039 131:0.101961 150:0.490196 151:0.0392157 156:0.843137 161:0.882353 166:0.862745 171:0.0980392 175:0.317647 176:0.262745 195:0.788235 196:0.737255 
-75.15613333151194 476.128745521291 171.6091581626312 0 170.9156879923293 0 793.3780346794526 16.8002851797176 238.2564251334152 238.641251869035 80.53925147011942 56.3155657660467 78.16336116811244 0 0 54.69521254215832 151.2905029095326 438.9699302011258 1190.019490786791 268.2184248934814 0 47.76165798985453 112.6073286686135 0 100.6727236218471 252.5952752138281 435.463093216509 97.70446910714561 0 118.6163390380019 218.6459536701819 149.1978296915827 143.0924218482652 0 0 312.3639819507393 0 57.56778441401975 172.3051682966712 54.32174987254898 0 311.414112050545 115.5257890404688 0 2048 228.8641284992637 1102.966348971704 0 95.23013541932811 25.41565766066351 144.2699171805721 239.619186681573 0 90.20120004524649 0 74.81676404972762 51.84485188286674 163.5418461702911 289.5104720248017 191.396332198715 656.9984595966274 202.5934174446892 0 294.0122456036086 1:0.054902 2:0.372549 3:0.427451 4:0.258824 20:0.180392 21:0.360784 23:0.054902 24:0.223529 48:0.776471 49:0.556863 54:0.521569 58:0.109804 59:0.34902 63:0.215686 64:0.152941 68:0.827451 73:0.215686 74:0.172549 79:0.580392 83:0.0509804 84:0.211765 88:0.419608 89:0.0509804 93:0.368627 98:0.0509804 101:0.133333 102:0.203922 106:0.0117647 107:0.0117647 120:0.258824 121:0.427451 122:0.427451 123:0.427451 124:0.168627 127:0.501961 151:0.34902 152:0.0745098 157:0.776471 162:0.901961 166:0.0745098 167:0.423529 170:0.223529 171:0.0235294 172:0.0235294 176:0.298039 177:0.4 182:0.6 187:0.45098 191:0.0509804 192:0.45098 195:0.14902 196:0.65098 197:0.0509804 
-69.02924044836988 124.3906569513043 202.8533869042795 57.50910716679996 0 59.63045775915337 0 56.55526320388612 0 0 96.73027472960298 0 36.95884717946415 0 0 0 0 0 0 0 0 0 0 74.97339091389499 0 34.58083889870981 0 0 0 0 0 0 0 0 328.5221972761332 0 0 0 0 0 0 0 0 0 440.9636641842085 0 720.8143282008269 0 0 74.78206868403669 0 0 0 0 0 0 0 0 0 0 0 246.5445522889113 0 0 1:0.223529 2:0.898039 3:0.490196 20:0.101961 21:0.756863 22:0.0627451 23:0.470588 24:0.203922 48:0.764706 53:0.666667 58:0.772549 63:0.686275 67:0.12549 68:0.333333 72:0.0196078 73:0.0431373 78:0.25098 83:0.831373 88:0.501961 92:0.0823529 93:0.164706 98:0.0823529 99:0.25098 101:0.352941 102:0.352941 106:0.0196078 107:0.0196078 120:0.215686 121:1 122:1 123:0.960784 124:0.0392157 127:0.501961 151:0.188235 152:0.0627451 157:0.647059 162:1 167:0.623529 170:0.105882 172:0.0196078 176:0.4 177:0.298039 178:0.34902 182:0.4 187:0.14902 192:0.6 196:0.2 197:0.101961 
-0 0 0 0 0 0 0 0 0 0 0 0 0 140.3150516660969 0 0 0 2048 0 127.0213411175363 0 0 0 0 0 0 0 0 0 0 0 0 281.1648802138043 0 366.9500178449004 0 0 0 0 0 0 0 0 2048 0 0 2048 0 0 0 0 0 0 0 0 0 0 0 0 0 0 0 0 1187.732743002358 0:0.0666667 1:0.603922 2:0.439216 3:0.054902 20:0.137255 21:0.576471 23:0.494118 24:0.258824 48:0.501961 52:0.0980392 53:0.254902 57:0.137255 58:0.333333 62:0.137255 63:0.333333 67:0.137255 68:0.333333 72:0.0784314 73:0.196078 74:0.137255 100:0.0784314 101:0.313725 106:0.0235294 120:0.168627 121:0.427451 122:0.427451 123:0.427451 124:0.0901961 126:0.2 127:0.101961 150:0.235294 151:0.0196078 152:0.0392157 156:0.137255 157:0.333333 161:0.137255 162:0.333333 166:0.137255 167:0.333333 170:0.156863 171:0.0392157 172:0.0784314 176:0.298039 177:0.34902 196:0.25098 197:0.2 
-877.1631459304981 956.5845118515002 999.9597156778491 324.6981575306867 678.2494423421379 728.1952084882497 104.3652820134687 803.1841866103277 1116.818865587083 613.5809470710524 796.1489874099201 866.9462187638305 534.4485618927952 720.4990682047421 798.6336928565278 967.7812929104007 1124.191401712097 0 321.5849345814629 242.0638669554546 525.5698797467988 532.5700296466691 494.5582999986124 873.2490064833306 766.9526343934031 805.4702507649288 760.1436859126865 1111.367022507267 423.2067807256231 678.7365719018604 363.5693081676143 343.2000730051508 49.29849510140637 235.1044844638197 379.1667829001142 1498.942417968674 154.6554412609322 940.2012148221752 447.1555075231842 1237.318008805999 102.0614683430115 1177.702035011642 387.4188632034266 0 0 0 0 1078.050393972575 2048 1290.382472500065 863.997355892215 1916.999068190585 565.5853091367572 1083.340187789065 0 818.120220992332 360.409646798833 339.6793069654944 81.45499001036259 68.17227690680062 580.4537536381723 445.0153889610612 0 0 1:0.168627 2:0.313725 3:0.415686 4:0.0431373 6:0.0117647 53:0.0980392 54:0.254902 58:0.137255 59:0.333333 63:0.137255 64:0.333333 68:0.137255 69:0.333333 73:0.117647 74:0.313725 77:0.278431 78:0.0392157 80:0.0392157 81:0.839216 82:0.278431 102:0.129412 105:0.0392157 106:0.286275 107:0.0509804 123:0.427451 124:0.0117647 127:0.101961 128:0.298039 150:0.0196078 153:0.137255 155:0.196078 156:0.0784314 157:0.0392157 158:0.607843 162:0.0392157 163:0.607843 167:0.0392157 168:0.607843 172:0.0392157 173:0.470588 176:0.643137 177:0.572549 181:0.0352941 
