svm_type c_svc
kernel_type rbf
gamma 0.0078125
nr_class 65
total_sv 1916
rho -0.463483 0.066714 -0.202693 0.10601 0.229577 0.973573 0.139913 0.1578 0.618742 0.55464 0.333773 1.45359 0.260704 0.425027 0.278805 0.366639 0.472205 -0.737612 -0.124565 0.655383 -0.18972 0.647583 0.278425 -1.94053 -0.414328 1.23742 0.473033 0.367195 -0.574161 -0.110736 0.747142 0.846004 0.246551 0.124935 -0.0642913 1.69195 0.614803 1.4181 0.138045 1.44472 0.0107912 0.974342 0.395242 -0.690386 -0.311375 0.248346 -0.52379 0.450007 1.14859 1.18273 0.0188276 0.446053 -0.176314 0.355666 -0.0653862 1.08326 0.657118 0.615794 0.186979 0.671982 -0.212768 0.757118 0.25447 0.167327 0.200287 0.115213 0.607322 0.481295 1.00805 -0.354246 0.424658 0.871618 0.398875 -0.885469 0.673543 0.588201 -0.20132 -0.684116 0.300538 0.841683 -2.69227 -1.98999 0.862638 -2.14011 -0.0852598 0.00520907 0.648275 -0.874834 0.0892446 0.568325 1.03824 -8.44867 0.788574 0.385932 0.193817 -0.122603 0.206088 -0.522392 1.07334 0.420808 1.03603 0.580596 0.711802 -0.0155173 0.765603 0.623723 -0.906289 -2.49514 0.104735 -3.71017 1.17165 1.26021 -0.137589 -0.10357 1.27179 -0.729956 0.826545 -1.75577 1.12676 0.394647 0.637248 -0.0473023 0.897976 -0.124918 0.689148 0.429422 0.195842 -0.261464 0.403851 0.198977 0.431331 0.83251 0.0452111 0.383204 0.833885 -0.071882 -0.342314 -0.104099 0.375161 0.241064 -0.393102 0.148368 -0.76951 0.616956 0.566891 -0.443541 0.102561 -0.131023 -0.199283 -0.765316 -0.33932 0.477161 0.265783 -0.494043 0.241395 0.768802 0.497221 0.444113 0.584421 0.449075 0.205339 0.337184 0.0977257 0.151899 0.0160966 0.412925 0.601992 0.255161 -0.659505 0.144534 0.0798149 -0.0533686 0.726046 0.220754 -0.554875 -0.115528 0.0602733 -0.12174 0.287597 -0.322636 0.477772 0.670321 0.678074 0.623218 1.44634 -0.542668 0.617552 0.46009 0.566079 0.56897 0.832694 1.54578 0.495741 0.281679 0.564406 1.09577 0.392443 0.0614622 0.306501 0.598189 -0.0186598 -0.32624 0.743823 -0.817109 0.501058 0.724993 -0.474176 0.285937 -0.0647567 -0.0684436 -0.574563 0.310558 0.647726 1.50388 -0.467684 0.379816 0.833073 0.565167 0.368439 0.596842 0.36878 1.23994 0.606095 0.767945 0.274156 0.763714 0.664706 0.762541 0.291497 -0.69365 0.0405006 0.405837 -0.416694 0.956627 0.371099 -0.865648 0.0392667 0.709109 -0.389349 1.3116 0.02598 0.811004 0.803231 0.870811 0.5993 1.26078 0.00962988 0.792324 0.676741 0.740265 -0.226232 0.690315 -0.646341 -0.561446 0.035009 -0.0833772 -0.701263 -0.216398 0.185613 -0.166216 -0.296906 -0.165632 0.24231 -1.25386 -0.460247 0.119602 -1.138 -0.566988 -0.33885 -0.0610043 -0.679809 -0.804099 0.330313 0.287043 -1.12467 0.0207366 0.440137 0.230727 -0.0837746 -0.190048 -0.452819 0.373543 0.119104 0.301808 0.023904 0.0169127 0.14835 0.189713 -0.106626 -1.1741 -0.803391 -0.39416 -1.01455 0.414791 0.5271 -0.495186 -0.589912 0.475873 -0.456168 0.260063 -0.939776 0.599621 0.211264 0.321281 -0.166627 0.540364 -0.400199 0.32207 -0.125721 -0.0897261 0.668358 -0.0114591 -0.200777 0.250729 0.636182 0.176071 -0.353907 0.293232 0.171909 -0.626007 -0.341778 0.804493 -1.76754 -0.40173 0.837538 -1.13623 -0.0459512 -0.102586 -0.0365279 -1.15415 -0.314962 -0.0579679 0.436022 -1.3805 0.950455 0.554214 0.405637 0.155777 0.103492 -0.110526 0.634924 1.0844 0.421766 0.584227 0.386468 0.3137 0.587477 0.264301 -1.62813 -0.906978 0.346331 -1.51375 0.642865 0.575623 -0.739724 -0.550834 0.228443 -1.83535 -0.307443 -0.459396 1.3399 0.542147 0.650242 0.221538 1.04445 -0.449856 0.932293 0.309692 0.219696 -0.301915 -1.23388 -0.462678 0.187652 -0.87441 -0.548782 -0.312126 -0.321536 -0.458287 -0.0428173 0.585695 -1.31722 -0.982862 -0.118234 -1.09681 -0.206824 -0.433827 -0.731541 -1.14479 -0.58149 -0.155188 -0.221792 -1.05421 -1.02766 0.199893 0.35233 0.0285099 -0.13184 -0.335042 0.222799 -0.0926243 0.551127 -0.954543 0.0735599 -0.107404 0.00766763 -0.33329 -1.1745 -0.940577 -0.301746 -1.03889 0.419249 0.233477 -0.798409 -1.03973 0.048078 -1.22508 -0.431176 -0.628034 0.207024 0.0972397 0.218491 -0.134773 0.324741 -0.489545 0.21518 -0.24066 -0.243452 -0.0645909 0.0473801 0.865234 -0.640864 -0.420554 -0.0353263 0.0751698 -0.312204 -0.375078 0.176125 -0.729023 0.309333 0.670434 -1.1782 -0.221902 -0.325758 -0.0229203 -0.926697 -0.506239 0.263821 0.145169 -0.948485 0.20447 0.519191 0.502314 0.489724 0.812715 0.281824 0.196285 0.378071 0.032288 0.364471 -0.0900402 0.370911 0.0389306 0.0846452 -0.328413 -0.0556595 -0.173646 -0.111394 0.773643 0.385254 -0.701101 -0.57835 0.402138 -0.812985 0.0423269 -1.04793 0.587907 1.21433 0.715679 0.221114 2.42329 -0.316404 0.6369 0.451897 0.30024 0.259947 0.902049 -0.512554 -0.237943 0.41284 0.17813 0.0493599 -0.389438 0.785822 -0.807463 0.169161 0.844929 -0.587186 0.34959 0.0117053 -0.0374201 -0.497047 -0.102281 0.722818 0.127448 -0.540058 0.0588225 0.802929 0.68499 0.466579 0.268113 -0.0967226 1.28054 0.475896 0.430541 0.197247 0.216739 0.2774 0.285455 0.21948 -0.728631 -0.223881 0.153719 -0.693771 0.928374 0.543434 -0.369469 -0.118865 0.374066 -0.397355 0.472376 -0.407442 0.672283 0.508997 0.925542 0.228759 0.770662 -0.215191 0.848977 0.406949 0.427963 0.405182 -0.465361 -0.540324 0.0472508 -0.0409879 -0.479681 -0.532129 0.146027 -1.29117 -0.619277 0.101307 -1.17255 -0.0659096 -0.356936 -0.312241 -0.775786 -0.773154 0.11109 0.393459 -1.03429 0.103663 0.521107 0.181733 0.0050632 0.0253123 -0.250277 0.540355 0.176623 -0.0699281 -0.0229025 -0.0930204 -0.154233 0.536936 -0.273457 -1.12945 -0.502 -0.217401 -0.990871 0.558579 0.0896757 -0.677546 -0.385304 -1.01416 -0.991503 0.086079 -1.02094 0.371635 0.193593 0.244792 -0.0804434 0.73368 -0.535342 0.495444 0.1219 0.308658 -0.995771 -0.661502 -0.26243 -0.3604 -0.634193 -0.591558 -0.224856 -1.35085 -0.626956 -0.132452 -1.07481 -0.737902 -0.967968 -0.42431 -1.12159 -0.867147 -0.121556 -0.379668 -1.26441 -0.572479 -0.0684313 -0.253208 -0.360889 -0.374745 -1.05018 -0.402001 -0.22555 -0.263384 -0.311849 -0.499503 -0.631348 -0.377891 -0.527041 -1.1832 -1.00659 -0.389833 -1.17646 -0.114127 -0.027422 -0.939824 -1.12172 -0.246062 -1.27433 -0.400632 -1.28491 -0.178291 -0.250942 -0.0363042 -0.445959 0.0231309 -0.752725 0.0722154 -0.31283 -0.637125 -0.0369352 -0.365048 0.766241 -0.215027 -0.352706 1.52994 -0.14608 0.86973 0.773053 0.26568 0.768348 -0.550065 0.335153 -1.39156 0.389086 0.402376 0.25751 -0.211458 0.159562 0.863824 0.893038 0.790555 0.665486 0.341397 0.522973 0.523413 0.945369 0.463749 0.656542 0.672477 0.490131 0.886079 -0.271163 0.334309 0.258367 -0.136956 1.23851 1.01621 -0.393747 0.108723 0.726866 -0.532592 0.0180224 -0.246248 1.32099 0.904095 1.12566 0.787298 1.36477 0.1592 0.833617 0.693185 0.826794 0.356035 1.00879 0.421596 -0.369253 0.982249 -0.893036 0.241076 0.535714 -0.794612 0.658121 0.313347 -1.12564 -0.766192 0.77374 0.621806 0.783603 -0.34921 0.528168 0.92502 1.07378 0.273014 0.319334 0.122975 1.41496 0.346151 4.57109 0.273964 1.18064 0.377343 0.874927 0.141035 -0.866722 -0.464149 -0.0119064 -0.854269 1.33953 0.936804 0.292875 0.272667 0.707833 -0.21813 0.933187 -0.276175 2.13821 0.608988 0.846046 0.264349 0.987233 -0.229625 0.659075 0.347668 0.224665 0.998284 0.307621 -0.0886879 1.01663 -1.20341 -0.286019 0.653048 0.908084 0.752557 0.754685 -0.397199 -0.788727 0.730332 0.593482 0.0722131 -0.677318 -0.0831637 0.640111 0.770219 0.154345 -0.00278687 0.196446 0.684929 1.24808 0.230133 0.261783 0.140165 0.133941 0.591726 1.15018 -1.10074 -0.472994 0.177774 -1.01359 0.72809 2.71109 -0.865627 0.902728 0.238856 -0.267291 0.119366 -0.733987 2.1839 0.314101 0.45929 0.207153 0.797537 -0.0693357 0.272802 -0.112702 -0.107086 -3.91735 -0.375898 -0.314728 -1.39243 -0.109087 -0.0983842 -0.831651 -0.615367 -1.40823 -0.312662 -2.07195 -0.513791 -0.664286 -0.0982037 -1.07469 -0.791736 -0.0397996 0.261021 0.0868159 0.15284 -1.30321 0.254073 0.000794636 -0.199408 -0.243342 0.709511 1.1779 -0.0207891 -0.0545606 0.259386 0.272627 -0.230069 -0.0300854 0.56841 0.0911172 -1.0241 -0.756942 0.113566 -2.03474 0.0522449 -0.820866 0.972451 0.156004 0.0555906 0.0365616 1.00216 -0.982337 0.414053 0.912637 0.997735 0.091404 2.02041 -0.846222 0.0469928 0.516309 -0.392121 -0.563386 -0.722937 0.0300256 -1.01038 -0.186703 0.706949 0.305173 -1.33232 -0.74615 0.304692 0.124128 0.0445379 0.440205 -0.616232 0.230592 0.23013 0.55385 -0.124277 -0.167073 1.17178 0.285054 0.314536 0.288832 0.610151 -0.107459 -0.303612 0.398941 0.971554 -0.634506 -0.0399025 0.456513 -0.00202249 0.293881 -1.04614 0.786457 0.490739 0.229982 0.180602 0.925347 -0.674842 0.469715 0.573845 1.15174 0.429843 -0.693751 0.185381 0.560988 -0.524606 0.107735 -0.306622 0.688908 -0.0656222 0.642137 0.646331 0.904287 -0.557678 0.56224 0.665032 0.684791 0.348404 0.314467 0.122378 1.01609 0.457347 0.0657732 0.255263 0.317099 0.734343 0.69274 0.334337 -0.682539 -0.00730984 0.285694 -0.540879 0.744721 0.269851 -0.31174 0.218803 0.287551 -0.470542 0.491428 -0.204495 1.18843 0.578774 0.568885 0.269697 0.970433 -0.293822 0.740603 0.391148 0.297511 -1.36749 0.620837 -0.163943 -1.14132 0.511031 1.07738 -0.382222 -1.55284 -0.269478 -0.169806 -0.571222 -0.968847 -0.292997 0.0484102 0.32798 -0.207173 -0.305792 -0.320449 0.0232486 0.0795332 -0.0769213 0.57351 -0.755598 0.0396621 0.424174 0.196763 -1.3109 -0.504387 -0.648825 -1.34861 0.22652 0.99183 -0.639288 -0.187091 0.750632 -0.713146 -0.246868 -1.03705 2.01214 0.156281 0.292599 -0.185295 0.4225 -0.574122 -0.0628901 -0.210483 -0.260956 0.385861 1.39072 0.416762 0.820727 0.707024 1.06837 -0.156532 0.314818 1.18133 1.54077 -8.87735 1.10565 1.12548 0.755082 0.614469 0.822503 1.02911 1.3119 0.732918 1.45609 1.05766 1.3021 1.90858 1.12914 1.4077 4.93682 1.2928 0.964413 9.19815 1.05052 1.43269 0.563763 0.819932 1.30128 1.18843 1.44809 -1.1755 1.64553 1.05526 1.22675 0.874454 1.97526 1.10195 1.04587 2.37008 1.38306 0.749385 -2.12045 -0.21495 -0.503667 0.0940331 -0.957397 -0.00371823 0.539592 0.575027 -1.07995 0.0898558 0.968854 0.298728 0.336173 0.721605 -0.726179 0.670847 0.376856 0.434529 0.390947 0.38238 1.15899 0.510439 0.389181 0.0181535 -6.32522 0.421366 0.52129 0.888279 0.621203 -0.85412 -0.534336 0.626035 -0.606139 0.547051 -1.07946 1.89534 1.11227 0.724389 0.272725 2.06423 -0.424621 0.646316 1.18181 1.22044 -0.672241 -1.33643 -0.985274 -0.412662 -1.46629 -0.597337 -0.0203188 -0.494033 -1.38577 -0.704511 -0.184551 0.115446 -0.344288 -0.780824 -0.711486 -0.135229 -0.20963 -0.104914 -0.138318 -0.506184 -0.13648 -0.534116 -0.290048 -1.36342 -0.896553 -2.2914 -1.36099 -0.246427 0.0468522 -0.741869 -0.363653 -0.048028 -1.04677 -0.434922 -1.22512 0.439775 -0.248955 0.0480903 -0.591046 -0.0419276 -0.814007 -0.0937656 -0.347317 -0.360016 0.9073 0.547471 0.917901 -1.06582 0.52487 0.630311 1.22574 0.184517 1.014 1.21473 0.797228 0.583909 0.900171 0.132118 0.929946 0.498589 1.08808 0.79939 0.93238 1.14809 0.9723 1.29734 1.80627 1.03933 0.430912 0.875391 1.11732 1.06588 0.323242 0.442565 0.787655 -3.51815 0.836089 -0.127746 2.53731 1.32711 0.947324 0.847126 2.11602 -0.0196732 0.980285 1.42914 1.54399 -0.739589 -0.0218221 -0.639927 -0.198038 0.0190434 0.277175 -0.587198 -0.533046 1.07244 0.046545 0.437101 0.509675 0.341773 0.0658616 0.0829911 0.0619582 0.083399 0.0324622 0.72696 -0.0277154 0.0533241 -0.691264 0.0988661 -0.0250954 -0.694578 0.692105 -0.112875 -0.679007 0.0955536 -0.446042 -0.319428 -0.0317313 -0.681195 0.0807783 0.69367 0.42107 0.629109 1.29527 0.247303 0.280797 0.341061 0.300435 0.231975 -0.712256 0.176431 0.161354 0.194079 -0.602727 -0.0786526 0.116354 0.266822 -0.94875 0.082453 0.149605 0.386248 0.756753 0.413468 0.0397064 0.442506 0.900487 0.389921 0.535685 -0.793491 0.0558216 0.141996 -0.772237 0.787599 0.808413 -0.177939 0.693047 0.123321 -0.867839 0.299395 -0.291878 0.957234 0.339996 0.770897 0.019979 1.17353 -0.325824 0.487195 0.283285 0.321494 -0.778448 1.78589 0.275648 0.755091 -0.971786 0.385058 0.520187 0.680901 0.135523 0.0929174 0.125787 0.996498 0.600356 1.03689 0.222535 -0.0372272 0.200385 0.641667 -0.0244924 -1.04507 -0.203166 -0.0297437 -0.952989 0.815299 0.894269 -0.795071 -0.158496 0.372824 -0.643062 0.2573 -0.618317 0.998981 0.427616 0.615917 0.113653 0.84856 -0.310627 0.512546 0.211564 0.213 0.448345 3.52568 0.720556 -0.227586 0.758574 1.27009 0.756132 0.491688 0.707349 0.407498 0.959291 1.25913 1.15547 0.630455 1.16716 1.03083 0.962757 1.21066 0.319596 0.435855 0.308808 0.307356 1.16275 1.73297 0.165549 0.923974 0.56924 0.0840093 0.870283 -0.312475 1.54482 1.366 1.1425 0.693036 1.77084 0.0074192 0.994871 0.766395 1.43665 0.328253 0.326639 -0.208575 -0.243997 0.634971 0.245664 0.452186 0.450103 0.0229372 0.699098 0.315706 -0.37943 0.170697 -0.699316 0.748751 0.219966 0.3873 -0.363628 0.0889118 0.459142 -0.0457708 0.3062 0.689598 -1.79006 0.273154 0.9017 -0.317239 0.111705 -0.243925 0.253595 0.524708 0.276133 0.466623 0.893981 -0.270289 0.537223 0.683213 0.89164 -0.570085 -1.13326 -0.625443 0.14312 0.61211 -0.0699754 -0.221185 -0.416592 -0.372001 0.449897 0.0754712 -0.291091 -0.525159 -0.35611 -0.0811176 0.307353 -1.20692 -0.640184 -0.966614 -1.15882 0.222898 0.860559 -0.50229 -0.311431 -0.0934041 -0.595036 -0.156504 -1.20717 0.76022 -0.0104765 0.329954 0.0154488 0.451212 -0.75504 0.110398 -0.278178 -0.327621 -1.20195 -0.285395 0.399537 0.109623 -0.10916 -0.120291 -0.400761 0.904246 -0.00255879 0.264347 -0.239986 -0.193941 0.198023 -0.0667931 -0.39788 -1.3907 -0.815175 -0.19228 -1.39721 0.46358 0.115366 -1.43747 -0.370972 0.0537813 -1.20687 -2.24549 -0.934369 0.234754 0.115406 0.222827 -0.175657 0.559316 -0.494187 0.381096 0.0126239 -0.300256 1.06644 0.941459 0.694248 0.659716 0.685875 0.653927 0.984039 1.13707 0.909415 1.14557 0.657462 1.62797 1.00355 1.40379 2.98738 0.0759993 0.885788 4.19788 1.31667 1.05768 0.242001 0.609945 1.17629 1.22868 1.076 -0.86071 1.4054 1.01066 1.13838 0.594811 1.79935 0.70996 0.887377 1.15934 1.17717 0.84497 0.899802 -0.0656146 -0.187684 -0.344012 0.360643 0.969686 0.440496 0.880151 -0.0435756 -0.050538 0.380941 0.783836 -1.27285 -0.750671 -0.0284688 -1.2179 0.666491 0.99254 -1.15636 0.412282 0.22756 -0.31233 0.117032 -0.61864 3.79249 0.366236 0.875034 -0.0436272 0.713993 -0.618143 0.477453 -0.0177186 -0.264123 0.205723 -0.363483 -1.25161 -0.355442 -0.112806 -0.559596 -0.347139 -0.139765 -0.138006 -0.133841 -0.272469 -0.331836 -0.956562 -0.69185 -1.17708 -0.806639 0.290875 0.0113752 -0.939747 -0.764358 -0.515544 -1.46892 -0.395672 -1.35317 0.150385 -5.87166 0.112898 -0.209012 -1.15875 -0.612016 0.0364268 -0.195965 -0.125682 -0.234272 -0.146552 -0.638975 -0.138027 -0.175473 -0.628031 -0.0933336 -0.374266 -0.179837 -0.740333 -0.172701 -0.665665 -0.405983 -0.401206 -0.563473 -0.402237 -0.177523 -1.02178 -0.399451 -0.185992 -0.581883 -0.324395 -0.931943 0.0478321 -0.337699 -6.10494 -0.446116 0.280378 -0.498315 -0.0260172 -0.0835098 -0.0873857 0.170463 -0.864835 -0.121416 0.0709973 -0.0622858 0.056267 -0.254974 0.0967316 -0.212479 0.0135538 -0.642912 -0.362046 -0.148146 -0.456759 0.0844796 0.102473 -0.551451 -0.29454 0.154577 -0.437076 -0.0131983 -0.764932 0.255241 0.222565 0.209649 -6.23534 0.865464 -0.69815 0.127701 -0.11322 -0.0331993 -0.0719998 0.0210253 0.119758 -0.0105323 0.0519726 -0.169132 0.0188943 0.154602 -0.235882 -0.802204 -0.73337 -0.6079 -0.533688 0.348092 0.213985 -0.517012 -0.287176 0.210121 -0.51386 -0.0389044 -0.62769 0.252586 0.457449 0.315366 0.352298 -0.859997 -0.222742 0.338863 0.358461 -0.020468 0.343282 0.508142 0.25694 0.433812 0.0116215 1.00353 0.251865 0.272204 0.292632 0.198301 0.25239 0.190535 0.608062 0.362323 -0.550719 -0.0903447 0.441475 0.0170526 0.406133 -0.0690981 0.748148 0.276694 0.623874 0.746359 1.45662 -0.0559129 0.494865 0.835899 0.450468 0.0592106 -0.734949 0.0820835 -0.921955 -0.0722914 -0.40595 -0.0361997 -1.25391 -1.08004 -0.327438 -1.28682 0.341936 -0.118594 -1.9047 -0.569523 0.129662 -0.840105 -0.764169 -0.833584 -0.321513 0.173055 0.0672702 -0.0459785 0.383636 -0.410974 0.173619 -0.0978137 -0.377198 0.168844 -0.701845 0.0807014 -0.175795 0.1042 0.488344 -0.683914 -0.940187 0.0620029 -0.670856 0.259799 0.307231 -0.875245 -0.537301 -0.0679303 -0.762208 -0.150365 -0.917799 0.953677 0.256438 0.273123 -0.0108481 0.511767 -0.538325 0.308952 0.0251825 -0.130068 -0.170426 -0.51318 -0.148977 0.0228014 -0.371699 -1.30376 -0.777313 -0.363934 -1.3229 0.527956 0.638331 -1.23932 -0.187864 0.170371 -0.753722 -0.216489 -1.06395 0.977884 0.357824 0.40616 0.0322413 0.61637 -0.49088 0.297003 -0.1018 -0.198935 0.219045 0.158323 0.246327 -0.237778 -1.23224 -0.939815 -0.30291 -1.06913 0.238371 0.150973 -0.294489 -0.342997 0.0801436 -0.800106 0.0968323 -0.800714 0.0146524 0.0692133 0.158749 -0.0538853 0.561324 -0.49632 0.610848 -0.127549 -0.329832 0.228482 0.104838 -0.061736 -1.1559 -0.64043 -0.253334 -1.17737 0.734839 0.611839 -0.0131746 -0.0872241 0.276977 -0.575457 0.16575 -0.70468 0.478823 0.155907 0.510563 0.272107 0.636696 -0.324923 0.473628 0.0469654 -0.0827407 0.0219561 -0.130518 -0.267368 -1.03506 0.286131 -0.699873 0.429878 0.362322 -0.820447 -0.935033 0.0955614 -0.654719 -0.300645 -0.448519 0.460308 0.561836 0.310494 -0.257562 0.625865 -0.837211 0.356033 1.19815 0.232994 -0.139643 -1.27606 -0.959266 -0.250514 -1.09411 0.429396 0.445154 -1.05797 -0.763602 -0.224589 -0.788704 -0.104951 -0.926466 0.705963 0.169903 0.206042 0.106486 0.913872 -0.315145 0.35541 -0.104984 -0.319028 -1.4457 -0.681782 -0.749665 -1.4361 0.227816 0.529173 -0.553644 -0.507757 0.307071 -1.8831 0.0425875 -1.49835 1.2614 0.385204 0.350193 0.143994 0.630267 -0.258981 0.59589 0.00554052 -0.0667806 0.130108 0.750922 -2.53669 1.26474 1.20049 0.288487 0.686595 1.06447 0.361689 1.18968 -2.87856 1.53041 1.11505 1.12322 0.513996 1.48509 0.622551 0.928165 1.57149 0.922034 0.305553 -0.450616 0.795546 0.670071 -0.332408 -0.323774 0.853735 0.766654 0.743809 0.659832 1.42647 0.891883 0.943224 0.305091 1.66371 0.0852518 0.874455 1.41503 0.840724 -0.736031 0.487969 0.734472 -0.345619 -0.0942518 0.590278 -1.02258 0.0425859 -0.810635 0.89752 1.09852 0.525034 0.480234 1.04594 -0.314081 0.710547 -0.0444158 0.335244 1.25329 1.26736 0.200417 0.613126 1.17636 1.55758 1.10725 -0.910036 1.66009 0.888348 1.046 0.276104 1.6623 0.560499 1.01933 1.19738 0.983151 -0.539967 -1.01527 -0.558204 -0.436301 -0.818467 -0.705793 -1.19092 0.15316 -0.233282 0.176771 -0.350606 0.061794 -0.736755 -0.213979 -0.155812 -0.449799 -0.816381 -1.37546 -0.525984 0.0907064 -0.217119 -0.925946 0.232057 -0.130664 0.278082 0.0489084 0.25316 -0.614733 0.304764 -0.351015 -0.301815 0.122506 0.795101 -0.0697692 1.2243 0.0885253 1.39797 0.908883 1.0453 0.618711 1.14129 0.126883 0.624952 0.712133 0.627751 0.0324596 -0.739138 0.301341 -0.603566 0.986272 0.806786 0.582754 0.461145 1.07713 -0.133237 0.980093 0.57843 1.54524 -0.711186 -0.0761619 -1.12508 1.15081 -0.0829107 -0.000671976 -0.304263 0.315038 -0.614449 0.0346481 -0.24784 -0.517717 0.697122 -1.51852 1.55523 1.44421 1.02705 0.687723 1.56539 0.418128 0.962472 0.489921 0.927599 -0.457085 0.186889 0.22268 0.443216 -0.393433 0.682669 -0.623371 0.408942 0.292293 -0.178246 1.19626 1.37562 1.31682 0.764722 1.64985 0.663715 0.873097 1.14798 1.21897 -0.158141 -0.489357 -0.272485 0.209565 -0.79839 0.179246 -0.213755 -0.499689 0.60074 -0.00500731 0.228152 -0.911861 0.181947 -0.232937 -0.154936 -0.413314 0.145272 -0.710263 0.0958438 -0.361295 -0.576541 0.720414 -0.829689 0.358488 0.130403 0.0457643 -1.24891 0.00543917 -0.259783 -0.41859 0.596077 0.50312 0.498012 -0.328229 -0.423893 -0.918266
label 0 1 2 3 4 5 6 7 8 9 10 11 12 13 14 15 16 17 18 19 20 21 22 23 24 25 26 27 28 29 30 31 32 33 34 35 36 37 38 39 40 41 42 43 44 45 46 47 48 49 50 51 52 53 54 55 56 57 58 59 60 61 62 63 64
probA -2.98099 -3.05532 -3.1816 -3.09664 -3.13345 -2.93389 -3.03957 -3.21573 -3.32958 -3.24006 -3.19051 -2.71321 -3.46539 -3.16432 -3.21346 -3.24303 -3.11073 -2.63786 -3.07421 -3.22925 -3.10851 -3.27087 -3.14878 -1.27124 -3.14829 -3.13628 -3.21576 -3.19575 -2.92846 -3.36905 -3.06492 -3.37627 -3.03529 -3.22431 -3.08589 -3.06876 -3.36487 -2.82703 -3.23673 -2.95828 -2.97924 -3.31699 -3.15475 -2.92982 -2.81735 -3.15408 -2.88861 -3.05134 -3.45984 -1.72297 -3.41385 -3.27982 -3.16095 -3.16291 -2.82481 -3.42001 -3.19424 -3.21884 -3.08953 -3.16925 -3.03129 -3.24822 -2.81843 -2.96213 -3.13833 -3.22557 -3.2635 -3.62476 -3.27168 -2.54391 -3.16004 -3.31849 -3.41998 -3.12297 -3.18729 -3.15616 -3.29889 -3.28537 -3.23245 -3.01708 -2.30661 -3.48089 -3.41234 -2.94653 -3.15168 -2.91499 -3.2374 -2.93362 -2.82666 -3.44689 -3.21082 -2.35636 -3.01716 -3.58836 -3.53191 -3.4354 -3.62662 -3.31819 -3.37941 -3.05674 -3.27272 -3.27478 -3.32074 -2.94901 -3.36417 -2.70042 -1.58532 -3.01614 -3.04363 -1.11012 -3.38318 -3.366 -3.09468 -2.84877 -3.40471 -2.8861 -3.40815 -2.89411 -3.43763 -3.53625 -3.63662 -3.09525 -3.37728 -3.12658 -3.53071 -2.62511 -2.66071 -2.89781 -3.26638 -3.27533 -3.13303 -3.06235 -3.18111 -2.91961 -3.35292 -3.15676 -3.05665 -3.02697 -3.19809 -3.12379 -3.13335 -3.08208 -2.79689 -3.00208 -3.17292 -3.23205 -3.20272 -2.97523 -3.10084 -3.17717 -2.65197 -3.0983 -3.40168 -2.97785 -3.09925 -3.19488 -3.29321 -3.28325 -3.26535 -3.29913 -3.00587 -3.15811 -3.17949 -3.20828 -3.14494 -3.03022 -3.35508 -3.07259 -3.07815 -2.82056 -3.05299 -3.0168 -3.1944 -3.10985 -3.07636 -3.05489 -3.17162 -3.00271 -3.29479 -2.90882 -3.18391 -3.26075 -3.32713 -3.22646 -3.28283 -3.03284 -3.29201 -2.81829 -2.89192 -3.16615 -3.44484 -2.92482 -3.25756 -3.72663 -3.21531 -3.37702 -2.89037 -2.91314 -3.12709 -3.24521 -3.2401 -3.32817 -3.16152 -2.92391 -3.40834 -3.2571 -3.02924 -3.26679 -2.66178 -3.29794 -3.11388 -3.05074 -3.08829 -3.89393 -2.9611 -3.27927 -3.29731 -3.36861 -3.21233 -3.41136 -3.17852 -3.58315 -3.3516 -3.16257 -3.28572 -3.19578 -3.13976 -3.29183 -3.09294 -3.03638 -3.02645 -3.09764 -3.18741 -3.29796 -3.24874 -3.15739 -3.15072 -3.30574 -3.1631 -3.23689 -2.96597 -3.47502 -3.3945 -3.4085 -3.15539 -3.25506 -3.07818 -3.50707 -3.08925 -3.00828 -3.3312 -3.15103 -3.24701 -3.09832 -3.31462 -3.16851 -3.13816 -2.931 -3.10447 -3.33181 -3.40571 -3.25515 -2.93224 -2.90294 -3.46244 -3.10876 -3.12267 -3.17534 -2.92022 -3.18628 -3.15059 -3.06349 -3.27576 -3.20586 -3.21975 -3.10377 -3.35079 -3.34367 -3.26798 -3.4555 -3.2041 -3.30069 -3.1777 -3.20589 -3.3027 -3.14839 -3.1818 -3.25934 -3.05082 -3.32251 -3.23256 -3.22869 -3.37225 -3.41498 -3.25244 -3.21276 -3.12097 -3.34834 -3.04857 -3.35832 -3.01654 -3.35726 -3.44349 -3.3938 -3.20761 -3.54295 -3.12822 -3.41292 -2.92128 -2.92833 -3.33812 -3.16084 -3.42489 -3.33157 -3.48641 -3.4889 -3.15118 -3.20516 -3.38924 -3.294 -3.49554 -3.17764 -3.06631 -2.97113 -3.00305 -3.013 -3.28889 -2.74637 -3.38819 -3.12603 -3.30313 -3.04732 -2.4054 -2.95743 -2.3904 -3.34681 -3.31382 -3.15915 -3.41155 -3.30074 -3.79068 -2.99834 -3.31236 -2.82087 -3.10772 -3.09149 -3.60631 -2.77273 -3.23027 -2.83129 -3.15032 -3.31746 -3.42425 -3.35981 -3.33946 -2.94449 -3.23298 -3.1358 -2.58227 -2.86528 -2.71359 -3.31529 -3.38789 -3.22002 -3.01395 -3.4263 -3.57824 -2.89521 -2.85667 -3.25968 -3.09519 -2.89964 -3.41087 -3.29194 -3.05918 -3.18824 -3.32718 -3.4149 -3.50282 -3.31735 -3.07257 -3.29377 -3.40727 -3.34996 -3.2402 -2.97415 -3.22008 -3.25566 -3.14559 -3.31078 -2.89259 -3.08007 -3.1985 -3.23579 -3.36207 -3.24487 -3.42609 -3.27457 -3.32539 -3.47993 -3.47329 -3.52446 -3.2401 -3.21979 -3.49996 -3.36763 -3.18698 -3.10317 -3.36002 -3.32362 -3.45361 -3.47395 -3.05776 -3.13926 -3.26571 -3.40328 -3.26552 -3.03777 -3.20658 -3.30887 -3.36399 -3.25965 -3.38118 -3.23726 -3.37761 -3.09553 -2.89605 -3.21222 -3.27244 -3.20661 -3.23344 -3.17407 -3.16809 -3.22202 -3.21435 -3.20562 -3.0729 -2.78183 -2.92063 -3.22792 -3.10846 -3.13721 -2.94607 -3.18433 -3.42476 -3.2702 -3.18563 -3.20952 -3.11369 -3.03423 -3.24888 -3.26954 -3.08881 -3.36121 -2.22951 -3.34173 -3.10415 -3.30399 -3.16274 -3.30452 -3.3634 -3.38827 -2.89775 -3.36617 -2.77384 -2.50186 -2.83337 -3.30297 -3.32184 -3.12276 -3.08614 -3.31291 -3.22632 -3.32499 -2.92821 -3.3055 -3.46855 -3.34883 -3.13172 -3.56478 -2.70761 -3.40221 -2.78786 -3.08432 -3.23141 -3.25819 -3.19568 -3.13224 -3.34018 -3.328 -3.33681 -3.22659 -3.11148 -2.79424 -3.29288 -3.29209 -3.04904 -3.34829 -2.79821 -3.13804 -3.20632 -3.019 -3.28277 -3.31848 -2.92201 -3.35991 -3.21671 -3.22947 -3.00716 -3.31738 -3.15455 -3.2913 -3.21877 -3.09171 -3.14 -2.93214 -3.16172 -3.3716 -3.05302 -3.11882 -3.02002 -3.16806 -3.1036 -3.37789 -3.38062 -3.19061 -3.0028 -3.2088 -2.98416 -3.57895 -2.96371 -3.36545 -3.31861 -3.39059 -3.05987 -3.23833 -3.22908 -3.39595 -3.16519 -3.12151 -3.46627 -3.32658 -2.84892 -3.40563 -3.52695 -3.35533 -3.25041 -3.30982 -3.01072 -3.39872 -3.40036 -3.44167 -3.44892 -3.18566 -3.35245 -3.53466 -2.98431 -3.50336 -3.21455 -3.12553 -3.37676 -3.58477 -3.37379 -3.27632 -3.52195 -3.30988 -3.23874 -3.35858 -3.14467 -3.34787 -3.57125 -3.28773 -2.50142 -3.29952 -3.23966 -3.14232 -3.33316 -3.28786 -3.35575 -3.32398 -3.19284 -3.08522 -3.30013 -3.29378 -3.34498 -2.99472 -3.44631 -3.47124 -3.56417 -3.3225 -3.3886 -3.32412 -3.41856 -3.01837 -2.887 -3.35098 -3.21387 -3.30981 -3.41899 -3.44322 -3.3059 -3.25553 -3.12521 -3.33058 -3.41008 -3.3835 -3.32903 -3.43107 -3.25876 -3.30702 -3.12704 -3.40096 -3.43811 -3.0931 -3.14597 -3.25905 -3.37115 -3.47095 -3.54772 -3.219 -3.45397 -3.36408 -3.42894 -3.33824 -3.30072 -3.32423 -3.46205 -3.14028 -3.51963 -3.23267 -3.37818 -3.47298 -3.34261 -3.54627 -3.34633 -3.36244 -3.37923 -3.35362 -3.51869 -3.20275 -3.41586 -3.34809 -3.19627 -3.43242 -3.35648 -3.52193 -3.39121 -3.11449 -3.20272 -3.03406 -3.33969 -3.24973 -3.28878 -3.35665 -3.22144 -2.54102 -3.14164 -3.20366 -3.01453 -3.30828 -2.70483 -3.28003 -3.10267 -3.05841 -2.55763 -3.51831 -2.83913 -3.35315 -3.46374 -3.45568 -3.1765 -3.36227 -3.18361 -3.49464 -3.17603 -3.41736 -3.40648 -3.15194 -3.07586 -3.47601 -3.01853 -2.82969 -3.01106 -3.14131 -2.9777 -3.40106 -3.53505 -3.17418 -2.95174 -3.37336 -3.14813 -3.56014 -2.86291 -3.5461 -3.47146 -3.21029 -3.2278 -3.36148 -3.29474 -3.38802 -2.96417 -3.07424 -3.07384 -3.33282 -3.36089 -2.94059 -3.07485 -2.73001 -2.99509 -3.35778 -3.08846 -3.19165 -2.71604 -2.78447 -3.07885 -2.79733 -3.3169 -3.24217 -2.93566 -3.27216 -3.18056 -3.35989 -3.11835 -3.27885 -3.17383 -2.30569 -3.09753 -0.0522096 -3.15529 -2.93587 -2.98425 -3.28206 -3.02029 -3.06191 -2.88215 -3.19717 -3.07497 -3.2276 -3.39093 -2.75773 -3.18746 -3.24495 -3.15965 -3.28665 -2.79589 -3.23662 -3.21011 -3.19277 -3.15061 -3.17724 -3.08561 -3.31227 -3.02788 -2.87316 -3.09791 -3.16943 -3.19092 -2.92493 -2.77106 -2.95373 -3.22053 -2.81932 -2.84931 -2.68185 -3.27487 -3.14624 -3.38068 -2.98422 -3.29481 -3.00547 -3.09369 -3.09091 -3.2721 -3.16093 -3.30649 -3.1853 -3.52241 -2.99819 -3.32583 -3.15551 -3.19007 -2.96924 -3.40107 -2.96943 -2.86618 -2.86792 -2.95417 -3.08607 -3.43311 -3.68957 -2.77441 -2.95506 -3.32021 -2.86758 -3.31022 -2.84387 -3.27335 -3.20711 -3.13438 -3.15464 -3.01551 -2.96894 -3.23998 -3.08146 -2.97269 -1.81412 -3.23119 -2.08138 -2.73198 -3.09766 -3.13465 -3.03846 -3.26451 -2.85422 -3.19912 -2.9456 -3.28624 -3.04491 -3.42777 -3.09881 -2.97386 -3.32018 -3.443 -3.25764 -3.52118 -3.19883 -3.61081 -3.09952 -3.28735 -3.34317 -3.20468 -2.59271 -3.61772 -3.13935 -2.67075 -3.1209 -3.20025 -3.33916 -3.45727 -3.43194 -3.15887 -3.27972 -3.32361 -3.02252 -3.32705 -2.86901 -3.25332 -3.30191 -3.52633 -3.33622 -3.35528 -3.13853 -3.58726 -3.17835 -2.97661 -3.16213 -2.44286 -2.94614 -3.21646 -3.24904 -2.84148 -3.39237 -2.96681 -3.2605 -2.7856 -3.23715 -3.29618 -3.45756 -3.07505 -3.10076 -3.29987 -3.41916 -3.17732 -3.38995 -3.13957 -3.56173 -3.10979 -3.37362 -3.43509 -3.50005 -2.47814 -3.58239 -3.04625 -2.78378 -3.1057 -3.27376 -3.30774 -3.41077 -3.35252 -3.06214 -3.12077 -3.33108 -2.81912 -3.57729 -2.91408 -3.48144 -3.47731 -3.4022 -3.34441 -3.37981 -3.23144 -3.48207 -3.03772 -3.10184 -3.09861 -2.8296 -3.21653 -3.37024 -3.24996 -3.38949 -3.01264 -3.28189 -3.10825 -3.08506 -3.23439 -3.64133 -2.96832 -3.29954 -3.27795 -3.41597 -3.14904 -3.26296 -3.12031 -3.571 -3.3764 -2.92743 -3.07185 -3.0261 -2.94727 -3.33532 -3.21396 -2.96059 -3.11545 -3.15124 -3.14503 -3.50351 -3.53494 -3.1204 -3.14089 -3.31098 -3.3107 -3.58452 -2.95169 -3.3983 -3.25307 -3.2307 -3.15929 -3.31992 -3.03338 -3.35466 -3.13995 -3.13671 -2.62986 -2.68295 -2.93513 -3.12054 -2.57682 -2.34008 -3.15842 -2.94721 -3.1782 -2.64048 -3.21224 -2.85856 -3.01421 -3.02396 -3.2366 -3.07285 -3.16477 -3.00341 -3.34274 -2.98901 -3.19633 -2.9937 -3.33065 -2.66908 -3.44855 -3.12067 -2.91708 -2.81514 -3.15172 -2.94616 -3.33852 -3.3563 -3.23314 -3.06074 -3.10573 -3.07098 -3.32569 -2.834 -3.26455 -3.06877 -2.99912 -3.14692 -3.10166 -3.06505 -3.16722 -3.10508 -3.03623 -2.50234 -2.97642 -1.1298 -2.66502 -2.28337 -2.68926 -2.54356 -2.73418 -3.03226 -2.91263 -0.998839 -2.68673 -3.26466 -3.1647 -2.91271 -3.18827 -2.53901 -3.13267 -2.64886 -3.04118 -2.97412 -2.86498 -2.66819 -3.12011 -2.46037 -1.97047 -1.69472 -2.75874 -1.08327 -3.0532 -2.91419 -2.65347 -2.39632 -3.05108 -2.21062 -3.13516 -1.3432 -2.99333 -2.91764 -3.13938 -2.84121 -2.83703 -2.60781 -3.29533 -1.91155 -2.51636 -3.33196 -2.73019 -3.41327 -3.12762 -3.16809 -3.02163 -3.13333 -3.40932 -3.40863 -2.75083 -2.88849 -3.42647 -3.56075 -3.24038 -3.59062 -2.70605 -3.66546 -3.03861 -3.3276 -2.91974 -3.20594 -3.5005 -3.50379 -2.89312 -2.6122 -0.452378 -3.17987 -2.66043 -3.46947 -3.36665 -3.07907 -3.00663 -3.35316 -3.02338 -3.36615 -2.81691 -2.62617 -3.5155 -3.30467 -3.09756 -3.24061 -2.95947 -3.65039 -2.75089 -2.80992 -3.13746 -2.96771 -3.02385 -3.35686 -3.33054 -3.37307 -3.50551 -3.41586 -3.09636 -3.17189 -3.1646 -3.35133 -3.27202 -3.51384 -3.35251 -3.35101 -3.24502 -3.3588 -3.28862 -3.44516 -3.00217 -3.3546 -3.03864 -3.18326 -3.1564 -3.01932 -3.34881 -3.5103 -3.3309 -3.15155 -3.32551 -3.14787 -3.13742 -3.3863 -2.99287 -3.27436 -3.18243 -3.3634 -3.43597 -3.46456 -3.31556 -3.70826 -3.04968 -3.11067 -2.89641 -2.31495 -3.11467 -2.76828 -3.11604 -3.03307 -3.29232 -2.42252 -2.73627 -3.16946 -3.4781 -3.24645 -3.51766 -3.14215 -3.41698 -3.00875 -3.40419 -3.22252 -3.19158 -2.89619 -3.51049 -2.8825 -1.20917 -2.61228 -3.09691 -2.00671 -3.43313 -3.37623 -3.02161 -2.93815 -3.15733 -1.85579 -3.46707 -2.09685 -3.22258 -3.37286 -3.29936 -3.18309 -3.31478 -2.95318 -3.45182 -2.83339 -2.67378 -2.6241 -3.41277 -3.24937 -3.47508 -3.23241 -3.33153 -2.88169 -3.4416 -2.60654 -3.06745 -3.16594 -2.96103 -3.08734 -3.56666 -2.9878 -3.33595 -3.15018 -3.32916 -3.05818 -3.4714 -2.70767 -2.83071 -2.81692 -3.03896 -2.9758 -2.96918 -3.1768 -3.25048 -3.24211 -3.21526 -2.96489 -3.44388 -2.79142 -3.34687 -2.75851 -3.07204 -3.11951 -3.20882 -3.17246 -3.39401 -2.96416 -3.02037 -2.9592 -2.65861 -3.06819 -2.90524 -2.76723 -2.52322 -3.06858 -2.87635 -3.46172 -3.13115 -3.20124 -2.97137 -3.2965 -2.75668 -3.24352 -3.04142 -2.79798 -2.57389 -3.07164 -2.51277 -2.58118 -2.55246 -2.96238 -2.52206 -3.55401 -3.41982 -2.80671 -2.7491 -3.29966 -2.62636 -3.14203 -2.46733 -3.26242 -3.31595 -3.13213 -3.22449 -2.97432 -2.82992 -3.42464 -2.58258 -2.72856 -3.30325 -3.1595 -3.29518 -3.50401 -2.84729 -3.17452 -3.1475 -3.39845 -3.10964 -3.38625 -3.14382 -3.40147 -3.36301 -3.23092 -2.91011 -2.986 -3.11765 -3.36396 -3.09046 -2.95924 -2.84962 -3.17131 -3.11393 -3.1696 -3.53494 -0.718746 -3.08049 -3.34041 -3.10626 -3.41976 -2.92165 -3.32039 -3.21296 -3.16333 -3.21063 -3.12752 -3.0797 -3.46864 -3.05279 -3.06267 -3.37903 -2.4395 -3.31863 -2.66839 -3.09329 -3.24351 -3.47711 -3.14621 -3.31682 -3.12296 -3.53497 -3.07318 -3.33958 -3.20694 -3.36959 -2.73109 -3.46337 -3.07385 -2.47915 -2.83739 -2.9652 -2.601 -3.47357 -3.34612 -3.17598 -2.20055 -3.26615 -2.93405 -3.37256 -2.73447 -3.39759 -3.487 -3.2641 -3.17461 -3.30202 -3.09502 -3.36153 -2.77573 -2.78116 -3.27682 -3.25367 -2.9242 -3.3559 -3.36733 -3.52897 -3.16486 -3.39258 -3.13274 -2.98733 -3.26274 -3.54353 -3.2725 -2.88121 -2.932 -2.86097 -3.13639 -2.84822 -2.92945 -3.19104 -3.1157 -3.46762 -3.38464 -2.78367 -3.3385 -3.44053 -3.12905 -3.28065 -2.79806 -3.49477 -3.36914 -3.37986 -3.13987 -3.20386 -3.04575 -3.24112 -2.87334 -2.78571 -3.34052 -3.24531 -3.10686 -3.2916 -3.21218 -3.26528 -3.41746 -3.24098 -3.437 -3.03246 -3.47556 -3.33642 -3.42904 -3.04961 -3.37697 -2.96694 -3.23754 -3.10717 -3.2798 -3.33064 -3.43539 -3.30006 -3.11872 -2.89578 -3.21126 -3.21524 -3.44089 -3.05696 -3.37678 -3.42105 -3.0258 -3.30515 -3.42504 -3.13751 -3.40206 -3.19668 -3.11338 -3.07004 -3.36146 -3.31295 -3.22907 -3.11405 -3.39211 -3.26531 -3.68561 -3.38729 -3.21584 -3.45371 -3.22998 -3.09676 -3.60184 -3.14465 -3.12854 -3.00092 -3.20844 -3.10733 -3.41779 -3.51283 -3.42078 -3.22168 -3.38147 -3.24953 0.135383 -2.99182 -3.44739 -3.29708 -3.25994 -3.15923 -3.10726 -3.37094 -3.50053 -3.02934 -3.03766 -2.88833 -3.30192 -3.30671 -3.04541 -3.28178 -2.73163 -3.2771 -2.92977 -3.26389 -3.01973 -3.05347 -2.83261 -3.23459 -2.46933 -1.71743 -2.27681 -2.87822 -1.85504 -3.14462 -3.12781 -2.76294 -2.70616 -3.18077 -2.828 -3.13422 -2.4465 -3.19428 -3.42684 -3.45425 -3.06256 -3.1365 -2.72703 -3.24494 -2.46734 -2.53184 -2.94657 -3.48598 -3.00067 -3.17282 -3.02913 -3.46628 -3.14917 -3.66665 -3.06763 -3.42998 -3.04179 -3.60153 -2.90652 -2.84922 -2.73526 -2.95393 -2.92874 -3.37525 -3.46423 -3.0978 -3.12053 -3.19554 -2.80026 -3.34501 -2.62268 -1.43857 -2.96616 -3.08405 -3.04182 -2.93536 -3.04384 -3.35572 -2.91538 -3.0423 -2.89836 -3.16817 -3.12781 -3.27447 -3.33562 -3.19589 -3.36571 -3.09712 -3.30952 -3.52978 -3.49226 -2.98491 -3.37596 -3.18939 -3.17435 -3.45032 -3.26791 -3.30165 -3.11454 -3.32464 -3.1875 -3.22695 -3.40189 -3.20532 -3.25292 0.0438878 -2.62866 -3.29466 -2.47235 -3.22668 -3.43104 -3.25012 -3.21713 -3.31181 -3.48968 -3.27558 -3.41579 -3.30985 -3.43371 -3.35541 -3.44785 -3.4249 -3.34146 -3.18269 -3.31538 -3.26715 -3.38925 -3.42584 -3.4357 -3.59061 -3.32774 -3.55004 -3.27903 -3.48153 -3.40716 -3.20449 -3.53923 -3.21711 -0.363404 -3.34071 -3.39263 -3.35573 -3.4909 -3.2862 -3.17939 -3.25261 -3.36159 -3.24195 -3.2967 -3.26105 -3.16504 -3.22965 -3.10336 -3.12691 -3.1275 -3.1016 -3.10542 -3.11548 -3.17007 -3.30731 -3.26258 -3.03948 -3.20446 -3.26618 -3.09152 -3.22068 -2.99716 -3.33245 -3.1843 -3.37199 0.0585243 -3.58147 -3.31081 -3.37149 -3.12675 -3.24203 -3.24668 -3.47225 -3.3971 -3.5225 -3.31543 -3.39337 -3.3401 -3.46249 -3.27433 -3.32705 -3.22847 -3.06513 -3.55753 -3.43964 -3.34468 -3.25358 -3.2926 -3.47044 -3.10119 -3.45979 -3.28974 -3.58153 -3.29769 -3.53672 -3.65544 -1.63485 -3.30703 -3.53537 -3.21546 -3.2832 -3.4729 -3.1455 -3.27697 -3.18577 -3.27898 -3.10013 -3.38642 -3.05974 -2.91189 -2.95715 -2.97161 -2.81031 -3.41824 -3.43406 -2.95835 -3.10294 -3.34659 -2.88108 -3.40826 -2.68022 -3.41874 -3.26068 -3.31691 -3.39561 -3.12337 -0.156733 -3.47308 -3.03733 -3.02259 -3.43173 -2.35602 -2.99615 -2.64951 -3.14772 -3.6239 -3.30563 -3.35676 -3.23784 -3.3066 -3.41884 -3.50864 -3.63804 -3.41937 -3.36798 -2.93707 -3.37603 -3.75035 -3.23772 -3.4684 -3.46634 -3.38041 -3.24122 -3.32763 -3.40671 -3.62572 -3.19379 -3.33348 -3.36995 -2.94081 -3.23931 -3.17019 -3.40049 -3.11348 -2.64107 -2.95594 -2.83713 -2.92663 -3.34893 -3.40707 -3.19707 -3.11402 -3.2184 -2.98544 -3.44742 -2.88539 -3.29777 -3.17165 -3.01416 -3.1976 -3.17879 -3.16664 -3.37181 -2.85226 -2.91271 -3.27684 -2.59831 -3.25392 -3.44844 -3.28456 -3.23876 -3.1896 -3.31351 -3.317 -3.30853 -3.34458 -3.02108 -3.45396 -3.28829 -3.50633 -3.44289 -3.14229 -3.29216 -3.24284 -3.27681 -3.26138 -3.34587 -3.2402 -3.40198 -3.26011 -3.24727 -3.29884 -3.27645 -3.3544 -3.15301 -3.18603 -3.04246 -3.30619 -3.20019 -3.28275 -3.5308 -3.04356 -3.2127 -3.24765 -3.24224 -3.32457 -2.8754 -2.9507 -3.35493 -2.99566 -3.22781 -3.18568 -3.1791 -3.43391 -2.97797 -3.21365 -2.96839 -3.06731 -3.08739 -3.22881 -3.08922 -3.29923 -3.2369 -3.33101 -3.33633 -3.06429 -3.25791 -3.28427 -3.21026 -3.36877 -3.05774 -3.2419 -3.4338 -3.22518 -3.16654 -3.29602 -3.01667 -3.38827 -3.23337 -3.17481 -3.18404 -2.90446 -2.68875 -2.90969 -3.1766 -3.37129 -3.15103 -2.78066 -2.94413 -2.76745 -3.13792 -2.46914 -3.06197 -2.24017 -3.23952 -3.53915 -3.472 -3.13147 -3.44349 -2.9804 -3.48145 -2.49563 -2.93135 -3.26987 -3.20362 -3.09594 -3.30451 -3.34038 -3.52504 -3.52112 -3.45794 -3.39067 -3.36632 -3.40128 -3.51512 -3.1278 -3.22247 -3.38821 -3.36857 -3.21931 -3.25988 -3.35829 -3.53311 -3.18125 -3.25465 -2.64795 -2.62469 -2.28444 -2.91342 -3.34402 -3.60054 -3.04977 -2.954 -3.19516 -2.89806 -3.29717 -2.65646 -3.45256 -3.14338 -2.95514 -3.08992 -2.90214 -2.99868 -3.47281 -2.78467 -2.51764 -2.10036 -3.06361 -0.495724 -3.33157 -3.03144 -2.67194 -2.55196 -3.20024 -2.19287 -3.31828 -1.43548 -3.05879 -3.47886 -3.37581 -3.17356 -3.21538 -2.70117 -3.41072 -2.18043 -2.53554 -2.56138 -2.14309 -3.20776 -3.10667 -2.79629 -2.68843 -3.24325 -2.5518 -3.05149 -2.35151 -2.76502 -3.25653 -3.40628 -3.13567 -2.70179 -2.82779 -3.38959 -2.45337 -2.75891 -2.76434 -3.41446 -3.46388 -3.03172 -3.23639 -3.26286 -3.22144 -3.30574 -2.93303 -3.36651 -3.32935 -3.31902 -3.00126 -3.0531 -2.93177 -3.42341 -3.0189 -2.71936 -3.5012 -3.26611 -2.97482 -2.69411 -3.38677 -2.72671 -3.42981 -1.1701 -3.12883 -3.58936 -3.54246 -3.08942 -3.01288 -2.86053 -3.62018 -2.39696 -2.75207 -3.03094 -3.29091 -3.23169 -3.37953 -3.44462 -3.44995 -3.16494 -3.50244 -3.43482 -3.3107 -3.31443 -3.4617 -3.39212 -3.46161 -3.20897 -3.33621 -3.49276 -2.97552 -3.33725 -2.73284 -3.36829 -3.10962 -3.61206 -3.38522 -3.4567 -3.25965 -3.31324 -3.20071 -3.46644 -3.08856 -3.12279 -2.98143 -3.24316 -2.94675 -3.4105 -2.75792 -3.52674 -3.12947 -3.10708 -3.05833 -3.11174 -2.79703 -3.46335 -3.03666 -3.02534 -3.03373 -2.84024 -3.35565 -2.71134 -3.31512 -3.48226 -3.31605 -3.22542 -3.26827 -3.01841 -3.45855 -2.7059 -2.46336 -3.10614 -3.34574 -3.01057 -3.06855 -3.2744 -3.17692 -3.29627 -3.39349 -3.28242 -3.34062 -3.09482 -3.20235 -3.5893 -2.53729 -3.24804 -3.43642 -3.35187 -3.29456 -3.28573 -3.03248 -3.4046 -2.29253 -2.75064 -3.15844 -3.56745 -3.39857 -3.58955 -3.29129 -3.18819 -3.25672 -3.50705 -3.20742 -3.17534 -2.91825 -3.28 -3.29267 -3.06691 -3.11985 -2.79011 -3.3311 -2.03394 -2.65686 -3.2418 -3.23435 -3.33779 -3.03662 -3.41295 -3.5908 -2.95847 -3.1315 -2.89788 -3.3557 -2.82744 -3.38409 -3.46222 -3.03593 -3.18465 -3.479 -3.24127 -3.41613 -3.43462 -3.33108 -3.28459 -3.55533 -3.29028 -3.42651 -2.91274 -3.04055 -3.24676 -3.41179 -2.95528 -3.04074 -3.34716 -2.99294 -2.94208 -3.34027 -3.43887 -1.77522
probB 0.114379 0.155702 -0.0314855 0.244406 0.120978 0.228633 0.133889 -0.0228634 0.490725 0.196634 0.108346 0.0727377 -0.0121067 0.0270607 0.0183998 0.179897 0.0701352 -0.067032 0.09753 -0.0132187 0.029002 0.359229 0.136475 0.0735869 -0.105477 0.62171 0.418114 0.147956 -0.0464472 0.0598214 0.400733 0.263474 0.105979 0.303051 0.139643 0.528549 0.054956 0.301481 0.0984554 0.32208 0.341723 0.25322 0.142434 0.10281 0.0468977 0.0787819 0.194918 0.395149 0.188317 0.113286 -0.0750132 0.24225 -0.0822321 0.130841 -0.0595125 0.488962 0.0388971 0.335012 0.29768 0.396019 -0.0280531 0.204568 0.174846 0.0427023 0.127624 0.0872965 0.0570341 0.457808 0.119029 -0.230531 0.0826919 0.0942321 0.151708 -0.203541 0.0697233 -0.0184848 0.196736 -0.092232 0.011223 0.0105735 -0.527383 -0.244789 0.23674 -0.14619 0.0756011 0.135357 0.0934482 -0.257317 -0.0454721 0.220699 0.124541 -0.623532 0.073662 0.294438 0.106602 0.0476477 0.120909 0.00810008 0.279206 0.177882 0.0751127 0.138976 0.263327 0.0101571 0.137329 0.217678 -0.119305 -0.657692 0.0940123 0.0341884 0.18003 0.467055 -0.138179 0.0232925 0.185485 -0.0876211 0.070903 -0.345816 0.46406 -0.00922572 0.392255 0.0938324 0.42912 -0.0315605 0.173258 -0.0939971 -0.0024925 0.0799437 0.208555 0.168986 0.120896 0.149106 0.0318912 0.0446529 0.0268228 0.134621 -0.134571 0.0502976 0.319563 0.0739574 -0.0511212 0.0650022 -0.145623 0.203019 0.196728 -0.0274493 0.0411676 0.208299 -0.0882623 -0.0692878 -0.0246905 0.182692 0.0890096 0.0984374 0.0483023 0.313078 0.142257 0.0871464 0.319482 0.0962445 0.167178 0.158646 -0.12042 0.0792969 0.113546 0.25867 0.342116 0.135697 -0.190793 0.0505758 0.108494 -0.00118127 0.130902 0.0907625 -0.134668 0.109829 -0.0683709 0.0497516 0.0796122 -0.0953314 0.495788 0.227278 0.330248 0.14313 0.586372 -0.0801151 0.130881 0.112482 0.0919245 0.0966322 0.334975 0.177159 0.0126867 -0.107693 0.0597414 0.210539 -0.295185 -0.109462 -0.00729569 0.105059 -0.0938634 -0.0862666 0.0721776 -0.347398 0.0767643 -0.000136544 -0.267483 0.105778 -0.045306 -0.100222 -0.0671825 -0.0480522 0.0777861 -0.0678642 -0.249142 0.172495 0.183003 0.16795 0.0616799 0.18367 0.0922491 0.130236 0.225737 0.0505762 0.234453 0.190952 0.270934 0.109634 0.0477464 -0.123004 -0.184621 -0.0224324 -0.375334 0.234253 0.0591751 -0.243526 -0.123331 0.187069 -0.385984 0.260166 -0.120445 0.247498 0.0465475 0.260048 0.23358 0.430368 -0.0775583 0.169298 0.136759 0.128736 -0.209763 -0.0296007 -0.128553 -0.0440711 -0.00149669 -0.091356 -0.10289 -0.0398527 0.0263021 -0.0973078 0.100498 -0.103241 -0.0121288 -0.31171 -0.185876 0.192578 -0.392239 -0.0211606 0.0107787 -0.0327771 -0.241467 -0.0971144 0.0862582 -0.156809 -0.445442 -0.0549933 0.182011 0.0744649 -0.0855376 0.0275441 -0.17999 -0.0547241 0.0968488 0.07474 0.0415653 -0.0825219 0.00909244 0.0824293 -0.10397 -0.314209 -0.329115 -0.192607 -0.362948 0.0489238 0.0936824 -0.239688 0.0056018 0.0695904 -0.274011 0.0687261 -0.477327 0.00530325 -0.0314052 0.173507 -0.129667 0.215305 -0.219179 0.0883469 0.0954586 0.115427 0.222363 -0.0221196 0.11562 0.0012488 0.275865 -0.219568 -0.0217811 -0.0418768 0.0352114 -0.10798 0.104748 -0.121349 -0.629504 -0.502859 0.160817 -0.231681 0.0389669 0.0698205 -0.191915 -0.216049 -0.220677 -0.0500325 0.0490397 -0.300344 -0.0341748 0.150521 0.109829 -0.0135463 0.0814704 -0.0281673 0.0910157 0.238882 0.0805543 0.0503648 0.516074 0.0314334 0.150207 -0.294271 -0.500077 -0.212329 0.0383362 -0.328884 -0.0128282 0.13154 -0.383493 -0.124355 0.0553815 -0.408127 -0.0442169 -0.245407 0.0607884 0.0176599 0.378292 -0.0849117 0.464078 -0.0744904 0.136517 0.153508 0.219199 -0.0503739 -0.270151 -0.263691 0.187933 -0.341244 -0.0348211 -0.0233943 -0.256561 -0.221966 -0.118401 -0.116328 -0.483652 -0.257295 -0.0834411 -0.313634 0.247724 -0.135638 -0.213744 -0.277622 -0.157417 -0.0755285 -0.175347 -0.207754 -0.466122 0.100217 0.100086 -0.0499317 0.0672806 -0.107074 0.235327 0.194372 -0.0447349 -0.437088 -0.00675487 0.150401 0.181609 -0.171005 -0.244031 -0.251391 -0.141274 -0.219912 -0.0257327 -0.0233128 -0.0887028 -0.218335 0.146787 -0.348972 -0.297127 -0.226254 0.0546257 0.0035865 0.0775708 -0.014421 0.298609 -0.181886 0.102593 0.0906314 0.174355 -0.0103724 0.174043 0.386771 -0.115045 -0.0739683 0.0629444 -0.0275489 -0.0463217 -0.134053 0.10552 -0.22704 0.102426 0.209365 -0.134473 0.130881 0.00891974 -0.0564617 -0.17914 0.0155197 0.107287 -9.56715e-08 -0.167179 -0.0361521 0.155946 0.152982 0.129899 0.319077 -0.146296 -0.0281174 0.112843 0.0945793 0.129454 0.136248 0.145756 0.038126 -0.0410197 -0.147323 -0.0292104 0.0328012 -0.106738 0.294354 0.106973 -0.323954 0.0676817 0.0633474 -0.0203682 0.000811942 -0.259738 0.249005 0.155862 0.479905 0.277641 0.589414 0.261066 0.100528 0.0766349 0.143571 0.0420022 0.240695 -0.0151319 -0.167711 0.00351401 -0.0870318 -0.0752145 -0.434987 -0.107288 -0.239971 -0.112563 0.155431 -0.0566443 0.247533 0.136845 -0.0800255 -0.173242 0.0405454 0.120453 0.234392 -0.0375914 -0.118808 0.23335 0.178884 0.0871459 0.167061 -0.0744889 -0.254407 0.00416553 -0.0173282 0.197343 -0.00706996 0.102368 0.185102 -0.0053496 -0.298084 -0.11859 0.052308 0.0410616 0.132479 0.141398 -0.0649956 0.00189189 0.168279 -0.0963281 0.0135316 -0.166548 0.0607259 0.0170549 0.311712 0.0700358 0.332008 -0.183135 0.24789 0.205683 0.081585 0.0848174 -0.19006 -0.127995 -0.277061 0.149265 -0.102154 -0.159654 -0.132249 -0.476705 -0.304697 0.0449301 -0.280936 0.118261 -0.0109295 -0.134559 -0.333518 -0.271352 0.276972 -0.0131153 -0.3002 -0.0570706 0.101727 -0.0205946 -0.00844325 -0.00166064 -0.103545 0.208329 0.026855 0.0818754 0.205374 0.089911 0.0028232 0.394029 -0.124853 -0.254124 -0.165511 -0.0719968 -0.1339 0.0544967 -0.074663 -0.205553 -0.233173 -0.36584 -0.192841 0.111782 -0.132693 0.109 -0.124333 0.216674 0.000818437 0.425737 -0.108452 0.159369 0.0826689 -0.110632 -0.262525 -0.356198 -0.219046 -0.144587 -0.175416 -0.0720891 -0.260527 -0.459379 -0.342135 -0.219414 -0.46005 -0.0557733 -0.0337856 -0.268256 -0.297005 -0.275715 -0.125067 -0.236495 -0.377741 -0.202475 0.0103205 -0.112186 -0.107478 -0.0556367 -0.334828 -0.119753 -0.0946444 -0.0706945 0.0152832 -0.134355 -0.0477268 -0.122192 -0.0578825 -0.53532 -0.255769 -0.1731 -0.202715 -0.0619634 0.0280677 -0.247863 -0.186452 -0.0521087 -0.368898 -0.263207 -0.398304 -0.0241163 -0.0858869 0.0312653 -0.122194 0.0525002 -0.201376 0.0141879 0.0692069 0.0837029 0.090909 0.0445261 -0.0273955 -0.0433785 0.108672 0.13521 -0.153566 -0.0934405 0.368847 -0.0198672 0.242297 -0.0294283 0.152427 -0.32068 0.136513 0.240698 0.469237 -0.10527 -0.0895868 0.310497 0.0556172 0.161503 0.134577 0.0152979 0.105657 0.222838 0.247598 0.0130313 0.316782 0.30167 0.0852538 0.175114 0.06923 -0.0484554 -0.133112 0.0823082 0.239228 0.16514 0.0458168 0.212622 0.169935 -0.127945 0.3089 -0.127858 0.300383 0.0538227 0.367948 0.159944 0.49304 -0.0588479 0.280499 0.0437617 0.116986 -0.0501326 0.0623432 0.0175122 0.191357 -0.0044863 -0.184535 0.0800806 0.104793 -0.159462 0.222953 0.130508 0.00769754 -0.115923 0.136696 0.0560559 0.199334 -0.0837377 -0.317254 0.243372 0.306559 0.0558975 0.142189 -0.0111045 0.10867 0.174974 0.0537355 -0.217385 0.289613 0.261702 0.456252 0.0451575 -0.200587 -0.041277 -0.0636165 -0.0309897 0.167926 0.307014 -0.104364 0.218982 0.0329322 -0.26541 0.395526 -0.00128695 0.29682 0.0704792 0.358877 0.0951857 0.511861 -0.0333213 0.209714 0.134019 0.238121 0.238187 -0.0476057 -0.0525666 -0.246351 -0.396776 -0.0770357 0.0708632 -0.0203759 0.371722 0.143498 -0.0912152 -0.324105 0.211607 0.288729 0.383687 -0.179189 -0.0621182 0.39207 0.163233 -0.00752211 0.0857533 0.0110087 0.160259 0.0854135 0.0401758 0.0700974 0.150992 0.309668 0.155788 0.0366296 -0.105012 -0.044674 -0.0186451 -0.0989018 0.269013 0.224523 0.143345 0.28759 0.139532 -0.188932 0.217357 -0.0274506 0.196354 0.0664189 0.223402 0.13639 0.382111 -0.00212852 0.0375908 0.163041 0.0897453 -0.0476001 0.0782056 -0.262611 -0.225462 -0.153606 0.24073 -0.112504 0.055635 0.047 0.0641762 -0.0792232 0.159161 0.187224 0.0922773 -0.368936 0.173336 0.131137 0.253355 -0.02346 0.128736 -0.270748 0.0830448 -0.0931611 0.0346433 0.158675 0.36784 0.116321 0.0683842 0.303872 -0.0317276 -0.175657 -0.0464696 -0.145342 0.164142 0.154178 -0.222364 0.282779 0.33456 -0.260512 0.0430398 -0.53592 0.340586 0.0959102 0.425006 0.150867 0.200416 -0.372215 0.0577977 -0.0636974 0.213865 0.0286115 0.106969 -0.195131 -0.0468825 0.308048 -0.0495831 0.387196 0.0889172 0.0211904 -0.0630373 0.0796225 0.452269 0.322754 -0.170331 -0.0594822 0.473458 0.289397 -0.0414567 0.248133 -0.103591 -0.0508994 -0.0391246 0.104536 0.284142 0.291183 0.396683 0.151757 0.0346452 0.141975 -0.0233747 0.216209 -0.0945953 0.137707 0.391899 -0.0980527 0.325894 0.241498 -0.109442 0.149171 -0.241852 0.390289 0.29195 0.295828 -0.127201 0.466465 -0.118407 0.132004 0.339762 0.162804 -0.192945 -0.230789 0.0887051 0.131018 0.0465097 0.174784 0.153412 -0.221354 0.0460667 0.240225 0.284662 0.253341 0.00638544 -0.0224691 0.370864 0.208555 0.0493154 0.245386 0.0986802 0.17194 0.169583 -0.155636 0.0274525 0.303427 0.274389 0.0841039 0.130341 -0.0197671 -0.216195 0.0669879 -0.050944 -0.14214 0.199986 -0.1732 0.143997 0.0851004 -0.38529 0.0676906 0.0344616 0.0182181 0.0570305 0.25107 0.0688863 0.458696 -0.0342063 0.160148 0.152221 0.127376 -0.246398 0.317903 0.191242 -0.184368 0.453584 0.0496026 0.126092 -0.322404 0.153778 0.290883 0.334867 -0.128052 0.0560541 0.265534 0.334512 0.106165 0.184556 -0.00899313 0.0532898 0.26959 0.0801573 0.0278843 0.214301 0.187886 0.315686 0.00643781 -0.124551 0.0505483 -0.194577 0.0559909 0.129072 0.597428 -0.209094 0.163655 0.0319139 -0.288912 -0.0564063 -0.166734 0.373931 0.14896 0.405235 0.196005 0.2966 -0.0773205 0.077646 0.200618 -0.0445575 0.271289 0.308464 -0.0248567 0.340604 0.00984399 0.320502 0.0708302 0.218125 0.284149 0.373215 0.0856329 0.139265 0.406415 0.205134 0.0364161 0.291113 0.130781 0.336707 0.307476 0.469342 0.25119 0.453169 0.616247 0.317459 0.0952227 0.27511 0.277425 0.430204 0.140296 0.133213 0.407615 0.163914 0.226138 0.215757 0.0816423 0.405187 -0.121971 0.588273 0.176685 0.510456 0.357699 0.542228 0.0815198 0.347939 0.395054 0.343674 0.241517 -0.412396 0.293891 0.344026 0.0078449 -0.216421 0.0594837 0.21055 0.272902 -0.111834 0.197912 0.137341 0.286396 -0.121513 0.0650276 -0.0713734 0.284187 0.0966991 0.381222 0.305733 0.255203 0.486007 0.216845 0.333992 -0.0383137 -0.00379561 0.209153 0.115206 0.266929 0.194709 -0.057544 0.172837 0.14273 -0.200209 0.331893 -0.233512 0.280226 0.352582 0.368705 0.134442 0.566234 -0.32464 0.0669426 0.144029 0.109601 -0.15818 -0.373771 -0.276997 -0.0461471 -0.54807 -0.0102871 0.0310953 -0.338577 -0.338538 -0.423345 0.261155 0.0645411 -0.100783 -0.101036 -0.0892292 -0.0617058 -0.017583 -0.0185558 0.0832734 -0.0904735 0.170752 -0.134095 0.026576 -0.28373 -0.272804 -0.454365 -0.259154 0.0271302 0.248568 -0.256427 0.110204 -0.0435123 -0.296705 -0.222104 -0.259604 0.0468446 -0.053036 0.320416 -0.193173 0.106479 -0.212864 0.0148254 0.0983993 0.107019 0.240197 0.0677108 0.0258452 0.294067 0.298842 0.385816 0.111228 -0.152022 -0.033099 0.437109 0.374812 0.0558555 0.235087 -0.0263086 0.131218 0.441627 0.332246 0.27011 0.371736 0.186822 0.303334 0.422482 0.101915 0.224316 0.104174 -0.0981489 0.203255 0.585779 -0.0976582 0.418215 0.164472 -0.0216236 0.148791 0.0203318 0.666418 0.325587 0.484431 0.106827 0.606489 -0.071984 0.144122 0.378779 0.266291 0.155947 -0.229217 -0.105255 -0.238648 -0.0959085 -0.145522 -0.25241 -0.302691 0.0328216 -0.0117656 0.129588 -0.434403 -0.0731715 -0.198009 -0.129779 -0.10103 -0.148857 -0.0222526 0.0836784 -0.177401 0.0919634 -0.123934 -0.0605095 -0.0511013 -0.203731 -0.0700225 -0.193507 -0.457707 -0.0550678 0.0708767 -0.120672 -0.2098 -0.226657 -0.0857091 -0.0934119 0.00119199 0.253303 0.300401 -0.00981073 0.0181018 0.211197 0.138227 -0.0996351 -0.114989 -0.0401733 -0.140274 0.0497478 -0.12332 -0.12198 0.111923 0.292711 0.0683165 -0.0172601 -0.0596088 -0.256405 -0.049378 0.00176429 0.013146 0.217211 0.154915 -0.0927788 0.0778742 -0.359487 0.0644837 -0.112779 0.106439 0.28663 0.109497 -0.239037 0.0810925 -0.0672771 -0.186348 -0.021385 -0.212004 0.0458937 -0.143784 0.300141 0.150357 0.378435 -0.053254 0.0277574 0.178276 0.220151 -0.136239 0.55787 0.140605 0.222245 -0.20643 -0.221763 0.280576 0.131307 0.0222727 -0.0316625 0.0790726 0.198214 0.252819 0.107996 0.142969 0.300097 0.228971 0.127634 -0.0334454 -0.0957661 -0.091248 -0.0793229 -0.0465219 -0.105307 -0.113434 -0.00419776 0.0963177 -0.0159947 -0.112495 0.050437 -0.235376 0.230187 0.138735 0.138384 0.0185584 0.489283 0.18988 0.10493 0.106016 0.185423 0.24795 0.299223 0.0483666 -0.12235 0.0655805 0.264267 0.349579 0.0605599 0.136107 0.161461 0.153555 0.1174 0.130273 0.226911 0.525344 0.276662 0.140817 0.35089 0.0947929 0.0467069 0.0620047 0.143762 0.177807 0.631534 -0.159893 0.561898 0.203471 -0.00520802 0.139785 -0.136581 0.493148 0.235023 0.41122 0.165453 0.457741 -0.124167 0.13329 0.0995243 0.416371 0.11497 -0.364647 -0.229698 -0.296981 0.209398 0.0880212 0.149398 0.0589987 0.0604741 0.159986 0.081599 -0.41898 -0.210676 0.0909525 0.135054 0.0321806 0.0636749 0.0227348 0.0297013 0.000448779 -0.012649 0.127651 -0.036584 -0.42162 -0.0507033 0.0100152 -0.155763 0.00180592 -0.268128 -0.0476943 0.0110794 0.33394 0.105816 0.422934 -0.0522791 0.149714 -0.205865 0.310746 -0.265949 -0.323841 -0.277094 0.0743425 0.140356 -0.0245163 0.0192302 -0.0163924 -0.103973 -0.19667 -0.30521 0.141863 -0.0395817 -0.0072298 -0.0662651 0.113015 -0.166789 -0.204743 -0.243285 -0.179279 -0.195884 0.0128894 -0.287355 -0.0135012 0.170058 -0.416047 -0.0765712 -0.319358 0.182092 -0.0979503 0.119134 -0.0185259 0.206851 -0.150535 0.19678 -0.0671633 0.0377122 -0.2827 -0.0662418 0.304697 0.0829035 -0.128393 0.322861 -0.117704 0.330961 -0.0064452 -0.229194 -0.00899935 0.0818354 0.106693 -0.15639 -0.0501035 -0.213969 -0.171614 0.0304309 0.00599754 0.066481 -0.159617 -0.138252 0.302283 -0.0262982 -0.259902 -0.0260248 -0.259824 0.177125 0.0379686 0.262426 0.0310252 0.366968 -0.0902558 0.0118673 0.1705 0.245534 0.0234075 0.360556 0.207557 0.0660776 0.185051 0.0325692 0.221411 0.207517 0.439316 0.283044 0.134535 0.308333 0.262403 0.126587 0.29087 0.129607 0.135416 0.14087 0.146873 0.242139 0.00699871 0.468835 0.138102 0.107585 0.217077 -0.27189 0.368658 0.24873 0.361905 0.19792 0.495143 0.0547793 0.135139 0.186169 0.268664 0.30583 0.326533 0.128436 0.171111 -0.0247094 0.579136 0.132277 0.185984 0.375932 0.408344 0.301871 0.270902 0.134788 -0.0903215 0.102225 -0.0134046 -0.0152531 0.150579 0.42853 0.144802 0.257712 0.163506 -0.13623 0.0631653 0.045749 0.154256 0.259221 0.144565 0.175757 0.324718 -0.00884382 0.160633 0.176544 0.104701 0.159323 -0.191782 -0.254396 -0.36806 -0.253985 -0.180317 -0.232815 0.0834561 -0.132138 -0.176474 -0.117922 -0.10743 -0.263694 -0.114571 -0.286515 -0.127654 -0.0480085 -0.0871863 -0.298098 -0.273311 -0.180403 -0.563645 -0.23027 -0.322077 0.0443347 -0.0514554 0.0698493 0.00243422 -0.0168597 -0.181787 -0.124116 0.0955361 0.126609 -0.0967742 -0.0703409 -0.190884 -0.231937 -0.0135385 -0.185537 0.101938 -0.24596 -0.107618 -0.0505534 -0.13191 -0.117231 -0.0244222 -0.26232 -0.0690571 -0.0826693 -0.00240709 -0.168654 -0.0904943 -0.02002 -0.355204 -0.0956145 -0.184947 -0.178466 -0.384743 -0.101602 -0.131829 0.179329 -0.127152 -0.0303453 0.190675 0.1182 -0.0608946 -0.300699 -0.063892 0.0165812 0.0632455 0.0610684 0.057576 0.0678477 0.0501854 -0.067481 -0.0859874 -0.237346 0.00764734 -0.00598289 0.0443974 0.0642963 -0.085395 0.0780586 -0.0590998 -0.111847 0.010571 -0.0415495 0.138811 0.0489173 0.347753 0.00789145 0.188087 -0.249762 -0.0395043 0.0615157 0.0132992 -0.18966 -0.00237847 0.0558902 0.0474453 -0.0547202 -0.0145393 -0.181761 -0.111993 -0.235241 -0.209175 -0.152501 -0.0374166 -0.196857 0.0182535 -0.096231 -0.255398 0.0274413 -0.110107 -0.393924 -0.168904 -0.381429 0.132457 0.0846245 0.247778 0.349459 0.0699634 -0.261229 -0.0542266 0.128155 0.0911519 -0.00114865 0.190921 -0.0465273 0.138901 0.135167 0.227314 0.000272341 -0.0121946 0.0444415 -0.10807 0.267005 -0.170237 0.126868 0.070431 -0.220043 0.20437 -0.0364435 -0.00688692 0.0666366 -0.0417737 0.305816 0.176712 0.341949 0.253707 0.328676 -0.0399565 0.0589539 0.219447 0.330517 0.080128 -0.39224 -0.245853 -0.203979 0.187194 -0.104873 -0.000822534 -0.0946443 -0.176203 -0.0425026 -0.159642 0.349597 -0.129824 -0.639027 -0.162534 -0.0537697 -0.172005 -0.0968016 -0.398361 -0.31608 0.0994622 0.323594 0.0849934 0.316921 -0.181992 0.220678 0.0582566 -0.0823517 -0.0972919 0.0191528 0.0327021 -0.167092 -0.0460336 -0.229875 -0.037073 -0.317024 -0.0626281 -0.134301 0.0815464 0.0755322 -0.307148 -0.0338114 -0.111336 -0.336472 -0.148001 -0.116859 0.309957 0.0530864 0.110291 0.0316866 0.195567 -0.137697 -0.0208761 0.114986 -0.0164251 0.168547 0.135659 0.181615 0.399533 0.0166642 -0.318904 -0.18954 -0.218998 -0.186881 0.0916592 0.213911 -0.0556081 0.11653 0.107565 -0.50509 -0.124985 -0.184285 0.592629 0.104881 0.162935 0.0483378 0.259018 -0.0826341 0.049176 -0.0489042 -0.0111125 0.0606896 0.0583021 -0.162241 -0.156809 -0.251227 -0.168979 -0.203008 -0.129282 0.0759573 0.0512529 -0.215121 0.0190849 0.0186711 -0.0860723 -0.0427721 -0.0944105 0.0196122 -0.0978379 0.0870933 0.154737 0.224213 -0.184713 0.0146905 0.0607645 0.0123405 0.257779 -0.0923141 -0.189269 -0.393497 -0.227438 -0.398496 -0.148005 0.0285978 0.0898771 -0.246169 0.0870071 0.0662542 -0.18572 -0.215189 -0.242973 0.0364573 -0.021627 0.190035 -0.0267932 0.292247 -0.132699 0.0235493 0.0978146 0.108068 -0.21103 -0.00898637 -0.159026 -0.0361078 -0.0174282 -0.322165 -0.103734 -0.177192 -0.442831 -0.231045 -0.211943 -0.368485 -0.193401 -0.162476 0.117808 0.0649936 0.267179 0.0738101 0.231662 -0.334837 0.00851681 -0.104149 0.0623294 -0.0380027 -0.253929 -0.317827 -0.0892139 -0.214338 0.0450283 0.167102 -0.384138 -0.215225 0.125461 -0.260534 -0.328046 -0.262729 0.0776446 0.0928535 0.24496 0.152904 0.248272 -0.181606 0.158344 0.0516039 -0.0361078 -0.190965 0.0605984 -0.0651057 -0.114033 0.0277706 0.180635 -0.197705 -0.0679265 0.0748942 -0.411874 0.0334822 -0.176567 0.33649 0.139658 0.160094 0.0767809 0.285679 0.0437879 0.144066 0.0594314 -0.0492773 -0.173756 0.193357 0.123907 0.208027 0.269368 -0.150392 0.0833269 0.0758417 0.141439 0.124665 -0.29118 0.517704 0.153131 0.338313 0.125057 0.41426 -0.070314 0.159219 0.271035 0.133206 0.0811703 -0.221229 0.115197 0.19518 0.00314872 0.042823 0.199235 -0.0689241 0.241066 -0.141736 0.475839 0.201819 0.338948 0.156134 0.464893 -0.00864136 0.153941 0.0191337 0.292457 -0.0618653 0.132793 0.301984 -0.149468 0.252923 0.223054 -0.295331 -0.000801084 -0.249165 0.235201 0.0537584 0.409769 0.0894212 0.318574 -0.0300568 0.0433621 0.150061 0.0783493 0.236717 0.187373 -0.179718 0.0276046 0.169859 0.18515 0.108974 -0.543743 0.401263 0.181092 0.352759 0.216159 0.211213 -0.0702748 0.25799 0.0527132 0.17909 -0.215645 -0.156844 -0.0149101 -0.0946502 -0.196408 -0.0843415 -0.0941131 -0.261573 -0.148372 0.0490444 0.0306729 0.122185 -0.0835198 -0.112756 0.13593 0.0150525 -0.379837 -0.167105 -0.0340749 -0.285435 -0.0997734 -0.225254 -0.110235 -0.174152 0.231637 0.100892 0.237156 -0.124352 0.0743545 0.0193468 0.0394561 0.237026 0.164979 0.271114 0.184502 0.110791 0.423162 0.240362 0.414559 0.194537 0.565634 0.213816 0.184739 0.184752 0.250305 0.0623235 -0.171985 -0.159367 -0.415025 -0.00732334 -0.0284149 0.128532 0.0893498 0.286507 -0.261642 0.0755148 0.0988802 0.2034 -0.0741446 0.0362601 -0.227828 -0.0435841 -0.120754 0.154944 0.0248586 0.14617 -0.145552 0.0144507 0.064288 0.000153701 0.508048 -0.109549 0.411734 0.316321 0.265286 0.305908 0.655202 0.276175 0.155468 0.0789245 0.261716 -0.132084 0.285406 0.0158496 0.274918 0.00730362 0.207719 -0.297903 0.0627972 0.168985 0.194853 0.372556 0.378045 0.531076 0.290048 0.538137 0.210509 0.293144 0.230093 0.331299 -0.01806 0.116527 0.0133975 -0.00989182 -0.305955 -0.0190288 -0.0169452 -0.203828 0.158051 -0.0194675 0.111324 -0.23301 -0.0116076 -0.043397 0.228726 -0.242811 0.0696458 -0.263664 -0.127481 -0.119935 -0.133882 0.164402 -0.243458 -0.0563338 0.104725 -0.0119185 -0.333401 -0.162885 -0.0524044 -0.169312 0.0827072 0.093389 0.282238 0.0297942 -0.101658 -0.110029
nr_sv 29 33 24 30 24 31 28 27 28 32 26 33 32 25 26 28 26 24 20 35 27 30 32 28 33 33 25 31 34 23 29 34 35 33 33 34 32 28 35 29 26 26 33 27 31 29 28 36 22 31 36 31 28 33 33 23 29 35 34 35 30 32 23 20 26
SV
0 0 0 0 0 0 0 0 0 0 0 41.32502637922107 0 0 0 0 0 0 0 0 0 0 0 0 0 0 0 0 0 0 0 0 0 0 0 0 0 1.506752316007395 0 4.271040715329652 0 0 0 0 0 0 0 0 0 0 0 0 0 0 0 0 0 0 0 0 0 0 0 0 1:0.0980392 2:0.14902 3:0.105882 22:0.298039 28:0.403922 34:0.290196 41:0.290196 46:0.0980392 47:0.443137 56:0.596078 59:0.466667 61:0.196078 64:0.662745 66:0.454902 69:0.607843 71:0.0431373 76:0.141176 77:0.0156863 81:0.0313725 94:0.0156863 98:0.439216 101:0.00784314 102:0.454902 121:0.105882 122:0.14902 123:0.0509804 127:0.0941176 128:0.168627 133:0.0941176 140:0.282353 146:0.396078 150:0.0117647 153:0.0117647 155:0.65098 158:0.596078 160:0.662745 163:0.196078 165:0.466667 168:0.596078 176:0.137255 193:0.0784314 197:0.337255 198:0.0313725 
0 0 0 0 0 0 0 0 0 0 0 0 17.40417754064552 0 0 0 0 0 0 0 0 0 0 156.9012305673481 0 0 0 0 0 0 0 0 0 0 0 0 0 6.548743294196818 0 0 0 0 0 0 0 0 0 15.64739485803747 10.251994357839 124.8420747707876 0 2.601842945843453 0 0 0 0 0 0 0 0 0 0 0 0 1:0.164706 2:0.14902 3:0.141176 22:0.760784 23:0.0313725 28:0.0745098 29:0.0941176 34:0.133333 41:0.698039 46:0.0941176 47:0.0196078 54:0.0117647 56:0.466667 59:0.933333 61:0.196078 64:1 66:0.337255 69:0.933333 71:0.0431373 74:0.0235294 76:0.0313725 81:0.380392 94:0.0627451 98:0.141176 99:0.0156863 102:0.701961 120:0.00784314 121:0.133333 122:0.14902 123:0.105882 127:0.109804 128:0.0313725 133:0.588235 140:0.109804 145:0.0156863 146:0.0784314 150:0.0117647 155:0.933333 158:0.337255 160:1 163:0.196078 165:0.92549 168:0.478431 170:0.0117647 175:0.0156863 176:0.192157 180:0.0627451 193:0.254902 198:0.0784314 
0 0 0 0 0 1.423770150656466 0 0 0 0 0 0 0 0 0 0 0.8130596901257935 0 0 0 0 0 0 0 0 0 0 0 0 0 0 0 0 0 0 0 0 38.61446260770829 0 0 0 0 0 0 0 0 0 0 0 0 0 4.83329638005879 0 0 0 0 0 0 0 0 0 0 0 0 1:0.0980392 2:0.14902 3:0.14902 22:0.305882 28:0.0156863 29:0.0313725 41:0.0627451 46:0.156863 47:0.219608 53:0.0431373 56:0.129412 59:0.65098 61:0.196078 64:0.662745 66:0.184314 69:0.65098 74:0.0117647 76:0.0784314 81:0.141176 98:0.141176 101:0.0313725 102:0.760784 121:0.14902 122:0.14902 123:0.0980392 127:0.0156863 128:0.0313725 133:0.0784314 140:0.105882 145:0.0784314 150:0.0117647 155:0.92549 158:0.596078 160:1 163:0.196078 165:0.92549 168:0.596078 170:0.0117647 176:0.137255 180:0.0627451 193:0.0784314 197:0.521569 198:0.0313725 
0 0 0 0 0 0 0 0 0 0 0 0.8839932946009141 0 0 0 0 0 0 0 0 0 0 0 0 0 0 0 0 0 0 0 0 0 0 0 0 0 0 0 0 0 0 0 0 0 0 0 0 0 0 0 0 0 0 0 0 0 0 0 0 0 0 0 0 2:0.662745 3:0.054902 22:0.596078 28:0.764706 41:0.0627451 46:0.0313725 47:0.0784314 56:0.521569 58:0.0235294 61:1 64:0.0235294 66:0.933333 68:0.0117647 69:0.0117647 73:0.0117647 81:0.529412 93:0.0156863 98:0.984314 102:0.694118 121:0.188235 122:0.14902 123:0.0313725 127:0.133333 133:0.0196078 146:0.772549 155:0.0117647 158:0.607843 160:0.0235294 163:1 165:0.0235294 168:0.65098 171:0.0117647 176:0.815686 193:0.0156863 197:0.0156863 198:0.0156863 
13.50428900111005 11.4590819966442 15.12682200094953 4.628499078508959 13.61474590022723 24.14401660751752 3.955027315928176 21.39227631307962 1.494048591027796 3.984780284721493 2.075355802359233 0 33.26630684375631 4.765202367794327 0 0 3.722311295782162 9.009817960183954 17.91727088789886 0 6.768621086121633 7.737277583319872 0 85.61302524343117 3.643388408951266 15.20595502839609 0 7.353353772224319 4.87613406775942 2.405746822751873 6.820421519301209 11.83665264855153 3.079970629818255 4.976455520037651 5.530209118177745 12.95626117628466 1.471195156811179 16.66050835428412 15.15396827440241 31.67007224175831 3.247840906742676 19.66837943299976 3.50568842227687 7.171132673487723 7.323312869603391 2.143053564774446 6.162964926942617 10.1988359990027 10.20312795009628 38.82829704839212 0 5.695794333226763 8.621765882692909 9.925850926350181 12.69559416780836 16.2226962183708 8.292007243372531 4.038797592826068 2.751528581831848 5.055035658468306 9.942892353811555 16.95550813945425 3.101905455240213 0.6421220139886537 1:0.117647 2:0.141176 3:0.14902 21:0.00784314 22:0.0156863 29:0.262745 46:0.0235294 54:0.054902 56:0.129412 59:0.65098 61:0.521569 64:0.0666667 66:0.619608 68:0.0313725 81:0.0745098 86:0.435294 89:0.0196078 91:0.0745098 93:0.0941176 97:0.0745098 98:0.415686 102:0.172549 103:0.0117647 121:0.662745 122:0.619608 123:0.0431373 128:0.0784314 145:0.141176 151:0.0431373 156:0.0117647 158:0.533333 160:0.129412 163:0.564706 165:0.65098 168:0.0313725 176:0.564706 177:0.0196078 181:0.0392157 183:0.415686 188:0.207843 193:0.0745098 
0 0 0 0 0 0 0 0 0 0 0 0 0 0 0 0 0 0 0 0 0 0 0 244.0813686996732 0 17.37067968496658 0 0 0 0 0 0 0 0 0 0 0 10.47912363577584 0 0 0 0 0 0 0 0 0 0 0 0 0 0 0 0 0 0 0 0 0 0 0 0 0 0 1:0.164706 2:0.14902 3:0.164706 21:0.0588235 22:0.760784 23:0.12549 28:0.454902 46:0.392157 56:0.196078 59:0.196078 61:0.196078 64:0.196078 66:0.196078 69:0.196078 73:0.0117647 76:0.380392 98:0.380392 101:0.0980392 102:0.760784 103:0.0313725 120:0.00784314 121:0.133333 122:0.14902 123:0.0980392 128:0.231373 145:0.0392157 146:0.0980392 150:0.0117647 155:0.662745 158:0.662745 160:0.662745 163:0.662745 165:0.662745 168:0.662745 175:0.0156863 176:0.192157 198:0.176471 
0 0 0 0 0 0 0 0 0 0 0 0 0 0 0 0 0 0 0 0 0 0 0 86.69380587346357 0 0 0 0 0 0 0 0 0 0 0 0 0 0 0 0 0 0 0 0 0 0 0 0 0 0 0 0 0 0 0 0 0 0 0 0 0 0 0 0 1:0.247059 2:0.14902 3:0.247059 22:0.760784 28:0.576471 34:0.235294 36:0.0156863 41:0.0627451 46:0.156863 51:0.0117647 53:0.0431373 56:0.172549 59:0.466667 61:0.0235294 64:0.662745 66:0.184314 69:0.466667 76:0.333333 77:0.0156863 81:0.0784314 94:0.0627451 97:0.0627451 98:0.65098 101:0.0666667 102:0.466667 121:0.466667 122:0.164706 123:0.368627 127:0.223529 128:0.0784314 133:0.109804 135:0.0627451 140:0.603922 146:0.364706 150:0.0117647 151:0.0117647 153:0.0431373 155:0.933333 158:0.619608 160:0.607843 163:0.662745 165:0.478431 168:0.521569 176:0.301961 180:0.0627451 185:0.0156863 193:0.364706 198:0.0313725 
0 0 0 0 0 10.65230665228271 0 0 17.84574990398009 0 0 198.4757867316409 0 0 0 0 0 0 0 0 0 0 0 0 0 0 0 0 0 0 0 0 0 0 0 0.001257402109525532 0 28.27607922436284 0 0 0 16.0231884479215 0 0 0 0 0 0 0 0 0 2.131415954402925 0 0 0 0 0 0 0 0 0 0 0 2.423389745687558 1:0.156863 2:0.14902 3:0.156863 22:0.0156863 28:0.792157 34:0.0156863 56:0.172549 58:0.0117647 59:0.0117647 61:0.65098 64:0.196078 66:0.172549 69:0.0117647 73:0.0117647 81:0.0941176 97:0.0156863 98:0.843137 102:0.101961 121:0.345098 122:0.141176 123:0.192157 127:0.0627451 133:0.0156863 135:0.0627451 140:0.0627451 146:0.427451 151:0.0431373 155:0.172549 158:0.0666667 160:0.607843 163:0.196078 165:0.129412 168:0.0117647 171:0.0117647 176:0.713725 193:0.0156863 
34.3818711962949 21.23151036680174 40.12259309900033 29.92195959590935 53.75667715975931 115.6968028436582 27.1937369479405 71.57183875968926 68.81049535265771 30.05307796801691 88.57099488626645 232.347186161396 10.83742180024151 50.10648298825503 54.02614981504048 169.638866508098 26.16558947464351 34.22172105313055 38.87525333448261 57.15596471579705 69.04679314859467 22.33201421056635 38.21697366635097 168.3261746102419 72.58321768745552 70.92380871754905 65.65916354253262 41.11543380259467 34.31671023880272 67.31193513543637 41.71281283245614 27.24479382245418 20.05735619919328 19.02223994141841 23.30607237132502 37.45410423276587 31.69643255074392 281.0238607100259 67.0821988514445 92.18366622222415 24.15367660063057 44.1979881716361 39.21735687390321 31.921313073716 41.98057234844039 42.25557740049918 34.4937601708715 33.54009716683264 10.87425486388573 172.1791121099692 67.01841205007304 54.05079131639079 62.0515210137664 61.98985939385305 43.75356516053285 22.0815677017496 40.41117607364372 32.38710044777665 21.1518354544434 23.01961226007076 25.09949395957257 38.32073872707041 22.28704050531476 31.83549505767755 1:0.172549 2:0.14902 3:0.313725 22:0.0901961 28:0.333333 47:0.0156863 57:0.0235294 59:0.0235294 62:0.0235294 64:0.0235294 67:0.0235294 69:0.0235294 77:0.0156863 98:0.364706 102:0.117647 121:0.2 122:0.14902 123:0.305882 127:0.411765 140:0.0627451 145:0.0313725 146:0.364706 150:0.0235294 155:0.65098 157:0.196078 160:0.662745 162:0.196078 165:0.607843 167:0.196078 176:0.227451 
0 0 0 0 0 0 0 0 0 0 0 0 0 0 0 7.189410494679549 0 0 0 0 0 0 0 200.0609847372714 0 1.382165201780111 0 0 0 0 0 0 0 0 0 0 0 0 0 33.44401022156355 0 0 0 0 0 0 0 0 0 115.400889506626 0 0 0 0 0 0 0 0 0 0 0 0 0 0 1:0.0509804 2:0.14902 3:0.133333 21:0.188235 22:0.14902 23:0.156863 28:0.239216 29:0.0313725 34:0.603922 46:0.65098 55:0.0117647 56:0.0117647 59:0.478431 60:0.196078 64:1 65:0.0235294 69:0.729412 71:0.0117647 74:0.0117647 76:0.717647 80:0.0313725 94:0.235294 98:0.141176 101:0.156863 102:0.14902 103:0.0431373 121:0.133333 122:0.14902 123:0.0980392 128:1 134:0.0156863 140:0.576471 146:0.235294 150:0.0117647 155:0.478431 159:0.0666667 160:1 164:0.196078 165:0.337255 169:0.0235294 171:0.0745098 176:0.439216 180:0.360784 194:0.0784314 198:0.780392 
0 0 0 0 0 0 0 0 0 0 0 0 0 0 0 0 0 0 0 0 0 0 0 72.7596990686415 0 0 0 0 0 0 0 0 0 0 0 0 0 0 0 0 0 0 0 0 0 0 0 0 0 0 0 0 0 0 0 0 0 0 0 0 0 0 0 0 1:0.2 2:0.14902 3:0.164706 22:0.643137 28:0.54902 34:0.282353 47:0.133333 56:0.196078 59:0.184314 61:0.196078 64:0.662745 66:0.196078 69:0.270588 77:0.0627451 94:0.109804 98:0.717647 102:0.180392 121:0.133333 122:0.14902 123:0.156863 127:0.776471 135:0.0627451 140:0.541176 145:0.0156863 146:0.239216 155:0.533333 158:0.0235294 160:0.607843 163:0.0235294 165:0.521569 168:0.0235294 172:0.0117647 176:0.470588 180:0.415686 185:0.0196078 197:0.0745098 
0 7.145909662605986 13.8898422657118 8.455551216599437 4.257115472923261 6.146269469898269 0.8855878413344386 27.63398557386079 0 2.229926372500359 19.16381920663924 23.84277955071624 32.62399895329641 13.42796611277527 12.19059038491948 0 26.02833250669763 0 22.48891203381982 11.25197623127163 10.07174962845324 11.53064066948543 22.14054339085035 78.84237841347318 35.29769247738255 0 25.75425377068506 6.115594724699942 1.856101242363315 19.37609281215994 10.5298654691178 6.094573169855367 1.854894312586344 1.04922356513335 1.293043893642945 42.86602610031262 4.738011150163162 30.96051713555581 23.29590733018086 46.44891750711454 4.029082236429072 0 5.137778295205263 0 0.1454299731955626 7.888647354143926 0 17.35413163487059 10.64817683602698 75.49179994462084 20.96267172195442 0 21.74284253955488 6.57839642801312 0 24.49032802172037 5.071083359801937 9.494984360633701 2.145392590792066 5.079395808089849 0.05062515802159423 0 0.2029040873671239 0 1:0.12549 2:0.14902 3:0.14902 22:0.117647 29:0.34902 46:0.0784314 54:0.0431373 57:0.0666667 59:1 61:0.117647 64:0.521569 66:0.662745 69:0.0235294 71:0.054902 77:0.321569 82:0.0156863 86:0.137255 89:0.337255 93:0.0156863 97:0.0313725 98:0.431373 102:0.0588235 120:0.180392 121:0.14902 122:0.133333 123:0.00784314 128:0.0509804 145:0.333333 151:0.239216 153:0.054902 155:0.054902 158:0.270588 160:0.662745 163:0.0666667 165:0.65098 167:0.054902 170:0.172549 172:0.0431373 176:0.223529 180:0.0313725 183:0.34902 185:0.411765 188:0.109804 192:0.0784314 197:0.239216 
0 0 0 0 0 0 0 0 0 0 0 0 0 0 0 0 0 0 0 0 0 0 0 0 0 0 0 0 0 0 0 0 0 0 0 0 0 7.761747163404685 0 0 0 0 0 0 0 0 0 0 0 0 0 0 0 0 0 0 0 0 0 0 0 0 0 0 1:0.0588235 2:0.141176 3:0.133333 21:0.00784314 22:0.760784 28:0.239216 29:0.0313725 34:0.541176 41:0.223529 46:0.443137 56:0.423529 59:0.521569 61:0.270588 64:0.533333 66:0.184314 69:0.129412 73:0.239216 81:0.65098 86:0.109804 89:0.34902 94:0.0156863 97:0.0156863 98:0.458824 102:0.760784 103:0.00784314 121:0.105882 122:0.141176 123:0.0588235 128:0.443137 133:0.223529 140:0.541176 145:0.0313725 146:0.333333 151:0.239216 155:0.129412 158:0.184314 160:0.933333 163:0.466667 165:0.521569 168:0.423529 176:0.458824 177:0.0156863 180:0.0156863 185:0.0627451 188:0.0627451 193:0.65098 
0 0 0 0 0 27.02011387852123 0 0 0 0 0 12.90888658100633 0 0 0 0 0 0 0 0 0 0 0 0 0 0 0 0 0 12.84838329279854 0 0 0 0 0 0 4.369231228969004 12.16429806884853 0.8303776308399791 0 0 0 0 0 0 0 0 0 0 0 0 0 0 0 0 1.177213362941293 0 0 0 0 0 0 0 0 1:0.121569 2:0.262745 3:0.054902 22:0.933333 27:0.345098 28:0.0784314 33:0.0313725 36:0.0627451 41:0.0156863 46:0.0784314 47:0.0156863 56:0.25098 58:0.117647 61:0.262745 64:0.0235294 66:0.65098 68:0.0117647 69:0.0117647 71:0.0431373 81:0.713725 86:0.109804 93:0.0313725 97:0.0627451 98:0.776471 102:0.054902 121:0.368627 122:0.152941 123:0.0627451 127:0.133333 133:0.133333 140:0.423529 146:0.517647 155:0.054902 158:0.25098 160:1 163:1 165:0.403922 168:0.478431 176:0.356863 177:0.415686 180:0.0941176 193:0.717647 197:0.0745098 
0 0 0 0 0 0 0 0 0 0 0 0 0 0.5470704442903259 1.094194444671994 16.50054595938479 16.07060984188957 0 0 0 0.8271341294764449 6.605176075400498 9.974716576087014 135.6905680899807 2.728125418774471 0 7.799229451737923 0 0 37.71819520725519 1.100371517940523 1.610778995814846 0 0 0 0 0 0 6.126665054170021 0 0 0 0 0 0 0 0 17.88889356690717 24.79017953304287 0 2.480554373189218 10.38712584855095 0 0 0 0 0 0 0 0 0 0 0 0 1:0.0980392 2:0.14902 3:0.133333 22:0.14902 23:0.239216 28:0.0784314 34:0.0627451 41:0.0313725 46:0.827451 56:0.0313725 59:0.607843 60:0.0235294 64:0.662745 65:0.0117647 66:0.0117647 69:0.662745 76:0.764706 98:0.141176 101:0.0313725 102:0.14902 121:0.105882 122:0.14902 123:0.0980392 128:0.827451 133:0.0156863 140:0.25098 146:0.329412 151:0.0117647 155:0.607843 159:0.0117647 160:0.662745 164:0.0235294 165:0.447059 169:0.0117647 173:0.239216 176:0.380392 180:0.0196078 198:0.709804 
12.74365864520309 13.66821990395272 23.3392702494257 6.528628199336501 15.47975102991446 13.21955571288662 8.067335575470551 25.65760681779856 47.48548921524991 14.13880636493601 28.04077169458452 25.96029234415207 92.72688549865832 15.01295192183275 8.863488211474493 37.38321272412004 9.210601537951199 9.172799399470643 22.65114800300528 3.774435867182803 15.14373098752504 2.914987030589042 19.20203775287612 212.1769236874387 18.28610584343724 33.59582975925323 5.503968731414945 23.92478224203066 8.838460420750083 24.86162654075228 8.647931148000607 2.455741905541665 4.872160802974544 5.744456288064635 8.540747196564366 19.08559169499663 22.19627709487559 0 15.32973827367396 0 17.90311380513083 36.57939638512295 14.75969240431211 11.46925501301196 19.67934049921632 9.732964486954907 11.56158856136861 0 26.72007000976723 0 12.66442875789976 18.06114137017748 17.31284945960988 27.4912532411203 9.449811166677122 32.27222022475949 10.74178969808432 4.170587365595023 5.753557288528424 7.854026836069317 8.349608872399431 3.272166392390602 13.36574331560512 15.34426676996117 1:0.0509804 2:0.14902 3:0.164706 21:0.00784314 22:0.494118 23:0.0588235 28:0.501961 46:0.231373 51:0.0431373 53:0.239216 56:0.65098 59:0.0235294 61:0.662745 64:0.0235294 66:0.662745 69:0.0235294 71:0.152941 73:0.0745098 76:0.27451 77:0.12549 98:0.454902 101:0.0588235 102:0.372549 121:0.0980392 122:0.14902 123:0.0509804 127:0.223529 128:0.0784314 133:0.0156863 146:0.333333 153:0.0431373 155:0.0235294 158:0.65098 160:0.0235294 163:0.662745 165:0.0235294 168:0.619608 173:0.0431373 176:0.443137 193:0.0627451 198:0.254902 
0 0 2.009181956075587 0 0 14.78590789185804 0 0 0 0 3.877028079942333 36.3987332307769 0 0 0 8.630743595142 0 0 0 0 0 0 0 259.8874319067862 0 0 0 0.1320435804168937 0 0 0 0 0 0 0 35.52295354022305 0 0 0 40.24023277763312 0 26.45768932828696 0 0 0 0 0 0 0 0 0 0 0 19.78651628183147 0 0 0 0 0 0 0 0 0 0 1:0.0509804 2:0.14902 3:0.0980392 22:0.494118 28:0.321569 34:0.337255 41:0.247059 46:0.152941 56:0.262745 59:0.270588 61:0.0235294 64:0.662745 66:0.172549 69:0.466667 76:0.152941 81:0.105882 94:0.0627451 98:0.384314 102:0.494118 121:0.164706 122:0.14902 123:0.188235 128:0.152941 133:0.294118 140:0.337255 146:0.447059 155:0.466667 158:0.117647 160:0.662745 163:0.0235294 165:0.270588 168:0.262745 176:0.431373 180:0.0627451 193:0.105882 198:0.152941 
0 0 0 0 0 0 0 3.535663251730829 0 0 5.708931230322944 0 2.166272275456264 1.486989444246143 0 35.82910833681236 0 0 0 0 0 0 0 272.7120199040413 0 28.39393220391794 0 0 0 0 0 0 0 0 0 0 0.3002673200207052 46.61223228797505 6.842322016697207 0 0 5.255780483575638 0 0 0 0 0 3.943978852546167 0 0 0 0 0 0 0 8.102632431368122 0 0 0 0 0 0 0 0 1:0.14902 2:0.14902 3:0.14902 21:0.0588235 22:0.372549 23:0.364706 29:0.52549 46:0.760784 47:0.34902 54:0.164706 56:0.196078 59:1 61:0.196078 64:1 66:0.196078 69:1 74:0.368627 76:0.411765 77:0.0156863 99:0.109804 101:0.239216 102:0.494118 103:0.239216 120:0.0313725 121:0.14902 122:0.14902 123:0.14902 124:0.12549 128:0.756863 145:0.427451 150:0.129412 153:0.0117647 155:1 158:0.196078 160:1 163:0.196078 165:1 168:0.196078 170:0.0745098 175:0.427451 197:0.141176 198:0.470588 
0 0 0 0 0 0 0 0 0 0 0 0 0 0 0 0 0 0 0 0 0 0 0 0 0 0 0 0 0 0 0 0 0 0 0 0 0 31.90458762588944 0 0 0 0 0 0 0 0 0 0 0 0 0 0 0 0 0 0 0 0 0 0 0 0 0 0 1:0.0509804 2:0.14902 3:0.133333 21:0.00784314 22:0.133333 23:0.0588235 28:0.27451 34:0.0745098 41:0.0196078 46:0.12549 47:0.0352941 51:0.0431373 56:0.619608 59:0.607843 61:0.662745 64:0.662745 66:0.65098 69:0.607843 71:0.207843 73:0.0117647 76:0.290196 81:0.0745098 94:0.0196078 98:0.380392 101:0.0588235 102:0.133333 103:0.00784314 121:0.105882 122:0.14902 123:0.0980392 127:0.0352941 128:0.219608 140:0.27451 146:0.380392 153:0.152941 155:0.466667 158:0.662745 160:0.662745 163:0.184314 165:0.466667 168:0.65098 173:0.0431373 176:0.439216 180:0.0627451 188:0.0156863 198:0.25098 
2.624743851032843 9.801039120026418 25.54179774073574 0 19.14821183207313 44.29221463081021 1.743190460298122 15.80474931169704 26.9621297066594 0 1.414090693241364 54.73649301718532 3.220209815053771 3.194901737408979 0 5.293429467481304 0 1.327212433867324 7.358470520289753 0 0 0 0 0 0 0 0 28.91445337950918 0.7918635215115081 10.98900722945555 2.232339929023003 0 1.381303372047689 4.236552385379359 6.467817466265513 5.120500355430938 0 15.11728026338287 0 2.232384522796977 3.884531364558181 13.41916152114896 0 0.5985616493153203 7.48476649721453 0 4.681125173592588 0 0 0 0 0 0 15.45211826120064 6.637616091828183 7.398868898522899 0 0 1.856335721982358 4.795791990767046 11.02149851838789 9.658273908557332 2.90389878845726 3.231819459608033 1:0.188235 2:0.14902 3:0.172549 21:0.188235 22:0.14902 23:0.313725 28:0.490196 34:0.0745098 46:1 53:0.239216 55:0.0235294 59:0.129412 60:0.196078 64:0.196078 65:0.0235294 69:0.172549 71:0.0117647 76:0.792157 98:0.729412 101:0.156863 102:0.14902 103:0.0431373 121:0.2 122:0.14902 123:0.156863 128:1 140:0.0627451 146:0.65098 153:0.0117647 155:0.172549 159:0.0235294 160:0.196078 164:0.196078 165:0.129412 169:0.0235294 176:0.470588 198:0.717647 
0 0 0 0 0 0 0 0 0 0 2.383037380882017 0 47.25345003461584 0 3.391508909931138 0 15.68530998275659 0 0 3.823313445658432 0 10.00481868359454 8.872836178903075 170.2504442005515 4.952790102579464 0 11.23098650796734 0 0 46.04580723888169 0 10.90524131616145 0 0 0 7.713974506899979 9.22797192153809 22.25297566789794 0 26.21598412383064 0 0 6.221178898705761 0 0 0 0 21.77630638881581 44.9330223174978 224.9062719072888 9.87026845264363 9.278390278289232 3.982369734903413 0 0 35.12543835861583 0 10.79378986941842 0 0 0 0 0 0 1:0.14902 2:0.14902 3:0.14902 22:0.0156863 29:0.760784 34:0.0627451 54:0.0745098 56:0.607843 59:0.619608 61:0.662745 64:0.662745 66:0.65098 69:0.65098 74:0.313725 81:0.0627451 94:0.0156863 99:0.411765 102:0.0156863 121:0.14902 122:0.14902 123:0.14902 145:0.635294 150:0.313725 155:1 158:0.65098 160:1 163:0.662745 165:1 168:0.607843 170:0.164706 175:0.345098 193:0.0745098 
0 0 0 0 0 0 0 0 0 0 0 0 14.21310819710837 0 0 0 0 0 0 0 0 0 0 0 0 0 0 0 0 0 0 1.592854730861736 0 0 0 0 0 0 0 0 0 0 0 0 0 0 0 0 0 16.72769550973164 0 0 0 0 0 0 0 0 0 0 0 0 0 0 1:0.164706 2:0.14902 3:0.164706 22:0.133333 28:0.458824 34:0.364706 41:0.0627451 47:0.0156863 56:0.172549 59:0.262745 61:0.662745 64:0.662745 66:0.184314 69:0.466667 81:0.0941176 94:0.0627451 98:0.439216 102:0.0980392 121:0.133333 122:0.14902 123:0.0509804 127:0.0745098 133:0.0196078 140:0.698039 145:0.0196078 146:0.282353 150:0.0117647 155:0.478431 158:0.129412 160:1 163:0.65098 165:0.337255 168:0.0666667 176:0.227451 180:0.301961 193:0.133333 
0 0 0 0 0 0 0 0 0 0 0 31.38865723662602 0 0 0 8.335507924170146 0 0 0 0 0 0 0 0 0 6.403339223139897 0 0 0 0 0 0 0 0 0 47.78885109391751 0 14.94142197394659 0 0 0 0 0 0 0 0 0 0 0.9504151657291837 0 0 0 0 0 0 0 0 0 0 0 0 0 0 0 1:0.12549 2:0.133333 3:0.2 18:0.0313725 21:0.0431373 22:0.188235 28:0.364706 29:0.0313725 41:0.0627451 46:0.333333 56:0.313725 59:0.65098 61:0.270588 64:0.270588 66:0.0313725 68:0.0235294 77:0.25098 81:0.780392 86:0.109804 89:0.109804 93:0.0784314 97:0.0941176 98:0.141176 102:0.611765 103:0.00784314 121:0.380392 122:0.494118 128:0.443137 133:0.0627451 140:0.109804 145:0.0313725 146:0.333333 151:0.0431373 155:0.0117647 158:0.184314 160:0.533333 163:0.533333 165:0.933333 168:0.207843 176:0.458824 177:0.0784314 180:0.0313725 181:0.0156863 185:0.34902 188:0.34902 193:0.364706 197:0.109804 
24.35697370696312 20.08010148406819 8.170888283989928 23.42775974620289 22.41984563835844 57.71354277456432 11.28917998402031 0 47.81447907452144 9.930215887768519 0 30.02244034593493 0 8.035542984747739 7.321794291127437 0 12.56895070298668 24.288122742484 24.24540352635484 0.3119119900229181 13.96329804862475 23.79736213701602 15.05611343569218 0 0 56.99575855304389 0 15.69194410726714 16.68002252373134 33.34124523055374 5.838979235548284 13.90068041602195 9.809928754373807 10.97119547762479 11.02554777077419 23.6075368167292 30.17783912183761 0 6.928273365331491 24.65881885546994 15.55876594182902 12.56777719946129 20.99345036418595 24.70512503005927 26.22747056737479 10.77223919303674 31.54847595017811 4.453407080785088 17.67261941642855 246.3355570486915 19.30115542166113 23.24588604032244 4.538232658240526 0 29.91911730003612 33.00392882442295 17.21926417573133 20.92796647386526 10.49316977389716 12.76152963832753 12.40245798176974 0 22.55509207718387 21.51241811362209 1:0.0509804 2:0.0156863 3:0.101961 22:0.12549 28:0.396078 34:0.301961 47:0.0941176 51:0.0117647 53:0.0431373 56:0.0235294 59:0.172549 61:0.0235294 64:0.662745 66:0.0235294 69:0.262745 71:0.0117647 73:0.152941 76:0.0156863 94:0.109804 98:0.490196 121:0.164706 122:0.14902 123:0.188235 127:0.0352941 140:0.345098 146:0.52549 151:0.0745098 153:0.0117647 155:0.270588 158:0.0235294 160:0.662745 163:0.0235294 165:0.117647 168:0.0235294 171:0.0431373 176:0.396078 180:0.109804 197:0.0784314 
9.688276880065299 9.278914025789161 2.201421535654097 14.24738704983758 6.895481564398628 6.380602540330498 11.18342610229942 8.090268226332601 7.568927203432607 12.84860226671336 7.854672860438667 0 23.73886045066399 9.016569343999636 11.2395103475968 4.870064728698217 2.48178372732683 10.83625159336595 12.94505530861338 12.09521218739089 13.19892122147325 9.692048725021451 8.779656721716144 0 18.01414512305945 14.23720990108195 10.43979990310479 4.992118385166194 10.60200076418841 6.015038244719407 10.03903760190662 11.75329115475957 6.955137517852485 8.180000891969593 8.088215047365567 0 7.599343773774542 0 25.37319802003048 0 17.73917423029485 13.79019909809601 14.45495198367495 12.53311684113199 5.390255753494311 10.04366187775031 9.980043831989109 0.5754411129300862 23.07574298264094 6.838130503713897 19.82224814870735 19.74763577701952 12.38383054789486 0.1992904111807569 4.97098077114939 14.19374216515144 9.564578262551759 10.47557894023216 7.000172824264927 6.86270801612976 9.016555893900364 10.54935005531859 9.157883208460142 11.98472870714469 2:0.133333 3:0.133333 21:0.0313725 22:0.00784314 28:0.0784314 29:0.0156863 34:0.34902 46:0.443137 56:0.176471 59:0.262745 61:0.462745 64:0.0666667 66:0.133333 68:0.121569 71:0.0117647 73:0.0431373 77:0.639216 81:0.0941176 86:0.454902 89:0.0156863 91:0.0156863 93:0.298039 97:0.141176 98:0.0156863 102:0.207843 120:0.0627451 121:0.109804 122:0.109804 123:0.00784314 128:1 145:0.0156863 153:0.0117647 156:0.0235294 158:0.262745 160:0.270588 163:0.729412 165:0.662745 168:0.0313725 170:0.0666667 176:0.152941 177:0.0784314 181:0.0784314 183:0.105882 185:0.105882 188:0.352941 193:0.0627451 197:0.984314 
0 0 0 0 0 0 0 0 0 0 0 0 0 0 0 0 0 0 0 0 0 0 0 0 0 0 0 0 0 0 0 0 0 0 0 0 0 0 0 0 0 0 0 0 0 0 0 0 1.73222505683322 0 0 0 0 0 0 0 0 0 0 0 0 0 0 0 1:0.00784314 2:0.14902 3:0.0509804 22:0.00784314 28:0.752941 34:0.352941 41:0.105882 46:0.105882 51:0.054902 56:0.521569 59:0.262745 61:0.662745 64:0.662745 66:0.619608 69:0.466667 71:0.207843 73:0.0745098 76:0.2 81:0.419608 94:0.0745098 98:0.454902 102:0.14902 121:0.101961 122:0.0156863 123:0.0509804 128:0.0901961 133:0.12549 140:0.290196 146:0.380392 153:0.117647 155:0.466667 158:0.619608 160:0.662745 163:0.662745 165:0.447059 168:0.521569 171:0.0431373 173:0.054902 176:0.815686 180:0.0627451 193:0.231373 198:0.321569 
0 0 0 0 0 0 0 0 0 0 0 0 21.21846029340361 0 0 0 0 0 0 0 0 0 0 58.74995373942137 0 0 0 0 0 0 0 0 0 0 0 0 5.248709400729103 0 0 0 0 0 0 0 0 0 0 0 0 42.7528049108795 0 0 0 0 0 0 0 0 0 0 0 0 0 0 1:0.0980392 2:0.14902 3:0.0980392 21:0.00784314 22:0.494118 23:0.00784314 28:0.329412 34:0.360784 41:0.0784314 46:0.345098 56:0.172549 59:0.262745 61:0.0235294 64:0.662745 66:0.129412 69:0.466667 71:0.0745098 76:0.431373 77:0.215686 94:0.0627451 98:0.431373 102:0.188235 103:0.0313725 121:0.0980392 122:0.14902 123:0.0509804 127:0.109804 128:0.254902 133:0.0627451 140:0.0627451 146:0.333333 150:0.0117647 153:0.0745098 155:0.65098 158:0.184314 160:0.662745 163:0.196078 165:0.607843 168:0.141176 176:0.141176 193:0.141176 197:0.0156863 198:0.141176 
0 0 0 0 0 0 0 0 0 0 0 0 2.588806072510228 0 0 0 0 0 0 0 0 0 0 0 0 0 0 0 0 0 0 0 0 0 0 0 0 0 0 0 0 0 0 0 0 0 0 12.79872728407912 0 177.8237086584835 0 0 0 0 0 0 0 0 0 0 0 0 0 0 1:0.0980392 2:0.14902 3:0.133333 22:0.00784314 28:0.239216 29:0.0313725 34:0.364706 41:0.0627451 56:0.117647 59:0.729412 61:0.662745 64:1 66:0.172549 69:0.729412 81:0.301961 94:0.239216 98:0.458824 102:0.00784314 121:0.356863 122:0.14902 123:0.337255 127:0.109804 133:0.109804 140:0.411765 146:0.427451 150:0.0117647 155:0.737255 158:0.262745 160:1 163:0.662745 165:0.478431 168:0.117647 175:0.0196078 176:0.4 180:0.254902 193:0.164706 
0 0 0 0 0 0 0 0 0 0 0 0 0 0 0 0 0 0 0 0 0 0 0 45.91334032040057 0 42.97526986509086 0 0 0 0 0 0 0 0 0 0 0 0 0 0 0 19.04464836731908 0 0 0 0 0 0 0 0 0 0 0 0 0 0 0 0 0 0 0 0 0 0 1:0.0980392 2:0.14902 3:0.0980392 22:0.760784 23:0.0313725 28:0.329412 34:0.235294 41:0.0627451 46:0.156863 56:0.172549 59:0.466667 61:0.196078 64:0.662745 66:0.184314 69:0.607843 73:0.0431373 76:0.0784314 81:0.0784314 94:0.0156863 98:0.223529 101:0.0313725 102:0.709804 121:0.141176 122:0.14902 123:0.164706 127:0.109804 128:0.0313725 133:0.109804 140:0.541176 145:0.0313725 146:0.0627451 155:0.737255 158:0.619608 160:1 163:0.662745 165:0.533333 168:0.521569 171:0.0117647 176:0.141176 180:0.223529 193:0.239216 198:0.0784314 
-0 15.50400683843763 0 0 7.587559597906552 0 0 0 0 0 0 2.038203584651579 0 28.10600670606991 0 0 0 0 0 0 0 0 0 0 0 0 0 1.864775744269548 0 2.432266047709129 0 0 0 0 0 0 0 0.4576747836065669 0 0 0 6.15360183003383 0 0 0 0 0 0 0 0 0 0 0 0.2063848802659348 0 0 0 0 0 0 0 0 0 0 1:0.478431 2:0.14902 20:0.0588235 21:0.760784 23:0.760784 24:0.0588235 47:0.0313725 52:0.172549 57:0.196078 62:0.196078 67:0.196078 72:0.0666667 74:0.0666667 76:0.0392157 101:0.00784314 105:0.0509804 120:0.0509804 121:0.14902 122:0.14902 123:0.14902 150:0.054902 151:0.0431373 157:0.0235294 162:0.0235294 167:0.0235294 170:0.403922 175:0.113725 176:0.6 
-38.9847117773086 13.50222873849949 30.17108997613974 19.27785297562727 4.502054457129643 29.11348574842028 0 34.90643261934759 8.82944998413215 0 20.32054946252543 6.582644788220802 1.07423290278151 18.2645676011245 0 31.52110983806786 0 29.77782869164975 88.43363561430711 9.104738154560222 35.42673800233163 0 9.672569220201551 42.25155344392165 18.03346019745834 74.98196251601796 0 25.4407054840958 61.94624470051712 8.031158132190106 0 0 0.08911986515775526 0 0 0 0 14.39313834812511 9.593630651059861 5.6350278216873 0 20.66030531571679 23.52883911682686 0 80.68198895495496 14.19468606284177 0 0 0 26.91589565179126 21.17264880028372 0 0 15.73454838558975 54.3937205444478 2.817722051234931 0 3.411673813570089 0 0 0 19.87898385981857 0 0 1:0.2 2:0.141176 21:0.14902 23:0.101961 24:0.00784314 48:0.211765 52:0.0235294 57:0.0235294 62:0.0235294 67:0.0235294 73:0.0431373 76:0.0313725 101:0.0509804 105:0.00784314 121:0.14902 122:0.14902 123:0.14902 157:0.196078 162:0.196078 167:0.196078 172:0.0117647 176:0.65098 177:0.0156863 197:0.0784314 
-0 0 0 0 0 0 0 0 0 0 0 0 0 0 0 0 0 28.26987283034133 20.29002023904244 0 0 0 0 0 0 0 0 0 22.89305596894281 0 0 0 0 0 0 0 0 0 0 0 0 0 0 0 35.77287405950961 0 0 0 0 0 0 0 0 0 0 0 0 0 0 0 0 0 0 0 1:0.0235294 2:0.694118 3:0.92549 53:0.207843 58:0.662745 63:0.662745 68:0.662745 73:0.65098 106:0.133333 122:0.133333 123:0.0980392 132:0.0313725 152:0.239216 157:0.607843 162:0.662745 167:0.662745 172:0.607843 176:0.117647 177:0.411765 
-0 0 0 0 6.290687598081425 1.418568841317759 67.20187833533274 0.4771219040405926 2.771377389046702 2.11471192890257 0 0 0 0 0 0 0 27.52599772469106 41.30263872864426 5.646279656717272 0.0383694339397489 4.439904158626618 0 0 0.8223268353060943 0 0 0 4.643861664189678 0 0 0.2535799712804395 14.06333193234035 13.36522405568323 29.82152989848709 1.912234479828913 0 0 0 0 13.86853809027582 0 0 96.45132628801267 15.65652192401531 0.5572213490012935 106.9877622596809 0 0.1171494050447059 0 0 0 16.81717855237077 0 16.64580589786191 5.552821266955492 4.4675380906672 2.372035366204341 10.44470394602885 16.00674376741308 10.86835241387028 12.20833029554677 27.66394578857202 10.50376815837078 1:0.156863 2:0.364706 3:0.14902 53:0.0235294 58:0.788235 63:0.0588235 67:0.0588235 72:0.482353 78:0.109804 83:0.509804 88:0.0431373 92:0.243137 97:0.843137 101:0.00784314 121:0.14902 122:0.00784314 151:0.341176 157:0.129412 161:0.0352941 166:1 171:0.0588235 176:0.0235294 177:0.364706 182:0.431373 186:0.0235294 191:0.113725 196:0.25098 
-0 0 0 0 0 0.3306175063919276 0 0 0 0 0 0 0 0 0 0 0 0 11.77100718882001 0 0 0 0 0.1570717338660154 0 0 0 0 0 0 1.579678270237358 1.404377511243287 0.3527367572326718 0 0 0 0 0 0 0 0 0 0 0 3.45890648796055 0 0 0 0 0 0 0 0 0 0 0 0 0 0.8990903332143515 0 0 0 0 22.33290679982695 1:0.454902 2:0.172549 3:0.0980392 28:0.411765 53:0.313725 58:1 63:1 68:1 73:1 76:0.0313725 78:1 101:0.0509804 122:0.133333 123:0.0509804 127:0.0313725 151:0.0666667 157:0.662745 162:0.662745 167:0.662745 172:0.607843 176:0.0196078 177:0.235294 
-0 0 0 0 16.0503051335772 0 0 0 0 0 0 0 0 0 0 0 0 0 0 0 0 0 0 0 0 0 0 0 0 0 0 0 0 0 0 0 0 0 0 0 0 0 0 195.2550795554583 0 0 82.83959905593156 0 0 0 0 0 0 0 0 5.409071986920348 0 0 0 0 0 0 0 0 1:0.309804 2:0.141176 21:0.768627 23:0.466667 48:0.203922 53:0.0235294 58:0.0235294 63:0.0235294 67:0.0235294 73:0.0117647 81:0.0313725 106:0.133333 121:0.14902 122:0.14902 123:0.14902 157:0.196078 162:0.0235294 167:0.0235294 170:0.0117647 176:0.435294 177:0.0196078 
-0.639457137629786 11.10706409272182 6.416491423019369 0 28.891450165437 0 84.07311877974141 8.530136134563504 15.41731709761222 0 18.01011151898228 17.75476050035643 34.15211075191444 5.394441066090527 6.160787349133936 13.37970308423072 10.15819580562621 5.233293939081772 126.3855865913109 1.647796806228745 115.657398093717 8.863005333038982 6.985466154729378 7.309708899799009 14.47794063533499 0 1.364345768583361 12.62873982195729 74.20830668865078 26.86769006439117 0 0 0 0 20.87304200113447 4.59056514129788 6.530234527780772 10.92169869632203 8.633423359252602 23.37607242904372 0 5.579072875975874 5.367258201588794 391.3836345889147 0 0 512 0 0 16.36213484428751 10.23900125925933 0 0 4.140821094404706 0 22.41713096266722 0 0 4.435233454929429 0 53.72315648080662 2.47138812627315 0 35.96411270449145 1:0.462745 2:0.14902 21:0.356863 23:0.454902 48:0.0470588 52:0.0235294 57:0.0235294 62:0.0235294 67:0.0235294 72:0.0117647 100:0.0431373 101:0.494118 120:0.00784314 121:0.14902 122:0.14902 123:0.14902 150:0.117647 157:0.0235294 162:0.0235294 167:0.0235294 172:0.0117647 176:0.0235294 196:0.317647 197:0.0235294 
-0 0 0 0 0 0 0 0 0 0 0 19.81814798226779 0 0 0 0 0 0 0 0 0 0 0 0 0 0 0 0 0 0 0 0 0 0 0 0 0 0 0 0 0 0 0 0 0 0 0 0 0 0 0 0 0 0 0 0 0 0 0 0 0 0 0 0 1:0.305882 2:0.14902 21:0.14902 23:0.164706 24:0.00784314 48:0.235294 53:0.0235294 58:0.0235294 63:0.0235294 68:0.0235294 73:0.0117647 76:0.0196078 81:0.0392157 101:0.00784314 105:0.00784314 106:0.00784314 121:0.14902 122:0.14902 123:0.14902 152:0.0117647 157:0.196078 162:0.196078 167:0.196078 172:0.0117647 176:0.666667 197:0.0784314 
-7.663474164390884 8.887685541697184 27.89805064372955 0 0 18.35000364410301 0 12.11296901294652 15.00504819964265 0 0 29.0302789167581 0 5.033653069644134 8.98531365341009 0 1.230658687380755 0 0 0 60.07907816582327 13.38521867513331 0 0 1.126854659746382 0 0 19.10014265378742 0 0 6.870036174619795 0.7422804585469372 0 19.07850833200383 7.104224526994954 23.30029901414474 0 20.35895969705233 0 6.836111794694616 55.72287775176537 3.09513215117341 0 0 0 0 0 7.797798610129624 2.612694611874939 0.5052288951364826 0 11.4186113770967 32.74334879379758 27.08937209636051 37.46241150842901 0 20.18538845809719 0 0 19.19367576699306 0 0 23.91231510144429 0 1:0.34902 2:0.14902 21:0.133333 23:0.14902 52:0.0235294 57:0.0235294 62:0.0235294 67:0.0235294 73:0.172549 106:0.0980392 121:0.14902 122:0.14902 123:0.133333 131:0.117647 156:0.172549 161:0.196078 166:0.196078 171:0.0235294 176:0.788235 
-0 0 0 0 0 0 0 0 11.46275758300711 0 1.84257369408926 0 0 0 0 0 0 0 0 0 0 2.518219054236744 0 0 0 12.4326409734698 0 0 0 0.4048318339200063 0 0 0 0 0 0 0 1.074452325469209 0 0 0 0 0 0 0 0 0 8.99261818723048 12.64707141144371 0 0 0 29.86338494506017 0 0 0.9092761484719001 0 0 0 0 0 0.4566627268332186 0 0 0:0.172549 1:0.541176 2:0.188235 20:0.054902 21:0.333333 23:0.368627 24:0.00784314 48:0.403922 53:0.0117647 57:0.0235294 62:0.0235294 67:0.0235294 105:0.00784314 106:0.0156863 120:0.0980392 121:0.14902 122:0.14902 123:0.14902 150:0.313725 156:0.0235294 161:0.0235294 166:0.0235294 171:0.0117647 176:0.0196078 177:0.211765 196:0.596078 
-0 0 1.240768493393116 0 0 0 0 0 0 0 0 0 0 0 0 0 0 9.564847252697374 0 0 0 0 0 0 0 0 0 0 66.41622256944495 0 0 1.389118642672161 0 0 0 0 0 0 0 0 0 0 0 0 0 0 0 0 0 0 0 0 0 0 0 0 0 0 0 0 0 0 0 0 1:0.0509804 2:0.643137 3:0.14902 54:0.0235294 59:0.0235294 64:0.0235294 69:0.0235294 74:0.0235294 106:0.470588 122:0.133333 123:0.14902 131:0.0784314 132:0.0980392 157:0.054902 162:0.662745 167:0.662745 172:0.607843 176:0.12549 177:0.2 
-0 0 0 0 0 0 0 0 0 0 0 0 0 10.17361936335201 6.701555604171773 0 0 0 0 0 0 0 0 0 0 0 0 0 0 0 0 0 0 0 0 0 19.1129384620619 0 0 0 0 0 0 0 0 0 0 3.504197231541076 1.614418708140267 0 0 1.510421944012396 13.74656858319132 0 12.03250994624083 0 0 0 0 0 0 0.08330671110045484 0 0 1:0.2 2:0.133333 21:0.14902 22:0.0156863 23:0.14902 24:0.00784314 47:0.0235294 52:0.607843 57:0.662745 62:0.662745 67:0.662745 72:0.607843 76:0.411765 101:0.188235 120:0.00784314 121:0.14902 122:0.14902 123:0.14902 127:0.0235294 150:0.0117647 152:0.607843 157:0.662745 162:0.662745 167:0.662745 172:0.447059 176:0.470588 197:0.262745 
-0 10.93228451235094 5.419343946040737 9.765568905644386 9.394502936057533 0 0 4.497196141526926 0 13.79288500066811 10.10398614659456 0 4.694056099100957 11.97231135167417 9.222468604228283 0.6465815870036054 7.669226678860604 197.3705833274716 0 12.04142022640124 60.52002174571412 12.47835882964268 12.73980407170779 2.817526580454939 20.17245024359727 2.470695263102124 16.40458961576121 1.639545229941028 28.71280101889331 7.18675586155227 18.1261668603024 12.28576989941282 12.68559873182976 31.90311394665947 18.36850240691357 0 19.03996450991573 0.8552140836523617 1.108108812904898 1.023676990685128 42.13193356327317 5.133450156859532 30.4973880881229 173.4309958174209 63.83258802297318 55.32768473201246 79.90234196250759 1.244416024631595 1.113197181795355 4.246295925291034 20.13986734753736 0 56.57581264625741 2.024907888203429 72.53782333271629 1.204079611091977 16.44587641329363 9.02085714279268 10.93146878517324 43.41252233179502 8.813467030757655 0 76.93660705557512 21.47084125266506 1:0.462745 2:0.14902 20:0.156863 21:0.239216 23:0.694118 48:0.203922 53:0.0235294 58:0.0235294 63:0.0235294 68:0.0235294 73:0.0117647 100:0.00784314 101:0.00784314 120:0.0980392 121:0.14902 122:0.14902 123:0.14902 126:0.0313725 150:0.447059 156:0.662745 161:0.662745 166:0.662745 170:0.239216 175:0.0823529 176:0.0196078 195:0.0196078 196:0.541176 
-0 6.850214508128631 1.68018733060912 6.300643999459602 8.400037574625539 0 7.050514528854479 0 4.9725374401655 9.291577254471092 0 1.931186768618324 2.175182097442656 0 0 0.6490330376658972 13.21871667907739 59.56269516484414 40.15523004053782 12.81394303530687 0 3.203369879957026 15.46799327807402 0 0 15.81298908177282 5.625218492290272 6.824513145115011 15.98617790587281 10.20788174790552 16.05642527407878 10.53621543311334 2.975656192848195 4.382246057207443 9.911767388995342 2.004220324997712 0 0.7286486698348681 7.717310197825525 2.05061030324752 0.7286213940519763 6.164499743738398 7.363346984036827 75.07158714483532 30.74628234041516 18.03142030080074 43.65088631350419 0 0 0 4.861641839050275 9.970286645248269 0 3.974551191607606 3.073043340856831 5.512302270073426 27.75882509982609 10.95712759844959 17.60352876668387 14.13690627591819 28.44449916851405 11.37849013050718 0 35.62343238976526 2:0.356863 3:0.14902 4:0.0980392 20:0.0431373 21:0.552941 23:0.0588235 24:0.305882 48:0.647059 49:0.117647 54:0.407843 59:0.0313725 63:0.0666667 68:0.615686 73:0.317647 74:0.0784314 79:0.603922 88:0.184314 93:0.184314 101:0.00784314 102:0.0980392 120:0.0980392 121:0.14902 122:0.14902 123:0.14902 124:0.0509804 127:0.117647 151:0.121569 157:0.231373 162:0.627451 167:0.0666667 177:0.0901961 182:0.25098 187:0.160784 192:0.160784 195:0.317647 196:0.341176 
-3.957931782609118 4.984088867829888 2.642321337337142 0 0.4384916372567424 4.407373122093223 0 3.331287443388363 0 3.485711056710063 10.06019523913457 0.3003468854814733 7.191832340186715 0 0 5.131649658887855 0 30.93534530405839 0 0 0 0 0 3.726313346160563 0 0.5663683565730948 0 0 0 0 0 0 0 0 13.09736769371451 0.1091158377429078 0 3.937270001461114 0.6756992398559183 6.287625898179586 0 2.783192737364273 0 28.66863448598426 19.19342309232404 0 50.803442941212 4.682481674467661 0 3.93900665403893 0 0 0 2.854051636596706 0 2.293972930543871 0 0.9670903470152934 0 0 0 13.78764442525797 0 0 1:0.0117647 2:1 3:0.25098 21:0.65098 23:0.607843 48:0.117647 53:0.564706 58:0.533333 63:0.270588 68:0.0235294 74:0.0117647 78:0.203922 83:0.411765 88:0.203922 101:0.0666667 102:0.129412 120:0.0745098 121:1 122:1 123:1 127:0.117647 151:0.152941 157:0.184314 162:0.933333 167:0.564706 176:0.160784 178:0.160784 182:0.0901961 187:0.0901961 192:0.25098 
-0 0 0 0 8.126235959741361 0 0 0 0 0 0 0 0.5826733092616325 0 6.847670439046572 0 0 0 0 0 1.602443135753601 0 0 0 0.8529168337756288 0 0 0 0 0 0 0 0 0 0 0 0 0 0 0 0 0 0 0 0 0 0 0 10.92639314443751 0 0 0 22.97235641816246 0 0 0 0 0 0 0 0 0 0 0 0:0.00784314 1:0.843137 2:0.423529 20:0.0470588 21:0.596078 23:0.54902 24:0.188235 48:0.117647 53:0.0235294 58:0.0235294 63:0.0235294 68:0.0235294 73:0.0117647 74:0.0431373 100:0.00784314 101:0.14902 120:0.0509804 121:0.14902 122:0.14902 123:0.14902 124:0.00784314 150:0.117647 157:0.0235294 162:0.0235294 167:0.0235294 170:0.152941 172:0.0117647 176:0.0901961 177:0.0901961 197:0.0235294 
-2.687372516057092 0 0 0 0 0 0 0 0 0 0 0 1.868811483382331 0 0 0.1165387655215617 0.5091410780170859 0 0 0 0 0 0 0 0 9.654872425765898 0 0 0 0 0 1.365200173485424 2.731923381311367 0 0 0 0 0 4.443540303443616 0 0 5.45674286584428 0 0 0 0 0 0 2.847551345235206 0 0 20.19013877387608 0 0.4579314173672371 0 0 0 0 0 0 0 0.885141691105053 0 0 1:0.188235 2:0.105882 3:0.133333 53:0.607843 58:0.662745 63:0.662745 68:0.662745 73:0.65098 77:0.447059 81:0.0196078 101:0.00784314 102:0.54902 106:0.00784314 123:0.117647 151:0.0117647 153:0.129412 158:0.196078 163:0.196078 168:0.196078 173:0.172549 176:0.419608 177:0.380392 
-0 0 0 0 0 0 0 0 0 0 0 0 0 0 0 0 0 0 0 0 0 0 0 0 0 0 0 0 0 0 0 0 0 0 0 0 0 0 0 0 0 0 0 0 84.35642023971668 0 0 0 0 0 0 0 0 0 0 0 0 0 0 0 0 0 0 0 1:0.521569 2:0.172549 3:0.0980392 53:0.92549 58:1 63:1 68:1 73:1 77:0.0313725 101:0.133333 102:0.309804 122:0.00784314 123:0.0509804 127:0.411765 151:0.403922 152:0.0117647 157:0.196078 162:0.196078 167:0.196078 172:0.172549 177:0.235294 
-2.078301747675228 0 0 4.978264055420309 2.689502166393268 0.6113334970834685 3.448695364697246 2.027498944974945 1.676340751233996 8.667039604711825 1.751065007329507 1.085684734248885 0 15.48599063948446 16.85093369366415 1.203301227125345 0 1.955223074908215 27.90459684479742 0.590214606375134 3.244646256543302 0 4.765603568910673 2.057305552878292 0 0 2.376546095775759 3.908596673313952 34.37200769360967 0 4.354035057842552 4.007869422212128 3.174561666568076 1.441053781066094 5.807751781525073 1.624684162133197 1.646587703575378 0.5009446126364252 1.979403556008974 1.285544869183794 25.60001538671225 0 3.747797547139157 18.04414015129586 52.47744440893797 0.8820526392721553 50.8810578811211 0 0 4.114567941696505 0 0 0 3.590712171409534 8.313922044780167 0 3.709128618617419 2.647609004549383 5.789011767054121 3.919430714477107 0.3146616011545486 0 6.437147976097505 8.641624444834212 1:0.156863 2:0.14902 3:0.0980392 53:0.92549 58:1 63:1 68:1 73:1 77:1 101:0.368627 102:0.396078 123:0.054902 127:0.117647 151:0.607843 152:0.0117647 157:0.0235294 162:0.0235294 167:0.0235294 172:0.0235294 
