svm_type c_svc
kernel_type rbf
gamma 0.00012207
nr_class 65
total_sv 1424
rho 0.0219143 0.0849052 -0.205383 -0.0498326 0.0929336 0.235171 0.166294 0.0143417 0.0200883 0.217342 -0.0507155 -0.306102 0.125832 0.100583 0.0912023 -0.314598 0.327879 -0.217903 -0.0299842 0.0766322 -0.145112 0.319855 0.279258 -0.266622 -0.160366 0.152814 0.326302 -0.114934 -0.044672 0.359944 0.416481 0.394284 0.135684 0.0413835 0.00583683 0.857891 0.410831 -0.212649 0.427197 0.0820721 0.0400344 0.55077 0.462378 -0.0930777 -0.192687 0.143983 0.0464856 0.149285 0.088207 0.750573 0.358871 0.664156 -0.0025137 -0.0673189 0.0982488 0.424067 0.281003 0.376103 0.0985577 0.281406 0.0117595 0.101478 -0.123408 -0.156853 -0.434353 -0.461826 0.286038 0.176493 0.08595 -0.199587 -0.0670831 0.106464 0.276517 -0.278504 -0.0282933 0.0809397 -0.409986 -0.585476 -0.0732995 0.19109 -0.477153 -1.17492 -0.112489 -0.40679 0.10502 0.338336 0.108832 -0.433509 -0.310109 0.101641 0.10908 -0.696462 0.188986 0.313897 0.147425 0.0455283 -0.0670329 -0.562216 0.194744 0.135074 0.11958 0.338355 0.117109 0.20953 0.278434 0.482139 0.253088 -0.770786 -0.0139913 -1.22823 -0.15982 0.143899 -0.167942 0.0892141 0.352131 -0.506584 0.166215 0.0763272 -0.154768 0.109742 0.26226 -0.0424674 0.336538 -0.448139 0.00545928 -0.279673 -0.287981 -0.0528011 0.162252 0.113444 0.0257273 0.155642 0.0471353 0.212883 0.353602 0.10211 -0.00919207 0.187389 0.254255 0.200875 -0.0660527 0.21498 0.0457058 0.24092 0.126675 -0.160024 0.255722 0.291427 -0.0276713 -0.356183 -0.0965087 0.362159 0.0160228 -0.0994834 0.0577643 0.287475 0.27795 0.205801 0.115816 0.0724237 0.122074 0.176272 -0.0456473 0.237167 0.0832384 0.0783248 0.335928 0.317617 0.00728988 0.0714589 0.0637134 0.282568 0.0263467 -0.012939 -0.353432 0.428885 0.243888 0.216993 0.148862 0.101926 -0.142352 0.199809 0.273733 0.160681 0.330765 -0.159091 0.144558 -0.0797444 -0.0630308 0.2544 0.36686 0.543401 0.199956 0.261646 0.372426 0.430816 -0.104549 0.119193 0.357201 0.282376 0.152472 0.155775 0.487586 -0.0508458 0.237461 0.0862059 -0.15522 0.299925 0.34752 0.413339 -0.245676 0.213199 0.497317 0.373275 -0.0523156 0.351201 0.430897 0.249257 0.137603 0.134483 0.176088 0.745902 0.335108 0.157647 0.499074 0.455942 0.169956 0.535267 0.268847 0.0863757 -0.179993 0.213848 0.137178 0.0739385 0.219339 0.163248 0.47274 0.370286 0.153545 0.231118 0.367961 0.154768 0.287237 0.378706 0.138511 0.279787 0.0279651 0.414123 0.147952 -0.0161629 0.147956 0.254683 -0.06879 -0.0151638 0.0828556 0.370197 -0.0314103 -0.00630022 0.262994 -0.000359408 0.0271026 0.0580808 0.265968 -0.491497 -0.221231 0.0998635 -0.108538 0.1083 0.434048 0.114551 -0.037568 -0.0283127 0.271881 0.112443 -0.258747 0.173566 0.389761 0.182599 -0.0391733 -0.145144 -0.228951 0.115044 0.17973 0.182231 0.293672 0.0644981 0.0381882 0.249102 0.263313 -0.358085 -0.293596 -0.00236922 -0.542507 0.00139057 0.104071 -0.0480636 0.257919 0.35402 -0.0526766 0.139055 -0.00336742 -0.154572 0.178298 0.279521 -0.00872953 0.0921103 -0.241665 0.0928147 -0.234108 -0.327637 0.243734 -0.0847352 -0.247561 -0.00986803 0.0271576 -0.297187 -0.130028 0.127963 0.100587 -0.0566666 -0.245802 0.488296 -0.583577 -0.369185 0.00412531 -0.364227 0.129212 0.222917 -0.142929 -0.31906 -0.0965396 0.147435 0.325198 -0.570785 0.0115575 0.299064 0.0649551 -0.0670118 -0.117507 -0.159789 0.0652853 0.17493 -0.0748478 0.30034 0.0334799 -0.125538 0.374233 -0.0704809 -0.451362 -0.345723 0.0101132 -0.372607 -0.114369 -0.084761 -0.393529 0.0321879 0.185962 -0.628429 -0.305063 -0.260572 -0.199124 0.119653 0.243869 -0.104273 0.00725087 -0.271947 -0.0192115 -0.296531 -0.301416 0.00367351 -0.748267 -0.120167 0.0962207 -0.326525 -0.407141 0.231854 -0.0356045 -0.0280629 -0.160992 0.44055 -0.435411 -0.213048 0.0149252 -0.218396 0.187032 0.201391 0.165226 -0.313737 -0.255436 0.338542 -0.0202468 -0.292263 0.214905 0.274293 0.171423 0.0186891 -0.0294638 -0.0818581 0.394455 0.164953 -0.155949 0.260124 0.113078 -0.0301155 0.400885 0.218702 -0.28245 -0.307123 0.0775944 -0.210861 0.024464 -0.0367012 -0.122699 0.0976399 0.291619 -0.28596 -0.0936625 0.0866922 0.0997481 0.152884 0.261334 0.0160342 0.140986 -0.102198 -0.0669446 -0.482031 -0.225829 -0.0781423 -0.00303208 0.261928 -0.118298 -0.0955409 -0.0564 -0.148641 -0.292754 -0.122206 0.121349 0.402806 0.230266 -0.125503 -0.288878 0.154114 0.253158 -0.0465536 -0.322931 -0.150175 0.128815 -0.0304996 -0.52957 0.142133 0.180787 0.388858 0.143825 0.0236907 -0.257732 -0.0741075 0.0857629 -0.136551 0.0801371 -0.0658149 0.00663218 0.0900495 0.149756 0.306675 0.0393187 0.0104341 0.647129 -0.00427506 -0.111564 -0.242465 0.103998 0.195183 -0.0563395 -0.00323525 -0.0531241 -0.0880627 -0.134805 0.382185 0.0445551 0.234751 -0.476075 0.0903729 -0.0262401 -0.14826 0.083447 0.237834 -0.101524 -0.0354639 0.404706 0.154529 0.0795627 -0.122357 0.409057 -0.295803 -0.0521533 0.0678948 -0.158914 0.287969 0.351056 0.0243373 -0.270055 -0.179125 0.439066 0.511512 -0.165668 0.127963 0.375551 0.27002 0.0305731 0.0362871 0.00362316 0.581347 0.350826 -0.378863 0.402972 0.0854482 0.0033875 0.507688 0.212592 -0.121723 -0.251105 0.138943 -0.0457257 0.138552 0.0380698 -0.223495 0.30179 0.281065 0.13471 0.357084 0.0132024 0.0377427 0.188763 0.37152 -0.0648555 0.20048 -0.0382792 0.0757895 -0.135036 -0.141017 0.143137 -0.218964 0.00111871 0.143227 0.0829476 0.0151196 -0.00738855 0.0880205 -0.451057 -0.149406 0.00671838 -0.402925 0.134178 0.249441 0.168117 -0.307775 -0.192772 0.180341 -0.0972658 -0.254657 0.167641 0.31618 0.168844 0.0207187 -0.0730177 -0.0912231 0.278883 0.254301 -0.127843 0.258 0.0337287 -0.138216 0.173763 0.234545 -0.316108 -0.277577 0.00110809 -0.18262 0.0125024 -0.0794559 -0.0165703 0.279233 0.0116653 -0.0367682 -0.0204594 -0.048273 -0.0400405 0.124009 0.24834 -0.0192189 0.184675 -0.111766 0.0340499 -0.188833 -0.327997 -0.248151 -0.154067 -0.0751859 -0.176703 -0.220944 -0.169977 -0.121975 -0.394911 -0.375748 -0.2908 -0.186563 0.0274905 0.0646422 -0.172187 -0.3474 -0.273725 -0.117765 -0.100758 -0.404923 -0.146284 0.0971881 -0.18355 -0.270557 -0.231481 -0.298323 -0.25516 -0.0893757 -0.14629 -0.0849071 -0.284725 -0.270273 -0.0417992 -0.135406 -0.379707 -0.389308 -0.248736 -0.538493 -0.329341 -0.624263 -0.341279 -0.131663 0.02025 -0.392108 -0.120337 -0.263857 -0.389482 -0.0337762 -0.047464 -0.262217 -0.126209 -0.317118 -0.280817 -0.337475 -0.36357 0.0133232 0.320075 0.483921 0.191101 0.010323 1.0009 -0.275572 0.225696 0.22095 -0.0547791 0.332779 0.40339 0.224462 -0.552909 0.0887658 0.620748 0.282855 -0.111984 0.423009 0.365114 0.347048 0.165279 0.0622449 -0.034739 0.44448 0.42629 -0.0629551 0.420571 0.196399 -0.0249806 0.269564 0.567164 -0.00378151 -0.0499996 0.140882 0.0257694 0.205842 0.318119 -0.0536732 0.362724 0.452283 -0.0615568 0.238666 0.0390492 0.195051 0.282983 0.405189 0.0922 0.248367 -0.177053 0.086103 -0.0453331 -0.0438232 0.409808 0.520619 0.105192 -0.0305345 0.449452 -0.334209 0.0576229 0.0856901 -0.158332 0.339083 0.239034 0.34668 -0.322783 0.522191 0.352029 -0.057229 -0.121206 0.450188 0.340213 0.334051 0.0817249 0.00746045 0.101611 0.637855 0.302559 -0.940248 0.647805 0.240548 -0.0521984 0.599584 0.295942 -0.212279 -0.240821 0.0611683 -0.247524 0.153032 0.210618 -0.479055 0.446342 0.453737 -0.0129338 -0.12351 -0.199162 0.226582 0.189626 0.32793 0.0680744 0.173 0.0150109 0.0745317 -0.185141 -0.143975 0.016967 -0.0912059 -0.415406 0.305859 -0.422895 -0.318542 0.0065932 -0.244076 0.253158 0.0196293 -0.382521 -0.420469 -0.10198 0.195256 -0.0880939 -0.3123 -0.0143815 0.261392 0.130624 0.000760534 -9.60936e-06 -0.0570878 0.0368254 0.015585 -0.371379 0.146372 -0.445361 -0.247487 0.155715 0.113037 -0.290763 -0.425819 -0.0140052 -0.386821 -0.0289525 0.237154 -0.295409 0.144118 0.331641 -0.388859 -0.280415 -0.361333 0.0259504 0.107686 0.0620674 -0.0705244 0.0536657 -0.18126 -0.134714 -0.297224 -0.360506 -0.186491 -0.305221 0.748415 0.157186 0.0629568 0.114388 0.125115 0.205831 0.169308 -0.145282 -0.681676 -0.151158 0.159972 -0.151251 -0.0618531 0.128168 0.338844 0.292338 0.125137 0.0974586 -0.0732385 -0.148935 0.239553 -0.198515 0.0337816 -0.228993 0.529378 0.113772 0.306581 0.387376 0.163908 0.19396 0.371972 -0.223757 -0.00947668 -0.452303 0.204511 0.197364 -0.29983 0.00699991 0.325829 0.0316947 0.351831 0.227358 -0.0137446 0.426309 -0.40166 0.0511444 0.0325188 -0.0520788 -0.151568 0.660693 -0.147076 0.0461169 0.193873 0.0220314 0.218871 0.33021 -0.00387716 -0.711527 -0.124351 0.0712374 -0.0236128 -0.371039 0.268954 0.47987 0.273328 0.116059 0.178731 -0.21756 -0.0628039 0.233411 -0.0739586 0.106115 -0.0802151 0.338721 0.29701 0.413559 0.223147 0.187566 0.122078 0.0777449 -0.120644 -0.137818 -0.302161 0.253584 0.245674 -0.423128 0.00945217 0.0149885 -0.0472306 0.535941 0.350796 0.00913355 0.344559 -0.444466 0.0225139 -0.253921 -0.00986572 0.652967 -0.255653 0.0531564 0.0797177 -0.0693445 0.328213 0.297766 0.192295 -0.140015 0.346354 0.394811 0.0496623 -0.095634 0.49692 0.325298 0.329881 0.122877 0.0441371 0.157401 0.901706 0.378083 -0.272544 0.61132 0.226854 -0.00370662 0.748262 0.363207 -0.0983137 -0.193147 0.0957736 -0.127262 0.294918 0.147257 -0.34926 0.387472 0.586531 -0.0181765 -0.0453619 -0.0933575 0.36015 0.206007 0.33247 0.0979931 0.189643 0.0590272 0.145929 -0.0519645 -0.140284 -0.411379 -0.0946156 -0.22827 -0.42878 0.271806 -0.0346343 -0.385388 -0.601114 -0.344912 -0.415054 -0.291659 -0.421326 -0.272402 0.260967 0.066048 -0.148877 -0.166542 -0.279278 -0.272664 -0.151276 -0.339095 0.258855 -0.370553 -0.157557 0.0100739 -0.0133848 -0.406893 -0.314779 -0.220722 -0.459614 -0.227553 -0.249892 -0.397683 0.0665739 0.356085 -0.393465 -0.385668 -0.352623 0.0562196 0.153584 0.195452 -0.205541 -0.0215425 -0.279628 -0.138957 -0.20706 -0.240103 -0.548746 0.0573266 0.365865 0.311263 0.554004 0.433701 0.240926 0.210547 0.355005 0.484489 0.681953 0.390743 0.519899 0.406762 0.177952 -0.0857235 -0.406631 0.370075 0.582024 0.392883 0.39635 0.434962 0.626109 0.358895 0.633636 1.18135 0.0840855 0.359527 1.17654 0.243858 0.17968 0.226674 0.51824 0.443044 0.245362 0.548157 0.561492 0.0976164 0.389264 0.40956 0.13962 0.287205 -0.189593 0.302975 0.38451 0.108754 -0.0118744 -0.265273 0.165276 0.380699 0.0539787 -0.335463 -0.0768585 0.2586 0.28171 0.0308246 0.350627 0.440279 0.13644 0.191183 0.0779971 -0.190811 0.262055 0.121065 -0.0669408 0.789557 0.0822045 0.486248 0.431415 0.160575 1.19821 -0.735158 0.174626 0.224363 0.0618961 0.00311085 -0.0813424 0.32102 0.350886 -0.130812 0.173617 0.398452 0.0866927 0.278494 0.193107 0.00990021 0.460077 -0.390233 0.0297571 0.0929791 -0.0473232 0.111982 0.284361 0.288632 -0.071311 -0.248132 -0.0706401 0.155446 0.0263802 -0.16375 0.119996 0.385145 0.34339 -0.0240292 -0.0603851 -0.069488 -0.0677412 0.0042752 -0.0710448 0.102253 -0.0832239 -0.0339294 0.156723 0.310906 -0.135571 -0.0619159 -0.493603 -0.10213 -0.0430837 -0.113975 -0.142436 -0.0888962 0.143173 -0.354679 0.0815561 -0.0918286 0.011402 0.115207 0.255232 0.0686635 0.103867 -0.141851 0.108957 -0.146803 -0.169011 0.283137 0.283279 0.194791 -0.206724 0.10954 0.333996 0.491198 0.111613 0.531905 0.514548 0.248951 0.183344 0.116766 -0.0296017 0.180061 0.570294 0.321294 0.144794 0.338537 0.137023 0.404115 0.337863 0.144805 0.303402 0.0977615 -0.22949 0.0165596 0.119826 0.0661355 0.228923 0.453142 -0.0955358 0.620032 0.145106 0.223744 0.569367 0.21843 0.111324 0.529421 -0.15469 0.076002 -0.0447085 0.110245 -0.0425904 -0.326775 -0.288723 -0.365427 -0.0137064 -0.115495 -0.416065 -0.191908 0.471452 0.104013 -0.264956 -0.208391 -0.274991 -0.232577 -0.120377 -0.308376 -0.16163 -0.249231 -0.201653 -0.0704755 0.0380853 -0.333147 -0.132218 -0.199722 -0.233217 -0.567115 -0.22009 -0.330934 -0.0351363 0.0106352 -0.35947 -0.130238 -0.289979 -0.390882 0.492748 0.0551313 -0.185085 0.0555819 -0.335779 -0.105718 -0.218409 -0.174293 -0.269115 -0.387259 -0.26124 0.0065303 -0.292905 -0.565945 -0.171995 -0.0309156 -0.0507435 -0.4432 -0.418284 -0.293379 -0.164106 -0.0463071 -0.235597 -0.301883 -0.292204 -0.329005 -0.120588 0.0632707 -0.512552 -0.419367 -0.151933 -0.561113 -0.414769 -0.021933 -0.244904 -0.0562368 0.0253144 -0.44227 -0.175727 -0.434917 -0.108173 -0.196541 -0.159011 -0.453055 -0.244433 -0.386528 -0.184036 -0.384185 -0.425418 -0.251661 0.373795 0.249965 0.156135 -0.249921 0.272283 0.269644 0.312389 0.0551173 -0.0385118 0.0901954 0.575671 0.265603 -0.555958 0.387431 -0.114525 -0.17977 0.506087 0.292947 -0.291343 -0.404478 0.0698264 -0.323217 0.257451 0.421534 -0.0239642 0.301704 0.376875 0.00605417 -0.0263239 -0.274781 0.467427 0.133919 0.290783 0.0404061 0.129053 -0.0432239 0.0376497 -0.127226 -0.241587 0.157497 1.13548 0.195772 -0.061927 0.526746 0.703304 0.305332 0.202218 0.230234 0.0408109 0.17613 0.392529 0.205558 0.357324 0.190879 -0.0299036 0.596015 0.589493 0.0636442 0.158088 0.370155 0.0940818 0.0522336 -0.187387 0.0125599 1.7006 0.380978 0.377644 0.287155 0.031003 0.137511 0.518782 0.414704 0.168597 0.410161 -0.0950972 0.229825 -0.105368 0.0385948 0.186998 -0.104564 -0.0828218 0.242052 0.429689 0.316341 0.160734 0.0840117 0.0246112 0.398966 0.415338 -0.242576 0.526909 -0.530955 0.0602264 0.326528 0.574124 0.00647681 -0.0922469 0.212162 0.0546835 0.180487 0.109345 -0.80659 0.450869 1.20309 0.120736 -0.113625 0.0874531 0.131592 0.321349 0.346724 0.113734 0.237047 -0.00949256 0.0634516 0.0468127 -0.00975689 -0.206915 -0.317546 -0.0644314 0.100113 0.108596 -0.169954 -0.178205 -0.284965 -0.274346 -0.0923956 -0.34007 -0.0276638 -0.405846 -0.170757 0.0473691 0.0404382 -0.355344 -0.281234 0.0160813 -0.304764 -0.506268 -0.383711 -0.325358 0.180367 0.0472854 -0.470025 -0.145317 -0.347162 -0.140622 -0.067162 0.0251301 -0.164076 0.00689182 -0.469129 -0.225672 -0.282415 -0.381363 -0.413246 -0.0219709 0.245288 0.0799131 -0.0728603 -0.0789275 -0.14346 0.562967 0.100258 -0.0437078 0.190689 0.175947 -0.11789 0.424873 0.0138395 -0.41909 -0.411092 -0.0271871 -0.370186 -0.0440094 -0.0421899 -0.446491 0.21837 0.141272 -0.250931 -0.249996 -0.0734015 -0.159829 0.0839306 0.247372 -0.177507 0.0565095 -0.207596 -0.000779981 -0.234036 -0.246625 0.450954 0.92828 0.468201 0.292796 0.26651 0.0695852 0.241593 0.268277 0.131217 0.410519 0.232408 0.307561 0.398964 0.354061 0.355565 0.354799 0.228805 -0.0808735 0.202423 0.137635 0.0120626 0.370536 0.525198 0.0123409 0.453147 0.266024 0.154105 0.833031 0.49452 0.25633 0.598777 -0.0470877 0.245704 -0.172814 -0.118042 0.332376 0.337265 -0.0678618 -0.190004 -0.113846 0.130623 0.252954 -0.25555 0.494452 -0.242687 -0.137708 0.270156 0.175613 -0.329245 -0.485317 -0.192233 -0.415233 0.0187008 0.0244961 -0.0706342 0.0879809 0.236355 -0.410409 -0.0224928 -0.305705 -0.134672 0.194401 0.269883 -0.0568199 -0.0409836 -0.187977 0.0607614 -0.289556 -0.328507 0.149682 -0.362499 -1.29103 -0.463728 -0.294115 -0.36261 -0.362271 -0.157762 -0.290953 -0.379209 -0.0621183 -0.106393 -0.472296 -0.437257 -0.591784 -0.452077 -0.488794 -0.414989 -0.382491 -0.334888 -0.0906182 -0.767834 -0.220857 -0.415896 -0.615499 -2.55416 -0.237097 -0.325212 -0.388534 -0.436286 -0.227278 -0.417902 -0.430483 -0.311333 -0.48923 -0.437462 -0.168206 -0.163915 -0.307565 0.147642 -0.205975 -0.287791 -0.0764403 0.0648687 -0.387938 -0.244564 -0.248643 -0.370619 -0.425472 -0.292223 -0.386542 -0.177949 -0.0623793 -0.295309 -0.0723864 -0.338874 -0.329956 -0.259525 -2.67565 -0.308025 -0.27014 -0.443051 -0.244044 -0.382488 -0.260935 -0.240322 -0.0582383 -0.016972 -0.0039632 -0.11995 0.103475 -0.0740156 -0.117926 -0.0049737 0.141118 -0.186786 -0.115059 -0.0891866 -0.327059 -0.0398239 -0.0343153 -0.188782 0.0344315 0.140202 -0.180079 0.087467 -0.141635 -0.0953519 0.157008 0.29359 -0.210054 0.00534826 -0.254245 0.0622269 -0.200583 -0.221833 0.00127282 0.023538 0.105995 -0.0336902 0.0812924 0.0305083 0.142421 0.133284 0.0566102 -0.034893 -0.080372 -0.00974447 0.105271 0.0959728 -0.0121068 -0.122982 0.0834324 0.215882 0.00879798 0.0949161 -0.0556535 -0.10751 0.725066 0.339383 0.0605426 0.578248 -0.171117 0.128301 0.0313661 -0.113411 0.0290295 0.185199 -0.125175 0.20165 -0.123231 0.274489 0.245756 0.124056 0.503701 0.290273 0.175402 0.662379 0.00654931 -0.0136494 -0.319094 0.234037 0.173667 -0.0281084 0.142042 0.481733 -0.102729 0.249551 0.383978 -0.000292546 0.298138 -1.89027 0.167629 0.141856 0.0534994 0.17055 -0.721823 0.501511 -0.90698 -0.0683008 0.0378727 0.181825 -0.267112 -0.369915 -0.0807363 -0.414311 -0.0604855 -0.366857 -1.31302 0.324225 0.236936 0.0341911 -0.486963 -0.243689 -0.575083 0.0921385 0.124243 0.0313247 0.0794688 0.0652327 0.0401354 -0.324862 -0.378265 -0.188378 0.0737575 -0.324671 -0.211459 0.0313261 0.331081 -0.367602 -0.366717 0.0938194 -0.484728 -0.177819 -0.173224 -0.287061 0.00620203 0.125134 -0.407856 -0.201677 -0.353077 -0.0589945 0.229303 0.296736 -0.0414828 0.0848954 -0.229331 -0.0936131 -0.414072 -0.273861 0.374694 0.0373703 -0.0294321 0.60992 0.227532 -0.225994 -0.261749 0.0720752 -0.313145 0.0707628 -0.0607996 -0.311338 0.454269 0.561764 0.327308 -0.0164813 -0.35182 -0.109089 0.253752 0.31451 0.140825 0.162951 0.149075 0.0704675 -0.284417 -0.213623 -0.425737 -0.0953117 -0.0599294 -0.107892 -0.359932 -0.628561 -0.103441 -0.375639 -0.215975 -0.211374 -0.38758 0.0133399 0.0722442 -0.19506 -0.305505 -0.427487 -0.592056 0.10811 -0.025879 -0.131282 0.0187152 -0.347199 -0.125974 -0.281529 -0.373116 -0.125661 0.394563 0.230511 -0.282709 -0.335881 0.0385157 -0.257341 0.0936921 0.134797 -0.202201 0.524961 0.420732 0.177328 -0.140323 -0.278288 -0.0128838 0.0773174 0.281895 0.0434392 0.0976912 0.130197 0.10801 -0.195512 -0.210706 0.14098 0.147192 0.643741 -0.0360647 0.203992 -0.00800143 -0.0398697 0.0344557 -0.068013 0.291987 0.176285 -0.270761 0.179392 -0.00753148 -0.102697 0.299205 0.238143 0.0109872 0.201959 -0.195579 0.111695 -0.0125063 -0.316384 0.00343485 -0.42857 -0.63094 -0.133686 -0.294551 -0.184054 -0.0928564 -0.672322 0.0383177 0.348169 -0.374174 -0.456065 -0.305188 -0.21751 -0.0865537 0.0731857 -0.0995866 0.0450687 -0.292815 -0.0178088 -0.331063 -0.48096 -0.464335 -0.36723 -0.243857 -0.556497 -0.330502 -0.350288 -0.276928 -0.290108 0.0185723 -0.684657 -0.040667 -0.39921 -0.0635737 0.0380892 -0.0857955 -0.175475 -0.0378762 -0.160507 -0.0068753 -0.437163 -0.464826 -0.207266 0.236088 -2.58083 0.132143 0.166362 0.0308222 0.320761 0.394079 -0.29541 0.463808 -0.358088 0.00487126 0.329614 0.378396 0.151035 0.258882 -0.294465 0.276129 -0.413911 -0.271708 0.0964496 0.448171 0.101692 0.212667 0.307532 0.274804 0.548549 -0.152928 0.51381 0.180055 0.0893308 0.297804 0.353275 0.0926783 0.396813 -0.186661 0.18915 -0.139763 -0.1366 -0.182059 -0.0494127 -0.0391954 -0.149374 -0.0443584 0.208378 -0.353086 0.0681443 -0.234383 0.0302515 0.313738 0.187528 0.0788771 0.219553 -0.183779 0.17115 -0.202316 -0.250822 0.26418 0.21427 0.118666 0.315362 0.438073 -0.120749 0.40336 0.21757 0.101921 0.32307 0.424381 0.214785 0.304235 -0.303691 0.235356 -0.0953444 0.0706412 0.475262 -0.287244 0.472831 0.331867 0.347027 -0.0507629 -0.0528619 -0.148858 0.199835 0.372204 0.0356929 0.157399 -0.029025 0.044834 -0.148745 -0.162356 -0.291948 0.319213 0.196203 0.257219 0.0549888 -0.231106 -0.00358719 0.218185 0.177851 0.0732586 0.0813761 -0.00346448 0.0716594 -0.250246 -0.170971 0.267508 0.569655 0.146811 0.170443 -0.141739 0.143886 0.281924 0.369658 0.171345 0.198096 0.300583 0.23055 -0.0149051 -0.0906935 0.0419622 -0.221928 -0.137593 -0.338419 -0.146291 0.0778748 0.230517 -0.0239323 0.0178715 -0.301363 0.0922443 -0.232633 -0.307313 -0.416271 -0.144309 -0.342624 -0.0423198 -0.0190331 -0.0147933 -0.181084 -0.100516 -0.202366 -0.141118 -0.353745 -0.454591 0.175716 0.00171701 -0.0145627 0.534866 0.335105 0.196097 0.357799 -0.136648 0.195728 -0.087435 -0.0607207 -0.203704 -0.156826 0.0780687 0.199708 -0.214045 0.0491139 -0.18635 0.018174 -0.333744 -0.385073 0.1039 0.320081 0.439622 0.116886 0.329508 -0.247041 0.120209 -0.731758 -0.384924 0.436347 0.432994 0.22462 0.170061 0.139255 0.244706 -0.121306 -0.0418122 0.0739098 -0.164637 -0.272306 -0.352032 -0.0375759 -0.379837 -0.318072 -0.242053 -0.186524 -0.410748 -0.193861 -0.413108 -0.334692 0.185682 -0.325506 0.0527178 -0.103755 -0.182292 -0.369159 -0.0329466 -0.300295 -0.427038 0.168852 0.0732336 -0.00460227 -0.253071 -0.277146 -0.143252
label 0 1 2 3 4 5 6 7 8 9 10 11 12 13 14 15 16 17 18 19 20 21 22 23 24 25 26 27 28 29 30 31 32 33 34 35 36 37 38 39 40 41 42 43 44 45 46 47 48 49 50 51 52 53 54 55 56 57 58 59 60 61 62 63 64
probA -2.98544 -3.02676 -2.90692 -2.98277 -3.1209 -3.09495 -2.97407 -2.96506 -3.08858 -3.07628 -3.12064 -3.24592 -3.18624 -3.03843 -3.07835 -3.09067 -3.01676 -2.68424 -3.04206 -3.05398 -3.00655 -3.1185 -3.08047 -2.52901 -2.92049 -2.72653 -2.9966 -3.0334 -2.9272 -3.24772 -3.06126 -3.0263 -2.97579 -3.04874 -3.14391 -2.75159 -3.1816 -3.12227 -2.94307 -3.02746 -3.00136 -3.24193 -3.08256 -2.86 -2.74126 -3.06426 -2.82132 -3.11528 -3.24948 -2.01799 -2.94745 -3.06684 -2.86279 -3.04462 -2.81723 -3.12474 -3.02872 -2.98507 -2.95089 -2.97801 -3.10556 -3.00854 -2.81687 -2.75072 -3.05144 -3.18326 -3.17019 -3.1775 -3.07714 -2.87868 -3.02329 -2.95342 -3.15133 -3.08698 -3.11422 -3.06627 -3.21696 -3.15594 -3.11797 -2.89551 -3.0751 -3.57024 -3.00438 -2.77466 -3.17023 -3.04658 -3.00812 -2.97842 -3.05589 -3.10012 -3.0995 -3.15214 -3.03261 -3.10641 -3.28618 -3.1912 -3.15703 -3.16709 -3.1827 -2.91697 -3.18756 -3.07469 -3.06709 -3.00907 -3.17548 -2.79825 -2.8206 -3.03193 -2.99927 -3.33083 -3.09119 -2.91798 -3.02775 -3.01699 -3.11757 -2.95487 -3.14562 -2.8147 -2.99767 -3.01206 -3.26105 -3.16665 -3.14887 -3.13556 -3.2104 -2.86282 -3.17722 -3.10071 -3.05876 -3.15633 -3.11159 -3.08646 -3.04092 -3.09011 -3.14271 -3.17302 -3.17465 -3.01206 -3.28068 -3.19204 -3.10872 -3.04928 -2.83187 -3.19188 -3.11383 -3.14448 -3.14317 -3.1146 -3.10789 -3.10705 -2.96366 -3.09668 -3.12122 -3.10046 -3.14019 -3.23464 -3.18516 -3.13193 -3.12087 -3.0278 -3.22843 -3.15591 -3.12932 -3.2055 -3.13543 -3.04449 -3.19041 -3.0803 -2.96577 -3.00497 -3.14086 -2.98237 -3.02619 -3.06378 -3.02893 -3.18912 -3.19018 -3.0984 -3.22349 -3.01624 -3.08013 -3.11107 -3.29982 -3.11923 -3.15992 -2.95503 -2.99708 -3.08239 -2.96296 -3.10732 -3.25502 -3.19293 -3.09469 -3.33823 -3.0343 -3.15194 -3.41485 -2.97672 -3.08821 -3.12778 -3.1886 -3.18366 -3.22465 -2.77794 -3.16249 -3.09244 -3.11809 -3.27974 -3.06437 -3.05645 -3.19099 -3.00635 -3.17097 -3.53361 -3.03647 -3.0498 -3.17611 -3.25045 -3.09188 -3.12988 -3.17505 -3.22822 -3.20554 -3.05476 -3.24012 -3.09803 -3.03987 -3.16656 -3.12897 -2.94258 -2.76184 -3.18196 -2.98588 -3.06914 -3.12822 -3.01012 -3.08216 -3.2251 -2.9913 -3.34537 -3.00323 -3.07498 -3.1165 -3.31408 -3.01946 -3.12332 -3.16952 -3.02802 -3.04506 -2.97204 -3.13688 -2.99823 -3.03621 -2.98328 -3.12784 -3.01308 -3.02803 -2.94169 -3.05478 -3.16395 -3.17695 -3.16464 -2.86032 -2.86425 -3.22806 -3.11993 -3.15898 -3.02869 -3.11163 -3.04034 -3.10128 -3.03674 -3.16492 -3.08078 -3.12346 -2.98399 -3.18854 -3.14807 -3.08414 -3.135 -3.18782 -2.97387 -3.13862 -3.02317 -3.09768 -2.96758 -3.14851 -3.33946 -2.99692 -3.10296 -3.13282 -3.14773 -3.13686 -3.18573 -2.94713 -2.98705 -3.18903 -3.10286 -3.08589 -3.18478 -3.13809 -2.94722 -3.1116 -3.23453 -3.19756 -3.19831 -3.06338 -3.22094 -3.06828 -3.1743 -3.29557 -3.02028 -3.31101 -3.27393 -3.18433 -3.18988 -3.18613 -3.1865 -3.33331 -3.29413 -3.3059 -3.09589 -2.78706 -3.28197 -3.05863 -3.23472 -3.18614 -3.00556 -3.28872 -3.17676 -3.142 -3.05889 -3.3743 -3.03466 -3.21804 -3.17507 -3.25024 -2.97942 -3.14969 -3.32592 -3.26005 -3.27887 -3.24731 -3.17295 -3.30284 -3.06238 -3.31295 -3.21584 -3.02366 -2.98177 -3.18807 -3.11166 -3.23051 -3.17633 -3.18724 -3.06804 -3.14422 -3.09724 -3.50289 -3.01991 -3.15346 -3.09522 -3.18609 -3.00285 -3.08446 -3.27636 -3.0965 -3.0892 -2.89434 -3.01816 -3.05152 -3.02815 -3.12533 -3.23445 -3.14952 -3.14074 -3.14942 -3.18022 -3.29389 -3.12688 -2.72819 -3.1081 -3.17101 -3.01253 -3.2034 -3.1808 -3.00182 -3.0685 -3.01204 -3.15288 -3.24947 -2.94247 -3.15927 -3.1045 -3.25915 -3.04741 -3.07907 -3.17174 -3.09445 -3.2878 -3.12766 -3.25398 -3.21438 -3.05037 -3.21171 -3.14921 -2.88332 -2.94177 -3.15588 -2.91329 -3.23041 -3.27624 -3.22363 -3.10765 -3.18622 -3.10603 -3.09813 -2.91313 -3.11523 -2.99135 -3.20967 -3.12831 -3.06028 -3.15436 -2.943 -2.92888 -2.81239 -3.02102 -3.1202 -3.02132 -3.13224 -3.04108 -3.1297 -3.11378 -3.08274 -3.09449 -2.91372 -2.79325 -3.05636 -3.02235 -3.14044 -3.05341 -3.00872 -3.06085 -3.08739 -3.13609 -3.12129 -3.02434 -3.20996 -2.90824 -3.27476 -3.11846 -3.1039 -3.0082 -3.06266 -3.07302 -2.99377 -3.16145 -2.96965 -3.09623 -3.08604 -3.1318 -2.93308 -2.97683 -2.78081 -2.99885 -2.93422 -3.00254 -3.01098 -2.99149 -3.02809 -3.10271 -3.00286 -3.09921 -2.97424 -2.98364 -3.19201 -3.13564 -3.07549 -3.15282 -3.03938 -3.1175 -3.1841 -3.03099 -3.09382 -3.05172 -3.14848 -2.96588 -3.14392 -3.18877 -3.11875 -3.13438 -3.13559 -2.7221 -3.07586 -3.07 -3.03582 -3.21236 -3.03771 -3.101 -3.13049 -3.06668 -3.05547 -3.29451 -2.97846 -3.18239 -3.21402 -3.19614 -2.91935 -2.98951 -3.10563 -3.27619 -3.14057 -3.09065 -3.1315 -3.14989 -2.96815 -3.24357 -3.05994 -2.84993 -2.89205 -3.09395 -2.90912 -3.16919 -3.17644 -2.9945 -3.18846 -3.1272 -3.02883 -3.31734 -2.93931 -3.13641 -3.0453 -3.26283 -2.86808 -3.04233 -3.0579 -2.93696 -2.93929 -2.9257 -3.08856 -3.17953 -3.08025 -3.13109 -3.15383 -3.11829 -3.13427 -3.17395 -2.85558 -3.04832 -3.1807 -3.04971 -3.25459 -3.06612 -2.96441 -3.2037 -3.24802 -3.06433 -3.04179 -3.08799 -3.09475 -3.16203 -3.22755 -3.01245 -3.17421 -3.18314 -3.05673 -3.11583 -3.10564 -3.03149 -3.20623 -3.09056 -3.13604 -3.10495 -2.89875 -2.90487 -3.14191 -3.06143 -3.08023 -3.0098 -2.98309 -3.18814 -2.9276 -3.01042 -3.07397 -2.91237 -3.18027 -3.21646 -3.28649 -3.04059 -3.08375 -3.17936 -3.02513 -2.90597 -2.80749 -3.19713 -3.09083 -3.19162 -3.23646 -3.19888 -3.12079 -3.1234 -2.9213 -3.16839 -3.07891 -3.08259 -3.19587 -3.12465 -3.06087 -3.14833 -2.9039 -3.15592 -3.13889 -3.14159 -3.16326 -3.13387 -3.12198 -3.17268 -3.12681 -3.15719 -3.08163 -3.19015 -3.29811 -3.15289 -3.06246 -3.05302 -3.14167 -3.21768 -3.07686 -3.00411 -3.16249 -3.14689 -3.10597 -3.10557 -3.10213 -3.1782 -3.11288 -3.13673 -3.24727 -3.03687 -3.05935 -3.09672 -3.1939 -3.16078 -3.17533 -3.19412 -3.03808 -3.24393 -3.16319 -3.10359 -3.20378 -3.33082 -3.23169 -3.28432 -3.11007 -2.85966 -3.07743 -3.19575 -3.18945 -3.21936 -3.03543 -3.17129 -3.10021 -3.18762 -3.08673 -3.22858 -3.07934 -3.15235 -3.16595 -3.24252 -3.1566 -3.10179 -3.24363 -3.16464 -3.02302 -3.22337 -3.15579 -3.14043 -3.08816 -3.27017 -3.09187 -2.93575 -2.91533 -3.20652 -3.05084 -3.06463 -3.22661 -3.04647 -3.15389 -3.22991 -3.09357 -3.27586 -3.11548 -3.14276 -3.14017 -3.16953 -3.18083 -3.17958 -3.19065 -3.03233 -3.10966 -2.94218 -3.16036 -3.21602 -3.19483 -3.55295 -3.10588 -2.79778 -3.04194 -3.18656 -3.16868 -3.20458 -3.1341 -3.20205 -3.26226 -2.93372 -3.23672 -3.14406 -3.08838 -3.19676 -3.13654 -3.22069 -3.08457 -3.13532 -3.22126 -2.80204 -3.15311 -1.10383 -3.0365 -3.27877 -3.13174 -3.26921 -3.13962 -2.88374 -2.84831 -3.19526 -2.99087 -3.23716 -3.22572 -3.23429 -3.19565 -3.14299 -3.31451 -3.11019 -2.91413 -3.11388 -3.13025 -3.1801 -3.04421 -3.15306 -3.17112 -3.00327 -2.95529 -2.98001 -3.21884 -3.17068 -3.13944 -3.25295 -2.84472 -3.06084 -3.15723 -3.09419 -3.29079 -3.17857 -3.20238 -3.22734 -3.09279 -3.22958 -3.24783 -3.13303 -3.22854 -3.16758 -3.28302 -3.17802 -3.0985 -3.18646 -3.11683 -3.01678 -3.21639 -3.14316 -3.17775 -3.03417 -3.20905 -3.04157 -2.91708 -2.9154 -3.17322 -3.0614 -3.17287 -3.11571 -3.30369 -2.73556 -3.08551 -3.04765 -3.22369 -3.06308 -3.1589 -3.18565 -3.12713 -3.12606 -3.10575 -3.15298 -3.0857 -3.08324 -2.91708 -3.78483 -3.18154 -3.05873 -2.86051 -3.10979 -3.30404 -3.3348 -3.15303 -3.02792 -3.09472 -3.20271 -3.2214 -3.33966 -3.23205 -3.18129 -3.10004 -3.08816 -3.27498 -3.05282 -3.0246 -3.32721 -3.27811 -3.08821 -3.25044 -3.20533 -3.18939 -2.85235 -3.29864 -3.236 -3.03868 -2.95466 -3.17193 -3.08327 -3.11537 -3.22761 -2.99448 -3.23812 -3.0867 -3.22234 -3.1924 -3.04126 -3.2268 -3.13805 -3.27624 -3.06473 -3.08733 -3.30228 -3.10551 -2.91703 -3.08562 -3.22314 -3.05614 -2.77445 -3.06545 -3.20402 -3.1048 -3.19484 -3.05354 -3.19544 -3.10862 -3.20284 -3.24157 -3.19618 -3.06517 -3.03113 -3.14352 -3.2673 -3.09788 -3.08268 -3.19631 -3.1685 -3.10997 -3.17109 -3.10836 -3.16311 -2.79573 -3.25545 -3.13989 -3.07131 -2.94883 -3.20665 -3.07339 -3.0702 -3.18444 -3.0393 -3.12692 -3.12286 -3.26144 -3.14609 -3.0882 -3.07433 -3.07637 -3.18032 -3.14553 -3.05584 -3.13197 -3.08188 -3.03234 -3.14195 -3.12324 -2.82608 -3.17538 -3.22046 -3.24589 -3.23004 -3.15534 -3.32167 -3.15695 -2.9179 -3.15119 -3.26828 -3.11397 -3.13627 -3.20349 -3.19583 -3.16588 -3.13007 -3.15912 -3.46888 -3.24401 -3.55895 -3.11436 -3.35262 -3.11736 -3.21509 -3.18819 -2.92904 -2.97127 -3.2063 -3.03932 -3.22991 -3.24564 -3.25871 -3.13044 -3.10707 -3.16079 -3.30324 -2.95164 -3.05889 -3.09068 -3.15122 -3.07421 -3.15584 -3.143 -2.99635 -2.99329 -3.09475 -2.69975 -3.00102 -2.96302 -2.98756 -3.11436 -3.24975 -3.10415 -3.09466 -3.17206 -3.17221 -3.02709 -2.98427 -3.19212 -2.94649 -3.13114 -2.87151 -2.9136 -3.03903 -3.23306 -3.05303 -3.10839 -3.24623 -3.15308 -2.99831 -3.26145 -2.92231 -2.86924 -2.80702 -2.9925 -2.92144 -3.00124 -3.33268 -3.04526 -3.16991 -3.12192 -2.94802 -3.11429 -2.88229 -3.26798 -3.00767 -2.96944 -2.9546 -2.9471 -3.07175 -2.92168 -3.03772 -2.93431 -2.65707 -2.80749 -2.64046 -2.90986 -2.76197 -2.73587 -2.6249 -2.81843 -2.8404 -2.77736 -3.14008 -2.6497 -2.91109 -2.98484 -2.91896 -3.0193 -2.71399 -2.91651 -2.64252 -2.7761 -2.76581 -2.87686 -3.04103 -2.92957 -2.65773 -2.34025 -2.4501 -2.80462 -3.38461 -2.83753 -2.81655 -2.69527 -2.69255 -2.80241 -2.54709 -2.81995 -2.84478 -2.74891 -2.74418 -2.93343 -2.98216 -2.71094 -2.96187 -2.80674 -2.95259 -2.85156 -3.07384 -2.86639 -3.08751 -3.11346 -3.08742 -3.08431 -3.16735 -3.12942 -3.29138 -3.05436 -3.05174 -3.10933 -3.16291 -3.15311 -3.09491 -2.78317 -3.23019 -3.06689 -2.99496 -3.45734 -3.13758 -2.99023 -3.32242 -3.00696 -2.93062 -1.58793 -3.00445 -3.23261 -3.09015 -3.07596 -2.96179 -2.98219 -3.18685 -2.84225 -3.14135 -2.90066 -3.03081 -3.06479 -3.21376 -3.20258 -2.94954 -3.01425 -3.15092 -2.98714 -3.14972 -3.22571 -3.1991 -3.12717 -3.18552 -3.15175 -3.20753 -3.17619 -3.12686 -2.97775 -3.14164 -3.10999 -3.19044 -2.98593 -3.12728 -3.06168 -3.05435 -3.19818 -3.11593 -3.17458 -3.08014 -3.04028 -3.19676 -3.14621 -2.9806 -2.99938 -3.20732 -3.1323 -3.1785 -3.15155 -3.06379 -3.06081 -3.11207 -3.06776 -3.05641 -3.01036 -3.11149 -3.10975 -3.18632 -3.05206 -3.13986 -3.03735 -3.16463 -2.87971 -3.13027 -3.19883 -3.11856 -2.99076 -3.13886 -3.10135 -3.22135 -3.18028 -3.1538 -2.94309 -3.09593 -3.25977 -3.21084 -3.14783 -3.24398 -3.08269 -3.04932 -3.16333 -3.17489 -3.14618 -3.16494 -3.21608 -3.09574 -2.54427 -2.75429 -3.22414 -2.89424 -3.22948 -3.26663 -2.9742 -3.17588 -3.0596 -3.03911 -3.09642 -3.03855 -3.06193 -3.03842 -3.23189 -3.099 -3.17329 -3.19937 -3.07847 -3.0079 -2.97797 -3.2517 -3.19256 -3.17641 -3.22129 -3.34488 -3.19947 -3.1191 -3.18554 -3.26857 -3.19947 -3.16262 -3.1605 -3.15175 -3.25974 -3.19606 -3.2406 -3.24835 -3.15576 -3.12303 -3.25143 -3.16093 -3.00651 -2.96358 -3.15447 -3.11643 -3.1585 -3.32231 -3.20699 -3.18735 -3.30455 -3.06599 -3.22024 -3.05978 -3.22735 -3.19325 -3.13582 -3.14285 -3.23292 -3.15985 -3.03951 -3.11151 -3.07342 -3.1824 -3.03581 -3.18241 -3.04408 -2.95457 -3.02503 -3.21948 -3.03787 -3.24364 -2.99548 -3.09772 -3.17004 -3.11161 -2.97436 -3.14989 -3.166 -3.10173 -3.03101 -3.0819 -3.19212 -2.93386 -2.99475 -3.00114 -3.0223 -3.1017 -3.23264 -3.11038 -3.11172 -3.22933 -3.04519 -3.10997 -3.06661 -3.31056 -3.10535 -3.02836 -3.16164 -2.98359 -3.14617 -3.01439 -3.05232 -3.01731 -3.14491 -2.70827 -3.20421 -3.14063 -3.0366 -3.0393 -3.07157 -3.21692 -3.05344 -3.09374 -3.15055 -3.25083 -3.11671 -3.31574 -3.05697 -3.36992 -3.0988 -3.29641 -3.05523 -2.81756 -2.8811 -3.1571 -2.9434 -3.08644 -3.23073 -0.987448 -2.96206 -3.05916 -3.04318 -3.04746 -2.92954 -3.19922 -3.09306 -3.13611 -3.04115 -3.08275 -3.13236 -3.04676 -3.03267 -2.98078 -3.17892 -3.20472 -3.14886 -3.01545 -3.22886 -3.23264 -3.24635 -3.10751 -3.00731 -3.11983 -3.14522 -3.0677 -3.18025 -3.1355 -3.15342 -2.8614 -3.25691 -3.11955 -2.88745 -2.84826 -3.1684 -2.89131 -3.02017 -3.09685 -3.07384 -3.04751 -3.36016 -3.17853 -3.19704 -2.98088 -3.11973 -3.07785 -3.27241 -3.1215 -3.11279 -3.02015 -3.01495 -3.03838 -2.9423 -3.17091 -3.17251 -3.16674 -3.02925 -3.23248 -3.22221 -3.13719 -3.13948 -3.19962 -2.98695 -3.19622 -3.02073 -3.03429 -3.20278 -3.13054 -3.14116 -3.12114 -2.90685 -2.85722 -3.19278 -3.02031 -3.1571 -3.14425 -2.87586 -3.15863 -3.15715 -3.20192 -3.20294 -2.87434 -3.16734 -3.15705 -3.19558 -3.13365 -3.09638 -3.2245 -2.94956 -3.01582 -2.98737 -3.18148 -3.14661 -3.26735 -3.10427 -3.32346 -3.19245 -3.09926 -3.11894 -3.18275 -3.01786 -3.2975 -3.20706 -3.25612 -2.96862 -3.29637 -2.99575 -3.05623 -3.00045 -3.09851 -3.10096 -3.12861 -2.92381 -3.07893 -2.94543 -3.18883 -3.12902 -3.34666 -3.0477 -3.22769 -3.17404 -3.1659 -3.1512 -3.14736 -3.19876 -3.1357 -3.17167 -3.08714 -3.04139 -3.22557 -3.26955 -3.19693 -3.00584 -3.12765 -3.20387 -3.29617 -3.26823 -3.16348 -3.19373 -3.22791 -3.04834 -3.2644 -3.15008 -3.00997 -2.92209 -3.1893 -3.07811 -3.13654 -3.21936 -3.06276 -3.22674 -3.27924 -3.14093 -0.0957012 -2.97489 -3.12893 -3.09267 -3.2558 -2.99746 -3.10021 -3.18771 -3.21129 -3.06218 -3.02282 -2.8725 -3.0733 -3.16734 -3.16078 -3.15786 -3.04264 -3.01889 -3.06982 -3.08686 -3.13358 -3.10637 -3.21043 -3.21297 -2.99538 -2.92894 -3.0358 -3.08484 -3.19746 -3.0001 -2.97224 -2.9626 -3.01439 -3.01734 -3.08305 -3.04768 -3.07731 -3.004 -3.06492 -3.19275 -3.0529 -3.24374 -3.05554 -3.06221 -3.08079 -3.04464 -2.93684 -3.26378 -2.98432 -2.93846 -3.08578 -3.02954 -3.09629 -3.21544 -3.14971 -3.19242 -2.9272 -3.39571 -3.06618 -2.79394 -2.84165 -3.15903 -2.80487 -3.12675 -3.23996 -3.01605 -3.07286 -3.11242 -3.00171 -3.06618 -2.87738 -2.79315 -2.9962 -3.11793 -3.00231 -2.94823 -3.0892 -3.01885 -3.01953 -2.9204 -3.04675 -3.12594 -3.09838 -3.18886 -3.06049 -3.04363 -3.16902 -3.17475 -3.13299 -3.15908 -3.16955 -3.0038 -3.08313 -3.00361 -3.12105 -3.1442 -3.04943 -3.04989 -3.05626 -3.13094 -3.07051 -3.06092 -3.19188 -3.14226 -3.13049 0.0939246 -3.0115 -3.15598 -2.62651 -3.11261 -3.07025 -3.18269 -3.21873 -3.11004 -3.1612 -3.18429 -3.21477 -3.16178 -3.24138 -3.22246 -3.20011 -3.10891 -3.26877 -3.30211 -3.13393 -3.13544 -3.19414 -3.17666 -3.12628 -3.2756 -3.17452 -3.24439 -3.25202 -3.14504 -3.25487 -3.06285 -3.2863 -3.20773 0.523613 -3.24184 -3.21701 -3.19337 -3.07803 -3.16527 -3.24619 -3.26918 -3.15674 -3.01259 -3.07533 -3.14727 -3.02303 -3.05564 -3.10001 -3.15869 -3.0049 -3.00284 -3.01134 -2.99237 -3.08527 -3.12544 -3.02762 -2.98964 -3.11905 -3.13674 -3.16022 -3.08309 -3.04991 -3.01708 -3.13328 -3.20291 -0.750798 -3.24586 -3.07303 -3.03459 -3.14467 -3.16151 -3.13651 -3.08053 -3.05264 -3.13536 -3.07775 -3.05129 -3.24372 -3.17863 -2.95426 -3.13377 -2.98498 -2.98497 -3.21426 -3.0949 -3.11034 -3.02175 -3.00159 -3.10912 -3.04041 -3.15793 -3.15236 -3.06376 -2.92973 -3.10978 -3.23729 -2.68674 -3.14588 -3.08542 -3.17195 -3.14533 -3.15001 -3.1586 -3.30232 -3.21933 -3.08857 -2.98215 -3.21928 -3.12197 -2.94714 -2.90673 -3.11332 -3.02769 -3.13324 -3.11461 -3.0395 -3.08254 -3.13984 -3.08463 -3.23676 -2.97919 -3.08146 -3.16258 -3.22814 -3.09088 -3.15477 -0.693316 -3.11557 -3.09687 -3.11228 -3.22739 -3.25039 -3.06581 -3.20362 -3.12991 -3.31443 -3.23147 -2.9913 -3.02042 -3.11379 -3.0868 -3.12037 -3.14166 -2.89463 -3.24378 -3.06005 -3.16914 -3.35494 -2.87831 -3.1129 -3.13539 -3.144 -2.9653 -3.12413 -3.14479 -3.42618 -3.06424 -3.05347 -3.16412 -3.1578 -3.12532 -2.97699 -3.21008 -3.24437 -2.75004 -2.91203 -2.9957 -2.88883 -3.08213 -3.20702 -3.19779 -2.91687 -3.22354 -3.04706 -3.20673 -2.98562 -3.09697 -3.10887 -3.13473 -3.09888 -3.05244 -3.20896 -3.10533 -2.99499 -2.95924 -3.08577 -3.21527 -3.11417 -3.33172 -3.13066 -3.0001 -2.95355 -3.1864 -3.04231 -3.22971 -3.22584 -3.44894 -3.18435 -3.16177 -3.14335 -3.11408 -2.91604 -3.15161 -3.04047 -3.21066 -3.10144 -3.11252 -3.12422 -2.97375 -2.89093 -3.01237 -3.19786 -3.14348 -3.23207 -3.17604 -2.90999 -2.92249 -3.19205 -2.97446 -3.1523 -3.275 -3.01911 -3.10693 -3.0197 -3.09354 -3.20337 -3.07171 -3.19181 -3.13395 -3.12004 -3.09252 -3.15437 -3.07373 -2.9124 -3.05752 -2.99465 -3.05697 -3.29141 -3.10487 -3.00038 -2.9725 -3.12781 -3.07522 -3.21715 -3.12379 -2.98781 -3.23161 -3.19184 -3.08828 -3.19035 -3.04271 -3.23275 -3.02332 -3.21403 -2.99459 -3.13753 -2.97491 -3.08916 -2.94435 -3.12378 -3.14588 -2.95338 -2.78073 -2.82463 -3.05542 -2.90259 -3.00022 -3.02971 -3.0264 -2.83886 -3.08622 -3.14805 -3.04992 -3.18209 -3.02141 -3.05593 -3.17922 -3.04659 -3.13099 -3.03507 -3.1298 -3.11126 -2.92919 -3.13041 -3.0209 -2.97246 -3.20211 -3.11833 -3.33542 -3.29964 -3.16926 -3.26365 -3.36094 -3.12744 -3.30715 -3.0454 -3.24839 -3.24314 -3.31976 -3.05362 -3.14684 -3.21716 -3.18607 -3.13821 -3.09685 -2.89278 -2.83087 -3.07031 -2.88933 -3.18275 -3.29204 -3.1067 -3.15039 -3.08459 -3.11686 -3.13407 -3.014 -3.10926 -3.07637 -3.11953 -3.06063 -3.01327 -3.13892 -3.01921 -3.01687 -3.05144 -2.55915 -2.91363 -0.460384 -2.87985 -2.91328 -2.85343 -2.88341 -2.93269 -2.75169 -2.99051 -2.82866 -2.84657 -2.97691 -3.14019 -2.98195 -3.04301 -2.97904 -3.07097 -3.04909 -3.08621 -2.8559 -2.59814 -3.07668 -2.90853 -2.79686 -2.79392 -2.9934 -2.76557 -2.913 -2.75105 -2.82473 -2.98876 -3.15666 -3.04687 -2.96185 -2.85996 -3.0193 -2.78831 -2.90605 -2.911 -3.19731 -3.22726 -3.12587 -3.13107 -3.12515 -3.19345 -3.16444 -3.06542 -3.12366 -3.05875 -3.2002 -3.12603 -3.1191 -3.176 -3.04832 -3.02968 -2.93998 -3.00662 -3.00173 -2.93313 -2.8981 -3.02471 -2.97109 -3.08397 -2.86885 -2.9154 -2.99201 -3.21247 -3.10884 -3.16394 -3.09129 -3.11631 -2.90436 -3.04462 -3.04092 -3.11803 -3.16597 -3.13273 -3.09779 -3.12176 -2.97052 -3.14418 -3.03736 -3.11389 -3.07434 -3.08649 -3.10638 -3.05275 -3.08072 -3.02995 -3.22342 -3.17575 -3.30887 -3.05583 -3.16455 -3.05924 -3.18027 -3.0504 -3.18448 -2.98162 -3.08936 -3.09323 -3.01041 -3.01938 -3.00876 -2.99525 -3.04039 -3.00903 -3.01369 -2.89115 -3.10939 -3.03912 -3.20445 -2.94784 -3.05488 -3.02482 -3.0516 -2.99095 -2.93113 -3.05526 -3.09698 -3.20633 -2.96903 -3.14894 -3.04625 -3.21803 -3.04794 -3.00326 -3.11041 -3.00613 -2.92939 -2.83565 -3.03542 -3.21233 -2.86672 -2.96743 -3.19484 -3.29745 -3.12541 -3.12193 -3.22466 -3.05284 -2.97093 -3.02651 -3.19158 -2.91556 -3.06578 -3.0332 -3.21985 -3.0909 -3.11736 -3.04745 -3.11869 -2.95926 -2.9737 -2.97677 -3.22159 -3.11672 -3.25765 -3.04371 -3.17549 -3.21129 -3.11442 -3.08058 -2.98745 -2.89134 -3.09652 -3.11224 -3.02325 -3.09319 -3.01851 -3.00229 -2.9074 -2.8174 -3.18145 -3.13562 -2.98997 -3.13022 -3.09446 -2.96348 -3.03027 -2.95959 -3.11269 -3.16608 -2.83701 -3.10716 -3.00355 -3.12091 -3.12775 -3.25003 -3.07107 -3.252 -3.21517 -3.18815 -3.16588 -3.14092 -3.12097 -3.09764 -3.09937 -3.10218 -3.08291 -3.08755 -3.21342 -3.12677 -3.10657 -3.05955 -3.04011 -3.03769 -3.00387 -3.01922
probB 0.153315 0.0974431 0.0655554 0.0908556 0.132142 0.00304785 0.0637424 0.0239149 -0.0413753 0.177647 -0.00107399 0.000627004 0.140555 -0.0336254 0.0746054 -0.025425 0.106376 -0.158682 0.145873 0.0585094 -0.121512 0.219291 0.211195 0.0666736 0.192878 0.148147 0.324725 0.0457731 0.151556 0.12616 0.268245 0.160382 0.135728 0.109608 0.0619635 0.364997 0.196805 0.0461326 0.247971 0.108369 0.113334 0.0573101 0.0801243 -0.000705774 -0.0113601 0.160012 0.0912336 0.174983 -0.0456109 0.186151 0.166672 0.224584 0.145694 0.0690441 0.0963203 0.17261 0.0738589 0.159207 0.138555 0.226823 0.132081 0.0456978 0.0458612 0.116551 -0.0908657 -0.118005 -0.0759508 -0.0823552 0.039769 -0.321024 -0.123499 -0.121726 0.0647365 -0.0914275 -0.0713384 0.0112982 -0.181251 0.126023 -0.0338991 -0.0197992 -0.185815 -0.236055 -0.115524 -0.0317151 0.118289 0.0544917 0.0544814 -0.202955 0.010037 -0.0208936 -0.026752 -0.322895 0.0448424 0.0642791 0.110306 0.065356 0.116536 -0.102555 -0.0750117 -0.0179139 -0.0275082 0.122438 -0.0455674 0.0568637 -0.0239618 0.0350224 -0.0711822 -0.0364721 -0.0388138 -0.745327 -0.0457088 -0.129737 -0.112029 0.0354968 0.0122916 0.0166972 0.00663648 -0.0132693 -0.131385 0.0817662 0.11719 0.0822962 0.233273 -0.0393568 0.0108028 0.151934 0.137663 0.0516013 0.0905122 0.0279575 -0.0176621 0.0319809 0.0421098 -0.0560764 0.127429 -0.0235343 0.00208943 0.0549931 0.0121529 0.0356595 0.0110753 -0.000728241 -0.253564 0.0717395 -0.0268683 -0.0396302 -0.0266722 -0.00249067 -0.0431911 -0.0670081 -0.110206 0.0649947 0.0129497 -0.0253571 0.0186158 0.21944 0.103572 -0.00798177 -0.0169828 0.100212 -0.0553685 0.0939154 0.0285954 0.0210513 0.0835824 0.0241197 0.0645679 0.103836 -0.0543713 -0.245308 -0.0471242 -0.00628467 -0.0163602 0.101798 -0.086573 0.0739091 0.0815664 -0.0343397 0.0909176 -0.0100238 -0.0270014 0.0335957 0.225498 0.0266329 0.228196 0.0956703 -0.0470868 -0.0151995 -0.0368588 0.0506304 -0.00751202 0.132865 -0.0783669 0.145709 -0.058385 0.0654121 -0.0464418 0.0886616 0.146402 0.0566201 -0.101108 0.0581862 0.0705604 -0.241801 -0.0820238 -0.0011058 0.0167223 0.0315146 -0.0816239 0.151891 -0.13417 0.110146 0.133591 -0.0389852 0.00395727 0.068317 0.174513 0.00161582 0.0254257 0.00898474 0.0902737 0.282221 0.133877 0.0903414 0.199046 0.118719 -0.00575193 0.077118 0.0112238 0.111995 -0.0519746 0.0404345 0.0188102 -0.0126272 -0.00502451 0.0461826 0.259502 0.0508731 -0.0657428 0.166566 0.0586176 -0.0196099 -0.0142044 0.171041 -0.0101842 0.0474311 0.0238782 0.000457498 0.0333474 0.156429 0.0482791 -0.119823 -0.0403395 0.0379594 0.031768 -0.040377 -0.00370816 -0.136591 0.0550807 -0.0815055 -0.199283 -0.0650054 -0.0556348 -0.318459 -0.0948182 -0.210823 -0.151826 0.00557066 -0.0471189 0.0602864 -0.0391817 0.023198 0.111596 -0.105086 -0.121658 0.00983866 0.276626 0.0894168 -0.0584228 -0.0658077 0.0498022 0.0154737 0.0807976 0.00352545 0.0800527 -0.05749 -0.0872285 -0.0585953 -0.0562664 -0.0568119 -0.0733588 -0.0283752 -0.100302 0.139304 0.0526687 0.0529659 -0.105746 0.0259441 -0.0592058 -0.0633822 -0.0782015 -0.0603033 -0.0047736 0.246832 0.0101166 -0.00845218 -0.049376 0.0874971 -0.134521 -0.0117082 -0.0764495 -0.0726416 0.049021 -0.0231112 -0.00273243 -0.0479423 -0.0311223 0.0356452 0.113945 -0.114425 -0.0103416 -0.032695 -0.269574 -0.290071 0.00496482 -0.0127986 0.0300332 -0.101314 0.0151069 0.0029806 -0.0659373 0.207488 0.144713 -0.0401626 0.0639499 0.267745 -0.00837102 0.0546668 -0.0357244 0.0625043 0.0142363 0.134071 -0.0680259 0.0306154 -0.0817664 0.0232069 0.00299714 0.0581887 -0.000801703 -0.127365 0.00301922 -0.0788089 -0.0531648 -0.0805693 -0.0303099 0.0756361 0.0706123 -0.0712969 0.194885 -0.0601 -0.141427 0.019904 0.163824 -0.00152121 0.102939 0.0105059 -0.0292201 0.0292858 -0.0337331 0.0020421 -0.0819293 -0.17768 -0.103574 0.0339917 0.034749 0.0863139 -0.0260603 -0.0234155 -0.143085 -0.0349473 -0.258678 -0.195397 -0.0321682 0.120289 0.00924814 0.0999865 0.148549 -0.0413755 0.0217455 0.1535 0.0411882 0.0572428 -0.0161743 0.126189 0.0874509 0.0332538 0.0469671 0.0439991 0.0278671 0.122529 0.100994 -0.0431985 -0.0230537 0.0173906 0.088032 0.105692 -0.0109348 -0.10615 -0.0259077 0.0216594 0.024262 0.00700545 0.0768398 0.0797963 0.141524 -0.0221579 0.000971011 -0.0657413 0.0301122 -0.0308603 0.180859 -0.138588 0.108838 0.0200361 -0.00567218 -0.147276 -0.0192805 -0.0556382 0.101723 0.149136 0.0669179 0.0225319 0.0406562 0.0314911 -0.0479645 -0.000878999 -0.0133915 0.300492 0.230905 0.0268173 0.026541 -0.00806592 0.0446008 0.0516918 -0.0118426 0.0266895 0.0601879 0.0517697 -0.148831 0.0975942 0.0703863 0.208877 0.104891 0.265074 0.139175 -0.00604213 -0.0120272 0.00901537 0.0991977 0.0583903 0.0420088 0.0736509 -0.0681995 -0.138855 0.167432 0.0323768 0.0214447 -0.000630077 -0.0520811 -0.0971995 0.0444289 0.0610693 0.0317539 0.0963496 -0.04696 -0.00957012 0.103747 0.194417 0.134088 0.0860563 -0.110171 -0.00704872 0.0238717 0.0868111 0.00998183 0.114554 0.0750305 0.0442276 0.172797 0.041797 0.0732653 0.00455002 0.156368 -0.19653 0.0101489 0.0541325 -0.0458372 0.0327562 0.103111 0.0280557 -0.0891957 -0.0140039 0.0695343 0.0980625 0.0715415 0.127613 0.166564 0.100563 0.037993 0.0738416 0.107494 -0.0592194 0.110411 -0.108674 0.0331055 0.0971772 0.0280292 0.0243778 0.0973009 0.0624962 -0.042268 0.0503071 0.066477 0.0598784 0.0251886 -0.02064 0.195892 0.113085 0.00141337 0.0506366 0.05154 0.0192497 -0.0267981 0.212695 0.118549 0.144054 0.0763791 -0.0165676 -0.0189717 0.0321646 0.0405014 0.081964 0.0992294 0.0655979 0.0880139 0.0587903 0.147722 -0.0391206 -0.284329 0.0143605 -0.049688 -0.0226875 0.0424506 0.0182261 -0.00872534 -0.127564 0.0597986 0.104185 0.0209343 -0.0407255 0.1199 0.102129 0.0815025 0.0593468 0.113772 0.042216 0.472155 0.168187 0.0625189 0.149833 -0.095836 -0.114436 0.211651 0.164755 0.0193609 -0.105357 0.0784073 -0.11684 0.0841033 0.0924657 0.0429382 0.167356 0.189317 0.0550648 -0.127937 0.0250372 0.0283189 0.130744 0.0513877 0.0585334 0.24293 0.0115976 -0.102378 0.0162677 0.0282335 -0.141402 -0.0643932 -0.0588283 -0.144787 -0.0429679 -0.0657858 -0.211758 -0.188745 -0.239645 -0.216879 -0.057935 -0.0871265 -0.114926 -0.0636139 -0.146208 -0.145361 -0.0561197 -0.112281 -0.088432 0.0509182 0.0487207 -0.0929532 -0.00407569 -0.0395031 -0.0796028 -0.0923893 0.0625499 -0.0611782 -0.0463497 0.0279144 -0.103532 -0.0766825 0.0807183 -0.101524 -0.121946 -0.0850045 -0.112037 -0.064753 -0.192676 -0.029426 -0.0838004 -0.0041248 -0.174904 0.0117385 -0.139847 -0.0844855 -0.0569918 -0.0125986 -0.0644578 -0.0785979 -0.107552 -0.1348 -0.119162 -0.0847742 0.0956268 0.0779402 0.150365 -0.00846295 0.0112041 0.0591113 -0.482909 -0.147462 0.0159712 -0.0513685 0.093868 0.0377877 0.146689 -0.0364853 -0.00388629 0.104858 0.0800163 -0.0171186 -0.00300168 0.20983 0.0255093 -0.0126136 0.0175616 -0.0387178 0.179393 0.117346 0.036823 0.115965 0.0217047 0.0300464 0.000111152 0.0373338 0.0526361 -0.114514 0.01835 -0.0242827 0.00203473 0.0666488 0.016609 0.138807 0.189507 -0.0851232 0.101164 0.0552294 0.0270938 -0.00253358 0.138069 -0.0241945 0.031208 -0.0392789 -0.0313878 0.0962008 -0.0418786 0.127094 -0.000684343 -0.030102 0.185947 0.1284 -0.254902 0.103348 0.119235 -0.000642888 0.0503126 -0.0728702 -0.21793 -0.0489118 0.0915945 0.157725 -0.00273216 -0.0323658 0.0491754 0.221616 0.0922418 0.0208625 -0.00588015 0.0488503 0.351952 0.0470552 -0.116857 -0.0246284 0.15348 0.00551339 0.0914763 0.0412737 -0.0960219 -0.0819218 0.0244047 -0.00825272 -0.0695938 -0.00892963 -0.0091655 0.00654548 0.120213 -0.146753 -0.0944121 -0.133493 -0.0067088 -0.0436295 0.104577 -0.0244003 0.0404065 -0.000809368 -0.0336842 -0.147991 0.0285717 0.0672172 0.0158932 -0.0807096 0.0886882 -0.236417 0.0458176 -0.0456403 0.0169501 0.129681 -0.152492 -0.0026327 -0.191466 -0.0314047 0.117916 -0.00497155 -0.0896142 -0.0509076 0.233979 0.0464859 -0.0303716 0.00295745 0.0137143 -0.0187705 -0.164299 0.00649632 -0.0601389 -0.145969 -0.0124132 -0.000774232 -0.0125923 -0.176109 -0.174632 0.0436045 -0.0163525 -0.0260225 -0.0983434 -0.108648 -0.014999 0.053984 -0.185383 -0.0171114 -0.0391062 -0.143383 -0.0958775 0.0303023 0.0208608 0.0251078 -0.0231477 -0.0919186 -0.0424971 -0.128255 -0.296967 -0.114241 -0.0493979 -0.115062 0.0749664 -0.12751 -0.29401 0.0744513 0.0518909 0.072163 -0.0447042 -0.0352469 0.090064 -0.0234031 -0.00481643 0.0420688 0.207139 0.153798 0.0527738 -0.000693402 -0.0152259 0.0456467 0.0973147 0.0292339 0.0505308 0.0496172 0.0818822 -0.0361232 0.0694314 0.0546899 -0.0481853 0.0418465 -0.203903 -0.172768 -0.0187676 -0.0619779 0.069851 0.0663096 -0.141686 -0.0281275 0.0259501 -0.0769101 -0.00194331 0.226351 0.0696295 0.040358 -0.185569 -0.0344553 -0.163134 0.01036 -0.049473 0.316312 -0.0452018 -0.087512 0.0848032 -9.81203e-05 -0.00532031 0.0461566 0.158696 -0.0694905 -0.00116491 0.0903494 0.0572161 0.0163959 0.0528948 0.319484 0.272105 0.0325148 0.0987485 0.0167885 0.0694981 0.0558807 0.00651354 0.0403604 0.00946802 0.315251 0.10452 0.0733891 0.112146 0.043094 0.104527 0.126598 0.0428978 0.167527 -0.00764364 0.14972 0.0457463 0.0557258 0.0187819 0.088153 -0.0380793 0.115813 0.130867 0.0490245 0.138861 -0.0531424 -0.0687022 0.0668143 -0.0465668 -0.0418505 -0.281463 -0.0498282 0.0067573 -0.191177 0.102125 0.00116857 -0.0877659 -0.047617 0.173425 0.134843 0.0316831 -0.101608 0.117461 0.275796 0.0709503 0.0209286 -0.0358298 0.0430845 0.322085 0.138868 -0.23112 0.152687 0.138026 -0.0105288 0.195808 0.134986 -0.0999413 -0.10038 -0.0329351 -0.0804399 -0.0558135 0.0347138 -0.0813608 0.136131 0.224306 -0.112077 -0.0427371 -0.0654062 0.0497717 -0.0305633 0.142093 -0.0309599 0.08441 0.0258771 -0.0779799 -0.0987757 0.0172047 -0.134561 -0.370784 0.0248623 -0.00951299 0.224019 -0.207438 -0.0146471 -0.0170526 0.0862703 0.00880524 -0.0311119 -0.0468418 -0.134769 0.226737 0.00151998 0.0798644 0.0499061 0.0917102 0.134061 0.0545135 0.0288646 0.00586685 -0.00856098 -0.0214168 -0.0357821 0.0608792 -0.221457 0.0153265 0.131366 -0.0238674 -0.0299218 0.00962025 -0.0400898 0.066574 0.106874 0.105322 0.0989462 -0.0974219 -0.00686262 0.129388 0.196984 -0.115263 0.0392076 -0.13057 -0.0410154 -0.00801637 0.14097 -0.15569 0.0609911 0.174437 0.193972 0.165099 0.31932 0.139642 0.238761 0.176381 0.243753 0.0876025 0.152402 0.287024 0.357791 0.299611 0.179333 0.210371 0.116546 0.277725 0.2478 0.245138 0.345288 0.161968 0.197399 0.230399 -0.204747 0.331782 -0.00223467 -0.563255 0.196784 0.162834 0.207534 0.123699 0.318773 0.143593 0.264068 0.065576 0.108968 0.288067 0.418961 0.120342 0.347895 0.0904077 0.144895 0.203755 0.394188 -0.0728272 0.263125 0.12218 -0.0767759 -0.0532844 -0.0650714 0.00813866 0.136531 0.211429 -0.0394141 0.0400553 0.149147 -0.00330419 0.0308589 0.0812841 0.0412259 0.168788 0.21127 0.045638 0.209751 0.0656104 0.0597942 0.229362 0.0323294 0.450896 -0.099683 -0.0243076 -0.545452 0.0280278 0.0384927 -0.0125526 0.0658322 0.068025 -0.0636055 0.253111 0.0991485 -0.053311 0.191761 0.149898 0.00563354 0.190305 -0.0245271 -0.0345092 0.161958 0.1793 -0.00473024 -0.0203323 0.0245684 0.0685249 -0.0558321 0.0368274 -0.0246547 -0.055635 0.130878 -0.0436773 0.195895 0.187693 0.0747629 0.0198791 0.119892 -0.0596625 0.0614386 -0.0413982 0.0013982 -0.0186488 -0.183847 0.0476651 -0.0269638 0.0153781 0.00212626 -0.0790192 -0.0738357 0.0795287 0.0249224 -0.0443835 0.124237 -0.024072 0.127852 0.0227163 0.019305 -0.0392358 0.0348884 0.174342 0.143784 0.131288 0.134066 -0.014685 0.117039 0.0481953 0.0294171 0.0892095 0.127781 -0.056505 -0.0571824 0.124715 0.0814468 -0.0614786 0.0558864 0.326005 0.125134 0.0829451 -0.000853852 0.0833009 -0.0190376 0.129773 0.227323 0.0558473 0.181767 -0.0414626 0.0373532 0.0233536 0.201761 0.19031 0.00604999 -0.24521 0.0867801 -0.0285257 0.0155 0.239908 0.0311944 0.138042 0.0306651 -0.0717958 -0.0741204 0.0947986 0.203855 -0.0593809 0.0807006 -0.0102805 -0.0913186 -0.0571001 0.0889787 -0.139151 -0.00422496 -0.0598411 -0.0965414 -0.0250542 0.00989524 -0.00882251 0.0257847 0.104952 0.18624 -0.0288173 0.0508236 0.0595943 -0.0901712 -0.124307 -0.0233043 -0.0508283 -0.0479259 -0.03017 -0.035344 0.0216808 -0.0302705 -0.0952312 0.0185775 -0.0301957 -0.145996 -0.0994356 -0.0731481 0.0219037 0.100979 0.00849386 0.022644 0.0324174 -0.0934428 0.103581 0.139575 0.0526312 0.160034 -0.000770994 -0.10934 0.0745229 0.00815529 0.137189 0.0352501 0.00589246 0.185981 -0.042786 0.0456469 0.0261328 0.098078 -0.0577342 -0.00309995 -0.0535795 0.107823 0.0745095 0.0022317 0.0975005 0.0901268 0.101969 0.0167671 0.0542955 0.0303052 -0.0834118 -0.178083 0.0314842 0.0961296 -0.0590818 0.0492404 -0.00428622 0.104489 0.113445 -0.0460603 -0.0925259 -0.115515 -0.0243245 0.0495293 0.15799 -0.00850038 0.0507623 0.0901506 -0.0586297 0.0500907 0.0169856 -0.0401436 0.277246 0.129808 0.0210702 -0.0441718 0.0434084 0.0766293 -0.055785 0.0552913 -0.0411798 0.0600531 0.265517 -0.0240762 -0.0706467 0.0574722 0.171541 0.00378997 0.0482599 -0.0588794 -0.0978832 -0.246607 -0.0294873 -0.113648 -0.0399712 0.0133287 -0.0833597 0.0557619 0.0673759 -0.137005 0.017295 -0.164828 -0.0299521 -0.028728 -0.0167603 -0.00373678 0.00186042 0.0108688 -0.126966 -0.0450631 -0.0782646 -0.0011447 0.333543 0.0213952 -0.00202412 0.147397 0.226839 0.131141 0.0304964 0.0858572 0.153754 0.114963 0.100074 0.0686351 0.0910888 0.232457 0.0491454 0.0725249 0.118742 0.00946763 -0.00727419 0.0873488 0.0717231 -0.0305817 0.0749895 0.0269842 0.0386636 0.114806 0.0240255 0.036853 0.0248426 0.0190358 0.0859928 0.11122 -0.030017 0.173476 0.0392489 -0.0460906 0.0558821 0.087125 0.136747 0.000723108 -0.0642836 -0.0440929 0.135758 0.0476562 0.0210665 -0.0647304 0.0744081 0.0540699 -0.0449468 -0.151622 0.0947908 -0.176355 -0.125697 -0.172016 -0.0122934 -0.0203602 -0.0644408 0.0288911 -0.124096 0.0399946 0.0154679 -0.476352 0.110148 0.258774 0.106215 -0.0591928 -0.0462682 -0.0847785 0.0178385 0.0547928 -0.036655 0.0400497 -0.0317453 0.0220527 -0.0243094 -0.0717728 -0.128066 -0.128627 -0.0624683 0.111483 0.0173391 0.112193 0.00832473 0.04492 -0.17931 -0.209052 -0.160954 -0.125675 -0.117861 -0.114611 -0.00739865 0.000281611 -0.111874 -0.0854378 -0.0491786 0.0417669 -0.148278 -0.070734 -0.130936 -0.0892397 0.0764323 -0.203666 -0.129004 -0.124453 -0.12258 -0.0557181 0.0780758 0.0552601 0.0589436 -0.101687 0.0158517 -0.00913319 -0.0213881 -0.0211507 -0.00343178 0.0972556 0.0359474 0.0188857 0.0340066 -0.0423276 0.042717 0.0884595 -0.0215682 -0.0253246 0.107392 0.0394551 -0.0113258 -0.0199175 0.00464886 -0.175249 -0.0253075 -0.0588027 0.0544997 0.0145521 0.040906 0.108272 0.0699883 0.0609115 0.00524554 -0.0568566 -0.0467608 0.00348215 0.10791 0.0455059 0.114963 -0.0447581 -0.0299001 0.0943001 0.0420771 -0.0235936 0.241161 0.222103 0.132159 0.0632439 0.143842 -0.0238539 0.0684026 0.032605 0.145388 0.106055 0.164908 0.116406 -0.0732117 0.14992 0.208612 -0.0322074 -0.0108877 0.0214822 -0.0804174 -0.0676508 -0.0441006 0.053568 -0.13381 -0.00492872 0.0077304 -0.063247 0.140487 0.149957 0.0642347 0.393669 0.113252 -0.0318767 0.0774567 0.0780945 0.116135 0.0389009 0.015001 -0.00706798 0.0945955 0.297626 -0.0854182 -0.0696031 -0.119695 -0.028588 0.134912 -0.025284 0.0786347 0.0517594 -0.0395186 0.0186761 0.0297102 -0.0566952 0.0817027 -0.0919431 -0.151561 0.0460943 -0.191957 -0.017573 0.0270319 0.260897 0.0282906 0.0836405 0.0565753 0.114433 -0.0273222 0.0490766 0.00953319 0.033911 -0.0658719 -0.0738042 0.0103606 -0.180892 -0.241079 -0.227616 -0.0811342 -0.0367935 -0.224688 -0.149687 -0.146588 0.0585326 -0.122357 -0.14956 -0.256008 -0.228485 -0.154959 -0.146671 -0.160747 -0.153921 -0.0798411 -0.466847 -0.113651 -0.0996389 -0.086171 -0.00152224 -0.100187 -0.08724 -0.0795836 -0.149314 -0.141797 -0.0850393 -0.0756713 -0.0847779 -0.173026 -0.148672 -0.0191575 -0.0254755 -0.0625299 0.14508 -0.104039 -0.165697 -0.00451795 -0.117743 -0.0809664 -0.0540864 -0.0870901 -0.0434083 -0.160055 -0.0560847 -0.0778749 -0.113741 0.00441657 -0.183701 0.0283361 -0.102976 -0.112038 -0.0989906 0.0158339 -0.0053739 -0.0421423 -0.152622 -0.13181 -0.0690591 -0.00656261 -0.128337 0.00870699 -0.0507363 0.0273324 0.133372 -0.0948812 -0.00349013 -0.0596597 -0.116407 -0.0484566 -0.115677 -0.0898186 -0.141857 -0.136258 -0.0341739 -0.0208041 -0.0659953 -0.0191931 0.0057284 -0.175818 0.0488011 -0.0471726 -0.0635491 -0.0492418 0.0763294 -0.0469934 0.0283652 0.0114222 -0.0770258 -0.0479084 -0.039071 0.0144889 -0.0625412 -0.0165163 0.00388351 -0.0166017 0.000587101 -0.0889681 0.0506774 -0.147319 -0.0333889 -0.113851 -0.114608 0.0607296 -0.0192468 -0.0178446 -0.0647105 -0.123429 0.0488121 -0.206534 -0.0266271 -0.0661263 -0.0733441 0.105183 0.140424 -0.106704 -0.0587995 -0.0310799 -0.0364272 0.000222184 -0.0843135 -0.0955189 -0.00640906 0.131523 0.0581234 -0.100697 -0.0960869 -0.0144193 -0.0981828 -0.226098 -0.0387662 -0.0992978 -0.240706 -0.074457 -0.081305 -0.206113 -0.040458 -0.0391792 -0.217375 0.00158556 -0.0974283 -0.133984 -0.0680946 0.0708287 -0.0697613 -0.0762826 -0.0610706 -0.100516 -0.0877252 -0.030077 0.0581617 -0.388282 0.0555331 -0.273268 -0.0137674 -0.0732201 0.178261 -0.0482346 -0.122095 0.0441736 0.0101003 0.0501277 0.00970361 -0.52827 0.0597955 -0.0135732 -0.0974688 -0.088513 -0.0629199 -0.30654 -0.0137113 0.258675 0.0337479 0.0977036 -0.0158213 0.0615695 -0.114261 -0.0540616 -0.100286 -0.114197 -0.125083 0.00922142 -0.0700193 0.141452 -0.111217 -0.146371 -0.0351169 -0.236399 -0.116478 -0.0818949 -0.0237209 0.0221612 -0.110615 -0.174235 -0.105451 -0.0283666 -0.100002 0.135421 0.0256994 0.00199713 0.0269581 -0.036902 -0.226919 -0.0487035 -0.042016 0.0860848 0.371622 -0.0223689 0.240349 0.0424312 -0.0651791 -0.124926 0.030565 -0.105387 -0.0660496 0.0049887 -0.0608648 0.0838123 0.0590342 0.0493353 -0.0685477 -0.0325499 0.0224114 -0.0168647 0.126532 -0.0683019 0.13025 0.0074485 0.0432013 -0.095109 -0.0126818 -0.0669361 0.0165292 -0.111737 -0.0152101 -0.0695154 -0.169106 -0.0157702 0.0200476 -0.0310613 -0.0846 -0.0752908 -0.0283248 0.0265064 -0.0696602 -0.0676707 -0.186874 -0.24666 0.0452662 -0.0160025 0.0562461 -0.0600423 0.0033964 -0.0184534 0.069487 0.0553917 -0.0329628 -0.0957684 0.0868559 -0.132587 -0.142369 0.0383508 -0.0730799 0.0145487 -0.0683823 -0.191596 0.0663177 -0.0247657 -0.0582235 -0.134363 -0.0719686 -0.10129 0.111003 0.146333 0.0228079 0.0591257 0.0388619 -0.142152 -0.00761898 -0.0993174 0.0196403 -0.0508499 -0.121337 -0.0518716 -0.134259 -0.395325 -0.0186475 -0.0347956 -0.0772723 -0.135972 0.0344763 0.0665832 0.0195933 0.013054 -0.0671437 -0.00674634 0.09102 0.116301 0.103738 -0.0397707 0.00010099 0.019742 -0.1185 -0.0103676 -0.119737 -0.227352 0.0511867 -0.113974 -0.00312806 0.00520335 -0.214623 0.0544035 -0.0705202 -0.151145 -0.0464041 -0.125523 0.0785729 -0.0162636 0.192064 0.0096053 0.123766 0.00266385 -0.117628 -0.0882146 -0.0304675 0.0705638 0.0536958 -0.0620196 0.135554 -0.0419811 -0.132245 0.0580228 0.0516035 -0.0859814 -0.107837 -0.0288979 0.0503923 0.0369124 -0.116752 0.0201471 0.117848 0.139314 0.0399498 -0.147469 0.144769 -0.022722 0.285648 -0.0413709 0.0824618 -0.00519153 -0.0251978 0.0163957 0.0277831 0.131236 -0.0179765 0.0762331 -0.168473 0.0266334 0.0962758 0.116383 0.130684 0.290881 0.0169062 0.0736265 0.0348085 0.194888 0.0660111 -0.0559225 0.0767999 0.159637 0.0863485 -0.0708939 0.150248 -0.00935072 0.0326586 0.00316247 0.0113856 0.0948142 0.175254 0.137213 0.229152 0.0932355 -0.0032451 0.00157241 -0.213028 0.0223402 -0.0342039 -0.0410431 -0.0176781 -0.0641099 -0.122111 -0.011708 -0.0931567 0.00408785 -0.0475805 0.0835558 0.0670261 0.0557635 0.0916746 -0.0192331 -0.00760668 0.0326841 0.104614 0.000953032 -0.0688676 -0.00712469 -0.123491 0.121915 -0.0283105 0.00352838 0.00750723 -0.104729 0.181914 0.184139 0.103043 0.254418 0.0243466 0.0928591 0.100488 0.360724 -0.0302348 -0.0632858 0.0975691 0.177834 0.0303738 0.0608832 0.0230008 -0.141951 0.082726 0.166909 0.0683833 0.141588 0.0339808 -0.137711 0.0341739 0.0868934 -0.0487823 0.0188242 0.0411656 0.141192 0.0286545 0.0117555 -0.074938 0.0807749 0.0397077 0.0400632 0.161995 0.0648713 -0.0930893 0.0209806 0.0134772 0.160959 0.0774225 -0.0256082 0.102782 -0.112544 0.0054754 0.0216986 0.134282 0.0682566 0.0962479 0.193586 -0.0641971 -0.00371523 0.0340122 0.0530878 -0.0843128 -0.0733701 0.0831548 -0.042412 0.153965 0.114659 0.104835 0.148146 0.0302636 -0.0984328 0.127266 0.0629275 -0.121603 -0.210777 -0.1373 -0.0489239 -0.0682385 0.145213 -0.00886496 -0.0050386 0.0384531 -0.249639 -0.0193236 -0.0995283 0.140501 -0.202868 -0.0449746 0.104287 0.191994 0.0844783 0.124346 0.0230745 0.0493615 -0.00609851 0.141897 -0.0755669 -0.116126 -0.0110104 0.0942525 0.0043697 0.0725264 -0.0352974 0.0178445 -0.109717 -0.0212921 -0.0340237 0.159795 0.196571 0.0716958 0.108743 0.0476835 0.0327789 0.0607649 0.0560717 -0.0438806 0.159799 0.0629522 0.0811087 0.110995 0.0174157 0.0357191 0.122024 0.0593785 0.0514232 -0.192175 0.0486845 -0.0870506 -0.0105524 -0.0837663 -0.0193473 0.0505849 -0.0847445 -0.263249 -0.138096 -0.0731079 -0.0414671 0.0499838 -0.0875393 0.0195855 -0.0830196 -0.0500966 -0.0469878 -0.0438162 -0.229076 0.014187 0.051682 0.0210601 -0.0159318 0.0216889 -0.033228
nr_sv 22 25 19 23 15 24 21 18 22 22 16 24 24 21 23 22 24 16 14 26 20 22 17 19 25 25 18 21 26 19 23 26 26 25 19 24 24 24 26 19 22 20 24 25 21 21 24 26 18 25 24 23 23 22 24 17 22 26 25 25 22 25 16 19 16
SV
330.104113207037 150.4593458509506 219.9849469649712 0 0 79.40391916671038 0 13.73241350272282 0 112.7622594537912 0 0 0 0 0 0 0 62.99021075946011 216.7622520596091 0 0 0 0 0 0 0 0 177.7547136440787 0 0 0 0 0 36.67942903737655 55.43784849595334 0 0 0 0 0 91.86269926101713 340.2136702403855 0 104.1572318405153 398.8095539684039 0 98.11899144556892 56.23061660895434 0 0 0 0 0 53.86028833696534 10.10866629989285 0 0 0 0 0 22.20302695069588 39.29697086992235 340.6039811631327 308.3807379617595 1:0.188235 2:0.54902 3:0.262745 22:0.584314 27:0.215686 28:0.858824 33:0.105882 34:0.105882 41:0.356863 46:0.25098 47:0.356863 53:0.0392157 56:0.666667 58:0.215686 59:0.137255 61:1 63:0.137255 64:0.333333 66:0.72549 68:0.156863 69:0.215686 71:0.0980392 73:0.0784314 76:0.196078 77:0.109804 81:0.360784 93:0.109804 94:0.027451 98:0.917647 102:0.282353 121:0.168627 122:0.415686 123:0.0431373 127:0.529412 128:0.0941176 132:0.0313725 133:0.12549 140:0.0627451 141:0.0313725 145:0.0313725 146:0.811765 151:0.0784314 153:0.0196078 155:0.215686 156:0.156863 158:0.72549 160:0.333333 161:0.137255 163:0.882353 165:0.27451 166:0.137255 168:0.784314 170:0.0196078 171:0.0392157 172:0.0196078 173:0.0392157 176:0.929412 177:0.25098 180:0.0352941 181:0.141176 193:0.141176 197:0.180392 198:0.286275 
0 0 0 0 0 0 0 0 0 0 0 0 1424.391336181252 0 0 0 0 0 0 0 0 0 0 0 0 0 0 0 0 697.4827910955511 0 0 0 0 0 0 0 0 0 0 0 0 0 0 0 0 0 0 0 0 0 0 0 0 0 291.8188799456877 0 0 0 0 0 0 0 0 0:0.0431373 1:0.337255 2:0.427451 3:0.34902 4:0.0352941 17:0.0117647 21:0.0352941 22:0.211765 23:0.0352941 28:0.407843 29:0.27451 34:0.27451 41:0.545098 46:0.317647 47:0.407843 53:0.0196078 54:0.117647 56:0.764706 59:0.745098 61:0.862745 64:0.882353 66:0.705882 69:0.803922 71:0.0392157 73:0.0392157 74:0.196078 76:0.133333 81:0.333333 94:0.0666667 98:0.466667 99:0.133333 101:0.0784314 102:0.337255 103:0.0117647 107:0.0235294 120:0.0666667 121:0.380392 122:0.427451 123:0.290196 124:0.0117647 127:0.0431373 128:0.172549 133:0.262745 140:0.305882 145:0.435294 146:0.172549 150:0.313725 153:0.0196078 155:0.862745 158:0.823529 160:1 163:1 165:0.843137 168:0.764706 170:0.196078 175:0.25098 176:0.356863 180:0.180392 193:0.356863 197:0.215686 198:0.141176 
132.3378241688893 554.2750096911036 623.3854271117333 302.822232457579 292.4079503863322 494.0492382508757 240.0238785201826 978.3261553641421 85.83317010733425 79.794532584762 189.0507953303143 1652.527327448738 348.6260445645162 143.8960659436736 22.58447470852077 627.4623140197776 0 139.3543535045727 272.9840130911984 0 0 0 0 305.0942923908261 322.2229340285907 333.5705762624887 111.5143304590709 685.4030239086894 87.10636812501276 372.0997314036155 242.5452605576234 358.1082738858223 0 98.92511229536099 195.458794731371 463.6922943865719 0 1344.41865333116 0 0 240.0053306227319 0 0 125.4185398776094 163.8906988510491 0 220.0933303086104 288.6053556956722 115.0941479689864 1129.801082749354 0 0 317.8582105924726 477.0146116148923 689.7831167741185 73.04873771987522 265.6219559947354 238.0306040288419 96.6969398509645 164.763608076485 339.4192483109377 193.9286355001599 459.535095604338 0 1:0.0666667 2:0.380392 3:0.392157 4:0.0352941 16:0.0352941 17:0.0666667 21:0.0784314 22:0.168627 28:0.164706 29:0.623529 41:0.0431373 46:0.12549 54:0.203922 56:0.345098 57:0.0627451 59:0.835294 61:0.67451 63:0.0627451 64:0.368627 66:0.733333 68:0.286275 69:0.0823529 71:0.0392157 73:0.0196078 76:0.0352941 77:0.0705882 81:0.27451 82:0.0705882 84:0.0705882 86:0.415686 88:0.0705882 89:0.137255 91:0.27451 93:0.27451 94:0.0352941 97:0.309804 98:0.756863 102:0.360784 103:0.0862745 107:0.027451 108:0.0156863 120:0.027451 121:0.462745 122:0.521569 123:0.0862745 128:0.270588 133:0.0784314 145:0.537255 146:0.423529 151:0.121569 153:0.0392157 155:0.164706 156:0.164706 158:0.733333 160:0.427451 161:0.0627451 163:0.592157 165:0.878431 167:0.0823529 168:0.243137 170:0.101961 176:0.756863 177:0.121569 180:0.0588235 181:0.243137 183:0.27451 185:0.152941 186:0.0313725 188:0.423529 190:0.0313725 192:0.0588235 193:0.180392 197:0.0313725 
0 0 0 0 0 0 0 0 0 0 0 0 0 0 0 0 0 0 0 0 0 0 0 147.0012435054582 0 0 0 0 0 0 0 0 0 0 0 0 0 0 0 0 0 0 0 0 0 0 0 0 0 0 0 0 0 0 0 0 0 0 0 0 0 0 0 0 1:0.258824 2:0.427451 3:0.313725 21:0.12549 22:0.560784 23:0.12549 28:0.443137 29:0.184314 34:0.223529 46:0.701961 53:0.117647 54:0.0196078 55:0.0392157 56:0.54902 58:0.0196078 59:0.529412 60:0.0392157 61:0.607843 64:0.862745 65:0.0392157 66:0.607843 68:0.0392157 69:0.54902 71:0.0588235 73:0.0196078 74:0.117647 76:0.482353 81:0.129412 94:0.129412 98:0.54902 99:0.129412 101:0.145098 102:0.541176 103:0.0784314 120:0.0117647 121:0.360784 122:0.427451 123:0.258824 127:0.0784314 128:0.6 140:0.0392157 145:0.4 146:0.278431 150:0.0980392 153:0.0980392 155:0.862745 158:0.862745 160:0.882353 163:0.882353 165:0.843137 168:0.843137 170:0.0980392 171:0.0196078 173:0.0392157 175:0.223529 176:0.470588 193:0.054902 198:0.388235 
0 0 0 0 0 0 0 0 0 0 0 0 0 0 0 0 0 0 0 0 0 0 0 2048 0 0 0 0 0 0 0 0 0 0 0 0 0 0 0 1706.8238195052 0 0 0 0 0 0 0 0 0 2048 0 0 0 0 0 0 0 0 0 0 0 0 0 0 0:0.0117647 1:0.203922 2:0.427451 3:0.270588 4:0.0352941 18:0.0117647 21:0.0235294 22:0.337255 23:0.0431373 28:0.560784 29:0.219608 34:0.407843 41:0.407843 46:0.345098 47:0.313725 54:0.0392157 56:0.431373 59:0.666667 60:0.0392157 61:0.607843 64:1 65:0.0196078 66:0.470588 69:0.666667 74:0.0392157 76:0.137255 77:0.25098 81:0.501961 94:0.278431 98:0.721569 99:0.137255 101:0.054902 102:0.34902 103:0.054902 106:0.0117647 121:0.258824 122:0.427451 123:0.168627 127:0.203922 128:0.294118 133:0.352941 140:0.439216 145:0.176471 146:0.529412 150:0.0784314 151:0.0588235 153:0.0784314 155:0.607843 158:0.490196 159:0.0196078 160:1 163:0.607843 164:0.0392157 165:0.588235 168:0.431373 170:0.0196078 175:0.0313725 176:0.741176 180:0.419608 193:0.580392 197:0.192157 198:0.192157 
0 0 0 0 0 0 0 0 0 0 100.8738698406881 0 0 0 0 0 0 0 0 0 0 0 0 2048 0 589.8046826997524 0 0 0 0 0 0 0 0 0 0 0 0 0 0 0 0 0 0 0 0 0 0 0 1915.178280953003 0 0 0 101.9287899667849 0 0 0 0 0 0 0 0 0 0 1:0.270588 2:0.427451 3:0.270588 21:0.0352941 22:0.482353 23:0.0352941 28:0.72549 29:0.137255 34:0.345098 39:0.207843 41:0.345098 46:0.552941 47:0.137255 51:0.0784314 54:0.0196078 55:0.0196078 56:0.490196 59:0.607843 60:0.0392157 61:0.607843 64:0.784314 65:0.0196078 66:0.529412 69:0.607843 71:0.0392157 74:0.0196078 76:0.529412 77:0.0941176 81:0.282353 89:0.0941176 93:0.0313725 94:0.219608 97:0.156863 98:0.780392 99:0.0627451 101:0.133333 102:0.411765 120:0.054902 121:0.411765 122:0.439216 123:0.266667 127:0.407843 128:0.345098 133:0.313725 135:0.0941176 140:0.407843 145:0.156863 146:0.501961 147:0.0313725 150:0.0862745 153:0.0352941 155:0.619608 158:0.619608 160:0.741176 163:0.776471 165:0.603922 168:0.517647 170:0.0352941 173:0.0156863 175:0.243137 176:0.690196 180:0.415686 193:0.584314 197:0.101961 198:0.27451 
0 0 0 0 0 0 0 0 1145.093813256275 0 0 1489.068510068351 0 0 0 461.6116357747655 0 0 0 0 0 0 0 0 0 157.6446058860726 0 0 0 0 0 0 0 0 0 0 0 662.3136634829083 0 0 0 0 0 0 0 0 0 0 0 0 0 0 0 0 0 0 0 0 0 0 0 0 0 0 1:0.180392 2:0.427451 3:0.180392 17:0.0470588 22:0.105882 27:0.0313725 28:0.839216 29:0.0313725 33:0.0627451 34:0.290196 41:0.0980392 42:0.0980392 47:0.0980392 53:0.0196078 56:0.470588 57:0.0392157 58:0.0980392 59:0.235294 61:0.607843 62:0.0392157 63:0.0392157 64:0.607843 66:0.470588 67:0.0392157 68:0.0980392 69:0.235294 73:0.0784314 76:0.0352941 77:0.0705882 81:0.172549 82:0.0705882 93:0.172549 94:0.137255 97:0.101961 98:1 102:0.117647 107:0.0235294 121:0.25098 122:0.415686 123:0.105882 127:0.309804 132:0.137255 133:0.101961 135:0.101961 140:0.27451 141:0.0352941 145:0.0705882 146:0.756863 150:0.0196078 151:0.0392157 155:0.509804 156:0.0196078 157:0.0823529 158:0.305882 160:0.835294 162:0.0392157 163:0.572549 165:0.407843 166:0.0392157 167:0.0823529 168:0.203922 170:0.0196078 171:0.0196078 175:0.0313725 176:0.933333 177:0.0313725 180:0.164706 181:0.0313725 188:0.0666667 192:0.164706 193:0.164706 197:0.0313725 
1095.670458431323 720.3389198337146 1809.738773655693 978.3846158421532 1358.786125298748 2048 731.882853681934 1810.02673860858 1780.03444506872 841.019391528346 2048 2048 2048 1177.969660109521 1162.647644199445 2048 637.7713384191627 984.0710904671074 1206.273453818427 784.1905566578656 1423.197772439842 571.7059358580472 908.1818884060463 2048 1334.439417862901 2048 1429.824107897972 904.5429824316814 1076.291193036649 2048 1027.491440996017 870.1675999396548 694.9329880229845 635.0920778272234 605.9089069800754 1634.917738254213 1050.555085140629 2048 1493.035426774603 2048 770.245981793297 1735.883264530465 1392.294142490163 1020.883753745443 1562.585780570566 919.257340012382 1302.108049215247 1023.394293897939 196.9820879436827 1123.482842344543 1706.450965137156 1729.027091312856 1257.704533264979 1406.210645798644 1292.363465567751 997.6245459519996 898.4395002750612 970.7347035063553 638.3544344611213 883.4129660620374 648.8344295852844 979.0395650282377 669.858054559503 1186.403949553121 1:0.32549 2:0.427451 3:0.258824 17:0.0117647 22:0.133333 28:0.678431 29:0.141176 47:0.141176 52:0.0196078 53:0.0196078 54:0.0392157 56:0.137255 57:0.313725 58:0.137255 59:0.333333 61:0.137255 62:0.333333 63:0.137255 64:0.333333 66:0.137255 67:0.333333 68:0.137255 69:0.333333 71:0.0196078 72:0.0392157 73:0.0392157 74:0.0784314 76:0.0313725 77:0.156863 82:0.0313725 98:0.74902 99:0.0627451 120:0.0431373 121:0.337255 122:0.427451 123:0.203922 127:0.65098 132:0.129412 140:0.262745 145:0.215686 146:0.521569 150:0.235294 151:0.0196078 152:0.0588235 155:0.803922 157:0.568627 158:0.0392157 160:0.882353 162:0.607843 163:0.0392157 165:0.745098 167:0.529412 168:0.0392157 170:0.117647 171:0.0196078 172:0.0196078 175:0.192157 176:0.462745 180:0.0784314 192:0.192157 197:0.113725 
0 0 0 0 0 0 0 0 0 0 0 0 0 0 0 206.1762935860574 0 0 0 0 0 0 0 0 0 0 0 0 0 0 0 0 0 0 0 0 0 180.6516434382369 0 0 0 0 0 0 0 0 0 0 0 2048 0 0 0 0 0 0 0 0 0 0 0 0 0 0 1:0.235294 2:0.427451 3:0.258824 22:0.113725 28:0.545098 29:0.180392 34:0.333333 39:0.0901961 41:0.0313725 42:0.0313725 46:0.0588235 47:0.513725 54:0.0196078 56:0.490196 57:0.0392157 58:0.0196078 59:0.54902 61:0.607843 62:0.0392157 64:0.901961 66:0.54902 67:0.0392157 69:0.588235 71:0.0196078 73:0.0588235 74:0.0392157 76:0.0941176 77:0.25098 81:0.12549 82:0.0313725 89:0.0313725 93:0.0313725 94:0.282353 98:0.780392 99:0.0627451 102:0.101961 121:0.32549 122:0.427451 123:0.192157 127:0.576471 132:0.0901961 133:0.0313725 135:0.0313725 140:0.423529 145:0.333333 146:0.333333 150:0.0862745 151:0.0156863 152:0.0666667 155:0.541176 157:0.117647 158:0.239216 160:0.760784 162:0.117647 163:0.286275 165:0.592157 167:0.117647 168:0.188235 170:0.0352941 172:0.0156863 175:0.156863 176:0.623529 180:0.470588 192:0.0627451 193:0.0941176 197:0.407843 198:0.0313725 
75.30794912598749 67.47482626454988 728.7687316985749 273.7320626182857 49.30125470324964 535.9290572808131 0 753.0158386737876 843.9412031344593 0 0 149.9093156409209 0 0 0 90.99486102189198 0 0 271.8777248911711 0 0 0 0 1441.005488099931 0 0 0 260.1905513386628 0 0 0 0 0 0 0 1885.567667526532 0 1102.608164010564 389.0480383143647 1621.767993165711 41.20775573750932 0 0 0 29.60834603456934 0 0 0 0 2048 0 0 0 279.3910196144434 172.9991391651347 0 0 0 0 0 0 105.0833637591826 45.36889506316439 0 1:0.0666667 2:0.380392 3:0.403922 4:0.0117647 21:0.0117647 22:0.0352941 28:0.0666667 29:0.768627 46:0.298039 47:0.0666667 54:0.0980392 56:0.0784314 57:0.254902 59:0.980392 61:0.333333 62:0.0588235 64:0.72549 66:0.843137 68:0.0784314 69:0.254902 71:0.196078 73:0.196078 77:0.517647 81:0.137255 82:0.27451 86:0.309804 89:0.345098 91:0.0352941 93:0.207843 94:0.172549 97:0.207843 98:0.72549 102:0.0901961 118:0.0235294 120:0.0431373 121:0.415686 122:0.372549 123:0.0901961 127:0.180392 128:0.215686 133:0.0352941 140:0.0352941 145:0.964706 153:0.0823529 155:0.211765 156:0.0313725 157:0.0156863 158:0.443137 160:0.556863 162:0.0980392 163:0.196078 165:0.737255 167:0.247059 168:0.0313725 170:0.129412 176:0.909804 177:0.121569 180:0.301961 181:0.152941 183:0.243137 185:0.423529 187:0.0588235 188:0.243137 192:0.392157 193:0.0588235 197:0.454902 
0 0 0 0 0 0 0 0 0 0 0 0 0 0 0 0 0 0 0 0 0 0 0 0 0 0 0 0 0 0 0 0 0 0 0 0 0 0 0 0 0 0 0 0 0 0 0 0 0 543.6599995479897 0 0 0 0 0 0 0 0 0 0 0 0 0 0 1:0.0666667 2:0.380392 3:0.337255 4:0.054902 21:0.0235294 22:0.427451 23:0.0235294 28:0.333333 29:0.2 34:0.4 41:0.235294 46:0.6 47:0.0666667 54:0.121569 56:0.341176 59:0.741176 61:0.819608 64:0.858824 66:0.698039 68:0.0392157 69:0.321569 71:0.0392157 76:0.0901961 77:0.243137 81:0.788235 86:0.0588235 89:0.180392 91:0.0313725 93:0.152941 94:0.243137 97:0.180392 98:0.878431 102:0.443137 103:0.12549 120:0.0666667 121:0.329412 122:0.376471 123:0.0784314 128:0.501961 133:0.333333 140:0.501961 145:0.25098 146:0.541176 153:0.239216 155:0.321569 156:0.0392157 158:0.619608 160:0.858824 163:0.878431 165:0.741176 168:0.458824 170:0.121569 173:0.0196078 176:0.909804 177:0.121569 180:0.243137 181:0.152941 183:0.121569 185:0.180392 188:0.0313725 193:0.666667 197:0.243137 198:0.121569 
0 0 0 0 205.93058849578 569.9771216913274 0 0 0 0 0 763.8202054753147 0 11.26305195683763 0 520.2222909173718 0 0 0 0 64.44463306905827 0 0 0 0 0 0 0 0 0 0 0 0 0 3.861250042803927 0 74.03660154777216 704.3917623252912 0 0 0 1.899503102333386 0 0 0 0 0 0 0 896.1964562193858 0 0 0 0 0 0 0 0 0 0 0 0 0 0 1:0.423529 2:1 3:0.25098 21:0.0235294 22:0.85098 23:0.0235294 27:0.156863 28:0.345098 33:0.376471 34:0.12549 41:0.156863 46:0.345098 47:0.25098 56:0.352941 58:0.235294 59:0.0392157 61:0.882353 63:0.137255 64:0.333333 66:0.784314 68:0.176471 69:0.156863 73:0.137255 76:0.0627451 77:0.0313725 81:0.811765 82:0.0313725 93:0.219608 94:0.0627451 97:0.156863 98:0.74902 101:0.0117647 102:0.188235 107:0.0392157 120:0.0117647 121:0.298039 122:0.411765 123:0.12549 127:0.270588 132:0.0784314 133:0.384314 138:0.113725 140:0.729412 145:0.0784314 146:0.807843 153:0.0196078 155:0.278431 156:0.0392157 157:0.0392157 158:0.360784 160:0.980392 163:0.921569 165:0.478431 168:0.560784 170:0.0196078 171:0.0392157 173:0.0196078 176:0.619608 177:0.101961 180:0.415686 181:0.172549 185:0.0352941 188:0.0352941 193:0.447059 197:0.207843 198:0.101961 
0 0 334.860633243203 0 0 0 0 542.3445010105337 104.4158926653478 0 236.0846381964528 1077.356228665805 1142.732099724823 144.7793760740991 0 1652.394690540815 242.9895113654703 0 0 0 0 0 0 2048 0 757.9855284019171 112.7407941213125 24.09123840530316 0 481.8594037222591 0 0 0 0 0 0 0 499.1197808044409 0 125.1428620307378 0 220.4267688124078 0 0 0 0 0 0 423.9726243068541 671.9739583758158 2.536570424227227 0 0 0 0 0 0 0 0 0 0 0 0 0 0:0.0117647 1:0.403922 2:0.427451 3:0.415686 4:0.0431373 21:0.12549 22:0.572549 23:0.223529 29:0.921569 41:0.0392157 46:0.807843 51:0.0196078 54:0.215686 55:0.0392157 56:0.588235 59:1 60:0.0392157 61:0.607843 64:1 65:0.0392157 66:0.588235 69:1 71:0.137255 74:0.392157 76:0.501961 77:0.176471 81:0.0313725 98:0.0313725 99:0.501961 101:0.223529 102:0.403922 103:0.12549 120:0.0431373 121:0.415686 122:0.427451 123:0.403922 124:0.0117647 127:0.231373 128:0.921569 145:0.768627 150:0.333333 153:0.0588235 155:1 158:0.607843 159:0.0392157 160:1 163:0.607843 164:0.0392157 165:0.980392 168:0.588235 169:0.0392157 170:0.215686 173:0.0196078 175:0.654902 176:0.0392157 193:0.0392157 198:0.615686 
225.6113058537515 303.3175035528116 84.91322322086977 97.08762699314597 699.4487870946109 617.83121396439 92.60904097502213 636.8658425099137 254.523671387501 210.9534635171557 674.2369247165803 908.4051124031157 1201.568488976588 626.9074141722317 537.4558250155762 1300.832978838303 652.3295383926941 126.3737670537706 600.2451148319226 328.55066431235 768.0925417471235 580.0043952255153 634.2990506110438 2048 696.1223350492195 1271.881434896719 727.4915903043411 681.9036009175858 160.0756275043737 1372.097648415602 274.712354654892 136.2286955547693 114.2098790361259 152.6688653417836 169.4738582570906 1797.26439777794 788.3205041005688 2048 791.599232967458 1813.624736009407 25.18769500550111 1025.387456687857 721.549887018881 169.3653792682838 0 246.1319961880748 73.96616845894421 1355.950309453791 1745.885077312637 2048 1195.393266054155 753.938559466746 806.3956961578292 611.1372659490438 0 2048 188.5447766745161 383.6668697536347 172.3598491486875 19.42570685341327 169.2060319649597 282.8827268449284 0 0 0:0.0117647 1:0.403922 2:0.427451 3:0.415686 4:0.0431373 17:0.0235294 18:0.0235294 22:0.0352941 23:0.0117647 29:0.92549 34:0.109804 41:0.184314 42:0.109804 46:0.0352941 47:0.258824 54:0.160784 56:0.564706 59:0.709804 61:0.72549 64:0.756863 66:0.564706 69:0.72549 74:0.27451 76:0.0313725 81:0.203922 94:0.0313725 98:0.0313725 99:0.588235 101:0.0117647 102:0.168627 103:0.0117647 106:0.0235294 107:0.0784314 108:0.0117647 120:0.0431373 121:0.415686 122:0.427451 123:0.403922 124:0.0117647 127:0.0392157 128:0.0392157 132:0.0392157 133:0.0784314 140:0.231373 145:0.921569 150:0.305882 155:0.709804 158:0.647059 160:0.756863 163:0.72549 165:0.662745 168:0.564706 170:0.176471 175:0.556863 176:0.0313725 180:0.0862745 192:0.14902 193:0.203922 197:0.0588235 198:0.0313725 
0 0 0 0 0 0 0 0 0 0 0 0 0 0 0 0 0 0 0 0 0 0 0 0 0 0 0 0 0 0 0 0 0 0 0 0 0 0 0 0 0 0 0 0 0 0 0 0 0 2048 0 0 0 0 0 0 0 0 0 0 0 0 0 0 1:0.258824 2:0.427451 3:0.290196 4:0.0117647 17:0.0235294 22:0.203922 28:0.576471 29:0.113725 34:0.384314 41:0.192157 42:0.0392157 46:0.0392157 47:0.192157 53:0.0588235 54:0.0588235 56:0.45098 57:0.0196078 59:0.607843 61:0.803922 64:0.882353 66:0.490196 67:0.0196078 69:0.72549 73:0.0784314 74:0.0784314 76:0.0313725 77:0.0313725 81:0.2 82:0.0313725 86:0.101961 94:0.133333 98:0.635294 99:0.101961 102:0.192157 107:0.0235294 121:0.313725 122:0.427451 123:0.235294 127:0.243137 132:0.0705882 133:0.137255 140:0.552941 145:0.27451 146:0.447059 150:0.0980392 151:0.0196078 153:0.0196078 155:0.666667 157:0.0588235 158:0.352941 160:1 162:0.0392157 163:0.607843 165:0.607843 167:0.0588235 168:0.333333 170:0.0588235 175:0.160784 176:0.54902 180:0.352941 192:0.0627451 193:0.227451 197:0.0627451 198:0.0313725 
0 0 0 0 0 41.89621346044153 0 0 357.5581849080432 0 0 0 0 0 0 0 0 0 0 0 0 0 0 975.4653976700573 0 0 0 141.0012678158076 0 27.99811805002475 0 0 0 0 0 0 0 0 0 0 0 31.38420102880638 0 0 0 0 0 0 0 0 0 0 0 0 0 0 0 0 0 0 0 0 0 0 1:0.0431373 2:0.415686 3:0.403922 4:0.101961 21:0.223529 22:0.313725 28:0.0941176 29:0.427451 41:0.0470588 46:0.905882 53:0.0196078 54:0.254902 56:0.470588 59:0.882353 60:0.0392157 61:0.490196 64:0.843137 65:0.117647 66:0.313725 68:0.0980392 69:0.176471 71:0.0784314 73:0.117647 76:0.117647 77:0.501961 81:0.619608 85:0.0313725 86:0.176471 89:0.0313725 93:0.203922 94:0.14902 97:0.0862745 98:0.823529 102:0.313725 103:0.0901961 120:0.0117647 121:0.403922 122:0.392157 123:0.0352941 127:0.0313725 128:0.866667 145:0.768627 146:0.0666667 151:0.0784314 153:0.0588235 155:0.294118 156:0.0392157 158:0.588235 159:0.0392157 160:0.960784 163:0.72549 165:0.980392 168:0.372549 170:0.0980392 176:0.917647 180:0.278431 181:0.0823529 183:0.027451 185:0.027451 188:0.164706 192:0.027451 193:0.529412 197:0.388235 198:0.027451 
0 0 0 0 0 0 0 0 0 0 0 0 0 0 0 0 0 0 0 0 0 0 0 0 0 605.795881545216 0 0 0 0 0 0 0 0 0 997.2444210660025 0 0 0 0 0 0 0 0 0 0 0 0 0 0 0 0 0 0 0 0 0 0 0 0 0 0 0 0 1:0.0784314 2:0.376471 3:0.329412 4:0.0666667 17:0.0117647 21:0.113725 22:0.227451 28:0.501961 29:0.231373 34:0.113725 41:0.0784314 46:0.654902 54:0.121569 56:0.439216 59:0.819608 60:0.0196078 61:0.580392 64:0.658824 65:0.0392157 66:0.6 68:0.141176 69:0.101961 71:0.0196078 73:0.160784 76:0.0313725 77:0.439216 81:0.560784 82:0.0313725 86:0.219608 89:0.188235 93:0.439216 94:0.12549 97:0.501961 98:0.376471 102:0.360784 103:0.0941176 106:0.105882 120:0.0941176 121:0.360784 122:0.372549 123:0.105882 127:0.0392157 128:0.721569 133:0.239216 140:0.239216 145:0.321569 146:0.678431 151:0.101961 153:0.0784314 155:0.219608 156:0.0588235 158:0.521569 159:0.0196078 160:0.8 163:0.741176 165:0.858824 167:0.0196078 168:0.2 170:0.0784314 176:0.831373 177:0.2 180:0.266667 181:0.235294 183:0.164706 185:0.266667 188:0.333333 192:0.133333 193:0.666667 197:0.333333 
0 0 0 0 0 864.435886541813 0 0 421.9653535842702 0 0 498.8371419694363 115.904269348875 0 0 276.8501774528966 383.0039302275018 0 0 0 0 107.1439573033764 0 1507.483083970289 0 389.5948247923805 0 0 0 397.837759617738 0 0 0 0 0 0 753.8236272415011 0 0 500.5508657999235 0 679.2893146407324 84.68022485821533 0 0 0 0 302.3964429366354 361.6792390345826 412.9490456108744 0 47.03780529812865 0 0 28.57904191838464 237.4315454223909 0 0 0 0 0 0 0 0 1:0.290196 2:0.301961 3:0.290196 22:0.176471 28:0.529412 29:0.117647 34:0.384314 46:0.0588235 47:0.470588 51:0.137255 52:0.0588235 53:0.0196078 54:0.0392157 56:0.333333 57:0.137255 58:0.0196078 59:0.490196 61:0.333333 62:0.137255 64:0.882353 66:0.333333 67:0.137255 69:0.607843 71:0.137255 72:0.0588235 73:0.137255 74:0.0392157 76:0.160784 77:0.129412 93:0.0313725 94:0.227451 98:0.741176 99:0.0627451 102:0.054902 121:0.258824 122:0.427451 123:0.168627 127:0.470588 128:0.0588235 140:0.384314 141:0.0313725 145:0.0862745 146:0.501961 150:0.0784314 151:0.137255 152:0.0588235 153:0.137255 155:0.607843 157:0.137255 158:0.333333 160:0.882353 162:0.137255 163:0.333333 165:0.470588 166:0.0196078 167:0.137255 168:0.333333 170:0.0196078 171:0.117647 172:0.0784314 173:0.0588235 175:0.0823529 176:0.709804 180:0.290196 181:0.0431373 197:0.415686 198:0.164706 
323.7513325312007 263.9801452942605 0 300.1984518307892 297.5635278393478 126.382720991551 290.4608762012516 9.8188041753967 196.2374668876852 337.0821541345394 489.6675373615778 0 1103.316516848382 361.7956410815451 569.0601356928232 0 626.5659997827103 226.4634761952122 585.2886074603665 337.779311695834 403.4410613203798 432.6265926565214 458.0301440889323 0 685.8084412992083 52.77404099140904 483.5800908680959 0 233.3071672463286 559.5197560432516 377.7248675916483 478.8508406100449 295.9917983695159 214.6765383431893 207.947766984495 0 344.4229394449799 0 1149.600266047231 0 244.4612798597171 648.7526266065431 444.9287314670668 301.9593569484192 277.4149408854686 344.5791026929349 156.9630501791792 296.6354122758198 952.6318477648446 0 989.6403279456555 661.2955721645916 440.7146783474331 0 0 959.5561562298639 282.7907234222981 469.4347909546577 181.4657609522038 271.9828580325992 150.5127456641935 354.1768431230103 50.282513285728 429.9975631150239 1:0.054902 2:0.32549 3:0.34902 4:0.0352941 21:0.168627 22:0.133333 28:0.290196 29:0.129412 34:0.192157 46:0.678431 51:0.0235294 52:0.196078 53:0.0431373 54:0.129412 56:0.34902 57:0.0431373 59:0.803922 61:0.67451 63:0.0431373 64:0.435294 65:0.0431373 66:0.501961 68:0.32549 69:0.0431373 70:0.0431373 71:0.215686 73:0.0431373 76:0.0313725 77:0.576471 81:0.392157 82:0.0313725 86:0.486275 88:0.0588235 89:0.211765 90:0.0313725 91:0.180392 93:0.513725 94:0.0313725 97:0.423529 98:0.545098 102:0.258824 103:0.0431373 120:0.0666667 121:0.380392 122:0.290196 123:0.0117647 128:0.862745 140:0.196078 145:0.223529 146:0.109804 151:0.141176 153:0.164706 155:0.117647 156:0.184314 158:0.721569 160:0.698039 163:0.698039 165:0.952941 167:0.117647 168:0.278431 170:0.231373 171:0.0235294 172:0.0470588 176:0.415686 177:0.25098 180:0.0823529 181:0.360784 183:0.223529 185:0.25098 186:0.027451 188:0.470588 190:0.027451 192:0.054902 193:0.196078 197:0.776471 198:0.027451 
0 0 0 0 0 0 0 0 0 0 0 0 0 0 0 0 0 0 0 0 0 0 0 0 0 0 0 0 0 0 0 0 0 0 0 0 0 0 0 0 0 0 0 0 0 0 0 45.14094729803908 636.7987269852437 0 0 0 0 0 0 0 0 0 0 0 0 0 0 0 1:0.203922 2:0.427451 3:0.258824 22:0.0784314 23:0.0117647 28:0.54902 29:0.0980392 33:0.0313725 34:0.388235 41:0.321569 46:0.419608 47:0.129412 51:0.0784314 53:0.117647 54:0.0196078 56:0.647059 59:0.54902 61:0.882353 64:0.882353 66:0.72549 69:0.686275 71:0.254902 73:0.137255 74:0.0784314 76:0.517647 77:0.160784 81:0.45098 93:0.0313725 94:0.160784 98:0.678431 99:0.0313725 102:0.423529 121:0.309804 122:0.168627 123:0.239216 124:0.0156863 127:0.12549 128:0.345098 133:0.376471 140:0.313725 145:0.156863 146:0.560784 150:0.0392157 151:0.137255 152:0.0196078 153:0.235294 155:0.686275 158:0.686275 160:0.882353 163:0.882353 165:0.607843 168:0.647059 170:0.0196078 173:0.196078 175:0.0705882 176:0.792157 180:0.172549 181:0.0352941 193:0.482353 197:0.0705882 198:0.517647 
0 0 0 0 0 0 0 0 0 0 0 0 164.6728088290207 0 0 0 0 0 0 0 0 0 0 0 0 1734.540391654176 0 0 0 0 0 0 0 0 0 0 0 0 0 0 0 0 0 0 0 0 0 0 0 2048 0 484.6241768874189 0 0 0 0 0 0 0 0 0 0 0 0 1:0.258824 2:0.427451 3:0.337255 4:0.0431373 17:0.0666667 18:0.0117647 22:0.0352941 28:0.415686 29:0.207843 34:0.415686 41:0.27451 42:0.243137 47:0.137255 53:0.0196078 54:0.0980392 56:0.333333 57:0.0196078 59:0.72549 61:0.843137 64:1 66:0.313725 67:0.0196078 69:0.764706 73:0.0196078 74:0.0980392 77:0.0352941 81:0.392157 82:0.0705882 86:0.0352941 94:0.321569 98:0.643137 99:0.180392 102:0.12549 107:0.054902 120:0.0235294 121:0.352941 122:0.419608 123:0.305882 127:0.105882 132:0.105882 133:0.321569 140:0.607843 145:0.141176 146:0.572549 150:0.0980392 155:0.843137 158:0.45098 160:1 163:0.843137 165:0.588235 167:0.0196078 168:0.333333 170:0.0392157 171:0.0588235 175:0.219608 176:0.560784 180:0.188235 188:0.0313725 192:0.12549 193:0.313725 197:0.0313725 
0 0 0 0 0 0 0 0 0 0 0 0 0 0 0 0 0 0 0 0 0 0 0 2048 0 0 0 0 0 0 0 0 0 0 0 0 0 0 0 0 0 113.9521178516996 0 0 0 0 0 0 0 2048 0 0 0 0 0 0 0 0 0 0 0 0 0 0 1:0.313725 2:0.427451 3:0.313725 21:0.0352941 22:0.482353 23:0.0352941 28:0.415686 29:0.172549 34:0.309804 41:0.345098 46:0.552941 47:0.137255 53:0.117647 54:0.0196078 55:0.0196078 56:0.509804 59:0.647059 60:0.0392157 61:0.607843 64:0.882353 65:0.0196078 66:0.529412 69:0.745098 71:0.0392157 73:0.0784314 74:0.0784314 76:0.447059 77:0.0352941 81:0.380392 94:0.137255 98:0.584314 99:0.137255 101:0.0784314 102:0.458824 103:0.0117647 120:0.0117647 121:0.360784 122:0.427451 123:0.258824 127:0.27451 128:0.345098 133:0.345098 140:0.345098 145:0.345098 146:0.243137 150:0.0980392 151:0.0588235 153:0.0392157 155:0.843137 158:0.705882 160:1 163:0.882353 165:0.764706 168:0.647059 170:0.0980392 171:0.0196078 175:0.27451 176:0.380392 180:0.207843 193:0.482353 197:0.101961 198:0.309804 
-37.94224232742614 0 0 0 0 0 0 0 0 0 0 0 0 0 0 0 0 0 0 0 0 0 0 0 0 330.1301780700512 0 0 0 0 0 0 0 0 0 0 0 0 0 0 0 0 0 0 0 0 0 0 0 0 0 0 0 0 0 0 0 0 0 0 0 0 0 0 0:0.0392157 1:0.227451 2:0.431373 3:0.0117647 5:0.0117647 20:0.0117647 21:0.392157 22:0.0117647 23:0.188235 24:0.101961 47:0.054902 48:0.694118 52:0.254902 53:0.0980392 57:0.333333 58:0.137255 62:0.333333 63:0.137255 67:0.333333 68:0.137255 72:0.0784314 73:0.0392157 76:0.211765 80:0.211765 81:0.211765 100:0.0117647 101:0.145098 105:0.0235294 106:0.0352941 120:0.0431373 121:0.415686 122:0.427451 123:0.415686 124:0.0431373 125:0.054902 126:0.164706 127:0.109804 130:0.164706 132:0.054902 150:0.0588235 152:0.0196078 155:0.0196078 156:0.0392157 157:0.588235 161:0.0392157 162:0.607843 166:0.0392157 167:0.607843 171:0.0196078 172:0.117647 175:0.0627451 176:0.772549 177:0.0980392 196:0.227451 197:0.227451 
-0 0 0 0 0 0 0 0 0 0 0 0 0 0 0 0 0 0 0 0 0 0 0 0 0 0 0 0 212.1899983971279 0 0 0 0 0 0 0 0 0 0 0 0 0 0 0 0 0 0 0 0 0 0 0 0 0 0 0 0 0 0 0 0 0 0 0 1:0.360784 2:0.741176 3:0.901961 6:0.0196078 53:0.235294 54:0.0196078 58:0.607843 59:0.0392157 63:0.607843 64:0.0392157 68:0.607843 69:0.0392157 73:0.568627 74:0.0392157 106:0.380392 107:0.054902 122:0.32549 123:0.32549 131:0.4 132:0.501961 151:0.0588235 152:0.176471 156:0.0588235 157:0.529412 162:0.882353 167:0.882353 172:0.686275 176:0.501961 177:0.8 
-0 200.8662350596258 0 47.70156922969933 0 0 2048 0 0 168.739294182462 25.39778878348357 0 0 0 266.4261237677159 0 0 2048 1059.653630473502 250.9593539546529 121.5838940419542 0 0 0 209.6670102883371 0 218.4084828590768 0 0 0 13.76267315722347 71.14990686236526 416.4662154896163 749.8523245219324 1423.591457558683 0 0 0 0 0 1756.09111110683 0 33.91694168016991 2048 1134.252099162484 208.1373475317821 2048 2.364354403906229 0 0 113.082506494519 0 865.7348145638007 0 1547.816372825584 0 284.7069215685626 78.25796677663895 134.3100856755406 280.6907633564903 823.4914156696052 312.5356052153969 571.7791708457592 0 1:0.12549 2:0.329412 3:0.407843 4:0.0117647 53:0.372549 54:0.0862745 58:0.941176 62:0.0588235 63:0.541176 67:0.341176 68:0.141176 72:0.941176 78:0.368627 83:0.788235 87:0.105882 88:0.52549 92:0.52549 93:0.0509804 97:0.580392 101:0.0431373 102:0.0117647 106:0.113725 107:0.0235294 120:0.0117647 121:0.403922 122:0.168627 127:0.101961 132:0.2 151:0.45098 156:0.12549 157:0.223529 161:0.4 162:0.0745098 166:0.94902 170:0.0745098 171:0.27451 176:0.333333 177:0.556863 181:0.0352941 182:0.517647 186:0.258824 187:0.0745098 191:0.407843 196:0.333333 
-0 0 0 0 0 0 0 0 0 0 0 0 0 0 0 0 0 0 453.3565192069425 0 0 0 0 0 0 0 0 0 113.932983681939 0 0 0 0 0 0 0 0 0 0 0 0 0 0 0 2048 0 1438.022845479132 0 0 0 0 0 0 0 0 0 0 0 0 0 0 0 0 0 1:0.337255 2:0.32549 3:0.337255 53:0.686275 58:0.882353 63:0.882353 68:0.882353 73:0.823529 101:0.168627 102:0.0235294 106:0.0666667 107:0.0117647 122:0.329412 123:0.262745 127:0.2 132:0.101961 150:0.0196078 151:0.176471 152:0.0392157 157:0.843137 162:0.882353 167:0.882353 172:0.686275 176:0.25098 177:0.498039 
-0 0 0 0 0 0 0 0 0 0 0 0 0 0 0 0 0 0 0 0 0 0 0 0 0 0 0 0 0 0 0 0 0 0 0 0 0 0 0 0 0 0 0 0 0 0 498.1683519597201 0 0 0 0 0 0 0 0 0 0 0 0 0 0 0 0 0 1:0.254902 2:0.407843 3:0.0470588 20:0.0235294 21:0.423529 22:0.0235294 23:0.360784 47:0.0588235 48:0.588235 49:0.0588235 52:0.0980392 53:0.254902 57:0.137255 58:0.333333 62:0.137255 63:0.294118 67:0.313725 68:0.137255 72:0.0196078 73:0.156863 74:0.0392157 81:0.784314 82:0.0705882 87:0.0705882 101:0.0117647 105:0.0235294 106:0.258824 120:0.0431373 121:0.415686 122:0.427451 123:0.380392 130:0.101961 131:0.298039 132:0.101961 150:0.0392157 151:0.0196078 155:0.0392157 156:0.0588235 157:0.372549 161:0.137255 162:0.333333 166:0.137255 167:0.333333 170:0.117647 171:0.0588235 172:0.0392157 175:0.0313725 176:0.588235 177:0.117647 182:0.14902 196:0.266667 197:0.0588235 
-220.5824837698282 572.3259899540066 173.5871459106879 363.5584153313898 538.1885989708931 202.1379381840456 836.399000377684 344.6798942775723 417.1143411794129 0 218.739326736266 428.050592085767 344.271551920516 180.2219814124319 0 554.4898130133842 135.388568099543 2048 2048 0 870.5903091585432 0 0 624.770297510822 0 446.5608447664491 33.50393444803243 300.382841029967 1309.302381945591 511.4274106770678 0 114.2724533221912 0 0 261.3533285453286 234.3304901572772 175.4817725185426 530.1600882857286 226.5735732212589 382.1108635740637 0 0 341.4986949930728 940.561623771118 0 138.7386536933769 2048 0 0 536.4451687639583 0 0 0 259.1526960553013 0 271.2032874303941 0 145.8365531079278 0 0 503.9966449909876 428.995320825913 0 336.4528186060924 0:0.054902 1:0.372549 2:0.403922 3:0.0117647 20:0.0431373 21:0.427451 22:0.0235294 23:0.427451 24:0.0352941 47:0.054902 48:0.333333 49:0.054902 52:0.254902 53:0.0980392 57:0.333333 58:0.137255 62:0.333333 63:0.137255 67:0.333333 68:0.137255 72:0.196078 73:0.0784314 100:0.113725 101:0.45098 120:0.0901961 121:0.427451 122:0.427451 123:0.403922 124:0.0117647 126:0.298039 127:0.101961 150:0.235294 151:0.0392157 152:0.0784314 156:0.137255 157:0.333333 161:0.137255 162:0.333333 166:0.137255 167:0.333333 171:0.0588235 172:0.137255 176:0.443137 196:0.388235 197:0.164706 
-84.26906817391847 54.37409638035568 698.3416728630225 6.2225408699801 42.19694965032558 693.2397378963273 0 68.96149038442999 109.2262538644078 0 0 0 0 0 0 0 0 567.1585991075178 0 0 354.0669270241258 0 0 0 0 172.1019977839869 0 219.704445215119 0 0 182.896738198585 0 0 6.641964700351939 83.39878203957589 0 9.11889846795704 504.3350006793773 0 211.7468690054979 2048 368.5232896289614 0 2004.439366230171 1571.640018169925 51.00573644407664 340.4958340926902 0 0 22.23719146525534 0 40.99160305368057 0 64.58242623953686 2048 0 246.0937709345039 0 0 0 0 0 1534.839618196323 0 0:0.0235294 1:0.278431 2:0.419608 3:0.0470588 16:0.0117647 18:0.0117647 21:0.243137 23:0.266667 24:0.0117647 48:0.4 52:0.0980392 53:0.254902 57:0.137255 58:0.333333 62:0.137255 63:0.333333 67:0.137255 68:0.333333 72:0.0196078 73:0.215686 74:0.0784314 81:0.443137 98:0.278431 105:0.054902 106:0.180392 120:0.0117647 121:0.403922 122:0.427451 123:0.32549 131:0.501961 150:0.137255 151:0.0588235 155:0.0784314 156:0.490196 157:0.0392157 161:0.607843 162:0.0392157 166:0.588235 167:0.0392157 170:0.0980392 171:0.254902 176:0.807843 177:0.0392157 191:0.0392157 196:0.0784314 
-0 0 0 0 0 0 0 0 0 0 0 0 0 0 0 0 0 1284.802558267753 0 0 0 0 0 0 0 0 0 0 0 0 0 0 0 377.6644035934052 0 0 0 0 0 0 0 0 0 2048 0 0 1360.216095814967 0 0 0 0 0 771.2739050343386 0 400.0247032750169 0 0 0 0 228.3602244443179 0 0 0 0 0:0.27451 1:0.576471 2:0.454902 3:0.0588235 20:0.152941 21:0.423529 23:0.407843 24:0.0745098 48:0.890196 49:0.278431 52:0.0980392 53:0.254902 57:0.137255 58:0.333333 62:0.137255 63:0.333333 67:0.137255 68:0.333333 72:0.0588235 73:0.137255 100:0.0431373 101:0.0431373 105:0.113725 106:0.113725 120:0.258824 121:0.427451 122:0.427451 123:0.415686 124:0.0431373 126:0.101961 131:0.298039 150:0.352941 155:0.0392157 156:0.54902 157:0.0392157 161:0.607843 162:0.0392157 166:0.607843 167:0.0392157 171:0.137255 176:0.290196 177:0.458824 195:0.333333 196:0.584314 
-49.43831342249985 0 230.9486767549018 0 0 0 0 234.8249356056206 0 0 18.00258914901259 0 0 0 0 0 140.9295712606529 0 0 0 0 71.92196545020396 176.1251456056635 0 0 0 0 71.14490487697071 213.3202968399216 0 0 0 288.0996845044874 16.12612301937694 10.39211392944449 0 0 0 0 0 135.7053878105116 0 0 0 0 0 0 70.22282431474396 0 0 0 0 0 0 435.6833966933942 0 0 0 468.7189608924542 0 0 0 0 0 0:0.0117647 1:0.215686 2:0.305882 3:0.419608 4:0.0470588 6:0.0235294 53:0.0980392 54:0.254902 58:0.137255 59:0.333333 63:0.137255 64:0.333333 68:0.137255 69:0.333333 73:0.117647 74:0.313725 105:0.054902 106:0.403922 107:0.0235294 122:0.32549 123:0.403922 124:0.0117647 131:0.560784 132:0.313725 137:0.0627451 150:0.0392157 151:0.0196078 155:0.0784314 156:0.0392157 157:0.215686 162:0.843137 167:0.882353 172:0.686275 176:0.368627 177:0.635294 
-0 48.14955803732729 0 118.4298686062182 82.10419688473567 0 144.0621588509227 0 57.78970625069418 326.9328925053688 473.5688800604899 0 332.2014492013532 600.208601134144 764.8220584493035 0 370.4758466989389 2048 384.3609034085773 322.0415272902647 955.9247841835456 296.3470133950808 190.0163515593013 0 472.6909734660458 0 432.0387495924008 27.79602969860508 1378.720396471153 0 227.6712715066478 130.7079516533129 295.0238524595982 375.8677626751292 192.7215310007502 0 236.7921086987752 0 0 19.92384604460094 288.191615419087 0 787.128312267124 2048 508.6242803315375 933.5754742061242 2048 249.0515374753458 385.9206380616925 2.978437213455084 544.3789945450607 0 285.5128459953523 124.9264714382524 229.5318010155198 147.3756359845007 372.2355820024703 122.7359193382741 348.103505070303 495.616259772218 121.2241688843158 0 977.8433347899627 117.8455769523333 0:0.160784 1:0.454902 2:0.419608 3:0.0470588 20:0.14902 21:0.227451 23:0.329412 24:0.0784314 48:0.890196 49:0.164706 52:0.0980392 53:0.254902 57:0.137255 58:0.333333 62:0.137255 63:0.333333 67:0.137255 68:0.333333 72:0.0392157 73:0.0784314 98:0.054902 99:0.164706 100:0.113725 101:0.0784314 105:0.0431373 106:0.0352941 120:0.337255 121:0.427451 122:0.427451 123:0.403922 124:0.0117647 126:0.298039 131:0.101961 150:0.490196 151:0.0392157 156:0.843137 161:0.882353 166:0.862745 171:0.0980392 175:0.317647 176:0.262745 195:0.788235 196:0.737255 
-121.7952812249777 499.7552604560211 198.5957671140635 0 133.4848079722114 0 785.0346404204918 26.15571243617658 248.0321115554136 238.641251869035 90.10282476056074 55.91408686715933 78.16336116811244 0 0 55.20540445222799 150.3420904265945 387.0511669690816 1243.628159307662 268.2013221530757 0 51.87558990928959 131.1621244861392 0 101.0377762543133 303.0578961797031 434.8744478702156 141.5141910857397 0 115.6525887390186 220.2834576609306 137.44296257715 143.1488289581794 0 0 312.3639819507393 0 60.42083506564637 180.254305892833 54.39670611741446 0 311.414112050545 136.7439770063326 0 2048 229.2877319253884 1356.864948561583 0 95.23013541932811 25.41565766066351 157.7784544663954 259.9390246447851 0 91.36944176683741 0 79.52102456193413 70.96948374318298 176.4567389896959 297.0703129575637 191.396332198715 657.5051261843964 249.6227786268626 0 219.5690356334699 1:0.054902 2:0.372549 3:0.427451 4:0.258824 20:0.180392 21:0.360784 23:0.054902 24:0.223529 48:0.776471 49:0.556863 54:0.521569 58:0.109804 59:0.34902 63:0.215686 64:0.152941 68:0.827451 73:0.215686 74:0.172549 79:0.580392 83:0.0509804 84:0.211765 88:0.419608 89:0.0509804 93:0.368627 98:0.0509804 101:0.133333 102:0.203922 106:0.0117647 107:0.0117647 120:0.258824 121:0.427451 122:0.427451 123:0.427451 124:0.168627 127:0.501961 151:0.34902 152:0.0745098 157:0.776471 162:0.901961 166:0.0745098 167:0.423529 170:0.223529 171:0.0235294 172:0.0235294 176:0.298039 177:0.4 182:0.6 187:0.45098 191:0.0509804 192:0.45098 195:0.14902 196:0.65098 197:0.0509804 
-44.7280265904451 98.98114377289302 165.7055660437777 36.02482236814182 0 19.41329024442273 0 48.89621472157096 0 0 82.80512926450615 0 36.95884717946415 0 0 0 0 0 0 0 0 0 0 66.99990840639248 0 52.51272810347151 0 0 0 0 0 0 0 0 328.0574381391853 0 0 0 0 0 0 0 0 0 13.85057865730024 0 724.4188911972559 0 0 74.78206868403669 0 0 0 0 0 0 0 0 0 0 0 250.6062488269933 0 0 1:0.223529 2:0.898039 3:0.490196 20:0.101961 21:0.756863 22:0.0627451 23:0.470588 24:0.203922 48:0.764706 53:0.666667 58:0.772549 63:0.686275 67:0.12549 68:0.333333 72:0.0196078 73:0.0431373 78:0.25098 83:0.831373 88:0.501961 92:0.0823529 93:0.164706 98:0.0823529 99:0.25098 101:0.352941 102:0.352941 106:0.0196078 107:0.0196078 120:0.215686 121:1 122:1 123:0.960784 124:0.0392157 127:0.501961 151:0.188235 152:0.0627451 157:0.647059 162:1 167:0.623529 170:0.105882 172:0.0196078 176:0.4 177:0.298039 178:0.34902 182:0.4 187:0.14902 192:0.6 196:0.2 197:0.101961 
-0 0 0 0 0 0 0 0 0 0 0 0 0 37.26444459521807 0 0 0 1620.050460892736 0 79.69914858211679 0 0 0 0 0 0 0 0 0 0 0 0 288.8831258814437 0 366.9907237611682 0 0 0 0 0 0 0 0 2048 432.6138356840177 0 2048 0 0 0 0 0 0 0 0 0 0 0 22.90992572054286 0 0 0 0 963.2198467862195 0:0.0666667 1:0.603922 2:0.439216 3:0.054902 20:0.137255 21:0.576471 23:0.494118 24:0.258824 48:0.501961 52:0.0980392 53:0.254902 57:0.137255 58:0.333333 62:0.137255 63:0.333333 67:0.137255 68:0.333333 72:0.0784314 73:0.196078 74:0.137255 100:0.0784314 101:0.313725 106:0.0235294 120:0.168627 121:0.427451 122:0.427451 123:0.427451 124:0.0901961 126:0.2 127:0.101961 150:0.235294 151:0.0196078 152:0.0392157 156:0.137255 157:0.333333 161:0.137255 162:0.333333 166:0.137255 167:0.333333 170:0.156863 171:0.0392157 172:0.0784314 176:0.298039 177:0.34902 196:0.25098 197:0.2 
