svm_type c_svc
kernel_type rbf
gamma 0.00012207
nr_class 65
total_sv 1968
rho -0.511756 0.06218 -0.208455 0.131968 0.239982 -0.0221749 0.146942 0.212706 0.542434 0.563889 0.125846 0.155907 0.62652 0.347243 0.339769 0.274227 0.447136 -0.787771 -0.168412 0.450578 -0.260301 0.774678 0.301791 -0.337732 -0.387739 1.43836 0.43772 0.368081 -0.488096 0.0427555 0.723327 0.892383 0.243523 0.121072 -0.0798793 1.28451 0.66118 0.133791 0.179232 1.0662 -0.011503 1.13739 0.391472 -0.731946 -0.340282 0.20454 -0.552542 0.446182 1.28247 0.975237 0.0862387 0.362667 -0.200381 0.217944 -0.0557719 1.16244 0.639751 0.626742 0.188438 0.693263 -0.221431 0.745867 0.260037 0.175304 0.351996 0.512209 0.649522 0.697045 1.07527 -0.635548 0.424915 0.926765 0.573622 -0.163853 0.768651 0.632707 0.302052 -0.219936 0.398317 0.857173 -1.79771 -1.79356 0.957547 -0.818284 0.277429 0.754295 0.705967 0.0820748 0.537567 0.628133 1.12947 -1.05573 0.857634 0.417434 0.193739 -0.0816652 0.199096 -0.217527 1.00154 0.531908 1.08302 0.682285 0.713793 -0.0311591 0.823321 0.678793 -0.777155 -1.98431 0.304927 -1.83807 1.24792 1.27312 -0.156416 0.431572 1.34769 0.0269876 0.933623 -0.885314 1.25785 0.487751 0.701334 -0.0496174 1.1738 -0.0861695 0.722437 0.469218 -0.1321 -0.0982391 0.470779 0.182093 0.435367 0.710451 0.0356311 0.402028 0.901188 0.0422745 -0.347438 -0.0874551 0.394914 0.239215 -0.421929 0.136696 -0.877251 0.405526 0.583929 -0.516209 0.27228 0.271832 -0.214019 -0.641287 0.0847422 0.476829 0.280482 -0.302815 0.25567 0.814511 0.511825 0.45795 0.602561 0.54134 0.30027 0.358912 0.0942212 0.155342 0.00378038 0.419788 0.669831 0.317071 -0.719981 0.0675166 0.301572 -0.409457 0.750201 0.208139 -0.599886 0.240157 0.0491738 -0.108038 0.282509 -0.388395 0.504817 0.705164 0.717204 0.648694 1.54685 -0.27239 0.64539 0.47438 0.506759 0.50784 0.512758 0.973934 0.241446 0.344511 0.57218 0.991791 0.952329 0.0260758 0.310144 0.566476 -0.0867638 -0.354627 0.923476 -0.92713 0.376514 0.705644 -0.585538 0.530375 0.387009 -0.0878222 -0.422764 0.345071 0.564887 0.710158 -0.403377 0.328 0.805625 0.512021 0.333136 0.499057 0.157397 1.2647 0.628655 0.765277 0.274549 0.793905 0.426025 0.757642 0.185575 -0.929533 -0.377683 0.286896 -0.772999 0.987228 0.402918 -0.803577 0.427162 0.728574 -0.36584 1.05418 -0.355734 0.837019 0.634731 0.850991 0.430368 1.15881 -0.294169 0.824643 0.442878 0.551962 -0.152107 0.745125 -0.68546 -0.506167 0.024098 0.0414703 -0.5317 -0.257282 0.194779 -0.311807 -0.313133 -0.206822 0.212445 -1.11202 -0.345952 0.0664114 -1.15302 -0.176091 0.210987 -0.0835877 -0.28519 -0.617054 0.275781 0.27644 -0.784406 -0.00791114 0.501227 0.231474 -0.079472 -0.210512 -0.418937 0.309261 0.12797 0.229844 0.0366687 -0.0463611 -0.0663794 0.152166 -0.0111715 -1.24061 -0.761797 -0.378348 -0.989416 0.410426 0.41547 -0.524079 -0.118255 0.473692 -0.634065 0.270541 -1.01307 0.625041 0.227512 0.327123 -0.179432 0.570824 -0.397779 0.328291 -0.297578 -0.162188 0.381532 -0.0205249 -0.197092 0.223651 0.673035 0.350313 -0.399855 0.176013 0.0999319 -0.333793 -0.354769 0.721901 -1.82644 -0.743087 0.879852 -0.736395 0.384174 0.396068 -0.314328 -0.435951 -0.23698 0.241668 0.202459 -0.88763 -0.0516399 0.577676 0.407486 0.149294 0.108545 -0.0824163 0.668879 0.76254 0.407453 0.0647629 0.344118 0.376481 0.437851 0.0392195 -1.72038 -1.01206 0.193685 -1.58371 0.652383 0.554871 -0.863057 0.328316 0.230715 -1.23075 -0.201343 -0.900344 0.695698 0.562173 0.666076 0.221059 1.06574 -0.423581 0.984396 0.328871 0.159094 -0.313629 -0.905727 -0.317909 0.190007 -0.370702 -0.0775467 -0.305455 -0.344776 -0.504935 -0.0263838 0.608683 -1.41266 -0.744079 -0.153396 -1.18636 0.0473319 -0.346095 -0.63645 -0.879337 -0.551559 0.0185854 -0.173231 -1.00833 -0.76204 0.213034 0.361716 0.0168088 -0.14897 -0.353593 0.199972 -0.134663 0.230507 -0.860971 0.135116 -0.12396 0.00464038 -0.386991 -1.18784 -0.910797 -0.317305 -1.05893 0.427572 0.24011 -0.650268 -0.245476 0.0380352 -1.20724 -0.20229 -0.599416 0.216038 0.0999539 0.208921 -0.148226 0.32902 -0.502817 0.218651 -0.271945 -0.199211 -0.0664607 0.0357887 0.907299 -0.350827 -0.382392 -0.0359278 0.236669 -0.285098 -0.383159 0.155955 -0.657455 -0.215059 0.691227 -1.14205 0.25527 0.231952 -0.0183946 -0.500413 -0.410384 0.26991 0.154269 -0.784412 0.215649 0.59971 0.502478 0.436138 0.876792 -0.366613 0.205608 0.397648 0.0315956 0.382736 -0.0949919 0.395649 0.0485327 0.180583 -0.402817 -0.13192 -0.173442 -0.125469 0.810448 0.393519 -0.745063 -0.0533504 0.407715 -0.475824 0.0427077 -0.774919 0.611206 1.14263 0.754097 0.16911 2.34378 0.372788 0.650999 0.521632 0.312084 0.222743 0.93928 0.189624 -0.199366 0.410729 0.0735168 -0.0493662 -0.40833 0.821513 -0.88625 0.121328 0.850688 -0.547375 0.580072 0.314222 -0.010707 -0.292091 -0.0494553 0.555182 0.484031 -0.45666 0.0862161 0.75084 0.719265 0.49093 0.292033 -0.0567822 1.05468 0.463493 0.428777 0.132582 0.199565 0.278911 0.365193 0.166365 -0.725422 -0.233862 0.121257 -0.705318 0.971682 0.558677 -0.367221 0.344701 0.356262 -0.360332 0.553021 -0.386158 0.684252 0.492545 0.916763 0.243589 0.815378 -0.127873 0.796954 0.408039 0.361826 0.406087 -0.33486 -0.523687 0.0420324 -0.0566672 -0.534105 -0.546126 0.185913 -1.30978 -0.659551 0.0928023 -1.28216 0.115607 -0.0902812 -0.347184 -0.765834 -0.0722851 0.0966976 0.407744 -0.948027 0.0692875 0.527106 0.177226 -0.00169866 0.0140729 -0.268116 0.521703 0.191191 -0.147385 -0.0122194 -0.00378648 -0.16307 0.793794 -0.290743 -1.16933 -0.482489 -0.23067 -1.02766 0.565762 0.110689 -0.507687 0.0788423 -0.775785 -1.00474 0.0309673 -0.910061 0.363207 0.198657 0.25457 -0.0939056 0.778144 -0.513343 0.52843 0.126092 -0.0917653 -0.837777 -0.682867 -0.266805 -0.408741 -0.710802 -0.607493 -0.25855 -1.39315 -0.75365 -0.164741 -1.17854 -0.472489 -0.525111 -0.42341 -0.869479 -0.831726 -0.13591 -0.384872 -1.04361 -0.604902 -0.0736761 -0.291878 -0.387089 -0.383608 -1.09047 -0.43276 -0.216207 -0.264233 -0.323838 -0.511708 -0.69526 -0.401418 -0.584305 -1.47765 -1.04747 -0.421823 -1.23476 -0.138478 -0.0520685 -1.00353 -0.714211 -0.248712 -1.20121 -0.431996 -1.33442 -0.210981 -0.255904 -0.0483756 -0.463201 0.0159219 -0.726926 0.0483749 -0.337826 -0.625701 -0.177353 -0.457082 0.151662 -0.447863 -0.269391 1.19427 -0.605871 0.616867 0.487116 -0.18746 0.985704 0.144771 0.0275105 -1.18553 0.281326 0.208041 0.133972 -0.263583 0.0015394 0.64368 0.876538 0.653794 0.542746 0.148533 0.193866 0.46759 0.465269 0.302695 0.345612 0.481104 0.499632 0.676253 -0.580283 -0.0297572 -0.142001 -0.562421 1.30277 1.08849 -0.400248 -0.00519772 0.571009 -0.297578 -0.121717 -0.444665 1.30141 0.673451 0.863784 0.611105 1.11106 -0.104824 0.637927 0.511952 0.372028 0.299607 0.849619 0.262646 0.315778 0.790892 -0.933303 0.184754 0.573309 -0.896998 0.81922 0.463927 -0.397941 -0.290318 0.99089 0.571846 0.695077 -0.54705 0.0843958 0.940294 1.0337 0.274256 0.319689 0.14223 1.01419 0.285798 0.38789 0.152406 0.937339 0.378362 0.950626 0.126426 -0.884974 -0.379203 -0.00283696 -0.926168 1.00328 0.90582 -0.185417 0.729075 0.418918 -0.142685 0.690794 -0.317888 1.89013 0.628429 0.824391 0.268583 1.03577 -0.154409 0.67568 0.36034 0.237301 0.767908 0.200889 -0.161598 0.820705 -1.25204 -0.319009 0.708896 0.0892166 0.74876 0.194237 -0.860722 -0.56637 0.720687 0.677925 0.0957562 -0.672167 -0.0118996 0.706447 0.739785 0.145962 -0.0113199 0.191444 0.745213 1.0328 0.138174 0.218243 0.14654 0.143401 0.66074 0.676084 -1.18089 -0.654951 0.188167 -1.11883 0.462144 1.93784 -0.735405 0.0725214 0.184573 -0.441125 0.0805932 -0.763647 1.89237 0.338957 0.450028 0.217941 0.864154 -0.00922874 0.306892 -0.1244 -0.222011 -1.52215 -0.488258 0.838197 -1.38838 -0.295076 -0.117523 -0.982026 0.019753 -0.662839 -0.295104 -0.82487 -0.398293 0.165502 -0.100367 -1.16828 -0.495301 -0.0549172 0.291257 0.0646089 0.179918 -0.65231 0.275874 -0.0136257 -0.172799 -0.243169 0.521265 1.09189 0.0662381 -0.11376 -0.657612 -0.152584 -0.15433 -0.895032 0.556584 0.0641162 -1.03994 -0.228946 0.117918 -1.46409 0.0607509 -0.736724 1.06085 0.176842 0.113632 0.0642377 1.00274 -0.732665 0.451387 0.857066 0.516013 0.139465 1.37905 -0.81656 -0.111256 0.588633 -0.844773 -0.14971 -0.102542 0.0522198 -0.213382 -0.0140081 1.17058 0.352755 -0.945213 -0.445924 0.281164 0.130261 0.0139981 0.470193 -0.424029 0.258694 0.289003 0.44695 -0.12005 -0.217502 1.08884 0.379574 0.299612 -0.524249 0.0956423 -0.00364953 -0.529121 0.414245 0.905802 -0.631817 0.250917 0.487386 -0.381255 0.350056 -0.604918 0.859431 0.526143 0.235529 0.194268 0.97985 -0.664993 0.529293 0.595422 0.805142 0.441519 -0.665957 0.238123 0.583239 -0.503416 0.414643 -0.0359857 -0.391909 0.00227909 0.620841 0.559717 0.861447 -0.432097 0.571204 0.724313 0.725852 0.349232 0.316642 0.103241 1.09194 0.493265 0.0609211 0.0617109 0.247563 0.659504 0.749456 0.30604 -0.723978 -0.0905243 0.288075 -0.605565 0.742012 0.23477 -0.722004 0.368917 0.219344 -0.441155 0.561661 -0.166723 1.26784 0.601645 0.594111 0.263984 1.0163 -0.172272 0.775132 0.410315 0.306996 -1.50148 -0.321772 -0.156616 -1.22282 1.07743 0.575337 -0.380439 -1.4871 -0.27769 0.0719968 -0.649712 -1.14825 -0.152102 0.000884183 0.362332 -0.226475 -0.313992 -0.310107 -0.18299 0.0421774 -0.0844439 0.40744 -0.799301 0.072252 0.49196 0.0977862 -1.35253 -0.504809 -0.667595 -1.41108 0.245752 0.524034 -0.637294 -0.03098 0.390023 -0.65915 -0.250028 -1.06953 1.70133 0.110217 0.250346 -0.170465 0.468614 -0.5983 -0.0570149 -0.213407 -0.250311 0.179404 1.541 0.541097 0.965489 1.30878 1.05336 0.794284 0.606479 1.28538 1.65737 -0.0261026 1.20871 1.19281 0.790893 0.624107 0.856426 0.635559 1.41514 0.923484 1.49362 1.09567 1.28028 1.29545 1.26833 1.67458 0.365851 0.125257 0.945524 0.970126 1.22172 1.45177 0.49449 0.964517 1.40221 1.21269 1.54782 0.437695 1.75177 1.27101 1.29861 0.842593 2.03949 0.690086 1.12852 1.72339 0.965557 0.789127 -1.28596 0.457122 0.529172 0.0600548 -0.186291 0.226929 0.560104 0.579804 -0.0624542 0.538762 1.00988 0.319067 0.408807 0.759648 -0.461096 0.713992 0.317763 0.458852 0.152813 0.388971 1.01889 0.579914 0.557309 -0.667018 -0.672546 0.491446 -0.175687 0.930838 0.569434 -0.782914 0.142874 0.716698 0.00746862 0.554162 -0.4303 1.61235 1.16238 0.783249 0.289832 2.058 -0.311883 0.685644 0.906129 1.19904 -0.993165 -0.452372 -0.380963 -0.408478 -0.753643 -0.619045 0.334692 -0.504023 -1.24621 -0.610752 -0.243102 0.132956 -0.398392 -0.817192 -0.766188 -0.145367 -0.136854 -0.0927774 -0.136522 -0.546148 -0.131934 -0.442659 -0.525269 -1.41409 -0.91985 -1.50476 -1.48565 -0.276029 0.0914262 -0.775403 0.0150549 -0.0489722 -1.0956 -0.462498 -1.29548 0.486553 -0.25492 0.0471935 -0.613469 -0.0489201 -0.877041 -0.0995034 -0.349605 -0.347723 1.1305 1.00692 0.935608 -0.0221727 0.716927 1.08912 1.30993 0.621142 1.45479 1.33338 0.841056 0.631086 0.956112 0.356148 0.991137 0.718373 1.05693 0.754683 0.940352 0.9552 1.00149 1.20919 0.119188 0.895104 0.945084 -0.780013 1.19017 1.07838 0.334211 0.848045 0.849294 0.265824 0.880368 0.0623971 2.79829 1.473 1.01017 0.884221 2.25701 0.225724 1.07588 1.41817 1.26253 -0.517061 -0.433462 -0.717363 -0.399818 -0.176528 -0.0929209 -0.719385 -0.853685 0.773659 -0.104676 0.225861 -0.0042059 -0.149065 -0.269192 -0.173552 -0.246756 -0.12183 -0.281293 0.272139 -0.268043 -0.255047 -0.865605 -0.0807154 -0.1584 -0.839118 -0.342667 -0.514054 -1.10068 -0.356329 -0.51311 -0.844328 -0.315145 -0.880912 -0.193758 0.287537 0.0782983 0.301237 0.953928 -0.345321 0.282209 0.221239 0.226468 -0.0850058 -0.708324 -0.0687118 0.0846421 -0.139393 -1.09955 -0.447144 -0.274198 0.20589 -1.03145 -0.300038 -0.248962 0.111959 0.394319 0.18323 -0.133763 0.0931175 0.0591998 0.35403 0.0817589 -1.44946 -0.586715 -0.394999 -1.31426 0.362551 0.51027 -0.526126 0.122188 -0.00368772 -1.04733 0.0140609 -1.03799 0.930537 -0.162655 0.349027 -0.52244 0.781847 -0.872077 0.536581 -0.153657 -0.16382 -0.449605 1.82453 0.277234 0.792464 -0.732127 0.857118 0.536539 0.675896 0.118991 0.0869468 0.126119 1.19658 0.628421 0.796492 0.22769 0.0826104 0.21095 0.864258 -0.0479655 -1.0699 -0.264568 -0.0394084 -0.969643 0.746603 0.973313 -0.140269 0.11305 0.383739 -0.533664 0.343093 -0.620134 0.931235 0.447778 0.584343 0.105388 0.884813 -0.257268 0.523345 0.215411 0.178272 0.444942 2.11668 0.331478 -0.28003 0.446349 1.19075 0.763727 0.320133 0.571598 0.223078 0.859561 0.770296 0.715391 0.411941 0.812598 0.492487 0.946447 0.593436 -0.772561 0.0587439 0.218166 -0.627072 1.02071 1.52233 -0.0268513 1.54447 0.487529 -0.0310595 0.50049 -0.450509 1.53316 1.12896 0.91621 0.50699 1.36805 -0.140318 0.840482 0.458723 0.859473 0.372771 0.333461 -0.117678 -0.305622 0.672531 0.24824 0.473767 0.466002 -0.00326942 0.466789 0.341711 -0.361988 0.187944 -0.575132 0.418542 0.0774018 0.299476 -0.548885 -0.0955159 0.299344 -0.429727 0.31554 0.655246 -1.6695 0.0315974 0.462857 -0.433679 0.0536037 -0.33224 0.262149 0.541507 0.29624 0.484286 0.944066 -0.269997 0.558396 0.60585 0.428622 -0.568602 -0.971713 -0.440742 0.09319 0.497157 -0.0750045 -0.232795 -0.436783 -0.393564 -0.0748015 -0.0929184 -0.308752 -0.547032 -0.354091 0.102336 -0.442865 -1.33434 -0.645312 -0.872859 -1.2595 0.244656 0.528911 -0.541847 -0.191402 -0.141718 -0.746037 -0.0982336 -1.2497 0.59401 -0.0216575 0.202395 0.0118375 0.469355 -0.742587 0.100702 -0.300279 -0.322804 -1.13394 -0.253049 0.415681 0.0968256 -0.137801 -0.13678 -0.404257 0.93624 0.00193919 0.300945 -0.240376 -0.141971 0.220954 -0.108086 -0.409051 -1.51761 -0.831935 -0.207807 -1.49011 0.463534 0.100389 -1.35406 0.0181428 0.0467908 -0.857631 -0.231672 -0.908669 0.229309 0.117528 0.210888 -0.158486 0.580036 -0.477989 0.395668 0.0132288 -0.265006 1.00167 0.955177 0.757982 0.522371 0.54047 0.508606 0.874555 0.790478 0.917832 1.0325 0.59419 0.945277 1.01908 0.807438 -0.385728 -0.263125 0.467491 -0.109248 1.21901 1.11718 0.0246443 0.691243 1.18659 0.342876 1.0774 -0.584824 1.47155 1.06769 1.11953 0.434771 1.79774 0.308979 0.866297 0.587376 0.557123 0.79005 0.849937 -0.0877205 -0.20656 -0.372667 0.283994 0.85371 0.326503 0.507175 0.0964441 -0.0669957 0.354264 0.546022 -1.32931 -0.762028 -0.0366473 -1.30829 0.569482 1.21039 -0.675863 0.560861 0.340327 -0.604551 0.0777959 -0.593482 1.36984 0.325658 0.757323 -0.0467973 0.753976 -0.590592 0.492306 -0.00311267 -0.270769 0.167455 -0.398254 -1.02238 -0.357698 -0.123087 -0.586416 -0.368948 -0.133647 -0.142836 -0.156192 -0.173603 -0.343895 -1.10043 -0.702271 -0.948927 -0.896512 0.152167 0.0202048 -1.00094 -0.42335 -0.55912 -1.52006 -0.41922 -1.36696 0.155028 -3.01283 -0.0807171 -0.205454 -0.226192 -0.62117 0.0370018 -0.178224 -0.112406 -0.254531 -0.142061 -0.665778 -0.123491 -0.16861 -0.654829 -0.0812882 -0.380036 -0.186491 -0.763454 -0.184005 -0.781542 -0.405006 -0.423517 -0.637218 -0.411187 -0.222479 -1.0674 -0.407263 -0.20278 -0.65867 -0.322317 -0.947128 0.0662578 -0.350047 -3.26108 -0.475 0.315254 -0.516665 -0.00869995 -0.0715484 -0.0606473 -0.340959 -0.931341 -0.12308 0.0893987 -0.0680197 0.064375 -0.260374 0.0831361 -0.212841 0.0249084 -0.640582 -0.355793 -0.152982 -0.482482 0.0804836 0.118283 -0.593647 -0.12663 0.176184 -0.396112 -0.00520321 -0.810656 0.2746 0.23112 0.210924 -0.432672 0.929389 -0.710299 0.13015 -0.111367 -0.014312 0.141097 0.0251401 0.146584 -0.00131346 0.0584221 -0.17719 -0.0480709 0.167572 -0.219424 -0.713243 -0.757969 -0.404227 -0.640174 0.351667 0.22281 -0.547991 -0.0934007 0.22632 -0.518946 -0.0349255 -0.458969 0.274324 0.615131 0.315185 0.422273 0.937159 -0.0624649 0.350095 0.416575 -0.00485503 0.368489 0.536545 0.280007 0.454848 0.0227098 0.739948 0.259685 0.391305 -0.304323 0.0264689 0.203426 -0.179144 0.635703 0.376147 -0.580601 0.150946 0.474693 -0.0142329 0.381154 -0.416282 0.796153 0.220729 0.641274 0.774483 1.38353 -0.813498 0.519961 0.678981 0.372522 0.0778519 -0.717906 0.04598 -0.73449 -0.0813583 -0.489735 -0.0361788 -1.29336 -1.12128 -0.338496 -1.34577 0.353649 -0.0967064 -1.68796 -0.178459 0.0749253 -0.772068 -0.81941 -0.884341 -0.471782 0.183401 0.0806615 -0.0499323 0.420732 -0.413367 0.179492 -0.105772 -0.388342 0.175383 -0.438543 0.112895 -0.279045 0.182176 0.444132 -0.877181 -0.940909 -0.0453087 -0.884954 0.259532 0.37513 -0.893641 -0.257047 -0.0802068 -0.804659 -0.160605 -0.915867 0.879008 0.279149 0.281928 -0.0126626 0.532382 -0.584804 0.313451 -0.0485985 -0.134098 -0.180739 0.0491059 -0.168976 0.25685 -0.425231 -1.38006 -0.776874 -0.386779 -1.35569 0.540267 0.674803 -1.28004 0.102557 0.0596974 -0.423915 -0.200504 -1.06758 1.08356 0.349689 0.415235 0.0384498 0.643331 -0.407732 0.301168 -0.12016 -0.199557 0.231881 0.0994939 0.257193 -0.0266706 -1.33296 -0.995252 -0.319991 -1.16418 0.237036 0.119583 -0.379347 -0.11242 0.115876 -0.808216 0.0850153 -0.844156 0.535846 0.062234 0.202817 -0.0623903 0.592729 -0.487827 0.628291 -0.12494 -0.342262 0.256675 0.200794 -0.0849287 -1.20747 -0.652486 -0.26191 -1.22458 0.756183 0.635194 -0.283204 0.0770552 0.269506 -0.475051 0.0398689 -0.7363 0.462774 0.164764 0.501575 0.290245 0.663409 -0.269696 0.49191 0.0532245 -0.0732597 0.0244473 0.0832915 -0.555292 -0.767307 0.350819 -0.940199 0.42994 0.336058 -0.87053 -0.587937 0.102342 -0.53893 -0.303158 -0.176473 0.491482 0.63288 0.344301 -0.267648 0.686385 -0.843634 0.384632 0.6865 0.00441418 -0.306949 -1.29261 -0.971989 -0.265884 -1.09811 0.432358 0.448193 -1.16265 -0.613161 -0.748437 -0.85837 -0.147336 -0.892222 0.584823 0.00357363 0.23905 0.107839 0.881394 -0.275964 0.370314 -0.116755 -0.346359 -1.6318 -0.839328 -0.465247 -1.65277 0.275381 0.772015 -0.596388 -0.0261658 0.312416 -1.31015 0.0366419 -1.37169 1.4061 0.397882 0.351291 0.134111 0.623123 -0.420695 0.535744 0.000959861 -0.114587 0.104403 0.808376 -1.14245 1.31535 1.29149 0.302911 1.01544 1.17144 0.43343 1.21255 -0.0202847 1.62431 1.35137 1.29577 0.450445 1.56589 0.525134 1.01055 1.18269 0.775898 0.43563 0.313228 0.805585 0.679532 -0.33168 0.260396 0.90858 0.098763 0.777366 0.166047 1.28952 0.919071 0.976613 0.30918 1.76352 0.100816 0.899587 0.761363 0.869651 -0.674928 0.505127 0.789402 -0.375032 0.420716 0.632834 -0.953762 0.0412953 -1.00042 0.95075 0.695032 0.545045 0.457668 0.897845 -0.230597 0.73253 -0.0326154 0.155663 1.3217 1.30785 0.238906 1.01812 1.24767 1.42869 1.16697 0.74142 1.6822 1.16328 1.12235 0.303407 1.70002 0.532042 1.07748 1.10991 0.529176 -0.386905 -0.986139 -0.606981 -0.411651 -0.718203 -0.735986 -1.23341 0.17151 -0.230078 0.203122 -0.36887 0.072261 -0.78247 -0.228484 -0.163532 -0.450734 -0.959727 -0.925055 -0.615387 -0.659448 -0.209075 -0.967776 0.416057 -0.134947 0.367393 0.0712162 0.282266 -0.662249 0.356703 -0.383336 -0.301063 0.19443 0.67338 0.0101818 1.10822 0.121723 1.26891 0.946091 1.08617 0.645548 1.22406 0.216513 0.682827 0.76628 0.684037 -0.299947 -0.564703 -0.143332 -0.850627 0.888248 0.427325 0.381006 0.271855 0.940878 -0.491343 0.623733 0.325372 0.0696392 -0.659546 -0.0744234 -0.975024 0.727175 -0.077871 -0.0176677 -0.326643 0.335345 -0.685531 0.0361689 -0.280303 -0.545986 0.558794 -0.99301 1.65908 1.40939 1.09918 0.716298 1.60588 0.203101 1.05318 0.735213 0.66896 -0.472743 0.193733 0.234596 0.453011 -0.2814 0.712551 -0.514981 0.420465 0.31095 -0.134313 1.23093 1.25513 1.39498 0.807216 1.69352 0.728003 0.945749 1.06546 0.895185 -0.139743 -0.405496 -0.25513 0.166051 -0.864501 0.197559 -0.225769 -0.52756 0.644247 0.00265402 0.0613742 -0.873632 0.176656 -0.239592 -0.158464 -0.424677 0.141811 -0.750169 0.095722 -0.396336 -0.623458 0.779987 -0.939265 0.379675 0.131411 0.0689705 -1.38255 0.00556794 -0.313125 -0.583512 0.612633 0.531185 0.498781 -0.344556 -0.441453 0.144479
label 0 1 2 3 4 5 6 7 8 9 10 11 12 13 14 15 16 17 18 19 20 21 22 23 24 25 26 27 28 29 30 31 32 33 34 35 36 37 38 39 40 41 42 43 44 45 46 47 48 49 50 51 52 53 54 55 56 57 58 59 60 61 62 63 64
probA -2.99275 -3.01564 -3.16031 -3.1241 -3.18204 -3.18002 -2.99779 -3.31647 -3.41402 -3.22635 -3.35225 -3.26123 -3.59038 -3.16771 -3.19154 -3.54189 -3.07177 -2.70375 -3.18106 -3.25519 -3.15491 -3.32891 -3.17317 -2.28128 -3.30942 -3.43268 -3.30834 -3.20417 -2.97315 -3.53708 -3.04718 -3.33012 -2.98406 -3.18358 -3.04082 -2.96923 -3.33739 -3.37221 -3.31242 -3.10048 -2.93315 -3.48351 -3.15423 -2.94813 -2.86854 -3.13318 -2.91725 -3.05776 -3.42296 -2.76593 -3.47718 -3.32486 -3.26087 -3.21146 -2.91082 -3.42554 -3.2271 -3.18655 -3.04481 -3.12235 -2.98933 -3.23129 -2.79569 -2.94211 -3.34289 -3.54036 -3.36084 -3.65312 -3.28324 -3.01873 -3.26451 -3.28846 -3.4399 -3.31902 -3.22796 -3.20446 -3.46789 -3.30309 -3.26115 -3.02099 -2.73064 -3.69469 -3.39327 -3.64157 -3.43548 -3.22104 -3.28927 -3.35962 -3.27978 -3.43332 -3.20972 -2.91262 -3.00636 -3.55369 -3.49253 -3.40457 -3.61549 -3.31726 -3.39989 -3.05086 -3.26209 -3.24868 -3.31077 -3.07738 -3.37861 -2.79257 -2.50657 -3.6498 -3.28351 -1.7986 -3.34599 -3.31636 -3.16096 -3.26455 -3.3848 -3.71718 -3.39661 -3.39033 -3.40117 -3.53181 -3.60831 -3.10869 -3.42259 -3.34507 -3.50342 -2.82068 -2.80774 -3.1184 -3.27332 -3.28114 -3.11581 -3.14379 -3.16808 -3.01791 -3.33021 -3.27925 -3.01786 -3.02495 -3.25506 -3.12675 -3.10455 -3.03959 -2.93959 -3.17021 -3.14422 -3.31401 -3.23733 -3.09235 -3.08039 -3.29042 -2.8709 -3.1665 -3.37676 -3.13927 -3.05706 -3.15507 -3.25382 -3.25558 -3.24399 -3.40182 -3.00091 -3.12176 -3.14969 -3.16471 -3.10644 -3.0144 -3.3584 -3.07156 -3.13238 -2.88902 -3.21853 -3.29198 -3.16164 -3.08011 -3.06206 -3.16398 -3.14726 -3.08323 -3.2974 -2.97231 -3.1567 -3.23142 -3.294 -3.19163 -3.23258 -3.45831 -3.25812 -2.80051 -2.9277 -3.20436 -3.62289 -3.24015 -3.35388 -3.85996 -3.18664 -3.3687 -3.04096 -2.95973 -3.16467 -3.31802 -3.32725 -3.38767 -3.18786 -3.19944 -3.59074 -3.25608 -3.37089 -3.46618 -2.9333 -3.34109 -3.17095 -3.14163 -3.17751 -4.32506 -3.30442 -3.27579 -3.30479 -3.38548 -3.18967 -3.45272 -3.26436 -3.61915 -3.31472 -3.14419 -3.28819 -3.20963 -3.27075 -3.32822 -3.2177 -3.29983 -3.1395 -3.30243 -3.38898 -3.26674 -3.23709 -3.37798 -3.25325 -3.27995 -3.36709 -3.44986 -3.15302 -3.44406 -3.42686 -3.39795 -3.22738 -3.27307 -3.28233 -3.48267 -3.15817 -3.08388 -3.33456 -3.20969 -3.23798 -3.08716 -3.29664 -3.21588 -3.27107 -2.92982 -3.06276 -3.37618 -3.46588 -3.24236 -2.91317 -2.90348 -3.58894 -3.12376 -3.20596 -3.34616 -3.17732 -3.17566 -3.35505 -3.23463 -3.2604 -3.18732 -3.29214 -3.1078 -3.31378 -3.29136 -3.21803 -3.4191 -3.18347 -3.31507 -3.14436 -3.21009 -3.26886 -3.15999 -3.2138 -3.24611 -3.14239 -3.33897 -3.2726 -3.237 -3.43704 -3.3872 -3.25164 -3.19628 -3.2521 -3.33274 -3.09019 -3.32463 -3.08217 -3.30125 -3.41385 -3.35909 -3.16424 -3.51538 -3.20008 -3.36972 -3.01041 -2.96018 -3.49492 -3.11887 -3.44462 -3.35325 -3.45694 -3.67148 -3.21657 -3.34907 -3.38829 -3.41017 -3.54991 -3.19731 -3.15347 -3.37574 -3.01572 -3.3229 -3.472 -2.98333 -3.4093 -3.31768 -3.43159 -3.30717 -2.96301 -3.25977 -3.18379 -3.30367 -3.25925 -3.11532 -3.37736 -3.27692 -3.75015 -3.16794 -3.29486 -3.17935 -3.14292 -3.04648 -3.72629 -3.1231 -3.26284 -3.07826 -3.20719 -3.49402 -3.3913 -3.3625 -3.34541 -3.20756 -3.19027 -3.46616 -3.07299 -3.01876 -2.94336 -3.28088 -3.35248 -3.17504 -2.98339 -3.44591 -3.54401 -2.87229 -2.88868 -3.22397 -3.46912 -3.12569 -3.3721 -3.58552 -3.33171 -3.14373 -3.28412 -3.39377 -3.48713 -3.33906 -3.05485 -3.36104 -3.38257 -3.33158 -3.31135 -2.98293 -3.25058 -3.29662 -3.17378 -3.58449 -3.19477 -3.18261 -3.25021 -3.19661 -3.32047 -3.19896 -3.39093 -3.23136 -3.374 -3.47478 -3.44993 -3.60232 -3.32299 -3.18801 -3.50376 -3.36957 -3.12537 -3.13531 -3.31961 -3.33976 -3.41745 -3.43179 -3.19564 -3.36122 -3.22054 -3.47353 -3.42912 -3.06373 -3.1721 -3.27106 -3.32444 -3.21466 -3.34469 -3.19621 -3.34455 -3.06092 -2.93658 -3.18673 -3.24025 -3.16631 -3.3211 -3.1702 -3.12911 -3.40007 -3.31879 -3.18367 -3.03452 -3.13445 -3.24212 -3.18605 -3.13317 -3.23992 -3.14444 -3.15689 -3.52317 -3.29819 -3.14088 -3.17365 -3.43085 -3.02199 -3.31964 -3.22302 -3.09709 -3.41485 -2.79558 -3.29985 -3.07356 -3.27745 -3.12883 -3.26826 -3.35126 -3.39159 -2.94744 -3.3756 -2.95228 -2.79963 -3.07648 -3.26451 -3.28244 -3.08171 -3.27869 -3.2793 -3.34652 -3.29601 -3.07585 -3.26925 -3.48385 -3.31368 -3.11711 -3.51146 -3.31674 -3.37342 -2.80297 -3.0957 -3.3113 -3.21785 -3.51974 -3.2223 -3.34862 -3.31451 -3.34048 -3.26572 -3.08283 -2.89044 -3.33065 -3.25422 -3.16652 -3.47178 -2.95508 -3.27359 -3.29442 -3.1162 -3.34561 -3.72446 -3.03054 -3.44207 -3.18986 -3.18112 -2.95572 -3.28019 -3.16581 -3.40501 -3.19952 -3.17153 -3.18511 -3.1784 -3.13857 -3.49162 -3.07958 -3.11207 -3.09946 -3.15656 -3.20717 -3.33825 -3.33884 -3.30362 -3.13647 -3.18588 -3.15102 -3.70378 -3.05694 -3.34907 -3.30768 -3.35927 -3.01255 -3.19004 -3.27938 -3.37218 -3.14329 -3.16528 -3.42844 -3.35611 -3.05249 -3.42982 -3.48543 -3.32828 -3.24313 -3.32646 -3.01695 -3.44047 -3.36569 -3.43285 -3.46523 -3.23556 -3.41693 -3.56143 -3.20918 -3.45677 -3.29971 -3.17974 -3.41174 -3.55948 -3.32376 -3.23135 -3.49212 -3.27513 -3.36994 -3.31728 -3.16274 -3.30608 -3.60126 -3.25687 -2.82471 -3.26304 -3.1728 -3.21351 -3.3068 -3.26919 -3.30706 -3.32381 -3.34288 -3.16742 -3.32777 -3.34295 -3.44264 -3.03618 -3.417 -3.43596 -3.53012 -3.28277 -3.34863 -3.30856 -3.38663 -3.00369 -3.04658 -3.33265 -3.17074 -3.26298 -3.39871 -3.4065 -3.26329 -3.22762 -3.14468 -3.37028 -3.38283 -3.39122 -3.42901 -3.47505 -3.22165 -3.39966 -3.1243 -3.37573 -3.40267 -3.14822 -3.09099 -3.21684 -3.31386 -3.43186 -3.51549 -3.17609 -3.40702 -3.32409 -3.40125 -3.30353 -3.2663 -3.27657 -3.42263 -3.1063 -3.52384 -3.22989 -3.3581 -3.49562 -3.29157 -3.50496 -3.31087 -3.36625 -3.3381 -3.39846 -3.48628 -3.19238 -3.36412 -3.30619 -3.1597 -3.38424 -3.32151 -3.50845 -3.36775 -3.08844 -3.18467 -3.38031 -3.47191 -3.51498 -3.55479 -3.39356 -3.51103 -2.99287 -3.3509 -3.23442 -3.41998 -3.41011 -2.9465 -3.41778 -3.52451 -3.29304 -3.11849 -3.49102 -3.21374 -3.42299 -3.45469 -3.45214 -3.21956 -3.39359 -3.30255 -3.54056 -3.2398 -3.45628 -3.47143 -3.47033 -3.21633 -3.43476 -3.12354 -3.131 -3.13382 -3.22938 -3.31952 -3.37288 -3.55024 -3.30046 -3.34706 -3.40311 -3.32849 -3.66134 -3.07131 -3.52639 -3.44793 -3.23433 -3.29083 -3.39135 -3.42217 -3.38775 -3.09589 -3.18282 -3.26795 -3.4499 -3.39522 -3.22459 -3.20924 -2.80592 -3.0097 -3.31663 -3.23339 -3.36454 -2.93949 -3.21385 -3.35203 -3.17112 -3.4456 -3.28841 -3.07362 -3.39742 -3.14844 -3.3198 -3.07471 -3.24628 -3.17364 -2.68165 -3.08349 -0.25888 -3.20553 -3.36135 -2.97137 -3.40669 -2.99611 -3.04857 -2.88094 -3.16549 -3.1602 -3.2707 -3.36589 -3.12321 -3.34436 -3.30355 -3.29044 -3.47094 -2.84302 -3.28689 -3.17225 -3.19101 -3.10766 -3.13018 -3.20447 -3.27114 -2.99114 -2.87049 -3.19922 -3.25371 -3.22977 -3.15254 -2.81858 -3.20357 -3.19364 -3.09007 -3.12279 -2.97025 -3.47408 -3.46642 -3.38365 -3.50202 -3.25422 -3.12577 -3.34757 -3.03189 -3.24295 -3.10736 -3.26381 -3.13543 -3.51826 -3.17401 -3.35099 -3.11576 -3.23677 -2.92654 -3.43674 -3.22288 -3.0142 -3.00271 -2.95618 -3.17552 -3.38515 -3.9068 -3.14524 -3.33975 -3.4319 -3.07744 -3.33228 -2.82549 -3.36555 -3.1538 -3.13646 -3.09628 -2.97301 -3.03954 -3.19873 -3.03826 -3.09658 -2.90191 -3.27147 -2.93505 -2.90474 -3.36147 -3.12651 -3.44578 -3.33435 -3.14336 -3.18084 -3.41222 -3.29914 -3.44562 -3.41732 -3.43112 -3.12065 -3.27204 -3.38358 -3.24368 -3.51589 -3.37704 -3.56373 -3.05889 -3.3676 -3.32752 -3.33032 -2.55473 -3.60352 -3.173 -3.13685 -3.18127 -3.22022 -3.49757 -3.42244 -3.39667 -3.23629 -3.42919 -3.30182 -3.25394 -3.30205 -3.02949 -3.1984 -3.30139 -3.51474 -3.27817 -3.32107 -3.33139 -3.55512 -3.14529 -2.9271 -3.26519 -2.81058 -2.87252 -3.35119 -3.25928 -3.14586 -3.4359 -3.1736 -3.24486 -3.65722 -3.38044 -3.60478 -3.43956 -3.40359 -3.21734 -3.30571 -3.3621 -3.17613 -3.38027 -3.2854 -3.5169 -3.1303 -3.37098 -3.42509 -3.5494 -2.52091 -3.57329 -3.04194 -3.12086 -3.14207 -3.35571 -3.3523 -3.37059 -3.36135 -3.13283 -3.33203 -3.29132 -3.39926 -3.54622 -3.0882 -3.43975 -3.44485 -3.36818 -3.29858 -3.34601 -3.32282 -3.44673 -3.04014 -3.1149 -3.0997 -2.9566 -3.24857 -3.33747 -3.37318 -3.42621 -3.0615 -3.80223 -3.2216 -3.15499 -3.25708 -3.65633 -3.08703 -3.41348 -3.22843 -3.37441 -3.09939 -3.2231 -3.08279 -3.34925 -3.33489 -2.95153 -3.08331 -3.15415 -2.94079 -3.34837 -3.23727 -3.04585 -3.15163 -3.12719 -3.21551 -3.46537 -3.48604 -3.68163 -3.13484 -3.31089 -3.39389 -3.68469 -2.9455 -3.37915 -3.22678 -3.20573 -3.114 -3.27617 -3.09136 -3.31009 -3.10517 -3.10458 -2.65166 -3.08157 -2.89715 -3.1768 -3.08844 -2.88935 -3.11758 -3.1795 -3.13268 -3.06663 -3.2045 -2.88397 -3.21286 -2.98117 -3.21867 -3.01439 -3.11759 -2.94494 -3.29181 -3.04802 -3.19056 -3.11802 -3.31209 -2.61394 -3.41229 -3.28074 -2.88641 -2.76174 -3.12549 -3.02495 -3.30213 -3.57075 -3.24538 -3.16689 -3.11786 -3.13146 -3.27148 -2.8087 -3.65202 -3.03674 -3.00117 -3.09536 -3.05287 -3.02054 -3.12027 -3.04584 -2.97942 -2.44529 -2.98439 -2.69152 -3.09982 -2.92078 -2.80172 -3.01523 -3.07005 -3.03416 -2.90237 -2.08543 -2.72503 -3.2282 -3.1217 -2.95535 -3.25703 -2.90766 -3.10222 -2.80034 -3.05503 -2.94548 -2.94075 -2.89215 -3.2122 -2.76669 -1.93698 -2.44612 -3.0065 -1.40615 -3.02603 -2.93241 -2.79218 -2.89381 -3.0233 -3.26447 -3.11737 -3.23168 -2.98689 -3.06899 -3.1135 -2.87202 -2.89998 -2.90514 -3.26195 -2.30966 -2.58964 -3.30495 -3.44278 -3.54924 -3.41312 -3.24004 -3.35655 -3.3698 -3.37338 -3.42744 -3.45964 -3.48627 -3.38822 -3.51849 -3.23919 -3.5683 -2.94222 -3.63568 -2.99747 -3.30339 -3.05352 -3.176 -3.5378 -3.49343 -3.07915 -3.49957 -1.21466 -3.377 -2.89295 -3.43321 -3.3391 -3.20993 -3.28482 -3.32188 -3.45817 -3.38256 -3.2327 -2.61728 -3.4875 -3.28039 -3.09445 -3.26613 -3.18928 -3.61678 -2.84 -2.90393 -3.30683 -3.22389 -3.17993 -3.31901 -3.41193 -3.3575 -3.58784 -3.37284 -3.17913 -3.22403 -3.1344 -3.31805 -3.26329 -3.47799 -3.31113 -3.30491 -3.25985 -3.32041 -3.24372 -3.40824 -2.98089 -3.37377 -3.1582 -3.2143 -3.13055 -3.15539 -3.36016 -3.46342 -3.29257 -3.10064 -3.49171 -3.09982 -3.28356 -3.34565 -2.96852 -3.22837 -3.17027 -3.3294 -3.39591 -3.42522 -3.2778 -3.67042 -3.00952 -3.07475 -3.28286 -3.15519 -3.22919 -3.43188 -3.37883 -3.38192 -3.32271 -2.99901 -3.18908 -3.10623 -3.42946 -3.20526 -3.46522 -3.44322 -3.39563 -3.15913 -3.39146 -3.26422 -3.2613 -2.91807 -3.60033 -3.15092 -2.81226 -2.87546 -3.49922 -3.76783 -3.38854 -3.4239 -3.26204 -3.26094 -3.12246 -3.29286 -3.47808 -2.74104 -3.22943 -3.309 -3.30501 -3.14976 -3.17023 -3.439 -3.42459 -2.72955 -2.6494 -3.17667 -3.47163 -3.46586 -3.53662 -3.37915 -3.43402 -3.3002 -3.5195 -2.72896 -3.03547 -3.28442 -3.19166 -3.19244 -3.6045 -3.13541 -3.4327 -3.28887 -3.38099 -3.25666 -3.52276 -2.94181 -3.22001 -2.9846 -3.32102 -3.28678 -3.24246 -3.37685 -3.38615 -3.42694 -3.31686 -3.44047 -3.5294 -3.19155 -3.50178 -3.06333 -3.18186 -3.26493 -3.47369 -3.3224 -3.35748 -3.05591 -3.07377 -3.06626 -3.19816 -3.14702 -3.29637 -2.78707 -3.16055 -3.31064 -2.94827 -3.42714 -3.2578 -3.21729 -3.13834 -3.34053 -2.83116 -3.29044 -3.22673 -2.89933 -2.96369 -3.12895 -2.89229 -3.04534 -2.90688 -3.28498 -3.16138 -3.53771 -3.4355 -2.99019 -3.12908 -3.35347 -3.35958 -3.25143 -2.93608 -3.56542 -3.29434 -3.09481 -3.31616 -3.02736 -3.06005 -3.37486 -2.89192 -2.98263 -3.44985 -3.43464 -3.32163 -3.44641 -2.97304 -3.53778 -3.10209 -3.36167 -3.06921 -3.35401 -3.10916 -3.19943 -3.32298 -2.91284 -2.91311 -3.3122 -3.087 -3.41874 -3.07242 -2.95691 -2.87406 -3.1372 -3.12385 -3.2049 -3.48383 -0.711337 -3.22062 -3.31302 -3.18499 -3.43158 -2.93377 -3.28337 -3.17175 -3.13784 -3.16882 -3.08288 -3.11833 -3.43484 -3.01801 -3.10135 -3.58474 -3.32557 -3.34171 -3.18643 -3.36783 -3.18891 -3.47494 -3.23504 -3.42651 -3.2088 -3.55533 -3.19599 -3.46583 -3.2315 -3.55878 -2.91015 -3.54172 -3.32843 -3.209 -2.99304 -3.43435 -3.27794 -3.45134 -3.4352 -3.33374 -2.898 -3.32643 -3.61204 -3.37689 -3.07437 -3.40813 -3.43169 -3.27981 -3.24769 -3.33431 -3.29563 -3.38685 -3.04255 -3.10259 -3.27655 -3.22977 -3.25568 -3.33572 -3.35227 -3.47799 -3.11717 -3.36513 -3.12761 -3.02996 -3.22093 -3.68014 -3.21157 -3.13397 -3.09345 -3.16356 -3.18098 -3.20536 -3.10663 -3.30708 -3.41288 -3.42627 -3.36822 -3.14075 -3.48655 -3.48148 -3.34962 -3.40367 -3.16818 -3.43545 -3.35418 -3.35703 -3.1059 -3.15393 -3.15933 -3.19706 -3.1881 -3.06768 -3.36431 -3.30849 -3.3113 -3.3015 -3.2881 -3.21486 -3.38323 -3.19441 -3.41605 -3.20434 -3.48169 -3.34901 -3.43302 -3.00935 -3.40536 -3.2831 -3.21561 -3.06369 -3.47914 -3.30284 -3.39242 -3.35384 -3.151 -3.23611 -3.25012 -3.49923 -3.45362 -3.02485 -3.41652 -3.42135 -3.07056 -3.25926 -3.37861 -3.14979 -3.35446 -3.16209 -3.07166 -3.15321 -3.37734 -3.26272 -3.16977 -3.06819 -3.35915 -3.253 -3.65597 -3.35851 -3.18921 -3.40854 -3.25713 -3.06037 -3.57466 -3.13269 -3.10063 -2.96579 -3.16745 -3.07605 -3.37936 -3.46731 -3.44946 -3.2933 -3.34301 -3.25631 0.217399 -2.9956 -3.40469 -3.25993 -3.22307 -3.13228 -3.06085 -3.35837 -3.46918 -2.99734 -3.01741 -3.12739 -3.32182 -3.26157 -3.06606 -3.35414 -3.04625 -3.34225 -3.02332 -3.28218 -3.08584 -3.06908 -3.04994 -3.31913 -2.87309 -2.92924 -2.9421 -3.1092 -2.8496 -3.13109 -3.10179 -2.9934 -3.14303 -3.20919 -3.59565 -3.17259 -3.22565 -3.20464 -3.48327 -3.43715 -3.08104 -3.19021 -3.20901 -3.26797 -2.83589 -2.83348 -3.01045 -3.45779 -2.94829 -3.13441 -2.98494 -3.45633 -3.39057 -3.85424 -3.13518 -3.40011 -3.00335 -3.58666 -3.00248 -2.82502 -2.70221 -3.00673 -2.94523 -3.35943 -3.41034 -3.53217 -3.34637 -3.21471 -3.04203 -3.33657 -2.66247 -2.18351 -3.06664 -3.08356 -2.99245 -2.89072 -3.02277 -3.30352 -2.87455 -2.99303 -2.8501 -3.11231 -3.19255 -3.22366 -3.28604 -3.15393 -3.31795 -3.04709 -3.26968 -3.49439 -3.46033 -2.93207 -3.37445 -3.15204 -3.21759 -3.43348 -3.2968 -3.25232 -3.07065 -3.34398 -3.13197 -3.24733 -3.36152 -3.17553 -3.20284 -0.144905 -2.61543 -3.25335 -2.8391 -3.20664 -3.39798 -3.24052 -3.18972 -3.25907 -3.45095 -3.21743 -3.3624 -3.26389 -3.38907 -3.31355 -3.40822 -3.38043 -3.29017 -3.14252 -3.27406 -3.23166 -3.35171 -3.3899 -3.38763 -3.54046 -3.28506 -3.57413 -3.22689 -3.43362 -3.35668 -3.19448 -3.48916 -3.15916 -0.00985403 -3.28531 -3.34366 -3.30795 -3.44608 -3.24537 -3.13672 -3.44686 -3.32289 -3.18956 -3.25421 -3.22201 -3.11692 -3.1826 -3.05802 -3.07592 -3.0752 -3.09665 -3.08202 -3.10725 -3.20893 -3.26304 -3.21227 -2.99326 -3.22723 -3.22272 -3.07573 -3.17566 -2.95265 -3.27534 -3.16007 -3.332 -0.391686 -3.56087 -3.30087 -3.33012 -3.10848 -3.20184 -3.24038 -3.4331 -3.3677 -3.49523 -3.27807 -3.3538 -3.46841 -3.42906 -3.25163 -3.41075 -3.26409 -3.18867 -3.59719 -3.40708 -3.30632 -3.21176 -3.30308 -3.43988 -3.20664 -3.42735 -3.33405 -3.54657 -3.21444 -3.50918 -3.68529 -2.85467 -3.35334 -3.51315 -3.2656 -3.25508 -3.42953 -3.10249 -3.24455 -3.14096 -3.23708 -3.17433 -3.34653 -3.05259 -3.0994 -3.00397 -2.98322 -3.3007 -3.37277 -3.3964 -2.97205 -3.29642 -3.31071 -3.08916 -3.40752 -2.91311 -3.38074 -3.22091 -3.26569 -3.35317 -3.11642 -0.604863 -3.43244 -3.05484 -3.00878 -3.3906 -2.79003 -3.05375 -2.72971 -3.10807 -3.65527 -3.27643 -3.29818 -3.19852 -3.25973 -3.38016 -3.44834 -3.63613 -3.29959 -3.35214 -3.02453 -3.37797 -3.71098 -3.19266 -3.24508 -3.42465 -3.3522 -3.19015 -3.28637 -3.38877 -3.57041 -3.1547 -3.29841 -3.33868 -3.06494 -3.1963 -3.14462 -3.38581 -3.5719 -2.80135 -2.9264 -2.95939 -2.97552 -3.319 -3.43849 -3.20283 -3.13134 -3.17567 -3.10555 -3.40818 -2.93018 -3.2836 -3.13589 -2.9948 -3.15268 -3.1439 -3.13141 -3.33907 -2.8837 -2.88335 -3.25921 -3.11413 -3.21727 -3.53843 -3.24974 -3.18143 -3.14753 -3.28517 -3.29695 -3.2911 -3.3477 -3.50517 -3.56594 -3.25032 -3.51625 -3.40474 -3.09446 -3.29371 -3.21398 -3.28451 -3.22445 -3.31099 -3.2554 -3.36566 -3.23262 -3.21767 -3.29084 -3.28417 -3.31186 -3.23913 -3.18204 -3.00994 -3.26545 -3.16652 -3.24929 -3.48712 -3.11922 -3.32115 -3.24612 -3.27426 -3.29442 -2.84976 -3.15805 -3.31466 -2.9738 -3.18999 -3.14476 -3.16105 -3.38208 -2.94609 -3.17434 -2.92616 -3.0595 -3.08314 -3.18623 -3.04907 -3.26702 -3.22502 -3.29541 -3.31713 -3.55698 -3.24149 -3.31288 -3.25065 -3.34155 -3.0213 -3.2407 -3.3982 -3.19162 -3.11806 -3.25134 -3.03196 -3.34058 -3.19759 -3.14426 -3.14887 -2.9639 -2.85869 -2.97429 -3.24215 -3.73639 -3.19901 -2.75792 -2.93823 -3.0142 -3.10126 -2.70028 -3.0795 -3.14502 -3.19507 -3.50842 -3.44467 -3.08951 -3.42522 -3.05432 -3.44703 -2.86924 -2.89474 -3.28673 -3.2525 -3.11121 -3.35141 -3.41833 -3.50752 -3.46154 -3.55308 -3.48809 -3.66409 -3.48851 -3.51266 -3.1714 -3.2513 -3.39166 -3.33755 -3.17171 -3.25783 -3.33841 -3.49235 -3.14656 -3.23114 -2.94629 -2.71103 -2.87301 -3.06889 -3.33852 -3.65661 -3.05581 -3.19503 -3.15164 -3.19488 -3.27053 -2.91488 -3.39485 -3.09858 -2.95539 -3.04083 -2.86434 -3.02792 -3.43979 -2.77637 -2.52144 -2.76772 -3.29265 -0.441201 -3.2656 -2.98054 -2.85545 -3.12105 -3.21481 -3.0973 -3.24618 -2.70335 -2.99282 -3.48089 -3.34476 -3.19576 -3.28421 -3.07367 -3.38249 -2.54834 -2.70216 -2.87604 -2.29914 -3.16875 -3.06522 -2.89149 -2.91641 -3.21352 -2.94096 -3.04581 -2.78959 -2.77409 -3.23734 -3.36953 -3.1112 -2.88863 -2.92787 -3.35494 -2.59617 -3.03192 -3.27397 -3.37582 -3.41497 -3.0157 -3.32049 -3.21706 -3.51757 -3.26978 -3.18318 -3.33204 -3.37547 -3.27763 -2.98641 -3.06698 -3.16285 -3.37786 -3.14785 -2.76731 -3.46787 -3.23874 -3.11209 -3.14507 -3.36446 -3.45006 -3.43326 -2.46362 -3.11061 -3.63462 -3.51389 -3.10536 -3.13636 -3.39792 -3.59397 -2.68475 -2.9065 -3.15307 -3.34755 -3.28234 -3.35247 -3.46704 -3.4093 -3.15215 -3.45932 -3.38877 -3.26807 -3.27117 -3.42289 -3.3503 -3.4314 -3.18103 -3.30764 -3.51655 -3.06924 -3.3043 -3.28982 -3.32442 -3.06093 -3.57476 -3.34177 -3.43525 -3.20477 -3.27288 -3.16073 -3.421 -3.05338 -3.08541 -3.2107 -3.29242 -3.22518 -3.45671 -2.83054 -3.6344 -3.09998 -3.06896 -3.01278 -3.05301 -2.87108 -3.42908 -3.01665 -2.99243 -3.18926 -3.30009 -3.38419 -3.0705 -3.31801 -3.52213 -3.32312 -3.28078 -3.30333 -3.21038 -3.44348 -2.89987 -2.96956 -3.15374 -3.30521 -2.99218 -3.22265 -3.23432 -3.15334 -3.25021 -3.3567 -3.25543 -3.30162 -3.0659 -3.17426 -3.59586 -3.2235 -3.2253 -3.42678 -3.3252 -3.27254 -3.25512 -3.18899 -3.37203 -2.49485 -2.7562 -3.17703 -3.5298 -3.3646 -3.55616 -3.26681 -3.14573 -3.28539 -3.47224 -3.17895 -3.16531 -2.88812 -3.30693 -3.24292 -3.03477 -3.09048 -2.94539 -3.29001 -2.32713 -2.71572 -3.20479 -3.21286 -3.2917 -2.99252 -3.37092 -3.54947 -2.91377 -3.09029 -2.84947 -3.30836 -3.04556 -3.38168 -3.43303 -3.02035 -3.1661 -3.42762 -3.20381 -3.36971 -3.39448 -3.30576 -3.25696 -3.52257 -3.256 -3.39147 -2.88197 -3.06063 -3.20436 -3.37542 -2.96575 -3.07859 -3.30779 -2.96673 -2.92982 -3.31229 -3.412 -2.38607
probB 0.0812759 0.156372 -0.0397026 0.207293 0.120426 0.173743 0.150634 0.0167037 0.445867 0.184498 0.123456 0.246674 -0.0253179 0.0253918 -0.0174976 -0.0575052 0.0594888 -0.126338 -0.00258019 -0.0420063 0.0113333 0.394182 0.176724 0.428733 -0.0637945 0.851032 0.397373 0.109696 -0.00523218 0.0642936 0.387662 0.277214 0.105934 0.31445 0.141104 0.567128 0.0506708 0.030672 0.0904464 0.155768 0.344243 0.330982 0.0862875 0.0239712 0.00265773 0.0881882 0.108524 0.358013 0.156136 0.221544 -0.0415941 0.235881 -0.045144 0.157112 -0.154257 0.488754 -0.0314116 0.314479 0.305538 0.402559 -0.014405 0.206557 0.151718 0.0568896 0.344096 0.271986 0.112012 0.495675 0.157686 -0.285459 0.174732 0.100884 0.208547 0.0288237 0.126074 0.0321168 0.595138 0.203244 0.0372221 0.0273153 0.084035 -0.161764 0.254475 0.281512 0.236881 0.339075 0.128062 0.0805041 0.496991 0.241266 0.127747 0.0499096 0.142125 0.280999 0.0937604 0.0678433 0.13503 0.023697 0.281316 0.167655 0.0636312 0.13936 0.244657 0.066617 0.180636 0.31056 0.0798 -0.485472 0.247967 -0.0954125 0.181258 0.451919 -0.102719 0.397019 0.198354 0.219041 0.0606165 0.0571129 0.469558 0.0276188 0.390097 0.122725 0.495818 0.157428 0.181466 0.0565328 0.0851189 0.147117 0.235266 0.142554 0.13394 0.0509125 0.0287756 -0.0075899 0.0467321 0.151792 -0.138489 0.0834016 0.297772 0.0764955 -0.0501203 0.0731169 -0.360964 0.0581238 0.187446 -0.150562 0.0884467 0.334092 -0.0799583 -0.0191472 0.0881354 0.216068 0.0896461 0.186575 0.049741 0.316864 0.136886 0.0960982 0.31419 -0.00234204 0.144893 0.165784 -0.121935 0.0774066 0.110623 0.28158 0.383778 0.114923 -0.356437 -0.0853418 0.144094 -0.321308 0.124559 0.0910122 -0.12623 0.175077 -0.0561338 0.0191051 0.070898 -0.204256 0.510269 0.230789 0.333152 0.13552 0.596264 0.0598964 0.134108 0.0831436 -0.00418928 0.0531203 0.238496 0.353623 -0.0693708 0.0871975 0.0690658 0.182733 -0.123531 -0.163569 0.0200982 0.0705678 -0.113921 -0.109313 0.120914 -0.486852 0.0477649 -0.0121847 -0.437723 0.200192 0.0999203 -0.145746 -0.0540912 0.00381321 0.0632403 -0.015969 -0.182476 0.169864 0.139398 0.126122 0.0468249 0.126485 0.0459664 0.124332 0.22237 0.0361058 0.239248 0.170326 0.159712 0.0849546 0.00635085 -0.402778 -0.263896 -0.0775947 -0.510391 0.244135 0.0899124 -0.269352 0.108279 0.191608 -0.30772 0.158414 -0.221268 0.246033 0.00653152 0.233581 0.142276 0.377615 -0.114788 0.171334 0.0697322 0.0833744 -0.197032 -0.0628482 -0.147273 -0.0569551 -0.029004 -0.0449637 0.0385639 -0.0651289 0.0236117 -0.0791369 0.0444918 -0.125666 -0.0468642 -0.337493 -0.256378 0.156692 -0.472327 0.0897644 0.117065 -0.042587 -0.0762792 0.0301831 0.0676043 -0.175131 -0.359637 -0.0471782 0.189141 0.0753829 -0.087381 0.0312526 -0.171178 -0.104166 0.0942887 0.0274544 0.0499461 -0.12911 -0.0757072 0.0544846 -0.0728667 -0.386336 -0.381458 -0.210444 -0.403417 0.0443389 0.0333693 -0.243689 0.0912422 0.0542823 -0.273261 0.0706381 -0.519416 0.0148757 -0.030271 0.159947 -0.13275 0.214304 -0.229455 0.0936203 0.011429 0.0551089 0.242324 -0.0146618 0.160118 -0.00765884 0.282784 -0.0427924 -0.0150744 -0.0602234 0.0665319 0.00211005 0.129959 -0.0665833 -0.534072 -0.596287 0.169955 -0.342883 0.217099 0.296904 -0.243802 -0.0149884 0.0219146 0.181011 0.0997156 -0.0477323 -0.189899 0.155051 0.100414 -0.0133301 0.0804235 -0.01294 0.0921717 0.113542 0.0975798 -0.00696509 0.535375 0.0440169 0.121163 -0.26219 -0.442104 -0.292937 -0.0361848 -0.308817 -0.0135399 0.108465 -0.392622 0.137912 0.0534863 -0.300698 0.0287669 -0.148777 0.0630252 0.0189409 0.383656 -0.0887697 0.457512 -0.0374106 0.141902 0.116664 0.203079 -0.0432812 -0.285156 -0.154913 0.193467 -0.346527 -0.110981 -0.0257059 -0.257193 -0.202755 -0.123115 -0.135882 -0.517234 -0.250106 -0.0716152 -0.327305 0.319417 -0.124896 -0.212583 -0.183919 -0.0965989 0.119885 -0.358782 -0.125738 -0.415885 0.0954988 0.0988386 -0.0536538 0.0729191 -0.115946 0.120933 0.209186 -0.345918 -0.395105 0.0226473 0.139956 0.115265 -0.189874 -0.257972 -0.315916 -0.135664 -0.268886 -0.0228813 -0.0260172 -0.0023559 0.126868 0.144357 -0.308602 -0.32132 -0.267807 0.0721928 0.00776095 0.0848585 -0.0194284 0.310945 -0.182048 0.104631 0.0889267 0.108409 -0.0117606 0.175026 0.386754 -0.0234269 -0.0565136 0.0617411 0.214399 0.0748999 -0.125978 0.107592 -0.109374 -0.00322557 0.20606 -0.148713 0.23611 0.201278 -0.0563613 -0.0279748 0.0838884 0.0997048 -0.00512035 -0.158695 -0.0246735 0.188811 0.152761 0.133169 0.308542 0.129701 -0.0371278 0.114506 0.0913774 0.122669 0.127952 0.127941 0.0712605 -0.0542671 -0.156768 -0.117314 0.0684242 -0.0369454 0.295889 0.0957953 -0.332981 0.248399 0.0631548 0.114555 -0.00656842 -0.155504 0.246494 0.185114 0.486197 0.331613 0.518537 0.287913 0.102388 0.105923 0.117686 0.000774075 0.25196 -0.11781 -0.211856 0.0473782 -0.130727 -0.078971 -0.420708 -0.0936944 -0.333796 -0.142949 0.152061 -0.110871 0.321189 0.239866 -0.174625 -0.148836 0.118575 0.0882286 0.176369 0.0324174 -0.138509 0.222058 0.179297 0.0859209 0.184375 -0.0662988 -0.180922 0.0079939 -0.0220556 0.201758 0.00821501 0.105097 0.239471 -0.0127133 -0.338063 -0.176951 0.0408589 -0.066309 0.142498 0.141087 -0.183978 0.130817 0.171306 -0.149784 -0.143062 -0.19414 0.0468628 0.0035453 0.325759 0.0725922 0.340997 -0.144114 0.204318 0.196366 0.0586191 0.0893134 -0.172725 -0.154 -0.218496 0.149676 -0.100297 -0.158408 -0.0725947 -0.448018 -0.370693 0.0398089 -0.286684 0.16476 0.0891257 -0.124909 -0.313899 -0.0264813 0.276702 -0.05728 -0.226045 -0.0626411 0.0927149 -0.0312269 -0.0122509 0.012309 -0.112761 0.353674 0.0293809 0.032262 0.202584 0.098636 -0.00949351 0.592774 -0.144479 -0.254541 -0.225406 -0.0876836 -0.152973 0.0612201 -0.0640472 -0.307748 -0.246774 -0.254721 -0.0741272 -0.129503 -0.0895552 0.0963401 -0.122584 0.216875 -0.00104733 0.435388 -0.0930342 0.165059 0.102437 -0.347697 -0.232781 -0.364054 -0.231929 -0.125897 -0.173522 -0.0785864 -0.239614 -0.514768 -0.396436 -0.236605 -0.477767 0.0491556 0.109732 -0.27666 -0.175042 -0.217758 -0.128148 -0.243124 -0.304296 -0.209478 0.00981068 -0.118335 -0.106853 -0.0518667 -0.326406 -0.116894 -0.100221 -0.0703908 0.0135146 -0.126299 -0.0556721 -0.12834 -0.0924945 -0.549004 -0.255865 -0.188362 -0.239178 -0.0770164 0.0317673 -0.241851 -0.0988945 -0.0573891 -0.376209 -0.265922 -0.411581 -0.0361086 -0.0821201 0.0305268 -0.138414 0.0481974 -0.198489 0.01323 0.0601112 0.0799848 0.089771 0.181241 -0.0670213 -0.265095 0.0713761 0.0709594 -0.311471 -0.303684 0.264614 -0.231109 0.369685 0.260986 0.159981 -0.273795 0.130862 0.30159 0.400611 -0.182484 -0.0263847 0.271482 0.0286263 0.0939349 0.0959748 -0.0842398 0.0847745 0.184888 0.108259 0.0465288 0.298648 0.236839 0.109064 0.0531677 -0.148642 -0.197103 -0.180753 -0.209621 0.227316 0.137005 0.0261604 0.276559 0.164918 -0.215532 0.276855 -0.207323 0.256519 0.000928186 0.321981 0.0603501 0.429303 -0.14775 0.154931 -0.0213701 -0.00630303 0.0848678 0.175061 -0.0336682 0.19898 -0.0794351 -0.199892 0.0383749 0.100745 -0.372957 0.247111 0.180805 -0.492694 0.0597277 0.396013 0.114719 0.157658 -0.119891 -0.311761 0.223506 0.307629 0.0528096 0.15056 -0.0166877 0.4016 0.156976 0.0307962 -0.319185 0.60005 0.260244 0.571886 0.0457011 -0.254101 -0.0347665 -0.0558975 -0.148768 0.0783405 0.260047 -0.0206686 0.310792 0.0910486 -0.238161 0.267196 0.00629607 0.315344 0.0636707 0.379213 0.0984074 0.524744 0.0784008 0.216548 0.136411 0.224774 0.193532 -0.0943064 -0.0179582 -0.338713 -0.462581 -0.276722 0.0409135 -0.230965 0.373054 -0.0052902 -0.169101 -0.0991855 0.236937 0.287517 0.38518 -0.105912 -0.239958 0.406528 0.129522 -0.00447811 0.0974793 0.0194267 0.119317 0.214039 0.0171479 0.0745199 0.142114 0.306098 0.184998 -0.0892015 -0.222961 -0.133927 -0.0447173 -0.171977 0.110473 -0.175895 0.0723471 0.152812 0.120662 -0.247409 0.173159 -0.033768 0.116534 0.0797567 0.204813 0.148651 0.381652 0.0336877 0.0478339 0.161532 0.0816101 -0.670259 0.153525 0.256665 -0.588736 -0.490558 0.170391 -0.62323 0.163678 0.215031 0.0285885 0.0707842 0.154188 0.425998 0.0772469 -0.37999 0.259289 0.140821 0.248082 -0.0555491 0.0793654 -0.151654 0.0775493 -0.0876334 -0.00222471 0.119039 0.383462 0.0739466 0.0803442 0.205333 -0.465491 -0.426787 -0.0165036 -0.795292 0.144884 0.155085 -0.100902 0.45625 0.323404 -0.27472 0.0326422 -0.516216 0.338688 0.0065078 0.423313 0.112776 0.178973 -0.23315 0.0527042 -0.0580508 -0.0476807 0.118477 0.346055 -0.442465 -0.313024 0.306609 -0.21274 0.450163 0.311939 -0.00467295 0.125379 0.256485 0.503856 0.335194 -0.175956 0.144457 0.389325 0.287104 -0.0693853 0.214573 0.0133259 -0.051488 -0.0148356 0.075815 0.278246 0.325153 0.244516 0.168201 0.0207073 -0.194092 -0.280006 0.248975 -0.40991 0.138155 0.374848 -0.0612848 0.443586 0.23653 0.0281067 0.159294 -0.180239 0.398382 0.256945 0.299972 -0.134967 0.384963 -0.0879474 0.132787 0.347263 0.0342245 -0.201925 -0.206857 0.0538735 0.131749 -0.114012 0.226229 0.235035 -0.748481 -0.0174358 0.312156 0.257613 0.264269 0.067973 -0.0279437 0.376352 0.218154 0.0522577 0.256408 0.0956733 0.285081 0.175289 0.0611276 0.0150905 0.382834 0.251458 0.124305 0.0832828 -0.180859 -0.245325 0.0577788 -0.0985111 -0.140633 0.197972 -0.312694 0.198238 0.13007 -0.379543 0.0390507 0.0289299 0.0137833 0.0551834 0.25752 0.0694989 0.466311 0.00926026 0.16451 0.156936 0.125456 -0.264843 -0.054071 0.18334 -0.213373 0.554761 0.0621244 0.118942 -0.262226 0.172181 0.222504 0.328705 -0.102759 -0.0964993 0.273529 0.318992 0.112302 0.194469 -0.00866878 -0.0160704 0.237532 0.0315018 0.0450796 0.153959 0.198321 0.278986 -0.146543 -0.152783 0.0576503 -0.18584 -0.0226814 0.111759 0.149525 -0.230215 0.187891 -0.030335 -0.23017 -0.0529873 -0.192584 -0.0142912 0.149297 0.453364 0.201648 0.305107 -0.08525 0.0837809 0.209997 -0.0407668 0.31531 0.346325 0.0607315 0.497961 0.508892 0.318286 0.453841 0.622646 0.319228 0.361585 0.208713 0.183248 0.434276 0.223102 0.0395711 0.318457 0.209628 0.353129 0.454778 0.464385 0.255115 0.426975 0.48528 0.385248 0.214965 -0.150143 0.162467 0.532575 -0.174301 0.133018 0.382636 0.117389 0.497007 0.2424 0.111557 0.419374 -0.0653641 0.588526 0.077818 0.532055 0.390437 0.617075 0.174558 0.364333 0.384126 0.448409 0.25475 -0.0437261 0.366566 0.56306 0.0421169 0.108475 0.394952 0.206856 0.3006 0.365323 0.587579 0.148148 0.280316 -0.090457 0.0621258 0.0229008 0.267524 0.101468 0.387354 0.407275 0.242061 0.514962 0.25193 0.379151 -0.278756 -0.20503 0.269616 -0.457875 0.291641 0.140979 0.1007 0.418636 0.143117 0.0249742 0.359846 -0.0477282 0.287663 0.350667 0.376784 0.15016 0.511968 -0.130583 0.0704678 0.220634 0.0888749 -0.204356 -0.195284 -0.149405 -0.0495944 -0.298631 0.0289138 0.237103 -0.344827 -0.235248 -0.316729 0.263215 0.0657745 -0.114111 -0.104289 -0.0836493 -0.0645751 0.0425487 -0.0196707 0.0842527 -0.0800434 0.150086 -0.086956 0.0439011 -0.314797 -0.297107 -0.0230741 -0.310095 0.027486 0.248616 -0.263845 0.249201 -0.0451015 -0.210372 -0.22023 -0.27659 0.0480616 -0.0368579 0.334762 -0.201536 0.110573 -0.20846 0.0146717 0.0962469 0.10397 0.410971 0.523453 0.140704 0.498199 0.474668 0.586595 0.0966804 0.352933 0.392958 0.455404 0.373509 0.0655118 0.265721 0.237031 0.144524 0.45755 0.349988 0.333378 0.424052 0.213489 0.354496 0.40707 -0.137678 0.229066 0.376515 -1.27298 0.205223 0.553976 0.0655945 0.521631 0.185946 0.190027 0.171623 0.0235633 0.68656 0.333364 0.528732 0.117446 0.598464 0.3701 0.148261 0.401756 0.313043 -0.0389241 -0.340362 -0.20869 -0.280261 -0.186279 -0.261456 -0.369452 -0.402407 0.0154829 -0.0354234 0.0113152 -0.534075 -0.188538 -0.287119 -0.239851 -0.241156 -0.245038 -0.118582 -0.0560217 -0.247467 -0.0543023 -0.296949 -0.153425 -0.073219 -0.340783 -0.155026 -0.451893 -0.578579 -0.177982 0.0585216 -0.293117 -0.309611 -0.413517 -0.212806 -0.315724 -0.0825663 0.102458 0.182839 -0.149403 0.0231532 0.171573 0.0557581 -0.208342 -0.1945 -0.0441045 0.0385056 -0.00251895 -0.326368 -0.270684 0.0563219 0.32609 -0.0451954 -0.100671 -0.236724 -0.33505 -0.103566 -0.117562 -0.00582443 0.0547288 -0.0290892 -0.140233 -0.149509 -0.481151 -0.235332 -0.350873 -0.252477 0.170211 -0.0020277 -0.333112 0.072881 -0.0754833 -0.483592 -0.13647 -0.396014 -0.0857289 -0.233001 0.233206 0.0374343 0.274154 -0.22753 0.0300636 0.00852601 0.0394217 -0.193341 0.766619 0.184889 0.210845 -0.0890091 -0.16162 0.290379 0.12783 0.0203984 -0.0223249 0.0829793 0.404054 0.259309 -0.0255091 0.137188 0.497809 0.2241 0.161611 -0.0368626 -0.17628 -0.138943 -0.078356 -0.0632808 -0.0564083 -0.125497 0.010717 0.121807 -0.00696549 -0.00818695 0.0628462 -0.222699 0.182714 0.146645 0.135672 0.0200939 0.49625 0.20141 0.109545 0.108368 0.144767 0.264063 0.762565 -0.064823 -0.195924 0.00649889 0.185915 0.288277 -0.0455949 0.0336628 0.0718626 0.0604789 0.0930917 0.00872501 0.135976 0.31031 0.154646 0.160065 0.0730111 -0.319752 -0.163886 -0.143056 -0.383884 0.156319 0.510069 -0.190512 0.0655222 0.0740766 -0.394419 0.0725476 -0.199838 0.404818 0.0711475 0.32558 0.0521788 0.349088 -0.116788 0.0753456 -0.0429895 0.190664 0.0595068 -0.368982 -0.360931 -0.290993 0.164078 0.080735 0.154028 0.0560425 0.010322 0.0160415 0.0812782 -0.50596 -0.202617 0.0407099 -0.112704 0.142166 -0.0411572 -0.410258 -0.228534 -0.161677 -0.449948 0.12073 -0.0394174 -0.650801 -0.0584243 -0.06534 -0.35017 -0.163418 -0.512681 -0.0457403 -0.0368827 0.285871 0.0957639 0.43192 -0.0623194 0.145489 -0.226831 -0.0159747 -0.337861 -0.24997 -0.299887 0.0622016 0.0558032 -0.0288112 0.0267513 -0.02805 -0.141624 -0.302723 -0.319416 0.128285 -0.0711109 -0.00735003 -0.092643 -0.0989444 -0.182346 -0.211905 -0.337629 -0.186947 -0.200202 -0.0981467 -0.302485 0.00231909 0.165962 -0.400588 -0.113451 -0.32732 0.129468 -0.118375 0.0713015 -0.0213783 0.209854 -0.147165 0.199621 -0.0796076 0.0269362 -0.176676 -0.0277853 0.305657 0.0770051 -0.137036 0.32579 -0.119265 0.320289 -0.00345277 -0.190179 -0.0133346 0.122302 0.104341 -0.150308 -0.0373165 -0.211745 -0.17405 0.0309349 -0.00986071 0.0709377 -0.16582 -0.0918411 0.325848 -0.0317875 -0.254165 -0.0151164 -0.243754 0.171479 0.0423505 0.267608 0.0421616 0.371584 -0.0557219 0.0119544 0.165914 0.248235 0.125727 0.340489 0.213013 0.047236 0.0935613 -0.0722057 0.138323 0.181744 0.429192 0.227819 0.104332 0.161065 0.259712 0.022663 -0.131841 -0.150436 0.0570093 -0.150133 0.115929 0.240471 -0.071339 0.45571 0.0917116 -0.207031 0.156269 -0.238864 0.343477 0.304164 0.349149 0.177733 0.520674 -0.180241 0.0962801 0.112752 0.165598 0.120403 0.263992 0.126531 0.175142 -0.0205984 0.530377 0.178395 0.0228717 0.256753 0.384189 0.297211 0.337246 0.044213 -0.120224 0.0956241 -0.0405193 -0.0498386 0.107486 0.351986 0.110763 0.303326 0.19127 -0.109577 0.036562 0.0437973 0.370428 0.142087 0.165477 0.174679 0.331965 0.0213266 0.170981 0.168461 0.106298 0.157246 -0.197614 -0.164073 -0.375858 -0.253485 -0.189236 -0.223973 0.0834625 -0.130552 -0.189631 -0.0757495 -0.109636 -0.236137 -0.117987 -0.178489 -0.140788 -0.0665132 -0.0948925 -0.297679 -0.202838 -0.184569 -0.482973 -0.233709 -0.298873 0.0471658 -0.0672121 0.0252552 -0.00150273 0.0899761 -0.156811 -0.125715 0.106124 0.128183 -0.0973317 -0.0584219 -0.202237 -0.2244 -0.00562927 -0.179154 0.111062 -0.244093 -0.120402 -0.0494812 -0.126905 -0.118915 -0.0158641 -0.265008 -0.0622407 -0.0766961 -0.00239455 -0.163152 -0.101324 -0.0274011 -0.356953 -0.0962226 -0.138439 -0.179124 -0.378023 -0.0817998 -0.134011 0.187434 -0.127875 -0.0187714 0.197821 0.123397 -0.267825 -0.300553 -0.0617037 0.0220344 0.068503 0.0737049 0.0529326 0.0741289 0.0473149 -0.0645232 -0.0496063 -0.234854 -0.00742964 -0.0513282 0.04785 0.0638435 -0.0920702 0.121735 -0.0534723 -0.102032 0.0174814 -0.0471575 0.140455 0.0517484 0.364293 -0.00303151 0.147277 -0.225545 -0.0348508 0.0719373 0.0197888 -0.133185 -0.00870894 0.052394 0.0459633 -0.0628908 -0.0264944 -0.249637 -0.121001 -0.223457 -0.253131 -0.140632 0.0242789 -0.251531 0.0131244 -0.103051 -0.275621 0.0679406 -0.121246 -0.276676 -0.174811 -0.358034 0.125955 0.10069 0.243195 0.310253 0.0425323 -0.184888 -0.054861 0.151632 0.085658 -0.00371311 0.197027 -0.0505598 0.143422 0.127896 0.075302 0.00421701 0.019412 -0.294907 -0.146115 0.241354 -0.387819 0.130003 0.0647986 -0.150679 0.365626 -0.0340847 -0.102185 0.068742 -0.156736 0.315197 0.169795 0.352007 0.246177 0.311388 -0.032331 0.0631765 0.168562 0.31203 0.0768033 -0.568902 -0.2153 -0.150793 0.182916 -0.174506 0.0151297 -0.113697 -0.178409 -0.0387583 -0.171614 0.35204 -0.120512 -0.550062 -0.0837327 -0.0211847 -0.105179 -0.117849 -0.397731 -0.294551 0.106856 0.34248 0.0817701 0.32295 -0.170953 0.217909 0.0509081 -0.0912032 -0.0895256 -0.0167842 0.0223343 -0.202847 -0.0251846 -0.373426 -0.119735 -0.313687 -0.119231 -0.221864 0.0830849 0.0725594 -0.271107 0.0170716 -0.115858 -0.382245 -0.14562 -0.184839 0.332355 0.0552187 0.119207 0.0231008 0.19791 -0.132926 -0.0191068 0.0833525 -0.0255805 0.162584 0.439904 0.168173 0.436107 0.0141017 -0.339087 -0.192075 -0.217276 -0.186995 0.0970011 0.244258 -0.0362243 0.234715 0.137453 -0.456044 -0.0967733 -0.188415 0.560238 0.105613 0.20431 0.0480522 0.260605 -0.0700184 0.0541569 -0.0594499 -0.0170589 0.033931 0.0370892 -0.160784 -0.222114 -0.237032 -0.159673 -0.205208 -0.144588 0.0803249 0.0576453 -0.188784 0.0680837 0.0520246 -0.0621518 -0.0329897 -0.0869346 -0.0867839 -0.0890599 0.0929113 0.149723 0.220723 -0.167859 0.0261903 0.0604281 0.0118346 0.261161 -0.121919 -0.192953 -0.414278 -0.225638 -0.391452 -0.156932 0.0334943 0.0913978 -0.608351 0.115906 -0.0610885 -0.194745 -0.249046 -0.239504 0.0147898 -0.0137155 0.20632 -0.0231302 0.3013 -0.111759 0.0364171 0.0950502 0.103824 -0.204766 0.066441 -0.0919812 -0.046221 -0.00428886 -0.700497 -0.170362 -0.179964 -0.447669 -0.031406 -0.201845 -0.24546 -0.176338 -0.117979 0.125757 0.0920751 0.283543 0.0681927 0.260755 -0.273661 0.0249768 0.00481409 0.0867439 -0.084892 -0.341181 -0.345312 -0.124833 -0.300341 0.0359975 0.172512 -0.334279 -0.291122 -0.171068 -0.267182 -0.331726 -0.261665 0.041095 0.0274089 0.241243 0.155399 0.251912 -0.176553 0.160296 0.0459959 -0.0331608 -0.084124 -0.0174844 -0.164223 -0.14746 0.0557324 0.138491 -0.216117 0.137428 0.0783911 -0.387721 0.02183 -0.174096 0.35015 0.148062 0.187076 0.0553805 0.271208 0.0357485 0.130405 0.0663386 -0.0991565 0.227675 0.321506 0.0706469 0.223995 0.285238 -0.0375503 0.378769 0.0708131 0.349015 0.1707 0.0379654 0.536482 0.161199 0.350556 0.173562 0.485975 0.227572 0.164623 0.454899 0.273371 0.172378 0.000878399 0.116837 0.192661 0.135601 0.25803 0.204306 -0.0944534 0.240251 -0.0991393 0.526525 0.213984 0.341975 0.158589 0.558764 0.0526334 0.155949 0.0176904 0.320869 -0.258757 0.130369 0.298824 -0.173345 0.318421 0.219649 -0.145672 -0.000617149 -0.290591 0.226224 -0.0374968 0.408202 0.100269 0.31075 -0.038753 0.0500948 0.0882878 0.061909 0.253866 0.194081 0.0297246 0.361038 0.178071 0.696585 0.151055 0.210845 0.414917 0.277046 0.356945 0.233241 0.313482 0.320344 0.27151 0.404295 0.343998 -0.346772 -0.254445 -0.0131511 -0.064677 -0.22538 -0.0898651 -0.117577 -0.265955 -0.145895 0.0501211 0.0285218 0.127574 -0.0957923 -0.116003 0.128639 0.0115282 -0.366999 -0.0340443 -0.0242422 -0.51074 -0.0884101 -0.238993 -0.0779879 -0.167651 0.255422 0.106122 0.251413 -0.119378 0.0860221 0.0196015 0.0361412 0.389442 0.306928 0.0906008 0.124443 -0.0104278 0.409654 0.236376 0.420226 0.203783 0.582212 0.22471 0.191368 0.188081 0.228658 0.125788 -0.407068 -0.258853 -0.547215 -0.0222079 -0.164648 0.0686657 0.00664355 0.198125 -0.347244 0.022108 -0.0098264 -0.162752 -0.0520907 0.03739 -0.193069 -0.207527 -0.115348 0.137134 0.0173511 0.152056 -0.143033 0.0156435 0.057125 -0.00224363 0.467167 -0.168165 0.38925 0.320068 0.280084 0.257742 0.616885 0.223762 0.17122 0.11547 0.232444 -0.138203 0.279101 0.0203847 0.28196 0.0236548 0.207868 -0.246985 0.0584926 0.160157 0.202111 0.385006 0.309582 0.524528 0.286042 0.554672 0.264982 0.30938 0.207863 0.260586 -0.0159042 0.140058 0.0187575 0.00444974 -0.307447 -0.0108583 -0.014512 -0.201513 0.153654 -0.0278935 0.192589 -0.225653 -0.0100191 -0.0246914 0.225753 -0.246419 0.0753225 -0.270687 -0.127645 -0.128693 -0.14348 0.142528 -0.239006 -0.0557669 0.11273 -0.0543345 -0.323047 -0.163097 -0.081133 -0.198746 0.0923577 0.0869904 0.260506 0.0154038 -0.100353 0.00539172
nr_sv 32 35 24 33 24 33 29 28 30 30 26 34 32 25 27 30 26 27 21 35 29 32 33 30 33 35 28 31 37 26 30 36 36 33 33 33 32 28 36 28 28 27 33 27 29 30 28 37 22 34 36 31 26 33 37 23 33 35 34 36 31 34 23 18 23
SV
0 0 0 0 0 0 0 0 169.5441276238271 0 0 0 594.5026884431857 0 0 0 0 0 0 0 0 0 0 0 0 0 0 0 0 362.4028343759797 0 0 0 0 0 0 0 0 0 0 0 0 0 0 0 0 0 0 0 248.6140053549922 0 0 0 0 0 0 0 0 0 0 0 0 0 0 1:0.0980392 2:0.14902 3:0.105882 22:0.298039 28:0.403922 34:0.290196 41:0.290196 46:0.0980392 47:0.443137 56:0.596078 59:0.466667 61:0.196078 64:0.662745 66:0.454902 69:0.607843 71:0.0431373 76:0.141176 77:0.0156863 81:0.0313725 94:0.0156863 98:0.439216 101:0.00784314 102:0.454902 121:0.105882 122:0.14902 123:0.0509804 127:0.0941176 128:0.168627 133:0.0941176 140:0.282353 146:0.396078 150:0.0117647 153:0.0117647 155:0.65098 158:0.596078 160:0.662745 163:0.196078 165:0.466667 168:0.596078 176:0.137255 193:0.0784314 197:0.337255 198:0.0313725 
0 0 0 0 0 0 0 0 0 0 0 0 900.6997316075191 0 0 0 0 0 0 0 0 0 0 949.0003006004596 0 0 0 0 0 0 0 0 0 0 0 0 0 0 0 0 0 0 0 0 0 0 0 971.3414224781935 538.5196707801557 2048 7.296775494008945 24.20119670092398 0 0 0 0 0 0 0 0 0 0 0 0 1:0.164706 2:0.14902 3:0.141176 22:0.760784 23:0.0313725 28:0.0745098 29:0.0941176 34:0.133333 41:0.698039 46:0.0941176 47:0.0196078 54:0.0117647 56:0.466667 59:0.933333 61:0.196078 64:1 66:0.337255 69:0.933333 71:0.0431373 74:0.0235294 76:0.0313725 81:0.380392 94:0.0627451 98:0.141176 99:0.0156863 102:0.701961 120:0.00784314 121:0.133333 122:0.14902 123:0.105882 127:0.109804 128:0.0313725 133:0.588235 140:0.109804 145:0.0156863 146:0.0784314 150:0.0117647 155:0.933333 158:0.337255 160:1 163:0.196078 165:0.92549 168:0.478431 170:0.0117647 175:0.0156863 176:0.192157 180:0.0627451 193:0.254902 198:0.0784314 
0 0 0 0 0 1344.967366753832 0 0 0 0 645.9447946395148 847.4439714802456 0 0 0 0 44.93033054688793 0 0 0 0 0 59.61423614796368 0 0 0 0 0 0 0 0 0 0 0 0 0 0 2048 0 0 0 0 0 0 0 0 0 0 0 423.6042461921672 0 553.0484569612324 0 0 0 0 0 0 0 0 0 0 0 0 1:0.0980392 2:0.14902 3:0.14902 22:0.305882 28:0.0156863 29:0.0313725 41:0.0627451 46:0.156863 47:0.219608 53:0.0431373 56:0.129412 59:0.65098 61:0.196078 64:0.662745 66:0.184314 69:0.65098 74:0.0117647 76:0.0784314 81:0.141176 98:0.141176 101:0.0313725 102:0.760784 121:0.14902 122:0.14902 123:0.0980392 127:0.0156863 128:0.0313725 133:0.0784314 140:0.105882 145:0.0784314 150:0.0117647 155:0.92549 158:0.596078 160:1 163:0.196078 165:0.92549 168:0.596078 170:0.0117647 176:0.137255 180:0.0627451 193:0.0784314 197:0.521569 198:0.0313725 
0 0 0 0 0 0 0 0 0 0 0 0 19.88849890319452 0 0 0 0 0 0 0 0 0 0 0 0 0 0 0 0 0 0 0 0 0 0 0 0 0 0 0 0 0 0 0 0 0 0 0 0 0 0 0 0 0 0 0 0 0 0 0 0 0 0 0 2:0.662745 3:0.054902 22:0.596078 28:0.764706 41:0.0627451 46:0.0313725 47:0.0784314 56:0.521569 58:0.0235294 61:1 64:0.0235294 66:0.933333 68:0.0117647 69:0.0117647 73:0.0117647 81:0.529412 93:0.0156863 98:0.984314 102:0.694118 121:0.188235 122:0.14902 123:0.0313725 127:0.133333 133:0.0196078 146:0.772549 155:0.0117647 158:0.607843 160:0.0235294 163:1 165:0.0235294 168:0.65098 171:0.0117647 176:0.815686 193:0.0156863 197:0.0156863 198:0.0156863 
0 0 0 0 0 0 0 0 0 0 0 0 0 0 0 0 0 0 0 0 0 0 0 0 0 0 0 0 0 0 0 0 0 0 0 0 0 0 0 0 0 0 0 0 0 0 0 0 0 673.7085912816761 0 0 0 0 0 0 0 0 0 0 0 0 0 0 1:0.105882 2:0.14902 3:0.133333 4:0.00784314 21:0.00784314 22:0.419608 23:0.00784314 28:0.384314 29:0.027451 34:0.360784 41:0.027451 46:0.101961 47:0.101961 54:0.0117647 56:0.521569 59:0.466667 61:0.662745 64:0.662745 66:0.65098 69:0.607843 71:0.0117647 74:0.0235294 81:0.27451 94:0.0196078 98:0.164706 101:0.00784314 102:0.34902 120:0.0588235 121:0.141176 122:0.14902 123:0.105882 127:0.360784 128:0.027451 140:0.564706 145:0.129412 146:0.101961 150:0.054902 155:0.737255 158:1 160:1 163:1 165:0.737255 168:0.933333 170:0.054902 175:0.0352941 176:0.164706 180:0.254902 193:0.12549 197:0.0196078 
858.9820241025704 729.2398001623045 1015.571099598611 356.1328662611197 928.5553097210858 615.7819287744945 237.2230192966645 1482.38992313915 452.5089710396838 244.2177777235594 354.1318974461844 486.6416940055992 1904.221614792152 451.9107070892329 48.74260355185512 268.7646964723822 227.5507347649104 572.0558664920899 1125.134373983614 36.460191341902 622.0721951764953 535.2343084421721 0 1742.376334317875 595.8414232322565 1653.863621597496 63.2374846584997 478.6094668884733 301.8365449237633 373.3572203054522 480.8643647114351 754.4615263035397 182.4229735830208 311.8762682885922 339.2549237557478 1086.12481771574 98.46788590078961 1291.437957257 1114.667192619346 1719.843669030233 174.1570727749117 1399.780598714498 278.8749121488459 438.2188955758321 492.5375526877131 176.1703723072119 400.173549417084 543.5219442130798 682.2567407625082 2048 42.71218167921241 284.3513296347147 539.3540275406413 760.5849348902958 878.326821495117 1039.602261593382 561.5325573747035 251.6131816560091 159.9489165351893 314.0852256336202 622.0179139493284 1118.544185787718 172.1268256776773 13.60403426260469 1:0.117647 2:0.141176 3:0.14902 21:0.00784314 22:0.0156863 29:0.262745 46:0.0235294 54:0.054902 56:0.129412 59:0.65098 61:0.521569 64:0.0666667 66:0.619608 68:0.0313725 81:0.0745098 86:0.435294 89:0.0196078 91:0.0745098 93:0.0941176 97:0.0745098 98:0.415686 102:0.172549 103:0.0117647 121:0.662745 122:0.619608 123:0.0431373 128:0.0784314 145:0.141176 151:0.0431373 156:0.0117647 158:0.533333 160:0.129412 163:0.564706 165:0.65098 168:0.0313725 176:0.564706 177:0.0196078 181:0.0392157 183:0.415686 188:0.207843 193:0.0745098 
0 0 0 0 0 0 0 0 0 0 0 0 621.6256528348862 0 0 441.8590744056343 0 0 0 0 0 0 0 2003.474919051287 0 0 0 0 0 0 0 0 0 0 0 0 0 868.4801601926755 23.40200921278275 0 0 114.7588392511042 0 0 0 0 0 0 0 0 0 0 0 0 0 0 0 0 0 0 0 0 0 0 1:0.164706 2:0.14902 3:0.164706 21:0.0588235 22:0.760784 23:0.12549 28:0.454902 46:0.392157 56:0.196078 59:0.196078 61:0.196078 64:0.196078 66:0.196078 69:0.196078 73:0.0117647 76:0.380392 98:0.380392 101:0.0980392 102:0.760784 103:0.0313725 120:0.00784314 121:0.133333 122:0.14902 123:0.0980392 128:0.231373 145:0.0392157 146:0.0980392 150:0.0117647 155:0.662745 158:0.662745 160:0.662745 163:0.662745 165:0.662745 168:0.662745 175:0.0156863 176:0.192157 198:0.176471 
0 0 0 0 0 0 0 0 0 0 0 0 0 0 0 0 0 0 0 0 0 0 0 1007.26017246114 0 0 0 0 0 0 0 0 0 0 0 0 0 0 0 0 0 0 0 0 0 0 0 0 0 0 0 0 0 0 0 0 0 0 0 0 0 0 0 0 1:0.0509804 2:0.14902 3:0.0980392 4:0.00784314 22:0.65098 23:0.00784314 28:0.329412 34:0.360784 41:0.235294 46:0.0313725 47:0.109804 56:0.129412 59:0.521569 61:0.0235294 64:1 66:0.172549 69:0.564706 77:0.0627451 81:0.345098 94:0.0941176 98:0.407843 102:0.65098 103:0.00784314 121:0.0980392 122:0.14902 123:0.188235 127:0.105882 128:0.0784314 133:0.0627451 140:0.168627 146:0.321569 155:0.478431 158:0.184314 160:1 163:0.0666667 165:0.564706 168:0.32549 176:0.776471 180:0.254902 188:0.0156863 193:0.301961 197:0.0627451 198:0.0156863 
0 0 0 0 0 0 0 0 67.52961599137559 0 0 0 0 0 0 0 0 0 0 0 0 0 0 359.9724387686444 0 0 0 0 0 0 0 0 0 0 0 0 0 0 0 0 0 0 0 0 0 0 0 0 0 272.6637483470467 0 0 0 0 0 0 0 0 0 0 0 0 0 0 1:0.247059 2:0.14902 3:0.247059 22:0.760784 28:0.576471 34:0.235294 36:0.0156863 41:0.0627451 46:0.156863 51:0.0117647 53:0.0431373 56:0.172549 59:0.466667 61:0.0235294 64:0.662745 66:0.184314 69:0.466667 76:0.333333 77:0.0156863 81:0.0784314 94:0.0627451 97:0.0627451 98:0.65098 101:0.0666667 102:0.466667 121:0.466667 122:0.164706 123:0.368627 127:0.223529 128:0.0784314 133:0.109804 135:0.0627451 140:0.603922 146:0.364706 150:0.0117647 151:0.0117647 153:0.0431373 155:0.933333 158:0.619608 160:0.607843 163:0.662745 165:0.478431 168:0.521569 176:0.301961 180:0.0627451 185:0.0156863 193:0.364706 198:0.0313725 
0 0 0 0 0 1608.819705878208 0 0 1052.789279750569 0 0 2048 154.4071982265513 0 0 0 0 0 0 0 0 0 0 0 0 0 0 0 0 0 0 0 0 0 0 0 0 2048 0 0 0 1049.315672350223 0 0 0 0 0 0 0 0 0 649.6310317325926 0 0 0 0 0 0 0 0 0 0 0 104.048947486708 1:0.156863 2:0.14902 3:0.156863 22:0.0156863 28:0.792157 34:0.0156863 56:0.172549 58:0.0117647 59:0.0117647 61:0.65098 64:0.196078 66:0.172549 69:0.0117647 73:0.0117647 81:0.0941176 97:0.0156863 98:0.843137 102:0.101961 121:0.345098 122:0.141176 123:0.192157 127:0.0627451 133:0.0156863 135:0.0627451 140:0.0627451 146:0.427451 151:0.0431373 155:0.172549 158:0.0666667 160:0.607843 163:0.196078 165:0.129412 168:0.0117647 171:0.0117647 176:0.713725 193:0.0156863 
2048 1333.877388730668 2048 1859.915955474982 2048 2048 1730.815760026521 2048 2048 1909.80356298097 2048 2048 1171.066360142759 2048 2048 2048 1566.464262668543 2048 2048 2048 2048 1250.85780245861 2048 2048 2048 2048 2048 2048 1999.318811555775 2048 2048 1753.056375283687 1269.864619343182 1201.556475245406 1475.478526047803 2048 2028.257482269147 2048 2048 2048 1527.674711669473 2048 2048 2019.432508507348 2048 2048 2048 2043.739369384802 781.2176000820277 2048 2048 2048 2048 2048 2048 1441.624907409907 2048 2048 1344.862676092639 1464.162857179625 1590.271410893467 2048 1409.649174542384 2031.442942542823 1:0.172549 2:0.14902 3:0.313725 22:0.0901961 28:0.333333 47:0.0156863 57:0.0235294 59:0.0235294 62:0.0235294 64:0.0235294 67:0.0235294 69:0.0235294 77:0.0156863 98:0.364706 102:0.117647 121:0.2 122:0.14902 123:0.305882 127:0.411765 140:0.0627451 145:0.0313725 146:0.364706 150:0.0235294 155:0.65098 157:0.196078 160:0.662745 162:0.196078 165:0.607843 167:0.196078 176:0.227451 
0 0 0 0 0 0 0 0 0 0 0 0 0 0 0 0 0 0 0 0 0 0 0 2048 0 746.0275262633639 0 0 0 0 0 0 0 0 0 0 0 0 0 748.9533751779147 0 0 0 0 0 0 0 0 0 2048 0 0 0 0 0 0 0 0 0 0 0 0 0 0 1:0.0509804 2:0.14902 3:0.133333 21:0.188235 22:0.14902 23:0.156863 28:0.239216 29:0.0313725 34:0.603922 46:0.65098 55:0.0117647 56:0.0117647 59:0.478431 60:0.196078 64:1 65:0.0235294 69:0.729412 71:0.0117647 74:0.0117647 76:0.717647 80:0.0313725 94:0.235294 98:0.141176 101:0.156863 102:0.14902 103:0.0431373 121:0.133333 122:0.14902 123:0.0980392 128:1 134:0.0156863 140:0.576471 146:0.235294 150:0.0117647 155:0.478431 159:0.0666667 160:1 164:0.196078 165:0.337255 169:0.0235294 171:0.0745098 176:0.439216 180:0.360784 194:0.0784314 198:0.780392 
0 0 0 0 0 0 0 0 673.4474885737176 0 0 677.036013628736 0 0 0 878.5502187190873 0 0 0 0 0 0 0 2048 0 0 0 0 0 0 0 0 0 0 0 0 0 1376.746015304254 0 911.2316698082934 0 0 0 0 0 0 0 0 0 1382.780184042236 0 0 0 87.79258443443011 0 0 0 0 0 0 0 0 0 0 1:0.2 2:0.14902 3:0.164706 22:0.643137 28:0.54902 34:0.282353 47:0.133333 56:0.196078 59:0.184314 61:0.196078 64:0.662745 66:0.196078 69:0.270588 77:0.0627451 94:0.109804 98:0.717647 102:0.180392 121:0.133333 122:0.14902 123:0.156863 127:0.776471 135:0.0627451 140:0.541176 145:0.0156863 146:0.239216 155:0.533333 158:0.0235294 160:0.607843 163:0.0235294 165:0.521569 168:0.0235294 172:0.0117647 176:0.470588 180:0.415686 185:0.0196078 197:0.0745098 
0 420.4853942569457 890.7960312781729 416.3477256580364 241.4567437773295 580.1522835166204 31.60714196330428 1884.13102969988 324.2338050199681 116.9336851702097 1400.241385447854 1315.066141711428 1473.959778374465 827.7174754078532 770.514892181458 208.186036593987 1655.899874645199 0 1290.872935241171 693.2462155031951 559.321286844608 646.0804626526807 1411.572800655721 1132.064796389538 2048 0 1753.462907434819 350.5409652130878 98.5398509447414 1211.969052997867 657.0164590771253 377.3179229881622 97.89858835584566 41.76414274543813 64.77235111799219 2048 293.9782711774906 2048 1479.276914123092 2048 241.9450903605954 0 295.4087999752504 0 7.309760658279403 470.8554341300884 0 1114.436478424951 760.4494362228229 1538.494861903252 1522.386169026021 0 1246.049700566626 488.3500314942121 0 1539.458552777553 292.9069352155243 589.3108344172445 116.6250899903123 298.7614145130948 0 0 0 0 1:0.12549 2:0.14902 3:0.14902 22:0.117647 29:0.34902 46:0.0784314 54:0.0431373 57:0.0666667 59:1 61:0.117647 64:0.521569 66:0.662745 69:0.0235294 71:0.054902 77:0.321569 82:0.0156863 86:0.137255 89:0.337255 93:0.0156863 97:0.0313725 98:0.431373 102:0.0588235 120:0.180392 121:0.14902 122:0.133333 123:0.00784314 128:0.0509804 145:0.333333 151:0.239216 153:0.054902 155:0.054902 158:0.270588 160:0.662745 163:0.0666667 165:0.65098 167:0.054902 170:0.172549 172:0.0431373 176:0.223529 180:0.0313725 183:0.34902 185:0.411765 188:0.109804 192:0.0784314 197:0.239216 
0 0 0 0 0 0 0 0 0 0 0 184.9907961284496 0 0 0 0 0 0 0 0 0 0 0 583.3949011109082 0 0 0 0 0 0 0 0 0 0 0 0 0 0 0 0 0 0 0 0 0 0 0 0 0 448.5879728183243 0 0 0 0 0 0 0 0 0 0 0 0 0 0 1:0.0588235 2:0.141176 3:0.133333 21:0.00784314 22:0.760784 28:0.239216 29:0.0313725 34:0.541176 41:0.223529 46:0.443137 56:0.423529 59:0.521569 61:0.270588 64:0.533333 66:0.184314 69:0.129412 73:0.239216 81:0.65098 86:0.109804 89:0.34902 94:0.0156863 97:0.0156863 98:0.458824 102:0.760784 103:0.00784314 121:0.105882 122:0.141176 123:0.0588235 128:0.443137 133:0.223529 140:0.541176 145:0.0313725 146:0.333333 151:0.239216 155:0.129412 158:0.184314 160:0.933333 163:0.466667 165:0.521569 168:0.423529 176:0.458824 177:0.0156863 180:0.0156863 185:0.0627451 188:0.0627451 193:0.65098 
0 0 0 0 0 2048 0 0 0 0 0 575.8987569504519 0 0 0 214.7817043356284 0 0 0 0 0 0 0 0 0 0 0 0 0 975.7033256375122 0 0 0 0 0 0 222.1238750349561 860.9967389599171 111.3568660709146 0 0 0 0 0 0 0 0 0 0 0 0 0 0 0 0 23.06033334936937 0 0 0 0 0 0 0 0 1:0.121569 2:0.262745 3:0.054902 22:0.933333 27:0.345098 28:0.0784314 33:0.0313725 36:0.0627451 41:0.0156863 46:0.0784314 47:0.0156863 56:0.25098 58:0.117647 61:0.262745 64:0.0235294 66:0.65098 68:0.0117647 69:0.0117647 71:0.0431373 81:0.713725 86:0.109804 93:0.0313725 97:0.0627451 98:0.776471 102:0.054902 121:0.368627 122:0.152941 123:0.0627451 127:0.133333 133:0.133333 140:0.423529 146:0.517647 155:0.054902 158:0.25098 160:1 163:1 165:0.403922 168:0.478431 176:0.356863 177:0.415686 180:0.0941176 193:0.717647 197:0.0745098 
0 0 0 0 0 0 0 0 0 0 0 195.9159264956926 0 35.88155328327928 62.08377854037806 726.7904682428791 1018.335299316562 0 0 0 87.21990902528449 402.9974848770436 645.4113415378356 1697.564135862166 361.3784438030836 1.029483102042513 511.7803319988661 0 0 2048 22.44970302266111 66.64602902037667 0 0 0 0 0 0 347.0380074040071 0 0 0 0 0 0 0 0 1215.635702113269 1422.129857456231 0 434.9947852295224 597.7979252285238 0 0 0 0 0 0 0 0 0 0 0 0 1:0.0980392 2:0.14902 3:0.133333 22:0.14902 23:0.239216 28:0.0784314 34:0.0627451 41:0.0313725 46:0.827451 56:0.0313725 59:0.607843 60:0.0235294 64:0.662745 65:0.0117647 66:0.0117647 69:0.662745 76:0.764706 98:0.141176 101:0.0313725 102:0.14902 121:0.105882 122:0.14902 123:0.0980392 128:0.827451 133:0.0156863 140:0.25098 146:0.329412 151:0.0117647 155:0.607843 159:0.0117647 160:0.662745 164:0.0235294 165:0.447059 169:0.0117647 173:0.239216 176:0.380392 180:0.0196078 198:0.709804 
813.093386397211 842.5128183091286 1432.893550544372 346.5322138438365 1077.479132141524 0 501.7906247306636 1644.149432452461 2048 875.2519374792162 1844.19314185089 2048 2048 974.9941596110908 606.4888899441218 2048 550.7636594697817 578.0138517792685 1435.361721479235 353.3900752587132 1113.253458562302 86.05730026801717 1216.988106761688 1630.834489477545 1289.028888623177 1622.238767570242 617.4748397712152 1564.286596428985 515.1661816562428 2048 516.7136635085587 113.1419468232512 297.443270674491 346.323756699553 530.1386508670433 1406.257962281588 1366.885910090303 0 989.3499436680859 0 1130.003556710182 2048 920.5048398323838 725.615680495473 1204.992232940592 625.0836670681122 715.7346447157598 0 1789.719928587181 2048 553.3350664563154 1037.562041245497 1157.714211656253 1663.995282466795 597.1553591531339 2048 649.602326717606 233.2242168493889 360.5569941721732 483.5367619009479 513.7324269734595 167.498922463222 842.8657830756244 973.9445693144179 1:0.0509804 2:0.14902 3:0.164706 21:0.00784314 22:0.494118 23:0.0588235 28:0.501961 46:0.231373 51:0.0431373 53:0.239216 56:0.65098 59:0.0235294 61:0.662745 64:0.0235294 66:0.662745 69:0.0235294 71:0.152941 73:0.0745098 76:0.27451 77:0.12549 98:0.454902 101:0.0588235 102:0.372549 121:0.0980392 122:0.14902 123:0.0509804 127:0.223529 128:0.0784314 133:0.0156863 146:0.333333 153:0.0431373 155:0.0235294 158:0.65098 160:0.0235294 163:0.662745 165:0.0235294 168:0.619608 173:0.0431373 176:0.443137 193:0.0627451 198:0.254902 
0 0 165.5924783093673 0 57.18176598677767 1379.57052206378 0 655.5110941069238 846.3680949573474 0 686.5160573318988 2048 0 0 0 2048 0 0 0 0 0 0 0 2048 0 1861.339306902955 0 0 0 0 0 0 0 0 0 2048 0 1441.954292171557 0 2048 0 2048 0 0 0 0 0 0 0 2048 0 0 0 1246.597680571824 0 0 0 0 0 0 0 0 0 0 1:0.0509804 2:0.14902 3:0.0980392 22:0.494118 28:0.321569 34:0.337255 41:0.247059 46:0.152941 56:0.262745 59:0.270588 61:0.0235294 64:0.662745 66:0.172549 69:0.466667 76:0.152941 81:0.105882 94:0.0627451 98:0.384314 102:0.494118 121:0.164706 122:0.14902 123:0.188235 128:0.152941 133:0.294118 140:0.337255 146:0.447059 155:0.466667 158:0.117647 160:0.662745 163:0.0235294 165:0.270588 168:0.262745 176:0.431373 180:0.0627451 193:0.105882 198:0.152941 
0 0 0 0 0 0 0 149.1079618863961 0 0 0 0 0 0 0 1430.975001528125 0 0 0 0 0 0 0 2048 0 1005.434313858925 0 0 0 190.4148065100159 0 0 0 0 0 0 0 0 498.5301079183899 0 0 113.3322552925687 0 0 0 0 0 3.404553492920968 392.7667496504491 1443.841537667803 0 0 0 0 0 613.271335677395 0 0 0 0 0 0 0 0 1:0.14902 2:0.14902 3:0.14902 21:0.0588235 22:0.372549 23:0.364706 29:0.52549 46:0.760784 47:0.34902 54:0.164706 56:0.196078 59:1 61:0.196078 64:1 66:0.196078 69:1 74:0.368627 76:0.411765 77:0.0156863 99:0.109804 101:0.239216 102:0.494118 103:0.239216 120:0.0313725 121:0.14902 122:0.14902 123:0.14902 124:0.12549 128:0.756863 145:0.427451 150:0.129412 153:0.0117647 155:1 158:0.196078 160:1 163:0.196078 165:1 168:0.196078 170:0.0745098 175:0.427451 197:0.141176 198:0.470588 
0 0 0 0 0 0 0 0 0 0 0 0 0 0 0 0 0 0 0 0 0 0 0 0 0 0 0 0 0 0 0 0 0 0 0 0 0 0 0 0 0 0 0 0 0 0 0 0 37.18499375905405 0 0 0 0 0 0 0 0 0 0 0 0 0 0 0 1:0.0509804 2:0.14902 3:0.133333 21:0.00784314 22:0.133333 23:0.0588235 28:0.27451 34:0.0745098 41:0.0196078 46:0.12549 47:0.0352941 51:0.0431373 56:0.619608 59:0.607843 61:0.662745 64:0.662745 66:0.65098 69:0.607843 71:0.207843 73:0.0117647 76:0.290196 81:0.0745098 94:0.0196078 98:0.380392 101:0.0588235 102:0.133333 103:0.00784314 121:0.105882 122:0.14902 123:0.0980392 127:0.0352941 128:0.219608 140:0.27451 146:0.380392 153:0.152941 155:0.466667 158:0.662745 160:0.662745 163:0.184314 165:0.466667 168:0.65098 173:0.0431373 176:0.439216 180:0.0627451 188:0.0156863 198:0.25098 
157.8657241137826 589.5034070351944 1657.709345062322 0 1044.882359488194 2048 76.1642774730982 1355.578396767203 1746.769435072679 0 487.7117481964094 2048 550.5853640216599 288.5367446328661 0 2048 0 75.82035523138512 411.6423254656748 0 0 0 0 2048 0 0 0 1843.270338331186 38.57925102461306 513.0333527092897 166.01646597707 0 58.19435200871752 244.0366132465348 373.5211674791432 174.9402436959025 0 2048 0 1215.046747224639 213.1872944221039 994.5843389223062 0 20.33589782514328 466.1552163121316 0 270.9244075326504 0 0 0 0 0 0 1016.801288063995 474.4594775817607 183.7813631288369 0 0 70.81732051716475 270.2439160100622 674.988965756918 604.5574743353957 148.0306869654088 161.0827648330013 1:0.188235 2:0.14902 3:0.172549 21:0.188235 22:0.14902 23:0.313725 28:0.490196 34:0.0745098 46:1 53:0.239216 55:0.0235294 59:0.129412 60:0.196078 64:0.196078 65:0.0235294 69:0.172549 71:0.0117647 76:0.792157 98:0.729412 101:0.156863 102:0.14902 103:0.0431373 121:0.2 122:0.14902 123:0.156863 128:1 140:0.0627451 146:0.65098 153:0.0117647 155:0.172549 159:0.0235294 160:0.196078 164:0.196078 165:0.129412 169:0.0235294 176:0.470588 198:0.717647 
0 0 0 0 0 0 0 0 0 0 532.8100747252282 1244.174447180932 2048 0 200.7985126579387 56.14009207990591 966.9543584536103 0 0 216.134536893986 0 689.4374183780254 560.8896737672964 2048 317.2983173406415 0 517.6692601090291 0 0 2048 0 659.1510268944423 0 0 0 486.620730207852 556.5825048250916 2048 0 1711.432409173913 0 0 357.9277489942271 0 0 0 0 1487.454916305155 2048 2048 819.7469710717642 594.5206944553616 231.1813582601039 0 0 2048 0 656.3526305667538 0 0 0 0 0 0 1:0.14902 2:0.14902 3:0.14902 22:0.0156863 29:0.760784 34:0.0627451 54:0.0745098 56:0.607843 59:0.619608 61:0.662745 64:0.662745 66:0.65098 69:0.65098 74:0.313725 81:0.0627451 94:0.0156863 99:0.411765 102:0.0156863 121:0.14902 122:0.14902 123:0.14902 145:0.635294 150:0.313725 155:1 158:0.65098 160:1 163:0.662745 165:1 168:0.607843 170:0.164706 175:0.345098 193:0.0745098 
0 0 0 0 0 0 0 0 0 0 0 0 705.7134526365569 0 0 0 0 0 0 0 0 0 0 0 0 17.24269162494365 0 0 0 0 0 104.5376626324764 0 0 0 0 0 0 0 0 0 0 0 0 0 0 0 0 0 865.341442115297 0 0 0 0 0 0 0 0 0 0 0 0 0 0 1:0.164706 2:0.14902 3:0.164706 22:0.133333 28:0.458824 34:0.364706 41:0.0627451 47:0.0156863 56:0.172549 59:0.262745 61:0.662745 64:0.662745 66:0.184314 69:0.466667 81:0.0941176 94:0.0627451 98:0.439216 102:0.0980392 121:0.133333 122:0.14902 123:0.0509804 127:0.0745098 133:0.0196078 140:0.698039 145:0.0196078 146:0.282353 150:0.0117647 155:0.478431 158:0.129412 160:1 163:0.65098 165:0.337255 168:0.0666667 176:0.227451 180:0.301961 193:0.133333 
0 0 0 0 0 0 0 0 0 0 0 1105.72604160528 0 0 0 941.8643930921838 0 0 0 0 0 0 0 290.4529607566929 0 492.6039857892717 0 0 0 0 0 0 0 0 0 2048 0 725.4600390545282 0 398.2686461008691 0 0 0 0 0 0 0 0 0 0 0 0 0 0 0 0 0 0 0 0 0 0 0 0 1:0.12549 2:0.133333 3:0.2 18:0.0313725 21:0.0431373 22:0.188235 28:0.364706 29:0.0313725 41:0.0627451 46:0.333333 56:0.313725 59:0.65098 61:0.270588 64:0.270588 66:0.0313725 68:0.0235294 77:0.25098 81:0.780392 86:0.109804 89:0.109804 93:0.0784314 97:0.0941176 98:0.141176 102:0.611765 103:0.00784314 121:0.380392 122:0.494118 128:0.443137 133:0.0627451 140:0.109804 145:0.0313725 146:0.333333 151:0.0431373 155:0.0117647 158:0.184314 160:0.533333 163:0.533333 165:0.933333 168:0.207843 176:0.458824 177:0.0784314 180:0.0313725 181:0.0156863 185:0.34902 188:0.34902 193:0.364706 197:0.109804 
0 0 0 0 0 0 0 0 0 0 0 0 0 0 0 0 0 0 0 0 0 0 0 0 0 0 0 0 0 0 0 0 0 0 0 0 0 0 0 0 0 0 0 0 0 0 0 0 0 1105.822588603595 0 0 0 0 0 0 0 0 0 0 0 0 0 0 1:0.188235 2:0.14902 3:0.2 21:0.00784314 22:0.760784 28:0.788235 34:0.364706 41:0.0196078 46:0.0980392 47:0.0196078 56:0.521569 59:0.117647 61:0.184314 64:0.662745 66:0.65098 69:0.262745 71:0.0117647 76:0.0313725 81:0.235294 86:0.0156863 94:0.109804 98:0.392157 102:0.709804 121:0.0980392 122:0.14902 123:0.188235 127:0.109804 128:0.0313725 133:0.109804 140:0.360784 146:0.329412 155:0.466667 158:0.619608 160:0.662745 163:0.662745 165:0.262745 168:0.521569 176:0.392157 180:0.0627451 193:0.235294 198:0.0313725 
1603.861907821712 1292.371960709903 716.3228228824745 1331.144169004278 1919.882923991218 2048 726.2702004332926 0 2048 619.6169327082374 0 145.7527729853059 513.3723634904022 1055.651567962644 1185.371807656349 0 809.4555629020846 1620.231420111755 1837.034536583379 821.0161393489548 1875.810229497912 1449.701493618325 1057.941122633665 2048 470.6514791634599 2048 519.8096215055468 1321.293295337098 1030.702729211033 2048 720.7599513648466 879.1592276943459 634.0912742353722 703.4785502483961 713.8967526035609 1253.618889011867 1906.258669506127 0 1524.722998352514 2048 983.8982548713374 344.9301021453901 1578.40722167579 1563.781703925245 1991.826169775779 1027.338082658083 2048 394.4517999576004 715.4816602317138 2048 1762.262439177858 1748.200947464502 1060.349853971309 645.4947418252052 2048 2048 1387.444117253378 1332.659669813729 686.7184142298656 825.4091075038854 782.2183707612282 188.5298499519205 1443.182537024954 1374.13408688274 1:0.0509804 2:0.0156863 3:0.101961 22:0.12549 28:0.396078 34:0.301961 47:0.0941176 51:0.0117647 53:0.0431373 56:0.0235294 59:0.172549 61:0.0235294 64:0.662745 66:0.0235294 69:0.262745 71:0.0117647 73:0.152941 76:0.0156863 94:0.109804 98:0.490196 121:0.164706 122:0.14902 123:0.188235 127:0.0352941 140:0.345098 146:0.52549 151:0.0745098 153:0.0117647 155:0.270588 158:0.0235294 160:0.662745 163:0.0235294 165:0.117647 168:0.0235294 171:0.0431373 176:0.396078 180:0.109804 197:0.0784314 
585.0599406109199 568.997128987677 109.6003430561862 881.2105224104346 420.4310171532723 642.5478046278241 698.5896085768811 395.5644233177494 680.3909147433932 793.4778864233496 209.2168923461821 680.6778710228174 856.5016363456851 530.214540444646 711.752549772438 300.2843728642266 130.1294355010781 692.313205376646 781.1049626416772 740.3073042587265 795.1569226464937 563.7586170123294 494.386166170191 277.4514731230689 965.1583638569683 735.278298969817 593.7818170514424 264.8086521047259 615.9634660709074 273.1968983097131 621.7001645211046 731.2956579335637 431.8230550582444 507.6948318276406 501.5946699524606 337.3850373854502 447.8467166574172 0 1344.615148996334 0 1128.2791931819 940.8634696646986 909.5134112561699 791.9192966709381 368.589354644475 623.0654880789173 638.097022342011 18.39879410620278 1473.568849936352 1458.130221138412 1296.992331482798 1306.540303311473 728.8089881937753 0 310.7130931067366 899.8726317550181 598.5008103600252 643.1811676694216 432.8948516007266 411.0374024168999 554.4806489118197 642.2147993708547 573.0098452903106 757.8357348387569 2:0.133333 3:0.133333 21:0.0313725 22:0.00784314 28:0.0784314 29:0.0156863 34:0.34902 46:0.443137 56:0.176471 59:0.262745 61:0.462745 64:0.0666667 66:0.133333 68:0.121569 71:0.0117647 73:0.0431373 77:0.639216 81:0.0941176 86:0.454902 89:0.0156863 91:0.0156863 93:0.298039 97:0.141176 98:0.0156863 102:0.207843 120:0.0627451 121:0.109804 122:0.109804 123:0.00784314 128:1 145:0.0156863 153:0.0117647 156:0.0235294 158:0.262745 160:0.270588 163:0.729412 165:0.662745 168:0.0313725 170:0.0666667 176:0.152941 177:0.0784314 181:0.0784314 183:0.105882 185:0.105882 188:0.352941 193:0.0627451 197:0.984314 
0 0 0 0 0 0 0 0 0 0 0 0 0 0 0 0 0 0 0 0 0 0 0 0 0 0 0 0 0 0 0 0 0 0 0 0 0 0 0 0 0 0 0 0 0 0 0 0 516.5124300846838 0 0 0 0 0 0 0 0 0 0 0 0 0 0 0 1:0.00784314 2:0.14902 3:0.0509804 22:0.00784314 28:0.752941 34:0.352941 41:0.105882 46:0.105882 51:0.054902 56:0.521569 59:0.262745 61:0.662745 64:0.662745 66:0.619608 69:0.466667 71:0.207843 73:0.0745098 76:0.2 81:0.419608 94:0.0745098 98:0.454902 102:0.14902 121:0.101961 122:0.0156863 123:0.0509804 128:0.0901961 133:0.12549 140:0.290196 146:0.380392 153:0.117647 155:0.466667 158:0.619608 160:0.662745 163:0.662745 165:0.447059 168:0.521569 171:0.0431373 173:0.054902 176:0.815686 180:0.0627451 193:0.231373 198:0.321569 
0 0 0 0 0 0 0 0 0 0 0 0 1710.346351784868 0 0 0 0 0 0 0 0 0 0 1411.895354978913 0 0 0 0 0 475.3270590414735 0 0 0 0 0 0 385.4515620560779 0 0 0 0 0 0 0 0 0 0 0 0 2048 0 0 0 0 0 0 0 0 0 0 0 0 0 0 1:0.0980392 2:0.14902 3:0.0980392 21:0.00784314 22:0.494118 23:0.00784314 28:0.329412 34:0.360784 41:0.0784314 46:0.345098 56:0.172549 59:0.262745 61:0.0235294 64:0.662745 66:0.129412 69:0.466667 71:0.0745098 76:0.431373 77:0.215686 94:0.0627451 98:0.431373 102:0.188235 103:0.0313725 121:0.0980392 122:0.14902 123:0.0509804 127:0.109804 128:0.254902 133:0.0627451 140:0.0627451 146:0.333333 150:0.0117647 153:0.0745098 155:0.65098 158:0.184314 160:0.662745 163:0.196078 165:0.607843 168:0.141176 176:0.141176 193:0.141176 197:0.0156863 198:0.141176 
0 0 0 0 0 0 0 0 0 0 0 0 0 0 0 0 0 0 0 0 0 0 0 0 0 0 0 0 0 0 0 0 0 0 0 0 0 0 0 0 0 0 0 0 0 0 0 659.7533696115303 0 2048 0 0 0 0 0 0 0 0 0 0 0 0 0 0 1:0.0980392 2:0.14902 3:0.133333 22:0.00784314 28:0.239216 29:0.0313725 34:0.364706 41:0.0627451 56:0.117647 59:0.729412 61:0.662745 64:1 66:0.172549 69:0.729412 81:0.301961 94:0.239216 98:0.458824 102:0.00784314 121:0.356863 122:0.14902 123:0.337255 127:0.109804 133:0.109804 140:0.411765 146:0.427451 150:0.0117647 155:0.737255 158:0.262745 160:1 163:0.662745 165:0.478431 168:0.117647 175:0.0196078 176:0.4 180:0.254902 193:0.164706 
0 0 0 0 0 0 0 0 0 0 0 0 0 0 0 0 0 0 0 0 0 0 0 1956.492988434887 0 1719.393497361486 0 0 0 0 0 0 0 0 0 0 0 0 0 0 0 1069.304992039338 0 0 0 0 0 0 0 0 0 0 0 0 0 0 0 0 0 0 0 0 0 0 1:0.0980392 2:0.14902 3:0.0980392 22:0.760784 23:0.0313725 28:0.329412 34:0.235294 41:0.0627451 46:0.156863 56:0.172549 59:0.466667 61:0.196078 64:0.662745 66:0.184314 69:0.607843 73:0.0431373 76:0.0784314 81:0.0784314 94:0.0156863 98:0.223529 101:0.0313725 102:0.709804 121:0.141176 122:0.14902 123:0.164706 127:0.109804 128:0.0313725 133:0.109804 140:0.541176 145:0.0313725 146:0.0627451 155:0.737255 158:0.619608 160:1 163:0.662745 165:0.533333 168:0.521569 171:0.0117647 176:0.141176 180:0.223529 193:0.239216 198:0.0784314 
-0 0 0 0 0 0 0 0 0 0 0 0 0 0 0 0 0 0 0 0 0 0 0 0 0 0 0 0 0 0 0 0 0 0 0 0 0 0 0 0 0 0 0 0 0 0 0 0 0 0 0 0 634.6406556998669 0 0 0 0 0 0 0 0 0 0 0 1:0.00784314 2:0.192157 3:0.14902 53:0.172549 58:0.196078 63:0.196078 68:0.196078 73:0.196078 81:0.54902 82:0.262745 106:0.392157 107:0.0431373 123:0.133333 156:0.129412 157:0.0235294 162:0.0235294 167:0.0235294 172:0.0235294 176:0.0196078 177:0.92549 
-0 921.0013852126577 0 0 272.6292691831488 0 0 0 0 0 0 95.03220137126903 0 1335.926900106497 0 0 0 0 0 0 0 0 0 0 0 0 0 38.52676067045285 0 107.4202109473263 0 0 0 0 3.190420966029674 0 0 0 0 0 0 428.2543270065169 0 0 0 0 0 0 0 0 0 0 0 0 0 0 0 0 0 0 0 0 0 0 1:0.478431 2:0.14902 20:0.0588235 21:0.760784 23:0.760784 24:0.0588235 47:0.0313725 52:0.172549 57:0.196078 62:0.196078 67:0.196078 72:0.0666667 74:0.0666667 76:0.0392157 101:0.00784314 105:0.0509804 120:0.0509804 121:0.14902 122:0.14902 123:0.14902 150:0.054902 151:0.0431373 157:0.0235294 162:0.0235294 167:0.0235294 170:0.403922 175:0.113725 176:0.6 
-2048 878.9302185278423 1517.082484651734 0 472.0050853833233 1932.150254331298 0 1933.452673888659 560.6152415186427 0 925.5145248532489 0 177.2662779466544 492.2321912655767 401.2464091469138 1949.226058025552 0 1415.88178872561 2048 616.234771543776 2048 0 0 2048 598.4692132517248 2048 0 1678.524652284988 0 597.2110774072339 0 0 13.32975524900258 0 0 0 0 1141.58223453333 684.1601586316634 403.2500237425778 0 1209.143879443831 1189.145645545051 462.1957951098709 2048 737.789340567018 2048 0 0 1782.307010712281 0 0 0 1071.372012361478 2048 320.4352414205679 0 303.0633703721229 0 0 0 1359.778033177837 0 1125.067121751415 1:0.2 2:0.141176 21:0.14902 23:0.101961 24:0.00784314 48:0.211765 52:0.0235294 57:0.0235294 62:0.0235294 67:0.0235294 73:0.0431373 76:0.0313725 101:0.0509804 105:0.00784314 121:0.14902 122:0.14902 123:0.14902 157:0.196078 162:0.196078 167:0.196078 172:0.0117647 176:0.65098 177:0.0156863 197:0.0784314 
-0 0 0 0 0 0 0 0 0 0 0 0 0 33.05785427787048 0 0 0 0 179.2085905096699 0 0 0 0 0 0 0 0 0 188.8571882993791 0 0 0 0 0 0 0 0 0 0 0 0 0 0 0 1302.245883429871 0 0 0 0 0 0 0 0 0 0 0 0 0 0 0 0 0 0 0 1:0.0235294 2:0.694118 3:0.92549 53:0.207843 58:0.662745 63:0.662745 68:0.662745 73:0.65098 106:0.133333 122:0.133333 123:0.0980392 132:0.0313725 152:0.239216 157:0.607843 162:0.662745 167:0.662745 172:0.607843 176:0.117647 177:0.411765 
-0 0 0 0 364.4598871259168 52.002175780034 2048 0 139.4144467774264 144.2712639927481 0 0 0 0 0 0 0 1748.97353247111 2048 322.6748772172882 0 104.6762527749992 0 0 0 0 0 0 175.2295078869779 0 0 0 933.3107341385801 792.4532060831938 1830.417921882428 124.0981526896233 0 0 0 0 1079.054202403448 0 0 2048 950.6986930867413 134.5088602057807 2048 0 0 0 15.75861094953411 0 960.3390202845035 0 1262.718976539426 321.9081122907373 288.165268720394 129.0426652970723 718.5171519270508 780.6529090865731 884.3569232635122 756.183483937189 1240.670699862086 747.5829704989661 1:0.156863 2:0.364706 3:0.14902 53:0.0235294 58:0.788235 63:0.0588235 67:0.0588235 72:0.482353 78:0.109804 83:0.509804 88:0.0431373 92:0.243137 97:0.843137 101:0.00784314 121:0.14902 122:0.00784314 151:0.341176 157:0.129412 161:0.0352941 166:1 171:0.0588235 176:0.0235294 177:0.364706 182:0.431373 186:0.0235294 191:0.113725 196:0.25098 
-0 0 0 0 0 0 0 0 0 0 0 0 0 0 0 0 0 0 1308.593022322964 0 0 0 0 0 0 0 0 0 0 0 90.97721945288085 66.37864414497612 0 0 0 0 0 0 0 0 0 0 0 0 574.9726726647713 0 0 0 0 0 0 0 0 0 0 0 0 0 0 0 0 0 0 1012.51205437206 1:0.454902 2:0.172549 3:0.0980392 28:0.411765 53:0.313725 58:1 63:1 68:1 73:1 76:0.0313725 78:1 101:0.0509804 122:0.133333 123:0.0509804 127:0.0313725 151:0.0666667 157:0.662745 162:0.662745 167:0.662745 172:0.607843 176:0.0196078 177:0.235294 
-0 0 0 0 0 0 0 0 0 0 0 0 0 0 0 0 0 2048 530.5280627471363 0 0 0 0 0 0 0 0 0 0 0 0 0 0 0 0 0 0 0 0 0 0 0 0 2048 765.9017695366882 0 2048 0 0 0 0 0 0 0 0 332.0735086822622 0 0 0 0 0 0 0 0 1:0.309804 2:0.141176 21:0.768627 23:0.466667 48:0.203922 53:0.0235294 58:0.0235294 63:0.0235294 67:0.0235294 73:0.0117647 81:0.0313725 106:0.133333 121:0.14902 122:0.14902 123:0.14902 157:0.196078 162:0.0235294 167:0.0235294 170:0.0117647 176:0.435294 177:0.0196078 
-161.8918469127634 936.5617132729197 947.3793075906311 0 1124.778142762383 0 2048 564.5844122924904 1026.846155619706 0 803.4360840362045 1237.099143586728 1706.759364913677 220.0707069800203 228.8709943185531 791.4206923736009 710.8310701274407 2048 2048 113.1603884155011 2048 0 6.062044036015134 559.9283223119704 0 58.69621006011787 124.6063221091302 924.125579920089 2048 1780.381134662734 0 0 0 0 1600.223652905034 503.4477609105791 264.1407262585128 810.1048875136033 630.2344302205771 1685.03940750671 0 368.4611885460185 0 2048 714.1375401301443 0 2048 0 0 1327.580315352974 0 0 0 502.9708072554783 668.3823500251066 1535.834934258932 0 1.419761014873956 230.5284208192641 0 2048 170.4926519608592 0 2048 1:0.462745 2:0.14902 21:0.356863 23:0.454902 48:0.0470588 52:0.0235294 57:0.0235294 62:0.0235294 67:0.0235294 72:0.0117647 100:0.0431373 101:0.494118 120:0.00784314 121:0.14902 122:0.14902 123:0.14902 150:0.117647 157:0.0235294 162:0.0235294 167:0.0235294 172:0.0117647 176:0.0235294 196:0.317647 197:0.0235294 
-0 0 0 0 0 0 0 0 0 0 0 1726.857189154575 0 0 0 0 0 0 1991.572294720327 0 0 0 0 451.5516670312728 0 1241.110019365766 0 0 0 0 0 0 0 0 0 0 0 0 0 0 0 0 0 0 1223.948913147469 0 0 0 0 0 0 0 0 0 0 0 0 0 0 0 0 0 0 0 1:0.305882 2:0.14902 21:0.14902 23:0.164706 24:0.00784314 48:0.235294 53:0.0235294 58:0.0235294 63:0.0235294 68:0.0235294 73:0.0117647 76:0.0196078 81:0.0392157 101:0.00784314 105:0.00784314 106:0.00784314 121:0.14902 122:0.14902 123:0.14902 152:0.0117647 157:0.196078 162:0.196078 167:0.196078 172:0.0117647 176:0.666667 197:0.0784314 
-584.5899010220965 80.31349750461347 86.76175809368813 0 0 1007.03371072695 0 704.1244753800212 935.9501154337877 0 0 1744.577971589461 0 0 0 0 175.891205198662 1495.073898628477 0 0 1585.946437322078 643.4535424439242 0 0 0 0 0 1274.233763307249 0 0 447.2652013368314 56.99490293700503 126.0442747500186 1194.33389417747 0 1596.325151733799 0 1365.059329164647 0 651.2738437422316 2048 530.0048040811884 0 2048 0 0 2040.076116525408 567.9782938441093 388.5488375232971 147.1637541248257 301.2808192504773 699.2162984745909 2048 1764.390353458334 2048 0 1253.491759767451 0 0 1149.71773395374 320.3870539640841 0 2048 0 1:0.34902 2:0.14902 21:0.133333 23:0.14902 52:0.0235294 57:0.0235294 62:0.0235294 67:0.0235294 73:0.172549 106:0.0980392 121:0.14902 122:0.14902 123:0.133333 131:0.117647 156:0.172549 161:0.196078 166:0.196078 171:0.0235294 176:0.788235 
-0 0 0 0 0 0 0 0 719.2957063180816 0 0 0 0 0 0 0 0 1985.98072582751 1126.160963068412 0 353.7662814045576 0 0 0 0 381.6396928566596 0 0 0 23.66774570958488 0 0 0 0 0 0 0 79.09752113457337 0 0 0 0 0 2048 0 293.3465837954174 2048 638.5499320818914 915.6340564714083 0 0 0 1528.480220479833 0 0 45.97866180175185 0 0 0 0 0 12.21992153036859 0 0 0:0.172549 1:0.541176 2:0.188235 20:0.054902 21:0.333333 23:0.368627 24:0.00784314 48:0.403922 53:0.0117647 57:0.0235294 62:0.0235294 67:0.0235294 105:0.00784314 106:0.0156863 120:0.0980392 121:0.14902 122:0.14902 123:0.14902 150:0.313725 156:0.0235294 161:0.0235294 166:0.0235294 171:0.0117647 176:0.0196078 177:0.211765 196:0.596078 
-0 0 207.7209712308616 62.23154829844202 0 0 0 0 0 0 0 0 0 0 0 0 0 48.22922434219176 0 0 0 0 0 0 0 0 0 0 884.2755868309968 0 0 109.3971941023807 0 0 0 0 0 0 0 0 0 0 0 0 0 0 0 0 0 0 0 0 0 0 0 0 0 0 0 0 0 0 0 0 1:0.0509804 2:0.643137 3:0.14902 54:0.0235294 59:0.0235294 64:0.0235294 69:0.0235294 74:0.0235294 106:0.470588 122:0.133333 123:0.14902 131:0.0784314 132:0.0980392 157:0.054902 162:0.662745 167:0.662745 172:0.607843 176:0.12549 177:0.2 
-0 0 0 0 0 0 0 0 0 0 0 0 0 98.4517273584166 247.9715704529901 0 0 0 0 0 0 0 0 0 0 154.3100415657173 0 0 2048 0 0 0 0 0 0 0 705.8633019436407 0 0 0 360.1357529302475 0 0 157.9807600023915 0 0 412.7249506714685 184.3036577408156 2.856509179095086 0 0 33.7549169683528 0 0 102.9821024221913 0 0 0 0 0 0 0 0 0 1:0.2 2:0.133333 21:0.14902 22:0.0156863 23:0.14902 24:0.00784314 47:0.0235294 52:0.607843 57:0.662745 62:0.662745 67:0.662745 72:0.607843 76:0.411765 101:0.188235 120:0.00784314 121:0.14902 122:0.14902 123:0.14902 127:0.0235294 150:0.0117647 152:0.607843 157:0.662745 162:0.662745 167:0.662745 172:0.447059 176:0.470588 197:0.262745 
-0 786.8519515965658 412.7533768449873 496.2621662054221 594.2550872622746 0 741.8978348052267 195.1173827177407 0 812.8192778847139 471.9569735137728 0 390.3403604894356 842.2956939441502 902.988987289173 7.495251357118567 447.9882494258799 2048 8.398211386950907 741.179226279962 2048 958.7145551708001 779.8154505931183 110.351801596653 1292.492795735878 143.8191782870788 979.2051229386451 39.16325698343052 2048 410.9486425521008 1120.358195712915 762.1937549106156 713.9780771763955 1901.813177264211 778.8541844499159 0 1440.304001818555 0 15.28289813316166 0 2048 160.1844020550174 1975.682181221873 2048 1304.135520398211 2048 2048 0.5145239563668338 0 177.1560634537976 1840.76362903472 0 2048 33.21686940947147 2048 24.48211862056213 1028.441118695889 545.6578339522806 651.1409260664092 2048 527.7369772059653 0 2048 673.2548473266876 1:0.462745 2:0.14902 20:0.156863 21:0.239216 23:0.694118 48:0.203922 53:0.0235294 58:0.0235294 63:0.0235294 68:0.0235294 73:0.0117647 100:0.00784314 101:0.00784314 120:0.0980392 121:0.14902 122:0.14902 123:0.14902 126:0.0313725 150:0.447059 156:0.662745 161:0.662745 166:0.662745 170:0.239216 175:0.0823529 176:0.0196078 195:0.0196078 196:0.541176 
-0 341.0957707142467 39.81750187820214 565.1370884329444 495.9401493241767 0 1758.905451085218 0 285.3129863105607 541.6265025237143 85.06997458450283 25.22728403074493 92.60482731463301 170.0525572524058 83.7880202720612 59.51852204340941 782.2555004018933 1486.212644706324 2048 801.7848303258625 0 299.8130644523164 889.814378597425 0 36.5737068494467 694.162172336851 353.3055118518471 405.0818954631102 1790.750421880454 622.0084176184374 1012.310020469881 664.5756098161224 363.1171798418581 316.0538130604213 889.9726609276902 87.12349527074407 0 11.06551005876695 487.2179242870895 120.2994994100594 46.8527732763262 393.0692420888747 339.7889596811635 1376.399404867595 2048 1034.020575639166 2048 0 0 0 141.4868933026069 605.8521282468774 0 233.1418581980327 83.45360792334172 339.0443473090047 1691.857939892397 694.7008398549328 977.1083288260137 1029.73013506066 1954.838921381373 713.6191925439617 330.5569482386988 1752.325376800365 2:0.356863 3:0.14902 4:0.0980392 20:0.0431373 21:0.552941 23:0.0588235 24:0.305882 48:0.647059 49:0.117647 54:0.407843 59:0.0313725 63:0.0666667 68:0.615686 73:0.317647 74:0.0784314 79:0.603922 88:0.184314 93:0.184314 101:0.00784314 102:0.0980392 120:0.0980392 121:0.14902 122:0.14902 123:0.14902 124:0.0509804 127:0.117647 151:0.121569 157:0.231373 162:0.627451 167:0.0666667 177:0.0901961 182:0.25098 187:0.160784 192:0.160784 195:0.317647 196:0.341176 
-227.8797307561802 138.4176727300444 0 0 74.2460287506055 230.3999152836284 0 124.3705760267895 0 89.06994258762025 362.6331629487555 0 443.4181637679742 0 0 247.213248304062 0 49.30011563870212 546.735099199851 0 0 0 0 169.6394674439104 0 87.6434464815696 0 0 0 0 0 0 0 0 641.0492646844343 0 0 166.9019754850794 0 288.6997506774828 0 115.9787920360555 0 127.1720689551119 833.5500258610846 0 394.7043019779007 246.5248435939003 0 127.8441492711537 0 0 0 106.2686048213322 0 86.15890570784073 0 12.03536480373748 0 0 0 838.6016409435759 0 0 1:0.0117647 2:1 3:0.25098 21:0.65098 23:0.607843 48:0.117647 53:0.564706 58:0.533333 63:0.270588 68:0.0235294 74:0.0117647 78:0.203922 83:0.411765 88:0.203922 101:0.0666667 102:0.129412 120:0.0745098 121:1 122:1 123:1 127:0.117647 151:0.152941 157:0.184314 162:0.933333 167:0.564706 176:0.160784 178:0.160784 182:0.0901961 187:0.0901961 192:0.25098 
-0 0 0 0 1316.262829162279 0 0 0 0 0 0 0 105.8574121638479 0 61.08517160490756 0 0 0 0 0 1453.655564152104 0 0 0 196.4104996847044 0 0 0 0 0 0 0 0 0 0 0 0 0 0 0 0 0 0 385.8364249245587 0 0 632.1362032512786 0 657.8955880371775 0 0 0 1467.464358764642 0 0 0 0 0 0 0 0 0 0 0 0:0.00784314 1:0.843137 2:0.423529 20:0.0470588 21:0.596078 23:0.54902 24:0.188235 48:0.117647 53:0.0235294 58:0.0235294 63:0.0235294 68:0.0235294 73:0.0117647 74:0.0431373 100:0.00784314 101:0.14902 120:0.0509804 121:0.14902 122:0.14902 123:0.14902 124:0.00784314 150:0.117647 157:0.0235294 162:0.0235294 167:0.0235294 170:0.152941 172:0.0117647 176:0.0901961 177:0.0901961 197:0.0235294 
-268.7859520508079 0 0 0 0 0 0 0 0 0 0 0 28.51008062854892 0 182.631921289162 0 52.85872881661985 0 0 0 0 0 122.6590655454736 5.902258399573083 0 511.7963245393364 0 0 0 0 0 118.6641163055265 182.2996922189001 0 0 234.6609299590293 0 58.50394051866476 312.6857710362194 0 0 386.8563458451627 0 0 0 0 0 0 161.690482156381 449.96802454348 392.430086520802 1242.662636860166 0 336.8556704146841 0 0 0 0 167.2023787614221 0 0 14.76613193433555 0 0 1:0.188235 2:0.105882 3:0.133333 53:0.607843 58:0.662745 63:0.662745 68:0.662745 73:0.65098 77:0.447059 81:0.0196078 101:0.00784314 102:0.54902 106:0.00784314 123:0.117647 151:0.0117647 153:0.129412 158:0.196078 163:0.196078 168:0.196078 173:0.172549 176:0.419608 177:0.380392 
